%YAML:1.0
---
opencv_ml_svm:
   format: 3
   svmType: C_SVC
   kernel:
      type: CHI2
      gamma: 3.3750000000000002e-02
   C: 1.2500000000000000e+01
   term_criteria: { epsilon:1.0000000000000001e-01 }
   var_count: 500
   class_count: 2
   class_labels: !!opencv-matrix
      rows: 2
      cols: 1
      dt: i
      data: [ 0, 1 ]
   sv_total: 238
   support_vectors:
      - [ 0., 0., 0., 0., 0., 0., 0., 0., 2.42535621e-01, 0., 0., 0., 0.,
          0., 0., 0., 0., 0., 0., 0., 0., 0., 0., 0., 0., 0., 0., 0., 0.,
          0., 0., 0., 0., 0., 0., 0., 0., 0., 4.85071242e-01, 0., 0., 0.,
          0., 0., 0., 0., 0., 0., 0., 0., 0., 0., 0., 0., 0., 0., 0., 0.,
          0., 0., 0., 0., 2.42535621e-01, 0., 0., 0., 0., 0., 0., 0., 0.,
          0., 0., 0., 0., 0., 0., 0., 0., 0., 0., 0., 0., 0., 0., 0., 0.,
          0., 0., 0., 0., 0., 0., 0., 0., 0., 0., 0., 0., 0., 0., 0., 0.,
          0., 0., 0., 0., 0., 0., 0., 0., 0., 0., 0., 0., 0., 0., 0., 0.,
          0., 0., 0., 0., 0., 0., 0., 0., 0., 0., 0., 0., 0., 0., 0., 0.,
          0., 2.42535621e-01, 0., 0., 0., 0., 0., 0., 0., 0., 0., 0., 0.,
          0., 0., 0., 0., 0., 0., 0., 0., 0., 0., 0., 0., 0., 0., 0., 0.,
          0., 0., 0., 0., 0., 0., 0., 0., 0., 0., 0., 0., 0., 0., 0., 0.,
          0., 0., 0., 0., 0., 0., 0., 0., 0., 0., 0., 0., 0., 0., 0., 0.,
          0., 0., 0., 0., 2.42535621e-01, 0., 0., 0., 0., 0., 0., 0., 0.,
          0., 0., 0., 0., 0., 0., 0., 0., 0., 0., 0., 0., 0., 0., 0., 0.,
          0., 0., 0., 0., 0., 0., 0., 0., 0., 0., 0., 0., 0., 0., 0., 0.,
          0., 0., 0., 0., 0., 0., 0., 0., 0., 0., 0., 0., 0., 0., 0., 0.,
          0., 0., 0., 0., 0., 0., 0., 0., 0., 0., 0., 0., 0.,
          2.42535621e-01, 0., 0., 0., 0., 0., 0., 0., 0., 0., 0., 0., 0.,
          0., 0., 0., 0., 0., 0., 0., 0., 0., 0., 0., 0., 0., 0., 0., 0.,
          0., 0., 0., 0., 0., 0., 0., 0., 0., 0., 0., 0., 0., 0., 0., 0.,
          0., 0., 0., 0., 0., 0., 0., 0., 0., 4.85071242e-01, 0., 0., 0.,
          0., 0., 0., 0., 0., 0., 0., 0., 0., 0., 0., 0., 0., 0., 0., 0.,
          0., 0., 0., 0., 0., 0., 0., 0., 0., 0., 0., 0., 0.,
          2.42535621e-01, 0., 0., 0., 2.42535621e-01, 0., 0., 0., 0., 0.,
          0., 0., 0., 0., 0., 0., 0., 0., 0., 0., 0., 0., 0., 0., 0., 0.,
          0., 0., 0., 0., 0., 0., 0., 0., 0., 0., 0., 0., 0., 0., 0., 0.,
          0., 0., 0., 0., 0., 0., 0., 0., 0., 0., 2.42535621e-01, 0., 0.,
          0., 0., 0., 0., 0., 0., 0., 0., 0., 0., 0., 0., 0., 0., 0., 0.,
          0., 0., 0., 0., 0., 0., 0., 0., 0., 0., 0., 0., 0., 0., 0., 0.,
          0., 0., 0., 0., 0., 0., 0., 0., 0., 0., 0., 0., 0., 0., 0., 0.,
          0., 0., 0., 0., 0., 0., 0., 0., 0., 0., 0., 0., 0., 0., 0., 0.,
          0., 0., 0., 0., 0., 0., 0., 0., 0., 0., 0., 0., 0., 0., 0., 0.,
          0., 0., 0., 2.42535621e-01, 0., 0., 0., 0. ]
      - [ 2.02361159e-02, 0., 2.02361159e-02, 4.04722318e-02, 0.,
          4.04722318e-02, 2.02361159e-02, 6.07083477e-02, 1.01180583e-01,
          0., 8.09444636e-02, 2.02361159e-02, 0., 2.02361159e-02, 0.,
          4.04722318e-02, 0., 0., 0., 2.02361159e-02, 6.07083477e-02,
          8.09444636e-02, 6.07083477e-02, 4.04722318e-02, 6.07083477e-02,
          4.04722318e-02, 0., 2.02361159e-02, 4.04722318e-02, 0.,
          2.02361159e-02, 0., 0., 4.04722318e-02, 2.02361159e-02, 0.,
          2.02361159e-02, 2.02361159e-02, 4.04722318e-02, 2.02361159e-02,
          1.21416695e-01, 0., 4.04722318e-02, 6.07083477e-02,
          8.09444636e-02, 4.04722318e-02, 2.02361159e-02, 0., 0.,
          2.02361159e-02, 2.02361159e-02, 6.07083477e-02, 0.,
          2.02361159e-02, 0., 4.04722318e-02, 0., 0., 2.02361159e-02, 0.,
          2.02361159e-02, 2.02361159e-02, 4.04722318e-02, 8.09444636e-02,
          2.02361159e-02, 2.02361159e-02, 1.61888927e-01, 4.04722318e-02,
          6.07083477e-02, 6.07083477e-02, 0., 4.04722318e-02, 0.,
          4.04722318e-02, 4.04722318e-02, 0., 2.02361159e-02,
          1.01180583e-01, 4.04722318e-02, 0., 4.04722318e-02, 0.,
          2.02361159e-02, 2.02361159e-02, 2.02361159e-02, 0.,
          2.02361159e-02, 0., 4.04722318e-02, 2.02361159e-02, 0.,
          2.02361159e-02, 4.04722318e-02, 0., 0., 8.09444636e-02, 0.,
          2.02361159e-02, 2.02361159e-02, 0., 0., 6.07083477e-02, 0., 0.,
          6.07083477e-02, 4.04722318e-02, 2.02361159e-02, 2.02361159e-02,
          2.02361159e-02, 2.02361159e-02, 0., 4.04722318e-02, 0., 0.,
          1.41652822e-01, 0., 2.02361159e-02, 0., 2.02361159e-02,
          4.04722318e-02, 6.07083477e-02, 2.02361159e-02, 2.02361159e-02,
          0., 0., 2.02361159e-02, 0., 0., 0., 0., 0., 0., 0., 0., 0.,
          8.09444636e-02, 4.04722318e-02, 4.04722318e-02, 4.04722318e-02,
          1.01180583e-01, 2.02361159e-02, 2.02361159e-02, 2.02361159e-02,
          0., 2.02361159e-02, 4.04722318e-02, 0., 8.09444636e-02, 0.,
          4.04722318e-02, 2.02361159e-02, 0., 4.04722318e-02, 0.,
          6.07083477e-02, 2.02361159e-02, 0., 2.02361159e-02,
          2.02361159e-02, 6.07083477e-02, 2.02361159e-02, 4.04722318e-02,
          6.07083477e-02, 0., 2.02361159e-02, 0., 0., 2.02361159e-02,
          4.04722318e-02, 2.02361159e-02, 4.04722318e-02, 4.04722318e-02,
          0., 0., 2.02361159e-02, 0., 6.07083477e-02, 0., 0.,
          2.02361159e-02, 0., 2.02361159e-02, 0., 0., 6.07083477e-02,
          2.02361159e-02, 0., 2.02361159e-02, 4.04722318e-02,
          2.02361159e-02, 2.02361159e-02, 2.02361159e-02, 2.02361159e-02,
          2.02361159e-02, 6.07083477e-02, 0., 0., 2.02361159e-02,
          2.02361159e-02, 4.04722318e-02, 0., 0., 6.07083477e-02,
          4.04722318e-02, 0., 0., 0., 0., 2.02361159e-02, 0.,
          2.02361159e-02, 2.02361159e-02, 2.02361159e-02, 0., 0.,
          6.07083477e-02, 2.02361159e-02, 0., 0., 3.03541750e-01,
          4.04722318e-02, 2.02361159e-02, 2.02361159e-02, 0.,
          2.02361159e-02, 0., 0., 2.02361159e-02, 0., 1.21416695e-01, 0.,
          2.02361159e-02, 0., 0., 6.07083477e-02, 2.02361159e-02,
          4.04722318e-02, 0., 2.02361159e-02, 2.02361159e-02, 0., 0., 0.,
          2.02361159e-02, 2.02361159e-02, 0., 0., 4.04722318e-02, 0., 0.,
          4.04722318e-02, 0., 2.02361159e-02, 2.02361159e-02,
          2.02361159e-02, 6.07083477e-02, 0., 0., 0., 4.04722318e-02,
          4.04722318e-02, 0., 6.07083477e-02, 0., 8.09444636e-02, 0.,
          2.02361159e-02, 2.02361159e-02, 0., 4.04722318e-02,
          8.09444636e-02, 1.01180583e-01, 0., 0., 2.02361159e-02,
          4.04722318e-02, 0., 2.02361159e-02, 2.02361159e-02, 0.,
          2.02361159e-02, 0., 0., 0., 6.07083477e-02, 6.07083477e-02,
          2.02361159e-02, 0., 0., 0., 2.02361159e-02, 4.04722318e-02, 0.,
          0., 4.04722318e-02, 2.02361159e-02, 6.07083477e-02, 0.,
          2.02361159e-02, 8.09444636e-02, 0., 2.02361159e-02,
          6.07083477e-02, 0., 2.02361159e-02, 0., 8.09444636e-02,
          8.09444636e-02, 0., 0., 6.07083477e-02, 0., 0., 2.02361159e-02,
          1.21416695e-01, 4.04722318e-02, 8.09444636e-02, 2.02361159e-02,
          4.04722318e-02, 2.02361159e-02, 0., 2.02361159e-02,
          8.09444636e-02, 0., 8.09444636e-02, 0., 2.02361159e-02, 0.,
          4.04722318e-02, 0., 2.02361159e-02, 4.04722318e-02,
          2.02361159e-02, 6.07083477e-02, 4.04722318e-02, 6.07083477e-02,
          0., 2.02361159e-02, 6.07083477e-02, 0., 0., 4.04722318e-02,
          8.09444636e-02, 2.02361159e-02, 0., 0., 0., 0., 2.02361159e-02,
          0., 2.02361159e-02, 0., 0., 2.02361159e-02, 0., 0.,
          8.09444636e-02, 6.07083477e-02, 0., 0., 0., 0., 4.04722318e-02,
          0., 0., 2.02361159e-02, 2.02361159e-02, 2.02361159e-02,
          2.02361159e-02, 0., 0., 0., 2.02361159e-02, 2.02361159e-02,
          2.02361159e-02, 0., 4.04722318e-02, 0., 2.02361166e-01, 0., 0.,
          2.02361159e-02, 0., 2.02361159e-02, 0., 0., 0., 2.02361159e-02,
          1.01180583e-01, 6.07083477e-02, 2.02361159e-02, 0.,
          4.04722318e-02, 0., 0., 4.04722318e-02, 4.04722318e-02, 0.,
          2.02361159e-02, 2.02361159e-02, 8.09444636e-02, 0.,
          2.02361159e-02, 0., 0., 4.04722318e-02, 0., 4.04722318e-02,
          4.04722318e-02, 2.02361159e-02, 4.04722318e-02, 2.02361159e-02,
          0., 4.04722318e-02, 4.04722318e-02, 1.01180583e-01, 0.,
          4.04722318e-02, 2.02361159e-02, 2.02361159e-02, 2.02361159e-02,
          2.02361159e-02, 0., 0., 2.02361159e-02, 2.02361159e-02,
          4.04722318e-02, 0., 0., 4.04722318e-02, 4.04722318e-02,
          4.04722318e-02, 0., 0., 2.02361159e-02, 2.02361159e-02,
          2.02361159e-02, 1.21416695e-01, 4.04722318e-02, 4.04722318e-02,
          4.04722318e-02, 0., 2.02361159e-02, 2.02361159e-02,
          2.02361159e-02, 2.02361159e-02, 0., 4.04722318e-02,
          2.02361159e-02, 8.09444636e-02, 4.24958438e-01, 8.09444636e-02,
          2.02361159e-02, 0., 0., 0., 2.02361159e-02, 6.07083477e-02, 0.,
          0., 6.07083477e-02, 4.04722318e-02, 4.04722318e-02, 0.,
          4.04722318e-02, 0., 2.02361159e-02, 0., 4.04722318e-02, 0., 0.,
          1.82125047e-01, 4.04722318e-02, 2.02361159e-02, 0., 0.,
          1.21416695e-01, 4.04722318e-02, 2.02361159e-02, 4.04722318e-02,
          6.07083477e-02, 4.04722318e-02, 2.02361159e-02, 0.,
          6.07083477e-02, 2.02361159e-02, 6.07083477e-02, 2.02361159e-02,
          2.02361159e-02, 0., 4.04722318e-02, 6.07083477e-02,
          4.04722318e-02, 6.07083477e-02, 4.04722318e-02, 0.,
          4.04722318e-02, 2.02361159e-02, 0., 0. ]
      - [ 0., 0., 0., 6.68153092e-02, 0., 0., 0., 0., 0., 0.,
          6.68153092e-02, 0., 0., 6.68153092e-02, 0., 0., 0.,
          6.68153092e-02, 0., 0., 0., 0., 0., 1.33630618e-01, 0., 0., 0.,
          6.68153092e-02, 6.68153092e-02, 0., 0., 0., 0., 0., 0., 0., 0.,
          0., 0., 0., 0., 0., 6.68153092e-02, 0., 6.68153092e-02, 0.,
          6.68153092e-02, 0., 0., 0., 0., 0., 0., 0., 6.68153092e-02,
          6.68153092e-02, 0., 0., 0., 0., 0., 6.68153092e-02,
          6.68153092e-02, 0., 0., 0., 0., 0., 0., 0., 0., 0., 0., 0., 0.,
          6.68153092e-02, 6.68153092e-02, 0., 0., 6.68153092e-02, 0., 0.,
          1.33630618e-01, 0., 2.00445935e-01, 0., 0., 0., 0., 0., 0., 0.,
          0., 0., 0., 0., 0., 0., 1.33630618e-01, 6.68153092e-02, 0., 0.,
          0., 0., 0., 6.68153092e-02, 0., 0., 0., 6.68153092e-02, 0.,
          1.33630618e-01, 0., 0., 0., 0., 0., 0., 0., 0., 0., 0., 0.,
          6.68153092e-02, 0., 6.68153092e-02, 0., 0., 0., 0., 0., 0., 0.,
          0., 0., 2.00445935e-01, 0., 0., 0., 6.68153092e-02,
          1.33630618e-01, 0., 0., 0., 0., 6.68153092e-02, 0., 0.,
          6.68153092e-02, 0., 6.68153092e-02, 0., 0., 0., 0., 0., 0.,
          6.68153092e-02, 0., 0., 0., 0., 0., 0., 0., 0., 0., 0.,
          6.68153092e-02, 0., 6.68153092e-02, 6.68153092e-02, 0., 0., 0.,
          0., 6.68153092e-02, 0., 0., 0., 0., 0., 0., 0., 0., 0., 0.,
          6.68153092e-02, 6.68153092e-02, 0., 6.68153092e-02, 0., 0., 0.,
          0., 6.68153092e-02, 0., 6.68153092e-02, 0., 0., 6.68153092e-02,
          0., 0., 0., 0., 0., 0., 0., 6.68153092e-02, 0., 0., 0.,
          6.68153092e-02, 0., 0., 0., 0., 0., 1.33630618e-01, 0.,
          6.68153092e-02, 6.68153092e-02, 6.68153092e-02, 0., 0.,
          6.68153092e-02, 6.68153092e-02, 0., 0., 0., 0., 6.68153092e-02,
          0., 0., 0., 0., 0., 0., 6.68153092e-02, 0., 0., 0., 0., 0., 0.,
          0., 0., 6.68153092e-02, 0., 6.68153092e-02, 0., 0., 0., 0., 0.,
          6.68153092e-02, 0., 0., 6.68153092e-02, 0., 6.68153092e-02, 0.,
          0., 0., 1.33630618e-01, 0., 0., 0., 6.68153092e-02, 0., 0., 0.,
          0., 0., 0., 6.68153092e-02, 0., 0., 0., 0., 1.33630618e-01, 0.,
          0., 0., 0., 6.68153092e-02, 0., 0., 0., 0., 0., 6.68153092e-02,
          0., 2.00445935e-01, 0., 6.68153092e-02, 0., 0., 6.68153092e-02,
          0., 0., 0., 0., 0., 0., 0., 0., 6.68153092e-02, 0., 0., 0., 0.,
          0., 0., 0., 6.68153092e-02, 0., 6.68153092e-02, 1.33630618e-01,
          0., 0., 0., 0., 6.68153092e-02, 6.68153092e-02, 0., 0.,
          6.68153092e-02, 0., 0., 0., 0., 0., 0., 0., 0., 2.00445935e-01,
          0., 0., 6.68153092e-02, 0., 1.33630618e-01, 0., 1.33630618e-01,
          0., 1.33630618e-01, 0., 0., 6.68153092e-02, 0., 0., 0.,
          1.33630618e-01, 0., 0., 0., 0., 0., 6.68153092e-02, 0., 0.,
          6.68153092e-02, 0., 0., 0., 6.68153092e-02, 6.68153092e-02, 0.,
          0., 0., 0., 0., 0., 1.33630618e-01, 0., 0., 6.68153092e-02, 0.,
          0., 0., 6.68153092e-02, 1.33630618e-01, 1.33630618e-01,
          6.68153092e-02, 0., 0., 6.68153092e-02, 0., 0., 0., 0., 0., 0.,
          6.68153092e-02, 0., 0., 0., 0., 6.68153092e-02, 0., 0.,
          6.68153092e-02, 0., 0., 0., 0., 0., 0., 0., 0., 6.68153092e-02,
          6.68153092e-02, 0., 6.68153092e-02, 0., 0., 0., 6.68153092e-02,
          0., 0., 0., 0., 6.68153092e-02, 0., 0., 6.68153092e-02,
          1.33630618e-01, 0., 0., 0., 0., 0., 0., 0., 0., 0., 0., 0.,
          6.68153092e-02, 0., 0., 0., 0., 0., 0., 0., 0., 6.68153092e-02,
          0., 1.33630618e-01, 0., 0., 6.68153092e-02, 0., 0.,
          6.68153092e-02, 0., 0., 0., 0., 1.33630618e-01, 0., 0., 0.,
          1.33630618e-01, 0., 6.68153092e-02, 0., 6.68153092e-02, 0., 0.,
          0., 0., 6.68153092e-02, 0., 0., 6.68153092e-02, 0., 0., 0., 0.,
          0., 0., 0., 6.68153092e-02, 2.00445935e-01, 0., 1.33630618e-01,
          0., 6.68153092e-02, 1.33630618e-01, 0., 0., 0., 0., 0., 0., 0.,
          0., 0. ]
      - [ 1.25988156e-01, 1.25988156e-01, 0., 0., 0., 0., 0., 0., 0., 0.,
          0., 0., 0., 0., 0., 0., 0., 1.25988156e-01, 1.25988156e-01, 0.,
          0., 0., 0., 1.25988156e-01, 0., 0., 0., 0., 0., 0., 0.,
          1.25988156e-01, 0., 0., 1.25988156e-01, 0., 0., 0., 0.,
          1.25988156e-01, 0., 0., 0., 0., 0., 0., 0., 0., 0., 0., 0., 0.,
          0., 0., 0., 0., 0., 0., 0., 0., 0., 0., 0., 0., 0., 0., 0., 0.,
          0., 0., 0., 0., 0., 0., 0., 0., 0., 0., 1.25988156e-01, 0., 0.,
          0., 0., 0., 0., 0., 0., 0., 0., 1.25988156e-01, 0., 0.,
          1.25988156e-01, 0., 0., 0., 0., 0., 0., 0., 0., 0., 0.,
          1.25988156e-01, 0., 0., 0., 0., 0., 0., 0., 0., 0., 0., 0., 0.,
          0., 0., 0., 0., 0., 0., 0., 0., 0., 0., 0., 0., 0., 0., 0., 0.,
          0., 0., 0., 0., 1.25988156e-01, 1.25988156e-01, 0., 0., 0., 0.,
          0., 1.25988156e-01, 0., 1.25988156e-01, 0., 0., 0., 0., 0.,
          1.25988156e-01, 0., 0., 0., 0., 0., 0., 0., 0., 0., 0., 0., 0.,
          0., 0., 0., 1.25988156e-01, 0., 0., 0., 0., 1.25988156e-01, 0.,
          0., 0., 0., 0., 0., 0., 0., 0., 0., 0., 0., 0., 0., 0., 0., 0.,
          0., 0., 0., 1.25988156e-01, 0., 0., 0., 0., 0., 1.25988156e-01,
          1.25988156e-01, 0., 0., 0., 0., 0., 0., 0., 0., 0., 0., 0., 0.,
          0., 0., 0., 0., 0., 0., 0., 0., 0., 0., 0., 0., 0., 0., 0., 0.,
          0., 1.25988156e-01, 0., 0., 0., 0., 0., 0., 0., 1.25988156e-01,
          0., 0., 0., 0., 0., 0., 0., 2.51976311e-01, 0., 0., 0., 0., 0.,
          0., 0., 1.25988156e-01, 0., 2.51976311e-01, 0., 0., 0., 0., 0.,
          1.25988156e-01, 0., 0., 0., 0., 0., 0., 0., 0., 0., 0., 0., 0.,
          0., 0., 2.51976311e-01, 0., 0., 1.25988156e-01, 0., 0., 0., 0.,
          0., 0., 0., 1.25988156e-01, 0., 0., 0., 0., 1.25988156e-01, 0.,
          0., 0., 0., 0., 0., 0., 0., 0., 0., 0., 0., 0., 1.25988156e-01,
          0., 0., 0., 0., 0., 0., 0., 0., 0., 0., 0., 0., 0., 0., 0., 0.,
          0., 0., 0., 0., 0., 0., 0., 0., 0., 0., 0., 0., 0., 0.,
          2.51976311e-01, 1.25988156e-01, 0., 0., 0., 0., 0., 0., 0., 0.,
          0., 0., 0., 0., 1.25988156e-01, 1.25988156e-01, 0., 0., 0., 0.,
          0., 1.25988156e-01, 0., 0., 0., 0., 0., 0., 1.25988156e-01, 0.,
          0., 1.25988156e-01, 0., 0., 0., 0., 0., 0., 0., 0., 0., 0., 0.,
          1.25988156e-01, 0., 0., 0., 0., 0., 0., 0., 0., 0., 0., 0., 0.,
          0., 0., 0., 0., 0., 0., 0., 0., 0., 0., 0., 0., 0., 0.,
          1.25988156e-01, 0., 0., 1.25988156e-01, 0., 0., 0., 0., 0., 0.,
          0., 1.25988156e-01, 0., 0., 1.25988156e-01, 0., 0., 0., 0., 0.,
          0., 0., 0., 0., 0., 0., 0., 0., 0., 0., 0., 0., 0., 0., 0., 0.,
          0., 0., 0., 0., 0., 0., 0., 0., 0., 0., 0., 0., 0., 0.,
          1.25988156e-01, 0., 0., 0., 0., 1.25988156e-01, 0., 0., 0., 0.,
          0., 0., 1.25988156e-01, 0., 0., 0., 0., 0., 0., 0., 0., 0., 0.,
          1.25988156e-01, 0., 0., 0., 0., 0., 0., 0., 0., 0., 0., 0., 0.,
          1.25988156e-01, 0., 0., 0., 1.25988156e-01, 0. ]
      - [ 1.66666672e-01, 0., 0., 0., 0., 0., 0., 0., 0., 0., 0., 0., 0.,
          0., 0., 0., 0., 0., 0., 0., 0., 0., 0., 0., 1.66666672e-01, 0.,
          0., 0., 0., 0., 0., 0., 0., 0., 0., 0., 0., 0., 0., 0., 0., 0.,
          0., 1.66666672e-01, 0., 0., 0., 0., 0., 0., 1.66666672e-01, 0.,
          0., 0., 0., 0., 0., 1.66666672e-01, 0., 0., 0., 0., 0., 0., 0.,
          0., 0., 0., 0., 0., 0., 0., 0., 0., 0., 0., 0., 1.66666672e-01,
          1.66666672e-01, 0., 0., 0., 0., 0., 0., 0., 0., 0., 0., 0., 0.,
          0., 0., 0., 0., 1.66666672e-01, 0., 0., 0., 0., 0., 0., 0., 0.,
          0., 0., 0., 0., 0., 0., 0., 0., 0., 0., 1.66666672e-01, 0., 0.,
          0., 0., 0., 0., 0., 0., 0., 1.66666672e-01, 0., 0., 0., 0., 0.,
          1.66666672e-01, 0., 0., 0., 0., 0., 0., 0., 0., 0., 0., 0., 0.,
          0., 0., 0., 0., 0., 0., 0., 0., 0., 0., 1.66666672e-01, 0., 0.,
          0., 0., 0., 1.66666672e-01, 0., 0., 0., 0., 0., 0., 0., 0., 0.,
          0., 0., 0., 0., 0., 0., 0., 0., 0., 0., 0., 0., 0.,
          1.66666672e-01, 0., 0., 0., 1.66666672e-01, 0., 1.66666672e-01,
          0., 0., 0., 0., 0., 0., 0., 0., 0., 0., 0., 0., 0., 0., 0., 0.,
          0., 0., 0., 0., 0., 0., 0., 1.66666672e-01, 1.66666672e-01, 0.,
          0., 0., 0., 0., 0., 0., 0., 0., 0., 0., 0., 0., 0., 0., 0., 0.,
          0., 0., 0., 0., 0., 0., 0., 0., 0., 0., 0., 0., 0., 0., 0., 0.,
          0., 1.66666672e-01, 0., 0., 1.66666672e-01, 0., 0., 0., 0., 0.,
          0., 0., 0., 0., 0., 1.66666672e-01, 0., 0., 0., 0., 0., 0., 0.,
          0., 0., 0., 1.66666672e-01, 0., 0., 0., 0., 0., 0., 0., 0., 0.,
          0., 0., 0., 0., 0., 0., 0., 0., 1.66666672e-01, 0., 0., 0., 0.,
          0., 0., 0., 0., 0., 0., 0., 0., 0., 0., 0., 0., 0., 0.,
          3.33333343e-01, 0., 0., 0., 0., 0., 0., 0., 0., 0., 0., 0., 0.,
          0., 0., 0., 0., 0., 1.66666672e-01, 0., 0., 0., 0., 0., 0., 0.,
          0., 0., 0., 0., 0., 0., 0., 0., 0., 0., 0., 0., 0., 0., 0., 0.,
          0., 0., 0., 0., 0., 0., 0., 0., 0., 0., 0., 0., 0., 0., 0., 0.,
          0., 3.33333343e-01, 0., 0., 0., 0., 0., 0., 0., 0., 0., 0., 0.,
          1.66666672e-01, 0., 0., 0., 0., 0., 1.66666672e-01, 0., 0., 0.,
          0., 0., 0., 0., 0., 0., 0., 0., 0., 0., 0., 0., 0., 0., 0., 0.,
          0., 0., 0., 0., 0., 0., 0., 0., 0., 0., 0., 0., 0., 0., 0., 0.,
          0., 0., 0., 0., 0., 0., 1.66666672e-01, 0., 0., 0., 0., 0., 0.,
          0., 0., 0., 0., 0., 0., 0., 0., 0., 0., 0., 0., 0., 0., 0., 0.,
          0., 0., 0., 0., 0., 0., 0., 0., 0., 0., 0., 0., 0., 0., 0., 0.,
          0., 0., 0., 0., 0., 0., 0., 0., 0., 0., 0., 0., 0., 0., 0., 0.,
          0., 0., 0., 0., 0., 0., 1.66666672e-01, 0., 0., 0., 0., 0., 0.,
          0., 0., 0. ]
      - [ 0., 0., 1.30188912e-01, 0., 0., 0., 0., 0., 0., 0., 0.,
          1.30188912e-01, 0., 0., 0., 0., 0., 0., 1.30188912e-01, 0., 0.,
          0., 1.30188912e-01, 0., 0., 0., 0., 0., 0., 0., 0., 0., 0., 0.,
          0., 0., 0., 0., 0., 0., 0., 1.30188912e-01, 1.30188912e-01, 0.,
          0., 0., 0., 0., 0., 0., 0., 0., 0., 0., 0., 0., 0., 0.,
          1.30188912e-01, 0., 0., 0., 0., 0., 0., 0., 0., 0., 0., 0., 0.,
          0., 0., 0., 0., 0., 0., 0., 0., 0., 1.30188912e-01, 0., 0., 0.,
          0., 0., 0., 1.30188912e-01, 0., 0., 0., 0., 0., 0., 0., 0., 0.,
          0., 0., 0., 0., 0., 0., 0., 0., 0., 0., 0., 0., 0., 0., 0., 0.,
          0., 1.30188912e-01, 0., 0., 0., 0., 0., 0., 0., 0., 0., 0., 0.,
          0., 0., 0., 0., 0., 0., 0., 0., 0., 0., 0., 0., 0., 0., 0., 0.,
          1.30188912e-01, 0., 0., 0., 0., 1.30188912e-01, 0., 0., 0., 0.,
          0., 0., 0., 0., 0., 0., 2.60377824e-01, 1.30188912e-01,
          1.30188912e-01, 1.30188912e-01, 0., 0., 0., 0., 0., 0., 0., 0.,
          0., 0., 0., 0., 0., 0., 0., 0., 0., 0., 0., 0., 0., 0., 0., 0.,
          0., 0., 0., 0., 0., 1.30188912e-01, 0., 2.60377824e-01, 0., 0.,
          1.30188912e-01, 0., 0., 0., 0., 0., 0., 0., 0., 0.,
          1.30188912e-01, 0., 0., 0., 0., 0., 0., 0., 0., 0., 0., 0., 0.,
          0., 1.30188912e-01, 0., 0., 0., 0., 0., 0., 0., 0., 0., 0., 0.,
          0., 0., 0., 0., 0., 0., 0., 0., 0., 0., 1.30188912e-01, 0., 0.,
          0., 0., 0., 0., 1.30188912e-01, 0., 0., 0., 0., 0., 0., 0., 0.,
          0., 0., 0., 0., 0., 0., 0., 0., 0., 0., 0., 0., 0., 0., 0., 0.,
          0., 0., 0., 0., 0., 0., 0., 0., 0., 0., 0., 0., 0., 0., 0., 0.,
          0., 0., 0., 1.30188912e-01, 0., 1.30188912e-01, 0., 0., 0., 0.,
          0., 1.30188912e-01, 1.30188912e-01, 0., 0., 1.30188912e-01, 0.,
          0., 0., 0., 0., 0., 0., 0., 0., 0., 0., 1.30188912e-01,
          1.30188912e-01, 0., 0., 2.60377824e-01, 1.30188912e-01, 0., 0.,
          0., 0., 0., 0., 0., 0., 0., 0., 0., 0., 0., 0., 0., 0., 0., 0.,
          0., 0., 0., 0., 0., 0., 0., 0., 0., 0., 0., 2.60377824e-01, 0.,
          0., 0., 0., 0., 0., 0., 0., 0., 0., 0., 0., 0., 0., 0., 0., 0.,
          0., 0., 0., 0., 0., 2.60377824e-01, 0., 1.30188912e-01, 0., 0.,
          0., 0., 0., 0., 0., 0., 0., 0., 0., 1.30188912e-01, 0., 0., 0.,
          0., 1.30188912e-01, 0., 0., 0., 1.30188912e-01, 0., 0., 0., 0.,
          0., 0., 0., 0., 0., 0., 0., 0., 0., 0., 0., 0., 0., 0., 0., 0.,
          0., 0., 0., 0., 0., 0., 0., 0., 1.30188912e-01, 0., 0., 0., 0.,
          0., 0., 0., 0., 1.30188912e-01, 0., 0., 0., 1.30188912e-01, 0.,
          0., 0., 0., 0., 0., 0., 0., 0., 0., 0., 1.30188912e-01, 0., 0.,
          0., 0., 0., 0., 0., 0., 1.30188912e-01, 0., 0., 0., 0., 0., 0.,
          0., 0., 0., 0., 0., 0., 0., 0., 0., 0., 0., 0., 0., 0., 0., 0.,
          0., 0., 1.30188912e-01, 0., 0., 0., 0., 0., 0., 0., 0., 0., 0.,
          0., 0., 0. ]
      - [ 0., 8.94427225e-02, 8.94427225e-02, 8.94427225e-02, 0., 0., 0.,
          8.94427225e-02, 8.94427225e-02, 0., 8.94427225e-02, 0., 0., 0.,
          0., 0., 0., 0., 0., 0., 0., 0., 0., 0., 0., 0., 0.,
          8.94427225e-02, 0., 0., 0., 0., 0., 0., 0., 0., 8.94427225e-02,
          0., 0., 0., 0., 0., 0., 0., 0., 0., 0., 0., 0., 0.,
          8.94427225e-02, 0., 0., 0., 8.94427225e-02, 8.94427225e-02, 0.,
          0., 0., 0., 0., 0., 0., 0., 0., 0., 0., 0., 0., 0., 0., 0., 0.,
          0., 0., 0., 0., 0., 1.78885445e-01, 8.94427225e-02, 0., 0., 0.,
          8.94427225e-02, 0., 0., 0., 0., 0., 0., 8.94427225e-02, 0., 0.,
          0., 0., 0., 0., 8.94427225e-02, 0., 0., 0., 8.94427225e-02, 0.,
          0., 0., 0., 0., 8.94427225e-02, 0., 0., 0., 0., 0., 0., 0., 0.,
          0., 0., 0., 0., 0., 0., 0., 0., 0., 8.94427225e-02, 0., 0., 0.,
          0., 0., 0., 0., 0., 0., 0., 8.94427225e-02, 0., 0., 0., 0., 0.,
          8.94427225e-02, 0., 0., 0., 0., 0., 0., 0., 0., 0., 0., 0., 0.,
          0., 0., 0., 0., 8.94427225e-02, 0., 0., 0., 0., 8.94427225e-02,
          0., 0., 0., 0., 0., 0., 8.94427225e-02, 0., 0., 8.94427225e-02,
          0., 0., 0., 0., 0., 0., 0., 0., 0., 8.94427225e-02, 0., 0.,
          8.94427225e-02, 0., 0., 0., 0., 0., 0., 0., 0., 0., 0., 0., 0.,
          0., 0., 0., 0., 0., 8.94427225e-02, 0., 0., 0., 0., 0., 0., 0.,
          0., 0., 0., 8.94427225e-02, 0., 0., 0., 0., 0., 0., 0., 0.,
          8.94427225e-02, 0., 0., 0., 0., 0., 0., 0., 0., 8.94427225e-02,
          0., 0., 0., 0., 0., 0., 8.94427225e-02, 0., 0., 0., 0., 0., 0.,
          0., 0., 0., 0., 0., 0., 0., 0., 0., 0., 0., 0., 1.78885445e-01,
          0., 0., 0., 0., 8.94427225e-02, 8.94427225e-02, 0., 0.,
          8.94427225e-02, 0., 0., 8.94427225e-02, 0., 0., 0.,
          8.94427225e-02, 3.57770890e-01, 0., 0., 8.94427225e-02, 0., 0.,
          0., 8.94427225e-02, 0., 0., 0., 0., 0., 8.94427225e-02, 0., 0.,
          0., 0., 0., 0., 0., 0., 0., 0., 0., 0., 0., 0., 0., 0.,
          8.94427225e-02, 0., 0., 0., 0., 0., 8.94427225e-02, 0., 0., 0.,
          8.94427225e-02, 0., 0., 0., 8.94427225e-02, 0., 0., 0., 0., 0.,
          0., 8.94427225e-02, 0., 0., 8.94427225e-02, 0., 8.94427225e-02,
          8.94427225e-02, 0., 8.94427225e-02, 0., 8.94427225e-02,
          8.94427225e-02, 0., 0., 0., 0., 1.78885445e-01, 8.94427225e-02,
          0., 0., 0., 0., 0., 0., 0., 0., 0., 0., 0., 0., 0., 0., 0., 0.,
          0., 0., 0., 0., 0., 0., 0., 8.94427225e-02, 0., 0., 0., 0., 0.,
          0., 0., 0., 8.94427225e-02, 1.78885445e-01, 0., 0.,
          8.94427225e-02, 8.94427225e-02, 0., 8.94427225e-02, 0., 0., 0.,
          0., 0., 0., 8.94427225e-02, 0., 0., 8.94427225e-02, 0.,
          8.94427225e-02, 8.94427225e-02, 1.78885445e-01, 0.,
          8.94427225e-02, 0., 0., 0., 0., 0., 0., 0., 0., 0., 0., 0., 0.,
          0., 0., 0., 8.94427225e-02, 0., 0., 0., 0., 0., 0., 0., 0., 0.,
          0., 8.94427225e-02, 0., 0., 0., 0., 0., 0., 0., 0., 0., 0., 0.,
          0., 0., 0., 0., 0., 0., 0., 8.94427225e-02, 0., 0., 0., 0., 0.,
          0., 0., 0., 0., 0., 0., 0., 0., 0., 2.68328160e-01, 0.,
          1.78885445e-01, 0., 0., 8.94427225e-02, 0., 0., 8.94427225e-02,
          0., 0., 0., 1.78885445e-01, 0., 0., 0., 0., 0., 8.94427225e-02,
          0., 0., 0., 8.94427225e-02, 0., 0., 0., 0., 0., 0., 0., 0., 0.,
          0., 0., 1.78885445e-01, 0., 0., 0. ]
      - [ 0., 0., 7.93675780e-02, 0., 7.93675780e-02, 0., 3.96837890e-02,
          0., 0., 3.96837890e-02, 0., 3.96837890e-02, 0., 3.96837890e-02,
          0., 0., 3.96837890e-02, 1.19051367e-01, 3.96837890e-02, 0., 0.,
          0., 0., 7.93675780e-02, 0., 3.96837890e-02, 0., 3.96837890e-02,
          0., 1.58735156e-01, 0., 3.96837890e-02, 3.96837890e-02,
          7.93675780e-02, 3.96837890e-02, 0., 0., 3.96837890e-02, 0.,
          3.96837890e-02, 0., 3.96837890e-02, 0., 7.93675780e-02,
          3.96837890e-02, 3.96837890e-02, 3.96837890e-02, 3.96837890e-02,
          3.96837890e-02, 0., 0., 0., 1.58735156e-01, 0., 0., 0., 0., 0.,
          0., 0., 0., 7.93675780e-02, 0., 1.98418945e-01, 0., 0., 0.,
          3.96837890e-02, 7.93675780e-02, 3.96837890e-02, 0., 0., 0., 0.,
          0., 7.93675780e-02, 0., 7.93675780e-02, 0., 0., 0.,
          3.96837890e-02, 0., 7.93675780e-02, 0., 0., 0., 3.96837890e-02,
          0., 0., 0., 3.96837890e-02, 0., 0., 0., 1.19051367e-01, 0., 0.,
          0., 3.96837890e-02, 0., 7.93675780e-02, 0., 3.96837890e-02,
          3.96837890e-02, 0., 0., 3.96837890e-02, 0., 0., 0.,
          7.93675780e-02, 0., 3.96837890e-02, 0., 0., 0., 0., 0., 0., 0.,
          0., 0., 3.96837890e-02, 7.93675780e-02, 7.93675780e-02, 0., 0.,
          3.96837890e-02, 0., 0., 0., 3.96837890e-02, 0., 3.96837890e-02,
          3.96837890e-02, 0., 0., 3.96837890e-02, 0., 0., 3.96837890e-02,
          0., 0., 3.96837890e-02, 0., 3.96837890e-02, 0., 0., 0., 0., 0.,
          0., 3.96837890e-02, 7.93675780e-02, 0., 0., 7.93675780e-02, 0.,
          0., 0., 0., 0., 3.96837890e-02, 0., 7.93675780e-02, 0., 0., 0.,
          3.96837890e-02, 7.93675780e-02, 3.96837890e-02, 0.,
          3.96837890e-02, 0., 3.96837890e-02, 0., 0., 0., 0.,
          3.96837890e-02, 0., 3.96837890e-02, 3.96837890e-02, 0., 0.,
          3.96837890e-02, 3.96837890e-02, 3.96837890e-02, 0.,
          3.96837890e-02, 3.96837890e-02, 3.96837890e-02, 0.,
          3.96837890e-02, 7.93675780e-02, 3.96837890e-02, 3.96837890e-02,
          7.93675780e-02, 3.96837890e-02, 0., 0., 0., 3.96837890e-02, 0.,
          0., 3.96837890e-02, 0., 0., 0., 0., 0., 0., 0., 7.93675780e-02,
          3.96837890e-02, 3.96837890e-02, 0., 0., 0., 0., 7.93675780e-02,
          0., 0., 3.96837890e-02, 0., 3.96837890e-02, 3.96837890e-02, 0.,
          3.96837890e-02, 0., 3.96837890e-02, 0., 0., 1.19051367e-01, 0.,
          0., 0., 3.96837890e-02, 0., 3.96837890e-02, 0., 0.,
          3.96837890e-02, 3.96837890e-02, 0., 0., 0., 0., 0., 0., 0., 0.,
          0., 3.96837890e-02, 3.96837890e-02, 0., 0., 7.93675780e-02,
          7.93675780e-02, 3.96837890e-02, 0., 0., 3.96837890e-02, 0., 0.,
          7.93675780e-02, 7.93675780e-02, 3.96837890e-02, 0., 0.,
          1.19051367e-01, 0., 3.96837890e-02, 0., 0., 3.96837890e-02,
          1.19051367e-01, 3.96837890e-02, 3.96837890e-02, 0., 0., 0.,
          7.93675780e-02, 0., 3.96837890e-02, 3.96837890e-02,
          3.96837890e-02, 3.96837890e-02, 0., 0., 0., 0., 3.96837890e-02,
          1.58735156e-01, 3.96837890e-02, 0., 0., 0., 3.96837890e-02, 0.,
          0., 0., 3.96837890e-02, 0., 0., 0., 0., 0., 3.96837890e-02,
          1.98418945e-01, 0., 3.96837890e-02, 0., 3.96837890e-02,
          3.96837890e-02, 0., 0., 0., 3.96837890e-02, 0., 0., 0.,
          3.96837890e-02, 3.96837890e-02, 7.93675780e-02, 0.,
          3.96837890e-02, 0., 0., 0., 3.96837890e-02, 3.96837890e-02,
          7.93675780e-02, 3.96837890e-02, 0., 3.96837890e-02, 0.,
          7.93675780e-02, 0., 0., 3.96837890e-02, 0., 3.96837890e-02,
          1.19051367e-01, 1.19051367e-01, 0., 0., 1.58735156e-01, 0., 0.,
          0., 0., 0., 0., 3.96837890e-02, 0., 0., 0., 3.96837890e-02,
          1.19051367e-01, 0., 3.96837890e-02, 0., 0., 3.96837890e-02,
          1.58735156e-01, 3.96837890e-02, 3.96837890e-02, 0., 0.,
          7.93675780e-02, 0., 3.96837890e-02, 0., 0., 1.19051367e-01,
          7.93675780e-02, 7.93675780e-02, 3.96837890e-02, 0., 0.,
          7.93675780e-02, 7.93675780e-02, 3.96837890e-02, 7.93675780e-02,
          3.96837890e-02, 3.96837890e-02, 0., 0., 0., 3.96837890e-02, 0.,
          0., 0., 0., 0., 1.58735156e-01, 7.93675780e-02, 3.96837890e-02,
          0., 0., 0., 0., 0., 3.96837890e-02, 7.93675780e-02,
          7.93675780e-02, 0., 0., 0., 3.96837890e-02, 1.19051367e-01,
          3.96837890e-02, 3.96837890e-02, 7.93675780e-02, 0.,
          3.96837890e-02, 7.93675780e-02, 0., 0., 0., 0., 0., 0.,
          7.93675780e-02, 3.96837890e-02, 1.19051367e-01, 3.96837890e-02,
          3.96837890e-02, 0., 0., 0., 0., 0., 3.96837890e-02,
          1.58735156e-01, 0., 0., 0., 7.93675780e-02, 7.93675780e-02, 0.,
          3.96837890e-02, 0., 7.93675780e-02, 0., 7.93675780e-02,
          3.96837890e-02, 1.19051367e-01, 0., 7.93675780e-02, 0.,
          3.96837890e-02, 3.96837890e-02, 3.96837890e-02, 0., 0.,
          3.96837890e-02, 0., 3.96837890e-02, 0., 3.96837890e-02, 0., 0.,
          0., 0., 0., 3.96837890e-02, 3.96837890e-02, 0., 0., 0.,
          3.96837890e-02, 0., 7.93675780e-02, 0., 1.19051367e-01, 0., 0.,
          0., 7.93675780e-02, 0., 0., 7.93675780e-02, 3.96837890e-02, 0.,
          3.96837890e-02, 1.19051367e-01, 7.93675780e-02, 0., 0.,
          3.96837890e-02, 3.96837890e-02, 3.96837890e-02, 0.,
          7.93675780e-02, 0., 0., 0. ]
      - [ 0., 0., 8.98026526e-02, 0., 0., 0., 0., 8.98026526e-02,
          1.79605305e-01, 1.79605305e-01, 8.98026526e-02, 0., 0.,
          8.98026526e-02, 0., 0., 0., 1.79605305e-01, 0., 0., 0., 0., 0.,
          8.98026526e-02, 8.98026526e-02, 0., 0., 0., 0., 0., 0., 0., 0.,
          0., 0., 0., 0., 0., 0., 0., 0., 0., 8.98026526e-02, 0., 0.,
          8.98026526e-02, 0., 0., 0., 0., 2.69407958e-01, 0., 0., 0., 0.,
          8.98026526e-02, 0., 0., 0., 8.98026526e-02, 0., 0.,
          8.98026526e-02, 0., 0., 0., 0., 0., 0., 0., 0., 0., 0., 0., 0.,
          0., 0., 8.98026526e-02, 0., 0., 0., 0., 0., 0., 8.98026526e-02,
          0., 0., 0., 0., 0., 0., 0., 0., 0., 0., 0., 0., 0., 0., 0., 0.,
          0., 0., 0., 0., 0., 0., 0., 0., 0., 0., 0., 0., 0., 0., 0., 0.,
          0., 0., 0., 0., 0., 0., 8.98026526e-02, 0., 0., 0., 0., 0., 0.,
          0., 0., 0., 0., 0., 0., 0., 0., 0., 0., 0., 0., 0., 0., 0., 0.,
          0., 0., 0., 0., 0., 0., 2.69407958e-01, 0., 0., 0., 0., 0.,
          8.98026526e-02, 0., 8.98026526e-02, 0., 0., 8.98026526e-02, 0.,
          0., 0., 0., 1.79605305e-01, 0., 0., 0., 0., 0., 0., 0., 0., 0.,
          0., 0., 0., 0., 8.98026526e-02, 0., 0., 8.98026526e-02, 0.,
          2.69407958e-01, 8.98026526e-02, 0., 0., 0., 0., 0.,
          8.98026526e-02, 0., 0., 0., 0., 0., 8.98026526e-02, 0., 0., 0.,
          0., 0., 0., 0., 8.98026526e-02, 8.98026526e-02, 0., 0., 0., 0.,
          8.98026526e-02, 0., 0., 8.98026526e-02, 0., 0., 0., 0., 0., 0.,
          0., 0., 8.98026526e-02, 0., 0., 0., 0., 0., 0., 0., 0., 0., 0.,
          0., 0., 0., 0., 8.98026526e-02, 0., 0., 0., 0., 0., 0., 0., 0.,
          0., 0., 0., 0., 0., 0., 0., 8.98026526e-02, 0., 0., 0., 0.,
          1.79605305e-01, 0., 0., 0., 0., 0., 0., 0., 1.79605305e-01, 0.,
          8.98026526e-02, 0., 0., 0., 0., 0., 0., 0., 0., 0., 0., 0., 0.,
          0., 0., 0., 8.98026526e-02, 0., 8.98026526e-02, 0., 0.,
          8.98026526e-02, 0., 0., 0., 0., 0., 0., 0., 0., 0., 0., 0., 0.,
          0., 0., 0., 0., 0., 0., 0., 0., 0., 0., 0., 0., 2.69407958e-01,
          0., 0., 8.98026526e-02, 8.98026526e-02, 0., 0., 0., 0., 0.,
          1.79605305e-01, 0., 0., 0., 0., 0., 0., 0., 8.98026526e-02,
          8.98026526e-02, 0., 0., 0., 0., 0., 0., 0., 0., 0., 0., 0., 0.,
          8.98026526e-02, 0., 8.98026526e-02, 0., 0., 0., 8.98026526e-02,
          0., 0., 0., 0., 0., 0., 0., 0., 0., 0., 0., 0., 0., 0., 0., 0.,
          0., 0., 0., 0., 0., 0., 0., 0., 0., 0., 0., 0., 0., 0., 0., 0.,
          8.98026526e-02, 0., 0., 0., 0., 0., 0., 0., 0., 0., 0., 0., 0.,
          0., 0., 0., 0., 0., 0., 0., 8.98026526e-02, 0., 0., 0.,
          8.98026526e-02, 0., 0., 0., 0., 0., 0., 0., 0., 0., 0., 0., 0.,
          8.98026526e-02, 0., 0., 8.98026526e-02, 0., 0., 0.,
          8.98026526e-02, 0., 0., 0., 0., 0., 0., 0., 0., 8.98026526e-02,
          0., 0., 0., 0., 0., 8.98026526e-02, 0., 0., 8.98026526e-02,
          8.98026526e-02, 0., 0., 0., 8.98026526e-02, 0., 0., 0., 0.,
          8.98026526e-02, 0., 8.98026526e-02, 0., 0., 8.98026526e-02, 0.,
          0., 0., 0., 0., 0., 8.98026526e-02, 0., 0., 0., 0., 0., 0.,
          1.79605305e-01, 0., 0., 0., 0., 0., 8.98026526e-02, 0., 0., 0.,
          0., 0., 0., 0., 0., 0., 0., 0., 0., 0. ]
      - [ 3.98726128e-02, 3.98726128e-02, 3.98726128e-02, 0.,
          3.98726128e-02, 0., 0., 0., 1.59490451e-01, 0., 0., 0., 0., 0.,
          0., 3.98726128e-02, 0., 0., 0., 0., 0., 3.98726128e-02,
          2.79108286e-01, 0., 1.19617835e-01, 0., 7.97452256e-02, 0., 0.,
          0., 0., 7.97452256e-02, 0., 0., 3.98726128e-02, 0.,
          3.98726128e-02, 0., 0., 7.97452256e-02, 1.19617835e-01, 0., 0.,
          0., 0., 3.98726128e-02, 1.19617835e-01, 0., 0., 0., 0., 0.,
          3.98726128e-02, 3.98726128e-02, 3.98726128e-02, 0., 0., 0., 0.,
          0., 0., 0., 0., 1.99363053e-01, 7.97452256e-02, 0., 0., 0.,
          3.98726128e-02, 3.98726128e-02, 1.59490451e-01, 1.99363053e-01,
          0., 3.98726128e-02, 0., 0., 0., 0., 0., 0., 0., 1.19617835e-01,
          0., 3.98726128e-02, 3.98726128e-02, 0., 0., 3.98726128e-02, 0.,
          0., 0., 0., 0., 0., 7.97452256e-02, 1.19617835e-01, 0.,
          3.98726128e-02, 3.98726128e-02, 0., 0., 3.98726128e-02, 0.,
          1.19617835e-01, 0., 0., 7.97452256e-02, 7.97452256e-02, 0.,
          7.97452256e-02, 0., 0., 0., 7.97452256e-02, 3.98726128e-02, 0.,
          0., 0., 0., 0., 0., 0., 3.98726128e-02, 3.98726128e-02,
          3.98726128e-02, 0., 0., 0., 3.98726128e-02, 0., 0., 0.,
          3.98726128e-02, 0., 0., 0., 0., 0., 3.98726128e-02,
          3.98726128e-02, 0., 0., 0., 3.98726128e-02, 0., 0.,
          3.98726128e-02, 0., 3.98726128e-02, 3.98726128e-02, 0., 0., 0.,
          0., 0., 0., 3.98726128e-02, 0., 3.98726128e-02, 0., 0.,
          3.98726128e-02, 0., 0., 0., 0., 0., 0., 0., 3.98726128e-02, 0.,
          0., 0., 0., 0., 0., 0., 0., 0., 3.98726128e-02, 0.,
          3.98726128e-02, 7.97452256e-02, 0., 0., 0., 0., 1.19617835e-01,
          0., 0., 0., 0., 0., 0., 0., 3.98726128e-02, 0., 0., 0., 0., 0.,
          0., 0., 3.98726128e-02, 3.98726128e-02, 3.98726128e-02, 0.,
          3.98726128e-02, 0., 0., 3.98726128e-02, 0., 7.97452256e-02, 0.,
          0., 0., 1.19617835e-01, 3.98726128e-02, 3.98726128e-02, 0.,
          7.97452256e-02, 3.98726128e-02, 3.98726128e-02, 0., 0., 0., 0.,
          0., 0., 3.98726128e-02, 0., 0., 0., 0., 7.97452256e-02,
          3.98726128e-02, 1.19617835e-01, 0., 0., 0., 0., 7.97452256e-02,
          0., 3.98726128e-02, 0., 0., 3.98726128e-02, 0., 1.19617835e-01,
          0., 0., 3.98726128e-02, 0., 0., 0., 3.98726128e-02, 0.,
          7.97452256e-02, 3.98726128e-02, 7.97452256e-02, 0., 0., 0.,
          3.98726128e-02, 3.98726128e-02, 3.98726128e-02, 3.98726128e-02,
          0., 0., 0., 1.19617835e-01, 7.97452256e-02, 3.98726128e-02,
          3.98726128e-02, 3.98726128e-02, 3.98726128e-02, 0., 0., 0.,
          1.19617835e-01, 1.19617835e-01, 3.98726128e-02, 3.98726128e-02,
          3.98726128e-02, 0., 7.97452256e-02, 0., 3.98726128e-02, 0., 0.,
          0., 0., 0., 0., 3.98726128e-02, 0., 0., 0., 0., 3.98726128e-02,
          3.98726128e-02, 0., 1.59490451e-01, 0., 0., 0., 3.98726128e-02,
          7.97452256e-02, 0., 0., 0., 0., 0., 3.98726128e-02, 0.,
          3.98726128e-02, 3.98726128e-02, 0., 3.98726128e-02, 0., 0.,
          7.97452256e-02, 7.97452256e-02, 0., 0., 3.98726128e-02,
          7.97452256e-02, 0., 0., 0., 3.98726128e-02, 0., 3.98726128e-02,
          0., 0., 0., 0., 3.98726128e-02, 0., 1.19617835e-01, 0.,
          3.98726128e-02, 0., 0., 0., 3.98726128e-02, 0., 3.98726128e-02,
          7.97452256e-02, 0., 3.98726128e-02, 0., 0., 0., 0., 0., 0., 0.,
          0., 3.98726128e-02, 0., 0., 0., 3.98726128e-02, 0.,
          3.98726128e-02, 3.98726128e-02, 0., 0., 3.98726128e-02,
          3.98726128e-02, 1.19617835e-01, 1.19617835e-01, 3.98726128e-02,
          0., 0., 0., 3.98726128e-02, 0., 1.59490451e-01, 0., 0.,
          3.98726128e-02, 0., 3.98726128e-02, 0., 0., 3.98726128e-02,
          3.98726128e-02, 0., 0., 3.98726128e-02, 0., 0., 0., 0.,
          3.98726128e-02, 0., 7.97452256e-02, 0., 0., 1.99363053e-01, 0.,
          3.98726128e-02, 3.98726128e-02, 0., 3.98726128e-02, 0., 0., 0.,
          0., 0., 3.98726128e-02, 3.98726128e-02, 0., 3.98726128e-02, 0.,
          0., 0., 0., 3.98726128e-02, 0., 0., 0., 0., 0., 0., 0., 0.,
          3.98726128e-02, 7.97452256e-02, 0., 3.98726128e-02, 0., 0.,
          1.19617835e-01, 3.98726128e-02, 3.98726128e-02, 0., 0., 0., 0.,
          0., 3.98726128e-02, 0., 0., 3.98726128e-02, 0., 7.97452256e-02,
          3.98726128e-02, 3.98726128e-02, 7.97452256e-02, 0.,
          3.98726128e-02, 0., 7.97452256e-02, 3.98726128e-02, 0., 0., 0.,
          0., 3.98726128e-02, 7.97452256e-02, 7.97452256e-02,
          7.97452256e-02, 0., 3.98726128e-02, 0., 0., 0., 1.19617835e-01,
          7.97452256e-02, 0., 7.97452256e-02, 0., 0., 3.98726128e-02,
          3.98726128e-02, 0., 0., 0., 1.59490451e-01, 0., 0., 0.,
          3.98726128e-02, 3.98726128e-02, 0., 3.98726128e-02,
          3.98726128e-02, 0., 0., 0., 7.97452256e-02, 0., 0., 0.,
          7.97452256e-02, 0., 0. ]
      - [ 0., 0., 4.89702113e-02, 0., 0., 0., 0., 9.79404226e-02,
          9.79404226e-02, 1.46910638e-01, 0., 4.89702113e-02,
          4.89702113e-02, 0., 0., 0., 0., 0., 0., 0., 0., 4.89702113e-02,
          0., 4.89702113e-02, 4.89702113e-02, 0., 0., 4.89702113e-02, 0.,
          0., 0., 0., 0., 0., 1.46910638e-01, 9.79404226e-02, 0., 0.,
          9.79404226e-02, 1.95880845e-01, 0., 0., 0., 9.79404226e-02,
          4.89702113e-02, 4.89702113e-02, 4.89702113e-02, 0., 0., 0.,
          4.89702113e-02, 0., 0., 0., 0., 0., 0., 0., 0., 0.,
          9.79404226e-02, 0., 0., 0., 0., 4.89702113e-02, 9.79404226e-02,
          0., 4.89702113e-02, 0., 0., 4.89702113e-02, 0., 0., 0.,
          4.89702113e-02, 0., 0., 0., 0., 0., 4.89702113e-02, 0.,
          9.79404226e-02, 9.79404226e-02, 0., 0., 0., 0., 0., 0., 0.,
          4.89702113e-02, 0., 0., 0., 0., 0., 4.89702113e-02, 0., 0., 0.,
          0., 0., 0., 4.89702113e-02, 0., 0., 0., 0., 0., 4.89702113e-02,
          0., 0., 0., 0., 0., 0., 0., 0., 0., 0., 0., 0., 0., 0.,
          4.89702113e-02, 4.89702113e-02, 1.46910638e-01, 0., 0., 0.,
          4.89702113e-02, 0., 0., 9.79404226e-02, 1.46910638e-01, 0., 0.,
          0., 0., 0., 0., 0., 0., 0., 0., 0., 0., 0., 0., 0., 0.,
          4.89702113e-02, 4.89702113e-02, 4.89702113e-02, 0.,
          4.89702113e-02, 0., 0., 0., 4.89702113e-02, 4.89702113e-02, 0.,
          4.89702113e-02, 0., 0., 0., 4.89702113e-02, 4.89702113e-02, 0.,
          0., 0., 0., 0., 0., 0., 4.89702113e-02, 4.89702113e-02, 0.,
          4.89702113e-02, 0., 4.89702113e-02, 0., 0., 0., 0.,
          1.95880845e-01, 0., 0., 0., 0., 9.79404226e-02, 0.,
          4.89702113e-02, 9.79404226e-02, 0., 0., 0., 4.89702113e-02, 0.,
          0., 0., 0., 0., 4.89702113e-02, 0., 0., 0., 0., 0.,
          4.89702113e-02, 0., 0., 0., 0., 0., 0., 0., 0., 0., 0., 0., 0.,
          0., 0., 0., 4.89702113e-02, 0., 0., 0., 4.89702113e-02, 0., 0.,
          4.89702113e-02, 0., 0., 0., 0., 4.89702113e-02, 0.,
          4.89702113e-02, 0., 4.89702113e-02, 0., 0., 0., 0.,
          4.89702113e-02, 0., 0., 4.89702113e-02, 0., 0., 0., 0.,
          4.89702113e-02, 0., 4.89702113e-02, 0., 4.89702113e-02,
          4.89702113e-02, 9.79404226e-02, 0., 4.89702113e-02,
          4.89702113e-02, 0., 0., 0., 0., 0., 0., 0., 0., 4.89702113e-02,
          9.79404226e-02, 0., 0., 0., 0., 4.89702113e-02, 1.46910638e-01,
          0., 0., 0., 4.89702113e-02, 0., 0., 0., 1.46910638e-01, 0.,
          4.89702113e-02, 0., 0., 0., 0., 0., 0., 0., 0., 0., 0.,
          4.89702113e-02, 0., 9.79404226e-02, 0., 0., 0., 0., 0.,
          1.46910638e-01, 0., 0., 4.89702113e-02, 0., 0., 4.89702113e-02,
          4.89702113e-02, 0., 0., 0., 0., 1.95880845e-01, 1.95880845e-01,
          1.46910638e-01, 0., 0., 0., 0., 0., 9.79404226e-02, 0., 0., 0.,
          0., 0., 0., 0., 0., 4.89702113e-02, 0., 0., 0., 0., 0., 0., 0.,
          4.89702113e-02, 0., 0., 0., 4.89702113e-02, 9.79404226e-02, 0.,
          0., 0., 0., 4.89702113e-02, 0., 0., 0., 1.46910638e-01, 0., 0.,
          0., 0., 0., 4.89702113e-02, 0., 0., 0., 0., 0., 0.,
          4.89702113e-02, 0., 0., 0., 0., 1.46910638e-01, 9.79404226e-02,
          0., 4.89702113e-02, 0., 0., 4.89702113e-02, 0., 4.89702113e-02,
          0., 4.89702113e-02, 0., 0., 0., 0., 0., 0., 4.89702113e-02, 0.,
          0., 0., 0., 2.44851053e-01, 0., 0., 4.89702113e-02, 0.,
          4.89702113e-02, 0., 0., 4.89702113e-02, 0., 4.89702113e-02, 0.,
          9.79404226e-02, 4.89702113e-02, 0., 0., 9.79404226e-02, 0., 0.,
          0., 4.89702113e-02, 1.46910638e-01, 0., 0., 4.89702113e-02, 0.,
          0., 0., 0., 0., 4.89702113e-02, 0., 0., 4.89702113e-02, 0., 0.,
          0., 0., 0., 0., 4.89702113e-02, 9.79404226e-02, 0.,
          1.46910638e-01, 4.89702113e-02, 0., 4.89702113e-02, 0.,
          9.79404226e-02, 0., 9.79404226e-02, 0., 0., 0., 0., 0., 0., 0.,
          0., 4.89702113e-02, 0., 4.89702113e-02, 4.89702113e-02,
          4.89702113e-02, 0., 0., 0., 0., 0., 0., 0., 0., 0., 0.,
          4.89702113e-02, 1.46910638e-01, 4.89702113e-02, 0., 0.,
          1.46910638e-01, 4.89702113e-02, 0., 0., 4.89702113e-02, 0.,
          4.89702113e-02, 0., 4.89702113e-02, 0., 9.79404226e-02,
          4.89702113e-02, 0., 4.89702113e-02, 9.79404226e-02, 0.,
          4.89702113e-02, 9.79404226e-02, 0., 0. ]
      - [ 0., 6.27455786e-02, 0., 0., 0., 6.27455786e-02, 0., 0.,
          1.88236743e-01, 0., 0., 6.27455786e-02, 6.27455786e-02,
          6.27455786e-02, 0., 0., 0., 1.25491157e-01, 0., 0., 0., 0., 0.,
          0., 0., 6.27455786e-02, 0., 0., 0., 0., 6.27455786e-02, 0., 0.,
          0., 6.27455786e-02, 0., 0., 0., 0., 0., 0., 0., 6.27455786e-02,
          6.27455786e-02, 0., 6.27455786e-02, 0., 0., 1.25491157e-01,
          6.27455786e-02, 0., 0., 0., 0., 0., 0., 0., 0., 0., 0., 0., 0.,
          0., 6.27455786e-02, 0., 0., 1.25491157e-01, 0., 6.27455786e-02,
          6.27455786e-02, 6.27455786e-02, 0., 6.27455786e-02,
          6.27455786e-02, 0., 0., 0., 3.13727915e-01, 0., 0., 0., 0., 0.,
          0., 1.25491157e-01, 0., 6.27455786e-02, 6.27455786e-02, 0., 0.,
          0., 0., 0., 6.27455786e-02, 0., 0., 6.27455786e-02, 0., 0., 0.,
          0., 0., 0., 0., 0., 6.27455786e-02, 0., 0., 0., 0., 0., 0., 0.,
          0., 0., 0., 0., 0., 0., 6.27455786e-02, 0., 0., 0.,
          6.27455786e-02, 0., 0., 0., 0., 6.27455786e-02, 0., 0., 0., 0.,
          0., 0., 0., 1.88236743e-01, 6.27455786e-02, 0., 6.27455786e-02,
          0., 0., 0., 0., 6.27455786e-02, 2.50982314e-01, 0., 0., 0., 0.,
          0., 0., 0., 0., 0., 0., 0., 0., 0., 0., 0., 0., 0., 0., 0., 0.,
          0., 0., 0., 6.27455786e-02, 0., 0., 6.27455786e-02, 0., 0.,
          6.27455786e-02, 0., 0., 0., 0., 0., 0., 0., 0., 0.,
          6.27455786e-02, 0., 0., 0., 0., 0., 0., 0., 1.88236743e-01, 0.,
          0., 0., 0., 0., 0., 1.25491157e-01, 6.27455786e-02, 0., 0., 0.,
          0., 0., 0., 0., 0., 0., 0., 0., 6.27455786e-02, 0., 0.,
          6.27455786e-02, 0., 0., 0., 0., 6.27455786e-02, 0.,
          6.27455786e-02, 0., 6.27455786e-02, 6.27455786e-02, 0., 0., 0.,
          6.27455786e-02, 6.27455786e-02, 0., 0., 2.50982314e-01, 0., 0.,
          0., 0., 0., 0., 6.27455786e-02, 6.27455786e-02, 0., 0.,
          6.27455786e-02, 0., 0., 0., 0., 0., 0., 0., 0., 0., 0., 0., 0.,
          0., 6.27455786e-02, 0., 0., 0., 1.25491157e-01, 0., 0., 0., 0.,
          0., 0., 0., 0., 0., 0., 0., 6.27455786e-02, 0., 0., 0., 0., 0.,
          6.27455786e-02, 0., 0., 0., 0., 0., 0., 0., 0., 0.,
          6.27455786e-02, 6.27455786e-02, 0., 0., 0., 0., 0., 0., 0., 0.,
          0., 0., 0., 0., 0., 0., 0., 0., 0., 1.25491157e-01, 0., 0., 0.,
          6.27455786e-02, 0., 0., 0., 0., 0., 0., 6.27455786e-02,
          6.27455786e-02, 0., 0., 0., 0., 0., 6.27455786e-02, 0., 0., 0.,
          0., 6.27455786e-02, 0., 0., 0., 0., 6.27455786e-02, 0., 0., 0.,
          0., 1.25491157e-01, 0., 0., 0., 0., 0., 6.27455786e-02, 0.,
          6.27455786e-02, 6.27455786e-02, 0., 0., 0., 0., 1.25491157e-01,
          0., 6.27455786e-02, 0., 0., 0., 0., 0., 0., 0., 0., 0., 0., 0.,
          0., 0., 0., 0., 0., 0., 0., 0., 6.27455786e-02, 0., 0., 0., 0.,
          0., 0., 0., 0., 0., 3.13727915e-01, 6.27455786e-02, 0., 0.,
          2.50982314e-01, 6.27455786e-02, 0., 0., 0., 0., 0., 0.,
          6.27455786e-02, 0., 6.27455786e-02, 0., 0., 6.27455786e-02, 0.,
          0., 0., 6.27455786e-02, 0., 0., 6.27455786e-02, 0., 0., 0.,
          6.27455786e-02, 0., 0., 6.27455786e-02, 6.27455786e-02, 0.,
          6.27455786e-02, 0., 1.25491157e-01, 0., 0., 0., 0., 0., 0., 0.,
          0., 0., 0., 0., 0., 0., 0., 0., 0., 0., 0., 0., 0., 0., 0.,
          6.27455786e-02, 6.27455786e-02, 0., 0., 0., 0., 0., 0., 0., 0.,
          0., 0., 0., 0., 0., 0., 6.27455786e-02, 6.27455786e-02, 0., 0.,
          0., 6.27455786e-02, 0., 0., 0., 0., 6.27455786e-02, 0., 0., 0.,
          0., 0., 1.25491157e-01, 0., 0., 0., 6.27455786e-02, 0., 0.,
          1.25491157e-01, 0., 0., 6.27455786e-02, 0., 0., 0., 0., 0., 0.,
          6.27455786e-02, 0., 0. ]
      - [ 0., 0., 0., 0., 6.71156049e-02, 0., 0., 1.34231210e-01,
          2.01346815e-01, 6.71156049e-02, 1.34231210e-01, 1.34231210e-01,
          0., 0., 0., 0., 0., 6.71156049e-02, 0., 0., 0., 0., 0., 0., 0.,
          0., 0., 0., 0., 0., 0., 0., 0., 0., 0., 0., 0., 0., 0., 0., 0.,
          0., 6.71156049e-02, 6.71156049e-02, 0., 0., 0., 6.71156049e-02,
          0., 0., 6.71156049e-02, 0., 0., 0., 6.71156049e-02, 0., 0., 0.,
          0., 0., 0., 0., 0., 0., 0., 0., 1.34231210e-01, 0., 0., 0., 0.,
          6.71156049e-02, 6.71156049e-02, 6.71156049e-02, 0., 0., 0.,
          2.68462420e-01, 1.34231210e-01, 0., 0., 6.71156049e-02, 0., 0.,
          6.71156049e-02, 0., 0., 6.71156049e-02, 0., 0., 0., 0., 0., 0.,
          0., 0., 6.71156049e-02, 0., 6.71156049e-02, 0., 6.71156049e-02,
          1.34231210e-01, 0., 0., 0., 0., 0., 0., 6.71156049e-02, 0., 0.,
          0., 0., 1.34231210e-01, 1.34231210e-01, 0., 0., 0., 0., 0., 0.,
          6.71156049e-02, 0., 0., 6.71156049e-02, 0., 0., 0., 0., 0., 0.,
          0., 0., 0., 0., 6.71156049e-02, 0., 0., 0., 1.34231210e-01, 0.,
          0., 6.71156049e-02, 0., 6.71156049e-02, 0., 0., 0., 0., 0., 0.,
          0., 0., 0., 6.71156049e-02, 1.34231210e-01, 0., 0., 0., 0., 0.,
          0., 0., 0., 6.71156049e-02, 0., 6.71156049e-02, 6.71156049e-02,
          6.71156049e-02, 0., 0., 0., 0., 0., 6.71156049e-02, 0., 0., 0.,
          0., 0., 0., 0., 6.71156049e-02, 0., 0., 0., 0., 6.71156049e-02,
          6.71156049e-02, 0., 0., 0., 6.71156049e-02, 0., 0., 0., 0., 0.,
          0., 1.34231210e-01, 6.71156049e-02, 0., 0., 0., 0.,
          1.34231210e-01, 6.71156049e-02, 0., 0., 0., 0., 0., 0., 0., 0.,
          0., 0., 0., 0., 0., 0., 0., 0., 0., 6.71156049e-02, 0., 0., 0.,
          0., 6.71156049e-02, 0., 0., 0., 0., 0., 0., 0., 0., 0., 0., 0.,
          0., 0., 0., 0., 0., 0., 0., 0., 0., 0., 0., 0., 0.,
          6.71156049e-02, 0., 0., 0., 6.71156049e-02, 0., 0., 0., 0., 0.,
          0., 0., 0., 0., 0., 0., 0., 0., 0., 0., 0., 0., 0., 0., 0., 0.,
          0., 6.71156049e-02, 0., 0., 0., 0., 0., 0., 0., 0., 0., 0., 0.,
          0., 0., 0., 0., 0., 0., 0., 0., 0., 0., 0., 0., 6.71156049e-02,
          0., 2.01346815e-01, 0., 0., 6.71156049e-02, 0., 0.,
          6.71156049e-02, 0., 0., 0., 6.71156049e-02, 0., 0., 0.,
          6.71156049e-02, 1.34231210e-01, 6.71156049e-02, 0., 0., 0., 0.,
          0., 0., 6.71156049e-02, 0., 0., 0., 0., 0., 0., 0., 0.,
          6.71156049e-02, 0., 0., 0., 6.71156049e-02, 0., 0., 0.,
          6.71156049e-02, 0., 0., 0., 0., 2.01346815e-01, 0., 0.,
          6.71156049e-02, 6.71156049e-02, 0., 0., 0., 0., 0., 0., 0., 0.,
          0., 0., 0., 0., 0., 0., 0., 0., 6.71156049e-02, 0., 0., 0., 0.,
          6.71156049e-02, 0., 6.71156049e-02, 0., 0., 0., 0., 0., 0., 0.,
          6.71156049e-02, 6.71156049e-02, 0., 0., 0., 0., 6.71156049e-02,
          0., 0., 0., 0., 6.71156049e-02, 0., 0., 0., 0., 0., 0., 0., 0.,
          0., 0., 0., 0., 0., 6.71156049e-02, 0., 0., 1.34231210e-01, 0.,
          0., 1.34231210e-01, 0., 0., 0., 6.71156049e-02, 0.,
          6.71156049e-02, 0., 0., 0., 0., 0., 1.34231210e-01, 0., 0., 0.,
          6.71156049e-02, 0., 0., 0., 6.71156049e-02, 0., 0.,
          6.71156049e-02, 0., 1.34231210e-01, 0., 6.71156049e-02, 0.,
          6.71156049e-02, 0., 0., 6.71156049e-02, 0., 0., 6.71156049e-02,
          0., 0., 0., 0., 0., 0., 6.71156049e-02, 0., 6.71156049e-02,
          6.71156049e-02, 6.71156049e-02, 0., 0., 0., 0., 0.,
          6.71156049e-02, 0., 0., 0., 1.34231210e-01, 0., 6.71156049e-02,
          0., 6.71156049e-02, 6.71156049e-02, 6.71156049e-02, 0., 0.,
          1.34231210e-01, 0., 2.01346815e-01, 6.71156049e-02, 0., 0.,
          6.71156049e-02, 0., 6.71156049e-02, 0., 0., 0., 2.01346815e-01,
          1.34231210e-01, 0., 0. ]
      - [ 5.91312386e-02, 0., 1.18262477e-01, 0., 0., 0., 0.,
          5.91312386e-02, 5.91312386e-02, 0., 0., 0., 0., 0.,
          5.91312386e-02, 0., 5.91312386e-02, 0., 0., 0., 0.,
          1.18262477e-01, 0., 1.18262477e-01, 0., 0., 0., 0.,
          5.91312386e-02, 0., 0., 0., 5.91312386e-02, 0., 0., 0., 0.,
          5.91312386e-02, 5.91312386e-02, 5.91312386e-02, 0., 0., 0., 0.,
          0., 0., 0., 0., 0., 0., 5.91312386e-02, 0., 0., 0.,
          5.91312386e-02, 5.91312386e-02, 0., 0., 0., 5.91312386e-02,
          5.91312386e-02, 0., 0., 0., 0., 0., 0., 5.91312386e-02, 0., 0.,
          0., 5.91312386e-02, 5.91312386e-02, 5.91312386e-02, 0., 0.,
          5.91312386e-02, 1.77393720e-01, 5.91312386e-02, 0.,
          1.18262477e-01, 5.91312386e-02, 0., 0., 0., 5.91312386e-02,
          5.91312386e-02, 0., 0., 0., 0., 5.91312386e-02, 0.,
          5.91312386e-02, 5.91312386e-02, 1.77393720e-01, 5.91312386e-02,
          0., 0., 0., 5.91312386e-02, 0., 0., 0., 0., 0., 5.91312386e-02,
          0., 0., 0., 0., 0., 0., 5.91312386e-02, 0., 0., 0., 0., 0.,
          1.18262477e-01, 0., 0., 0., 0., 0., 0., 0., 1.18262477e-01, 0.,
          1.18262477e-01, 5.91312386e-02, 0., 0., 0., 0., 0.,
          5.91312386e-02, 0., 0., 0., 0., 0., 0., 0., 0., 5.91312386e-02,
          0., 5.91312386e-02, 0., 5.91312386e-02, 0., 0., 0., 0.,
          4.13918674e-01, 0., 0., 0., 0., 0., 1.18262477e-01, 0., 0., 0.,
          0., 5.91312386e-02, 0., 0., 0., 0., 0., 5.91312386e-02, 0., 0.,
          0., 0., 5.91312386e-02, 0., 0., 0., 0., 0., 0., 0.,
          1.18262477e-01, 0., 0., 0., 5.91312386e-02, 0., 0., 0.,
          5.91312386e-02, 0., 0., 1.18262477e-01, 5.91312386e-02, 0., 0.,
          5.91312386e-02, 0., 0., 0., 0., 0., 0., 0., 0., 0., 0., 0.,
          5.91312386e-02, 0., 0., 0., 0., 1.18262477e-01, 0., 0., 0.,
          1.18262477e-01, 5.91312386e-02, 0., 0., 0., 1.18262477e-01, 0.,
          0., 0., 0., 0., 0., 0., 0., 0., 0., 0., 0., 0., 0.,
          5.91312386e-02, 5.91312386e-02, 0., 0., 0., 0., 0., 0.,
          5.91312386e-02, 0., 0., 0., 0., 5.91312386e-02, 1.18262477e-01,
          0., 0., 0., 0., 0., 1.18262477e-01, 0., 0., 0., 5.91312386e-02,
          5.91312386e-02, 5.91312386e-02, 0., 0., 0., 0., 0., 0., 0.,
          5.91312386e-02, 5.91312386e-02, 0., 5.91312386e-02, 0., 0.,
          5.91312386e-02, 0., 0., 0., 0., 0., 1.18262477e-01, 0., 0., 0.,
          0., 5.91312386e-02, 0., 0., 0., 5.91312386e-02, 0.,
          5.91312386e-02, 5.91312386e-02, 0., 5.91312386e-02,
          5.91312386e-02, 1.18262477e-01, 1.18262477e-01, 0., 0., 0., 0.,
          0., 0., 0., 0., 5.91312386e-02, 0., 0., 0., 1.18262477e-01,
          5.91312386e-02, 0., 5.91312386e-02, 0., 0., 0., 0., 0., 0., 0.,
          5.91312386e-02, 5.91312386e-02, 0., 0., 5.91312386e-02, 0., 0.,
          5.91312386e-02, 5.91312386e-02, 0., 5.91312386e-02, 0.,
          1.18262477e-01, 0., 0., 0., 1.18262477e-01, 5.91312386e-02, 0.,
          0., 0., 0., 5.91312386e-02, 5.91312386e-02, 0., 5.91312386e-02,
          0., 5.91312386e-02, 5.91312386e-02, 0., 5.91312386e-02,
          5.91312386e-02, 0., 0., 1.18262477e-01, 0., 0., 0.,
          5.91312386e-02, 0., 5.91312386e-02, 0., 0., 0., 0., 0.,
          5.91312386e-02, 0., 0., 5.91312386e-02, 0., 0., 0., 0., 0., 0.,
          0., 0., 0., 0., 0., 0., 0., 0., 5.91312386e-02, 5.91312386e-02,
          0., 5.91312386e-02, 0., 0., 5.91312386e-02, 0., 0., 0.,
          5.91312386e-02, 0., 5.91312386e-02, 0., 0., 0., 5.91312386e-02,
          0., 0., 0., 1.18262477e-01, 5.91312386e-02, 5.91312386e-02, 0.,
          1.18262477e-01, 0., 0., 0., 0., 5.91312386e-02, 0., 0., 0., 0.,
          5.91312386e-02, 0., 5.91312386e-02, 5.91312386e-02, 0.,
          5.91312386e-02, 1.18262477e-01, 0., 0., 0., 5.91312386e-02, 0.,
          0., 0., 0., 0., 0., 0., 0., 0., 5.91312386e-02, 0., 0., 0., 0.,
          0., 5.91312386e-02, 0., 5.91312386e-02, 0., 0., 0.,
          1.18262477e-01, 0., 0., 5.91312386e-02, 0., 5.91312386e-02, 0.,
          5.91312386e-02, 0., 0., 0., 5.91312386e-02, 0., 0., 0.,
          1.18262477e-01, 0., 0., 0., 0., 0., 0., 0., 0., 0.,
          1.18262477e-01, 0., 0., 0., 0., 0., 0., 0., 0., 0.,
          5.91312386e-02, 0., 0., 0., 0., 0., 0., 5.91312386e-02 ]
      - [ 0., 0., 0., 5.24142422e-02, 0., 0., 0., 0., 5.24142422e-02,
          5.24142422e-02, 1.04828484e-01, 0., 0., 0., 5.24142422e-02, 0.,
          0., 0., 0., 0., 5.24142422e-02, 0., 0., 5.24142422e-02,
          5.24142422e-02, 5.24142422e-02, 5.24142422e-02, 5.24142422e-02,
          0., 5.24142422e-02, 5.24142422e-02, 0., 5.24142422e-02,
          5.24142422e-02, 0., 0., 5.24142422e-02, 0., 0., 5.24142422e-02,
          0., 0., 0., 0., 0., 0., 5.24142422e-02, 5.24142422e-02,
          1.04828484e-01, 1.04828484e-01, 0., 5.24142422e-02,
          1.04828484e-01, 0., 0., 0., 5.24142422e-02, 0., 0., 0., 0.,
          1.04828484e-01, 0., 0., 0., 0., 0., 0., 5.24142422e-02, 0., 0.,
          0., 0., 0., 1.04828484e-01, 0., 5.24142422e-02, 0.,
          5.24142422e-02, 0., 0., 0., 0., 0., 0., 0., 0., 0., 0., 0., 0.,
          0., 0., 5.24142422e-02, 5.24142422e-02, 0., 0., 0.,
          5.24142422e-02, 0., 0., 0., 0., 1.04828484e-01, 0., 0.,
          5.24142422e-02, 0., 5.24142422e-02, 0., 1.04828484e-01, 0.,
          5.24142422e-02, 0., 0., 0., 1.04828484e-01, 5.24142422e-02,
          1.04828484e-01, 0., 5.24142422e-02, 0., 0., 0., 0.,
          1.04828484e-01, 0., 0., 0., 5.24142422e-02, 0., 0.,
          5.24142422e-02, 5.24142422e-02, 0., 5.24142422e-02,
          1.57242730e-01, 0., 0., 0., 0., 0., 0., 0., 0., 5.24142422e-02,
          0., 0., 0., 0., 0., 5.24142422e-02, 1.04828484e-01, 0.,
          5.24142422e-02, 0., 0., 0., 5.24142422e-02, 0., 0., 0., 0., 0.,
          1.04828484e-01, 0., 0., 0., 5.24142422e-02, 0., 0.,
          5.24142422e-02, 0., 0., 0., 0., 1.04828484e-01, 0., 0., 0., 0.,
          0., 0., 0., 5.24142422e-02, 5.24142422e-02, 0., 1.57242730e-01,
          5.24142422e-02, 0., 0., 0., 0., 5.24142422e-02, 5.24142422e-02,
          0., 0., 0., 1.57242730e-01, 5.24142422e-02, 1.04828484e-01, 0.,
          0., 0., 0., 5.24142422e-02, 0., 0., 0., 0., 5.24142422e-02, 0.,
          5.24142422e-02, 0., 5.24142422e-02, 0., 0., 5.24142422e-02,
          5.24142422e-02, 5.24142422e-02, 0., 0., 0., 0., 0., 0.,
          1.04828484e-01, 0., 0., 0., 0., 0., 0., 5.24142422e-02, 0., 0.,
          5.24142422e-02, 5.24142422e-02, 1.04828484e-01, 0., 0.,
          5.24142422e-02, 0., 0., 0., 0., 0., 5.24142422e-02, 0.,
          5.24142422e-02, 0., 5.24142422e-02, 0., 0., 0., 0., 0., 0.,
          1.57242730e-01, 5.24142422e-02, 5.24142422e-02, 0.,
          5.24142422e-02, 0., 0., 0., 5.24142422e-02, 5.24142422e-02, 0.,
          1.04828484e-01, 5.24142422e-02, 0., 5.24142422e-02, 0., 0., 0.,
          0., 5.24142422e-02, 0., 0., 0., 1.04828484e-01, 0., 0.,
          1.04828484e-01, 0., 0., 0., 0., 0., 0., 0., 0., 5.24142422e-02,
          5.24142422e-02, 0., 0., 0., 0., 5.24142422e-02, 1.04828484e-01,
          0., 1.04828484e-01, 5.24142422e-02, 5.24142422e-02,
          5.24142422e-02, 0., 0., 5.24142422e-02, 0., 0., 0., 0., 0., 0.,
          0., 0., 0., 0., 0., 0., 0., 0., 0., 5.24142422e-02, 0., 0.,
          5.24142422e-02, 0., 5.24142422e-02, 5.24142422e-02, 0.,
          1.04828484e-01, 0., 0., 5.24142422e-02, 0., 5.24142422e-02, 0.,
          0., 1.04828484e-01, 0., 0., 0., 0., 0., 0., 0., 0.,
          5.24142422e-02, 0., 0., 5.24142422e-02, 1.04828484e-01, 0., 0.,
          0., 5.24142422e-02, 0., 0., 1.04828484e-01, 0., 0., 0., 0.,
          1.57242730e-01, 5.24142422e-02, 0., 2.09656969e-01,
          5.24142422e-02, 0., 0., 0., 5.24142422e-02, 0., 0.,
          1.57242730e-01, 5.24142422e-02, 5.24142422e-02, 0., 0.,
          5.24142422e-02, 0., 0., 5.24142422e-02, 5.24142422e-02,
          5.24142422e-02, 0., 0., 5.24142422e-02, 0., 5.24142422e-02, 0.,
          0., 0., 0., 0., 5.24142422e-02, 0., 0., 0., 0., 5.24142422e-02,
          0., 0., 0., 0., 0., 5.24142422e-02, 0., 0., 1.04828484e-01, 0.,
          0., 0., 0., 5.24142422e-02, 5.24142422e-02, 1.57242730e-01, 0.,
          0., 5.24142422e-02, 0., 5.24142422e-02, 2.09656969e-01,
          5.24142422e-02, 0., 5.24142422e-02, 1.04828484e-01, 0., 0.,
          5.24142422e-02, 5.24142422e-02, 0., 0., 0., 1.04828484e-01, 0.,
          5.24142422e-02, 0., 5.24142422e-02, 0., 5.24142422e-02, 0.,
          5.24142422e-02, 0., 5.24142422e-02, 0., 0., 5.24142422e-02, 0.,
          0., 0., 5.24142422e-02, 0., 5.24142422e-02, 0., 0., 0.,
          5.24142422e-02, 0., 1.04828484e-01, 0., 1.04828484e-01, 0., 0.,
          0., 0., 0., 0., 5.24142422e-02, 0., 5.24142422e-02,
          5.24142422e-02, 5.24142422e-02, 0., 0., 5.24142422e-02, 0.,
          1.04828484e-01, 1.04828484e-01, 0., 0., 0., 0., 0., 0., 0., 0.,
          0., 0., 0., 5.24142422e-02, 1.57242730e-01, 5.24142422e-02, 0.,
          5.24142422e-02, 0., 1.04828484e-01, 0. ]
      - [ 0., 2.88009226e-01, 0., 4.80015352e-02, 0., 0., 0.,
          4.80015352e-02, 4.80015352e-02, 4.80015352e-02, 0., 0., 0., 0.,
          0., 0., 0., 4.80015352e-02, 0., 0., 0., 0., 4.80015352e-02, 0.,
          0., 0., 0., 0., 0., 0., 0., 0., 0., 4.80015352e-02, 0.,
          1.44004613e-01, 0., 0., 0., 1.44004613e-01, 2.40007684e-01,
          4.80015352e-02, 0., 4.80015352e-02, 0., 0., 1.44004613e-01, 0.,
          0., 0., 0., 4.80015352e-02, 0., 4.80015352e-02, 0.,
          4.80015352e-02, 0., 0., 0., 0., 0., 0., 0., 4.80015352e-02, 0.,
          0., 4.80015352e-02, 4.80015352e-02, 0., 4.80015352e-02, 0., 0.,
          4.80015352e-02, 0., 4.80015352e-02, 4.80015352e-02, 0.,
          1.44004613e-01, 0., 0., 0., 4.80015352e-02, 0., 4.80015352e-02,
          0., 0., 0., 0., 4.80015352e-02, 0., 0., 0., 9.60030705e-02, 0.,
          9.60030705e-02, 0., 4.80015352e-02, 0., 0., 0., 4.80015352e-02,
          4.80015352e-02, 0., 4.80015352e-02, 0., 0., 0., 0., 0., 0.,
          4.80015352e-02, 0., 0., 0., 0., 0., 0., 0., 0., 0., 0., 0., 0.,
          0., 0., 0., 0., 0., 4.80015352e-02, 0., 0., 0., 0., 0.,
          1.44004613e-01, 0., 4.80015352e-02, 0., 4.80015352e-02, 0., 0.,
          0., 0., 9.60030705e-02, 0., 1.44004613e-01, 0., 4.80015352e-02,
          4.80015352e-02, 9.60030705e-02, 0., 4.80015352e-02,
          4.80015352e-02, 0., 0., 0., 0., 0., 0., 0., 0., 9.60030705e-02,
          0., 0., 0., 0., 0., 0., 0., 0., 0., 0., 0., 0., 4.80015352e-02,
          0., 0., 0., 0., 0., 0., 4.80015352e-02, 0., 0., 0., 0., 0.,
          4.80015352e-02, 0., 0., 4.80015352e-02, 0., 0., 0., 0., 0., 0.,
          0., 0., 0., 2.40007684e-01, 0., 4.80015352e-02, 0., 0.,
          4.80015352e-02, 0., 0., 0., 0., 0., 4.80015352e-02, 0., 0., 0.,
          0., 0., 4.80015352e-02, 0., 4.80015352e-02, 0., 0., 0., 0., 0.,
          0., 0., 0., 0., 0., 0., 4.80015352e-02, 0., 0., 4.80015352e-02,
          0., 0., 0., 0., 0., 4.80015352e-02, 0., 0., 0., 0., 0., 0., 0.,
          0., 0., 0., 9.60030705e-02, 4.80015352e-02, 4.80015352e-02, 0.,
          0., 0., 0., 0., 4.80015352e-02, 0., 4.80015352e-02, 0., 0.,
          4.80015352e-02, 0., 0., 0., 0., 0., 0., 0., 0., 4.80015352e-02,
          0., 4.80015352e-02, 0., 0., 0., 0., 0., 1.44004613e-01, 0.,
          1.44004613e-01, 0., 4.80015352e-02, 0., 0., 0., 0., 0., 0., 0.,
          0., 4.80015352e-02, 4.80015352e-02, 0., 4.80015352e-02,
          4.80015352e-02, 0., 9.60030705e-02, 0., 0., 0., 9.60030705e-02,
          0., 0., 0., 0., 0., 9.60030705e-02, 0., 0., 4.80015352e-02,
          1.44004613e-01, 0., 9.60030705e-02, 0., 0., 0., 0., 0., 0., 0.,
          4.80015352e-02, 0., 1.44004613e-01, 0., 0., 4.80015352e-02,
          4.80015352e-02, 4.80015352e-02, 0., 0., 4.80015352e-02, 0., 0.,
          0., 0., 9.60030705e-02, 4.80015352e-02, 0., 0., 4.80015352e-02,
          0., 0., 4.80015352e-02, 0., 0., 4.80015352e-02, 0., 0., 0., 0.,
          0., 9.60030705e-02, 0., 1.44004613e-01, 0., 0., 0., 0., 0., 0.,
          0., 0., 0., 0., 0., 0., 0., 0., 0., 4.80015352e-02, 0., 0., 0.,
          0., 9.60030705e-02, 0., 4.80015352e-02, 4.80015352e-02, 0., 0.,
          0., 4.80015352e-02, 0., 0., 4.80015352e-02, 4.80015352e-02, 0.,
          0., 9.60030705e-02, 4.80015352e-02, 0., 0., 0., 0., 0., 0., 0.,
          9.60030705e-02, 0., 4.80015352e-02, 1.44004613e-01, 0.,
          9.60030705e-02, 0., 0., 0., 0., 0., 0., 0., 0., 0.,
          4.80015352e-02, 0., 0., 0., 0., 0., 0., 0., 0., 0., 0., 0., 0.,
          0., 4.80015352e-02, 0., 4.80015352e-02, 4.80015352e-02, 0.,
          4.80015352e-02, 0., 0., 0., 0., 0., 0., 0., 0., 0., 0., 0., 0.,
          0., 4.80015352e-02, 1.44004613e-01, 0., 0., 0., 0.,
          2.88009226e-01, 0., 0., 0., 4.80015352e-02, 9.60030705e-02, 0.,
          0., 9.60030705e-02, 0., 0., 0., 0., 0., 4.80015352e-02,
          4.80015352e-02, 0., 0., 0., 0., 4.80015352e-02, 0., 0., 0., 0.,
          4.80015352e-02, 1.92006141e-01, 0., 4.80015352e-02,
          1.44004613e-01, 0., 0., 0., 9.60030705e-02, 9.60030705e-02, 0.,
          0., 0., 0., 0., 0., 4.80015352e-02, 4.80015352e-02, 0., 0. ]
      - [ 1.68430388e-01, 1.68430388e-01, 0., 0., 0., 0., 0., 0., 0., 0.,
          0., 0., 0., 0., 0., 0., 0., 8.42151940e-02, 0., 0., 0.,
          8.42151940e-02, 0., 0., 0., 0., 0., 0., 0., 0., 8.42151940e-02,
          0., 0., 0., 8.42151940e-02, 0., 0., 0., 0., 0., 1.68430388e-01,
          8.42151940e-02, 0., 0., 0., 0., 0., 0., 8.42151940e-02, 0., 0.,
          0., 0., 8.42151940e-02, 0., 0., 0., 0., 0., 0., 0., 0., 0., 0.,
          0., 0., 0., 0., 0., 0., 8.42151940e-02, 0., 8.42151940e-02, 0.,
          0., 0., 0., 8.42151940e-02, 0., 0., 0., 0., 0., 0., 0., 0., 0.,
          0., 8.42151940e-02, 0., 0., 0., 0., 0., 8.42151940e-02, 0., 0.,
          0., 0., 0., 0., 0., 0., 0., 8.42151940e-02, 0., 0., 0., 0., 0.,
          0., 0., 0., 0., 8.42151940e-02, 0., 0., 0., 0., 0., 0., 0., 0.,
          0., 0., 0., 0., 8.42151940e-02, 0., 0., 0., 0., 0., 0., 0., 0.,
          8.42151940e-02, 0., 0., 0., 0., 0., 0., 0., 0., 8.42151940e-02,
          0., 0., 0., 0., 0., 0., 0., 0., 0., 0., 8.42151940e-02, 0., 0.,
          0., 0., 0., 8.42151940e-02, 0., 0., 0., 0., 0., 0., 0., 0., 0.,
          0., 0., 0., 0., 0., 8.42151940e-02, 8.42151940e-02, 0.,
          8.42151940e-02, 0., 0., 0., 0., 0., 0., 0., 8.42151940e-02,
          8.42151940e-02, 0., 0., 0., 0., 0., 0., 0., 0., 0., 0.,
          8.42151940e-02, 0., 0., 0., 0., 4.21075970e-01, 0., 0., 0.,
          8.42151940e-02, 0., 0., 0., 0., 0., 0., 0., 0., 0., 0., 0., 0.,
          0., 0., 0., 8.42151940e-02, 0., 0., 0., 0., 0., 0., 0., 0., 0.,
          0., 0., 8.42151940e-02, 0., 8.42151940e-02, 0., 8.42151940e-02,
          1.68430388e-01, 0., 0., 0., 0., 0., 1.68430388e-01,
          8.42151940e-02, 0., 0., 0., 8.42151940e-02, 0., 0., 0., 0., 0.,
          8.42151940e-02, 0., 0., 0., 8.42151940e-02, 0., 0., 0., 0., 0.,
          0., 0., 0., 0., 0., 0., 1.68430388e-01, 0., 0., 0., 0., 0., 0.,
          0., 0., 0., 0., 0., 0., 8.42151940e-02, 0., 0., 0., 0., 0., 0.,
          0., 0., 0., 0., 0., 0., 8.42151940e-02, 0., 0., 0., 0., 0.,
          2.52645582e-01, 0., 0., 0., 0., 0., 0., 0., 0., 0.,
          8.42151940e-02, 0., 0., 0., 0., 0., 0., 0., 0., 0., 0., 0., 0.,
          8.42151940e-02, 0., 0., 0., 0., 0., 0., 0., 8.42151940e-02, 0.,
          8.42151940e-02, 0., 1.68430388e-01, 0., 0., 0., 0., 0., 0., 0.,
          0., 0., 0., 0., 0., 0., 0., 0., 0., 0., 0., 0., 0.,
          8.42151940e-02, 0., 0., 1.68430388e-01, 0., 0., 0., 0., 0., 0.,
          8.42151940e-02, 0., 0., 0., 0., 0., 0., 0., 0., 8.42151940e-02,
          0., 8.42151940e-02, 8.42151940e-02, 0., 0., 0., 0., 0., 0.,
          8.42151940e-02, 0., 0., 0., 0., 0., 0., 0., 0., 0.,
          1.68430388e-01, 0., 8.42151940e-02, 0., 0., 0., 0., 0., 0., 0.,
          0., 0., 0., 0., 0., 8.42151940e-02, 0., 8.42151940e-02, 0., 0.,
          0., 0., 8.42151940e-02, 0., 0., 0., 0., 0., 8.42151940e-02, 0.,
          0., 0., 0., 0., 0., 0., 0., 0., 0., 0., 0., 0., 0., 0., 0., 0.,
          0., 0., 0., 0., 0., 0., 0., 0., 0., 8.42151940e-02,
          1.68430388e-01, 0., 0., 0., 0., 2.52645582e-01, 8.42151940e-02,
          0., 0., 0., 8.42151940e-02, 0., 0., 0., 0., 0., 0., 0.,
          8.42151940e-02, 0., 0., 0., 0., 8.42151940e-02, 0.,
          8.42151940e-02, 0., 0., 0., 0., 8.42151940e-02, 0., 0., 0., 0.,
          0., 0., 0., 0., 0., 0., 0. ]
      - [ 8.30454826e-02, 0., 0., 0., 0., 8.30454826e-02, 0., 0.,
          8.30454826e-02, 1.66090965e-01, 0., 0., 0., 8.30454826e-02, 0.,
          8.30454826e-02, 0., 8.30454826e-02, 8.30454826e-02, 0.,
          8.30454826e-02, 0., 0., 8.30454826e-02, 0., 0., 0., 0., 0., 0.,
          8.30454826e-02, 8.30454826e-02, 1.66090965e-01, 8.30454826e-02,
          0., 0., 0., 0., 8.30454826e-02, 0., 0., 0., 0., 0., 0., 0., 0.,
          8.30454826e-02, 0., 0., 0., 8.30454826e-02, 0., 0., 0., 0., 0.,
          0., 8.30454826e-02, 0., 0., 0., 8.30454826e-02, 0., 0., 0., 0.,
          2.49136433e-01, 0., 0., 8.30454826e-02, 0., 0., 0., 0., 0., 0.,
          0., 0., 8.30454826e-02, 8.30454826e-02, 0., 8.30454826e-02, 0.,
          8.30454826e-02, 0., 0., 0., 0., 8.30454826e-02, 0., 0., 0., 0.,
          1.66090965e-01, 0., 0., 0., 0., 0., 0., 0., 0., 8.30454826e-02,
          0., 0., 0., 8.30454826e-02, 0., 0., 8.30454826e-02, 0., 0., 0.,
          8.30454826e-02, 0., 0., 0., 0., 0., 0., 8.30454826e-02, 0., 0.,
          8.30454826e-02, 0., 0., 0., 0., 0., 0., 0., 0., 0.,
          8.30454826e-02, 8.30454826e-02, 0., 0., 0., 0., 0., 0., 0., 0.,
          0., 0., 0., 8.30454826e-02, 0., 0., 0., 0., 0., 8.30454826e-02,
          0., 0., 0., 0., 0., 0., 0., 0., 0., 0., 0., 0., 0., 0.,
          8.30454826e-02, 0., 0., 1.66090965e-01, 0., 0., 0., 0., 0., 0.,
          0., 0., 0., 0., 8.30454826e-02, 0., 0., 0., 0., 0., 0., 0., 0.,
          0., 0., 0., 8.30454826e-02, 0., 0., 0., 0., 0., 0., 0., 0., 0.,
          0., 1.66090965e-01, 0., 8.30454826e-02, 0., 0., 0., 0., 0., 0.,
          0., 0., 0., 0., 0., 0., 0., 8.30454826e-02, 0., 0., 0., 0., 0.,
          8.30454826e-02, 8.30454826e-02, 8.30454826e-02, 0., 0., 0.,
          8.30454826e-02, 0., 0., 0., 0., 0., 8.30454826e-02,
          8.30454826e-02, 0., 0., 8.30454826e-02, 0., 0., 0., 0.,
          8.30454826e-02, 0., 0., 0., 0., 0., 0., 0., 8.30454826e-02, 0.,
          0., 0., 0., 8.30454826e-02, 0., 8.30454826e-02, 0., 0., 0.,
          8.30454826e-02, 0., 0., 0., 0., 0., 1.66090965e-01, 0., 0.,
          8.30454826e-02, 8.30454826e-02, 0., 0., 8.30454826e-02, 0., 0.,
          0., 0., 0., 0., 0., 0., 0., 0., 0., 0., 0., 8.30454826e-02, 0.,
          8.30454826e-02, 0., 0., 0., 0., 0., 0., 0., 0., 1.66090965e-01,
          0., 8.30454826e-02, 0., 0., 0., 0., 0., 0., 0., 0., 0.,
          8.30454826e-02, 0., 0., 0., 8.30454826e-02, 8.30454826e-02,
          8.30454826e-02, 0., 0., 8.30454826e-02, 0., 0., 0., 0.,
          8.30454826e-02, 8.30454826e-02, 0., 8.30454826e-02, 0., 0., 0.,
          1.66090965e-01, 0., 0., 0., 0., 8.30454826e-02, 8.30454826e-02,
          0., 0., 0., 8.30454826e-02, 0., 0., 0., 0., 0., 0.,
          8.30454826e-02, 0., 0., 0., 0., 0., 8.30454826e-02, 0., 0., 0.,
          0., 0., 0., 8.30454826e-02, 8.30454826e-02, 0., 0., 0.,
          8.30454826e-02, 0., 8.30454826e-02, 8.30454826e-02, 0., 0., 0.,
          1.66090965e-01, 0., 0., 0., 8.30454826e-02, 0., 0., 0., 0., 0.,
          0., 0., 0., 0., 0., 0., 0., 0., 0., 0., 0., 0., 0., 0., 0., 0.,
          0., 0., 0., 0., 8.30454826e-02, 0., 0., 8.30454826e-02,
          1.66090965e-01, 0., 0., 0., 8.30454826e-02, 0., 0., 0., 0.,
          8.30454826e-02, 0., 0., 8.30454826e-02, 0., 0., 8.30454826e-02,
          0., 8.30454826e-02, 0., 0., 8.30454826e-02, 0., 0.,
          1.66090965e-01, 0., 8.30454826e-02, 0., 0., 0., 0., 0., 0., 0.,
          0., 0., 0., 0., 0., 0., 0., 0., 8.30454826e-02, 0., 0., 0., 0.,
          0., 0., 0., 0., 8.30454826e-02, 0., 0., 0., 0., 0., 0., 0., 0.,
          0., 8.30454826e-02, 0., 0., 0., 0., 0., 0., 0., 0., 0., 0., 0.,
          0., 8.30454826e-02, 8.30454826e-02, 0., 0., 0., 0., 0.,
          8.30454826e-02, 0., 0., 8.30454826e-02, 8.30454826e-02, 0. ]
      - [ 1.39645189e-01, 5.58580756e-02, 2.79290378e-02, 2.79290378e-02,
          0., 2.79290378e-02, 0., 5.58580756e-02, 0., 0., 5.58580756e-02,
          0., 8.37871134e-02, 2.79290378e-02, 0., 2.79290378e-02, 0., 0.,
          0., 2.79290378e-02, 0., 8.37871134e-02, 1.11716151e-01, 0., 0.,
          0., 0., 2.79290378e-02, 0., 0., 5.58580756e-02, 2.79290378e-02,
          0., 5.58580756e-02, 2.79290378e-02, 1.11716151e-01,
          5.58580756e-02, 2.79290378e-02, 0., 1.11716151e-01,
          2.79290378e-02, 0., 0., 1.11716151e-01, 2.79290378e-02, 0., 0.,
          0., 2.79290378e-02, 0., 2.79290378e-02, 0., 2.79290378e-02,
          1.11716151e-01, 0., 0., 5.58580756e-02, 0., 0., 0., 0.,
          2.79290378e-02, 2.79290378e-02, 1.95503265e-01, 0., 0.,
          8.37871134e-02, 2.79290378e-02, 5.58580756e-02, 2.79290378e-02,
          0., 1.11716151e-01, 2.79290378e-02, 0., 0., 0., 0.,
          5.58580756e-02, 5.58580756e-02, 0., 0., 0., 0., 2.79290378e-02,
          0., 0., 0., 2.79290378e-02, 1.11716151e-01, 0., 0., 0.,
          2.79290378e-02, 0., 0., 0., 0., 0., 5.58580756e-02, 0., 0., 0.,
          0., 2.79290378e-02, 0., 2.79290378e-02, 0., 0., 0.,
          5.58580756e-02, 0., 0., 0., 5.58580756e-02, 8.37871134e-02, 0.,
          0., 0., 0., 2.79290378e-02, 0., 0., 2.79290378e-02, 0., 0., 0.,
          0., 1.11716151e-01, 0., 2.79290378e-02, 0., 2.79290378e-02,
          2.79290378e-02, 0., 8.37871134e-02, 0., 8.37871134e-02,
          2.79290378e-02, 5.58580756e-02, 2.79290378e-02, 0.,
          2.79290378e-02, 8.37871134e-02, 5.58580756e-02, 0.,
          2.79290378e-02, 0., 1.11716151e-01, 0., 2.79290378e-02, 0.,
          1.11716151e-01, 2.79290378e-02, 0., 8.37871134e-02,
          5.58580756e-02, 0., 0., 0., 2.79290378e-02, 0., 2.79290378e-02,
          0., 2.79290378e-02, 2.79290378e-02, 0., 0., 0., 0.,
          2.79290378e-02, 0., 0., 0., 0., 2.79290378e-02, 5.58580756e-02,
          2.79290378e-02, 0., 2.79290378e-02, 0., 0., 2.79290378e-02,
          8.37871134e-02, 2.79290378e-02, 0., 2.79290378e-02, 0.,
          5.58580756e-02, 0., 5.58580756e-02, 0., 2.79290378e-02, 0.,
          2.79290378e-02, 0., 2.79290378e-02, 0., 2.79290378e-02, 0., 0.,
          8.37871134e-02, 0., 1.39645189e-01, 5.58580756e-02, 0., 0., 0.,
          0., 0., 0., 0., 0., 0., 0., 2.79290378e-02, 2.79290378e-02,
          8.37871134e-02, 0., 2.79290378e-02, 0., 5.58580756e-02, 0., 0.,
          0., 0., 0., 0., 0., 0., 2.79290378e-02, 2.79290378e-02, 0., 0.,
          0., 5.58580756e-02, 0., 1.11716151e-01, 0., 2.79290378e-02, 0.,
          0., 0., 0., 0., 0., 0., 0., 2.79290378e-02, 0., 2.79290378e-02,
          0., 5.58580756e-02, 0., 0., 0., 0., 0., 2.79290378e-02,
          2.79290378e-02, 2.79290378e-02, 0., 0., 0., 0., 1.11716151e-01,
          5.58580756e-02, 0., 2.79290378e-02, 2.79290378e-02, 0.,
          8.37871134e-02, 5.58580756e-02, 0., 0., 2.79290378e-02,
          5.58580756e-02, 2.79290378e-02, 5.58580756e-02, 0., 0., 0.,
          5.58580756e-02, 2.79290378e-02, 0., 0., 2.79290378e-02, 0., 0.,
          0., 0., 0., 0., 0., 0., 0., 5.58580756e-02, 0., 0., 0.,
          2.79290378e-02, 0., 0., 0., 0., 5.58580756e-02, 0., 0.,
          5.58580756e-02, 2.79290378e-02, 2.79290378e-02, 5.58580756e-02,
          0., 2.79290378e-02, 2.79290378e-02, 2.79290378e-01, 0.,
          2.79290378e-02, 2.79290378e-02, 0., 0., 0., 0., 2.79290378e-02,
          2.79290378e-02, 2.79290378e-01, 0., 2.79290378e-02, 0., 0.,
          2.79290378e-02, 0., 2.79290378e-02, 0., 1.11716151e-01, 0., 0.,
          2.79290378e-02, 2.79290378e-02, 0., 8.37871134e-02, 0.,
          2.79290378e-02, 1.39645189e-01, 0., 0., 2.79290378e-02,
          2.79290378e-02, 0., 8.37871134e-02, 0., 0., 0., 0., 0., 0.,
          8.37871134e-02, 0., 0., 0., 0., 0., 0., 2.79290378e-02,
          2.79290378e-02, 0., 0., 0., 0., 0., 2.79290378e-02, 0., 0., 0.,
          2.79290378e-02, 0., 0., 0., 0., 8.37871134e-02, 0.,
          1.67574227e-01, 0., 2.79290378e-02, 0., 0., 0., 0., 0.,
          1.11716151e-01, 0., 0., 0., 5.58580756e-02, 0., 0., 0., 0., 0.,
          0., 0., 1.11716151e-01, 1.67574227e-01, 0., 2.79290378e-02,
          5.58580756e-02, 0., 5.58580756e-02, 2.79290378e-02,
          2.79290378e-02, 0., 0., 2.79290378e-02, 2.79290378e-02,
          2.79290378e-02, 0., 0., 0., 0., 0., 0., 2.79290378e-02, 0., 0.,
          0., 5.58580756e-02, 0., 0., 2.79290378e-02, 2.79290378e-02, 0.,
          5.58580756e-02, 0., 2.79290378e-02, 2.79290378e-02, 0., 0.,
          1.39645189e-01, 0., 0., 0., 0., 0., 0., 0., 0., 0.,
          2.79290378e-02, 0., 2.79290378e-02, 0., 5.58580756e-02,
          2.79290378e-02, 5.58580756e-02, 0., 0., 5.58580756e-02,
          2.79290378e-02, 0., 0., 2.79290378e-02, 1.39645189e-01, 0.,
          2.79290378e-02, 0., 5.58580756e-02, 5.58580756e-02, 0., 0.,
          2.51361340e-01, 0., 2.79290378e-02, 1.11716151e-01, 0., 0., 0.,
          2.79290378e-02, 5.58580756e-02, 0., 2.79290378e-02,
          2.79290378e-02, 0., 8.37871134e-02, 0., 0., 8.37871134e-02,
          2.79290378e-02, 0., 0., 2.79290378e-02, 8.37871134e-02, 0., 0.,
          2.79290378e-02, 0., 1.11716151e-01, 0., 0., 1.39645189e-01,
          2.79290378e-02, 0. ]
      - [ 9.81761366e-02, 1.47264212e-01, 0., 0., 0., 0., 0., 0.,
          4.90880683e-02, 0., 0., 0., 0., 0., 4.90880683e-02, 0., 0., 0.,
          4.90880683e-02, 0., 0., 0., 0., 4.90880683e-02, 0., 0.,
          4.90880683e-02, 0., 0., 0., 0., 0., 4.90880683e-02, 0.,
          4.90880683e-02, 4.90880683e-02, 0., 0., 0., 4.90880683e-02, 0.,
          4.90880683e-02, 0., 0., 0., 9.81761366e-02, 1.47264212e-01, 0.,
          0., 0., 1.47264212e-01, 0., 0., 9.81761366e-02, 4.90880683e-02,
          9.81761366e-02, 0., 0., 0., 0., 0., 0., 0., 4.90880683e-02, 0.,
          0., 0., 0., 4.90880683e-02, 0., 4.90880683e-02, 0.,
          9.81761366e-02, 0., 0., 0., 0., 4.90880683e-02, 4.90880683e-02,
          0., 0., 1.47264212e-01, 0., 0., 0., 4.90880683e-02, 0., 0.,
          4.90880683e-02, 0., 0., 0., 4.90880683e-02, 4.90880683e-02,
          9.81761366e-02, 4.90880683e-02, 0., 0., 9.81761366e-02, 0.,
          4.90880683e-02, 1.47264212e-01, 0., 0., 0., 4.90880683e-02, 0.,
          4.90880683e-02, 4.90880683e-02, 4.90880683e-02, 0., 0., 0.,
          4.90880683e-02, 4.90880683e-02, 0., 0., 4.90880683e-02, 0., 0.,
          0., 4.90880683e-02, 4.90880683e-02, 0., 0., 9.81761366e-02,
          4.90880683e-02, 0., 4.90880683e-02, 0., 0., 4.90880683e-02, 0.,
          0., 4.90880683e-02, 4.90880683e-02, 0., 9.81761366e-02,
          4.90880683e-02, 0., 0., 9.81761366e-02, 0., 4.90880683e-02,
          4.90880683e-02, 0., 0., 0., 0., 4.90880683e-02, 0.,
          4.90880683e-02, 0., 9.81761366e-02, 0., 0., 0., 0., 0., 0.,
          4.90880683e-02, 0., 0., 0., 4.90880683e-02, 0., 0., 0., 0., 0.,
          4.90880683e-02, 4.90880683e-02, 0., 0., 0., 0., 0., 0., 0., 0.,
          0., 0., 0., 0., 0., 0., 4.90880683e-02, 0., 1.96352273e-01, 0.,
          0., 4.90880683e-02, 0., 4.90880683e-02, 4.90880683e-02, 0., 0.,
          0., 4.90880683e-02, 9.81761366e-02, 9.81761366e-02, 0., 0., 0.,
          0., 1.47264212e-01, 0., 0., 0., 0., 0., 9.81761366e-02, 0., 0.,
          0., 0., 0., 0., 0., 9.81761366e-02, 0., 4.90880683e-02, 0., 0.,
          4.90880683e-02, 4.90880683e-02, 0., 4.90880683e-02, 0., 0., 0.,
          4.90880683e-02, 0., 4.90880683e-02, 1.47264212e-01, 0., 0., 0.,
          0., 0., 0., 0., 0., 0., 0., 4.90880683e-02, 4.90880683e-02, 0.,
          9.81761366e-02, 9.81761366e-02, 4.90880683e-02, 0.,
          4.90880683e-02, 4.90880683e-02, 0., 0., 0., 0., 4.90880683e-02,
          0., 0., 0., 0., 4.90880683e-02, 0., 4.90880683e-02, 0., 0., 0.,
          0., 4.90880683e-02, 0., 4.90880683e-02, 0., 0., 0., 0., 0.,
          4.90880683e-02, 0., 4.90880683e-02, 4.90880683e-02,
          9.81761366e-02, 4.90880683e-02, 0., 4.90880683e-02,
          4.90880683e-02, 4.90880683e-02, 4.90880683e-02, 0., 0., 0., 0.,
          9.81761366e-02, 0., 0., 0., 0., 4.90880683e-02, 0.,
          4.90880683e-02, 4.90880683e-02, 0., 0., 0., 0., 0.,
          4.90880683e-02, 4.90880683e-02, 0., 0., 0., 0., 0., 0., 0.,
          9.81761366e-02, 0., 4.90880683e-02, 0., 4.90880683e-02, 0., 0.,
          4.90880683e-02, 4.90880683e-02, 0., 0., 0., 0., 0., 0., 0., 0.,
          0., 0., 0., 0., 0., 1.47264212e-01, 9.81761366e-02, 0., 0.,
          4.90880683e-02, 4.90880683e-02, 0., 0., 0., 4.90880683e-02,
          4.90880683e-02, 0., 0., 4.90880683e-02, 1.96352273e-01, 0., 0.,
          0., 0., 9.81761366e-02, 4.90880683e-02, 0., 0., 4.90880683e-02,
          4.90880683e-02, 4.90880683e-02, 0., 0., 0., 0., 0.,
          9.81761366e-02, 4.90880683e-02, 0., 0., 0., 0., 0., 0., 0., 0.,
          1.47264212e-01, 0., 1.47264212e-01, 0., 9.81761366e-02, 0.,
          4.90880683e-02, 0., 0., 4.90880683e-02, 9.81761366e-02, 0., 0.,
          1.96352273e-01, 0., 0., 0., 0., 0., 0., 4.90880683e-02, 0., 0.,
          9.81761366e-02, 0., 0., 0., 0., 0., 4.90880683e-02, 0., 0.,
          1.47264212e-01, 4.90880683e-02, 4.90880683e-02, 0.,
          4.90880683e-02, 0., 0., 0., 1.47264212e-01, 0., 0., 0., 0., 0.,
          4.90880683e-02, 0., 0., 0., 0., 4.90880683e-02, 0.,
          9.81761366e-02, 9.81761366e-02, 0., 4.90880683e-02, 0., 0., 0.,
          0., 0., 0., 4.90880683e-02, 0., 0., 0., 0., 4.90880683e-02, 0.,
          4.90880683e-02, 1.47264212e-01, 4.90880683e-02, 0., 0., 0.,
          4.90880683e-02, 9.81761366e-02, 0., 0., 0., 0., 4.90880683e-02,
          0., 9.81761366e-02, 0., 9.81761366e-02, 0., 0., 0., 0., 0.,
          4.90880683e-02, 0., 4.90880683e-02, 0., 0., 0., 0., 0., 0., 0.,
          4.90880683e-02, 0., 0., 0., 0., 4.90880683e-02, 0., 0., 0.,
          4.90880683e-02, 0., 4.90880683e-02, 0., 0., 4.90880683e-02, 0.,
          4.90880683e-02, 1.47264212e-01, 0. ]
      - [ 0., 0., 0., 0., 0., 0., 0., 0., 1.09764263e-01, 0., 0., 0., 0.,
          0., 0., 0., 0., 1.09764263e-01, 0., 0., 0., 0., 0., 0., 0., 0.,
          0., 0., 0., 0., 0., 0., 0., 0., 0., 0., 0., 0., 0., 0., 0., 0.,
          0., 0., 0., 0., 0., 0., 0., 0., 0., 0., 0., 0., 0.,
          1.09764263e-01, 0., 0., 0., 0., 0., 0., 0., 0., 0.,
          1.09764263e-01, 0., 0., 0., 0., 1.09764263e-01, 0., 0., 0., 0.,
          0., 0., 2.19528526e-01, 0., 0., 0., 0., 0., 0., 2.19528526e-01,
          0., 0., 0., 0., 0., 0., 0., 0., 0., 1.09764263e-01, 0., 0., 0.,
          0., 0., 0., 2.19528526e-01, 0., 0., 0., 0., 0., 0., 0., 0., 0.,
          0., 0., 0., 0., 0., 0., 0., 0., 0., 0., 0., 0., 0., 0., 0., 0.,
          0., 0., 0., 0., 0., 0., 0., 0., 0., 0., 0., 0., 0., 0., 0., 0.,
          0., 0., 0., 0., 0., 0., 0., 0., 0., 0., 0., 2.19528526e-01, 0.,
          0., 0., 0., 0., 0., 0., 0., 0., 0., 0., 0., 0., 2.19528526e-01,
          0., 0., 0., 0., 0., 0., 0., 0., 0., 0., 0., 0., 0., 0., 0., 0.,
          0., 0., 1.09764263e-01, 0., 0., 0., 0., 0., 0., 0., 0., 0., 0.,
          0., 0., 1.09764263e-01, 0., 0., 0., 0., 2.19528526e-01, 0., 0.,
          0., 0., 0., 0., 0., 0., 0., 0., 0., 0., 0., 0., 0., 0., 0., 0.,
          0., 0., 0., 0., 0., 0., 0., 0., 0., 0., 0., 0., 0., 0., 0., 0.,
          0., 2.19528526e-01, 0., 0., 0., 0., 0., 0., 0., 0., 0., 0., 0.,
          0., 0., 0., 0., 0., 0., 0., 0., 0., 0., 0., 0., 0., 0., 0., 0.,
          0., 1.09764263e-01, 0., 0., 0., 0., 1.09764263e-01, 0., 0., 0.,
          0., 0., 0., 0., 0., 0., 0., 0., 0., 0., 1.09764263e-01, 0., 0.,
          1.09764263e-01, 1.09764263e-01, 0., 0., 1.09764263e-01, 0., 0.,
          0., 0., 0., 0., 0., 0., 0., 0., 0., 0., 0., 1.09764263e-01, 0.,
          0., 1.09764263e-01, 0., 0., 0., 0., 1.09764263e-01, 0., 0., 0.,
          1.09764263e-01, 0., 0., 0., 0., 0., 0., 0., 0., 0., 0., 0., 0.,
          0., 0., 0., 0., 1.09764263e-01, 0., 0., 0., 0., 0., 0., 0., 0.,
          0., 0., 0., 1.09764263e-01, 1.09764263e-01, 0., 0., 0., 0.,
          2.19528526e-01, 0., 0., 0., 0., 0., 0., 0., 0., 0., 0.,
          1.09764263e-01, 0., 0., 0., 1.09764263e-01, 0., 0., 0., 0., 0.,
          0., 0., 0., 0., 0., 0., 0., 0., 0., 0., 0., 1.09764263e-01, 0.,
          0., 0., 0., 0., 0., 0., 0., 0., 0., 0., 0., 0., 1.09764263e-01,
          0., 0., 0., 0., 0., 0., 0., 0., 0., 0., 0., 0., 0., 0., 0.,
          1.09764263e-01, 0., 0., 0., 0., 0., 1.09764263e-01, 0., 0., 0.,
          0., 0., 0., 0., 0., 0., 0., 0., 0., 0., 0., 0., 0., 0., 0., 0.,
          0., 0., 0., 1.09764263e-01, 0., 0., 0., 0., 0., 0., 0., 0., 0.,
          0., 0., 0., 1.09764263e-01, 0., 3.29292774e-01, 3.29292774e-01,
          0., 0., 0., 0., 0., 0., 0., 0., 1.09764263e-01, 0., 0., 0., 0.,
          0., 0., 1.09764263e-01, 0., 0., 0., 0., 1.09764263e-01, 0., 0.,
          0., 0., 0., 0., 0., 0., 0., 0., 1.09764263e-01, 0., 0., 0. ]
      - [ 0., 0., 0., 0., 0., 0., 0., 0., 0., 7.21687824e-02,
          7.21687824e-02, 0., 0., 0., 0., 1.44337565e-01, 7.21687824e-02,
          0., 0., 0., 0., 0., 0., 0., 0., 7.21687824e-02, 0., 0.,
          7.21687824e-02, 0., 0., 0., 7.21687824e-02, 0., 0.,
          7.21687824e-02, 0., 0., 0., 0., 0., 0., 0., 0., 0., 0., 0.,
          7.21687824e-02, 7.21687824e-02, 0., 7.21687824e-02, 0., 0., 0.,
          0., 1.44337565e-01, 0., 0., 0., 0., 7.21687824e-02, 0., 0., 0.,
          0., 0., 0., 0., 0., 0., 0., 0., 0., 0., 7.21687824e-02, 0., 0.,
          0., 7.21687824e-02, 0., 0., 7.21687824e-02, 0., 0., 0., 0., 0.,
          0., 0., 0., 0., 0., 7.21687824e-02, 0., 7.21687824e-02, 0., 0.,
          0., 0., 7.21687824e-02, 0., 0., 0., 0., 0., 0., 0., 0., 0., 0.,
          0., 0., 0., 0., 0., 7.21687824e-02, 0., 0., 0., 0., 0., 0., 0.,
          0., 0., 0., 0., 0., 0., 0., 0., 2.88675129e-01, 0., 0., 0., 0.,
          0., 0., 0., 0., 0., 0., 0., 0., 0., 0., 0., 0., 0., 0., 0., 0.,
          0., 0., 1.44337565e-01, 0., 0., 0., 0., 7.21687824e-02, 0., 0.,
          7.21687824e-02, 0., 7.21687824e-02, 0., 0., 0., 0., 0., 0., 0.,
          7.21687824e-02, 0., 0., 7.21687824e-02, 0., 0., 7.21687824e-02,
          0., 1.44337565e-01, 0., 0., 0., 0., 0., 0., 0., 0., 0., 0.,
          7.21687824e-02, 1.44337565e-01, 1.44337565e-01, 0., 0., 0.,
          1.44337565e-01, 0., 7.21687824e-02, 0., 0., 0., 0., 0.,
          7.21687824e-02, 7.21687824e-02, 7.21687824e-02, 0., 0., 0.,
          7.21687824e-02, 0., 0., 0., 7.21687824e-02, 7.21687824e-02, 0.,
          0., 0., 0., 0., 0., 0., 7.21687824e-02, 0., 0., 0., 0., 0., 0.,
          0., 0., 0., 2.88675129e-01, 0., 1.44337565e-01, 7.21687824e-02,
          0., 0., 0., 0., 0., 7.21687824e-02, 0., 0., 0., 0., 0., 0., 0.,
          1.44337565e-01, 0., 0., 0., 0., 7.21687824e-02, 0., 0., 0., 0.,
          0., 0., 7.21687824e-02, 0., 0., 0., 0., 0., 0., 0.,
          7.21687824e-02, 0., 0., 0., 0., 0., 7.21687824e-02, 0., 0., 0.,
          0., 7.21687824e-02, 7.21687824e-02, 0., 0., 0., 0., 0.,
          2.16506347e-01, 0., 0., 0., 1.44337565e-01, 0., 0., 0., 0., 0.,
          7.21687824e-02, 0., 0., 0., 7.21687824e-02, 0., 0., 0., 0.,
          7.21687824e-02, 0., 0., 0., 0., 0., 1.44337565e-01, 0., 0., 0.,
          0., 0., 0., 0., 0., 7.21687824e-02, 7.21687824e-02, 0., 0., 0.,
          0., 7.21687824e-02, 0., 7.21687824e-02, 0., 0., 0., 0., 0., 0.,
          0., 0., 0., 0., 0., 0., 0., 0., 7.21687824e-02, 0., 0., 0., 0.,
          0., 0., 0., 0., 0., 0., 0., 0., 0., 0., 7.21687824e-02, 0., 0.,
          0., 0., 0., 0., 0., 0., 0., 0., 0., 7.21687824e-02, 0.,
          7.21687824e-02, 0., 7.21687824e-02, 0., 0., 0., 0., 0., 0., 0.,
          0., 0., 0., 0., 0., 7.21687824e-02, 0., 2.16506347e-01, 0., 0.,
          0., 0., 0., 0., 0., 0., 0., 0., 0., 0., 0., 0., 0., 0., 0., 0.,
          7.21687824e-02, 0., 0., 0., 0., 0., 0., 0., 7.21687824e-02, 0.,
          0., 0., 0., 7.21687824e-02, 0., 0., 0., 0., 1.44337565e-01, 0.,
          0., 0., 0., 0., 7.21687824e-02, 0., 7.21687824e-02, 0., 0., 0.,
          0., 7.21687824e-02, 0., 0., 0., 0., 0., 0., 0., 0., 0., 0.,
          7.21687824e-02, 0., 0., 0., 0., 7.21687824e-02, 7.21687824e-02,
          0., 0., 0., 7.21687824e-02, 0., 0., 0., 0., 0., 0.,
          7.21687824e-02, 0., 7.21687824e-02, 0., 0., 7.21687824e-02,
          3.60843927e-01, 0., 7.21687824e-02, 7.21687824e-02, 0., 0., 0.,
          0., 0., 0., 0., 0., 0., 0., 0., 0., 0., 0., 0., 0., 0., 0., 0.,
          0. ]
      - [ 0., 0., 0., 1.12866528e-01, 5.64332642e-02, 1.12866528e-01, 0.,
          5.64332642e-02, 5.64332642e-02, 0., 0., 0., 0., 0., 0.,
          5.64332642e-02, 0., 0., 0., 0., 0., 0., 0., 0., 0., 0., 0., 0.,
          0., 1.12866528e-01, 0., 0., 0., 5.64332642e-02, 5.64332642e-02,
          0., 5.64332642e-02, 0., 1.12866528e-01, 0., 5.64332642e-02, 0.,
          0., 2.25733057e-01, 0., 0., 0., 0., 0., 0., 0., 0.,
          5.64332642e-02, 0., 0., 0., 0., 0., 0., 0., 0., 5.64332642e-02,
          0., 0., 0., 0., 0., 0., 0., 5.64332642e-02, 0., 1.12866528e-01,
          1.12866528e-01, 0., 0., 0., 5.64332642e-02, 0., 5.64332642e-02,
          2.25733057e-01, 0., 0., 5.64332642e-02, 0., 2.25733057e-01, 0.,
          0., 5.64332642e-02, 5.64332642e-02, 1.12866528e-01, 0., 0., 0.,
          0., 0., 0., 1.12866528e-01, 0., 1.69299796e-01, 5.64332642e-02,
          0., 0., 0., 0., 0., 5.64332642e-02, 0., 5.64332642e-02, 0., 0.,
          0., 1.12866528e-01, 0., 5.64332642e-02, 0., 5.64332642e-02, 0.,
          5.64332642e-02, 0., 0., 0., 0., 0., 0., 5.64332642e-02, 0., 0.,
          1.12866528e-01, 0., 0., 5.64332642e-02, 0., 0., 0., 0.,
          5.64332642e-02, 5.64332642e-02, 0., 0., 5.64332642e-02, 0., 0.,
          0., 0., 0., 0., 0., 5.64332642e-02, 0., 0., 0., 5.64332642e-02,
          0., 0., 5.64332642e-02, 0., 0., 0., 5.64332642e-02,
          5.64332642e-02, 0., 0., 0., 0., 0., 0., 5.64332642e-02, 0., 0.,
          0., 0., 5.64332642e-02, 0., 5.64332642e-02, 0., 0., 0., 0.,
          5.64332642e-02, 0., 0., 0., 0., 0., 0., 5.64332642e-02, 0., 0.,
          0., 0., 5.64332642e-02, 0., 0., 0., 0., 0., 5.64332642e-02, 0.,
          0., 0., 0., 0., 5.64332642e-02, 1.12866528e-01, 0.,
          1.12866528e-01, 0., 5.64332642e-02, 0., 0., 0., 0.,
          5.64332642e-02, 0., 0., 0., 1.12866528e-01, 5.64332642e-02, 0.,
          0., 5.64332642e-02, 0., 0., 0., 0., 0., 0., 1.12866528e-01, 0.,
          0., 0., 0., 0., 0., 0., 0., 1.12866528e-01, 0., 0.,
          5.64332642e-02, 0., 0., 0., 0., 0., 0., 0., 0., 0., 0.,
          1.12866528e-01, 5.64332642e-02, 0., 0., 0., 5.64332642e-02, 0.,
          0., 0., 0., 0., 0., 5.64332642e-02, 0., 0., 0., 0., 0., 0.,
          5.64332642e-02, 0., 0., 5.64332642e-02, 0., 0., 0., 0., 0., 0.,
          5.64332642e-02, 0., 5.64332642e-02, 0., 5.64332642e-02, 0., 0.,
          0., 5.64332642e-02, 0., 0., 0., 0., 0., 0., 0., 5.64332642e-02,
          0., 0., 0., 0., 0., 0., 0., 0., 0., 0., 0., 0., 0.,
          5.64332642e-02, 0., 0., 0., 1.12866528e-01, 0., 1.12866528e-01,
          0., 0., 0., 0., 0., 0., 0., 0., 1.12866528e-01, 5.64332642e-02,
          0., 0., 1.12866528e-01, 0., 0., 0., 5.64332642e-02,
          1.12866528e-01, 0., 1.12866528e-01, 5.64332642e-02,
          5.64332642e-02, 0., 0., 0., 0., 0., 0., 5.64332642e-02,
          1.12866528e-01, 0., 1.12866528e-01, 5.64332642e-02, 0., 0.,
          5.64332642e-02, 5.64332642e-02, 0., 0., 5.64332642e-02, 0.,
          5.64332642e-02, 5.64332642e-02, 0., 5.64332642e-02, 0., 0., 0.,
          0., 0., 0., 5.64332642e-02, 0., 0., 0., 0., 5.64332642e-02,
          5.64332642e-02, 0., 0., 0., 5.64332642e-02, 1.12866528e-01, 0.,
          0., 0., 5.64332642e-02, 1.69299796e-01, 0., 1.12866528e-01, 0.,
          0., 0., 0., 0., 0., 0., 5.64332642e-02, 0., 0., 5.64332642e-02,
          0., 5.64332642e-02, 0., 0., 0., 0., 0., 0., 0., 0.,
          5.64332642e-02, 0., 5.64332642e-02, 0., 0., 0., 0., 0., 0., 0.,
          5.64332642e-02, 1.12866528e-01, 0., 0., 0., 5.64332642e-02, 0.,
          1.12866528e-01, 5.64332642e-02, 0., 5.64332642e-02, 0.,
          5.64332642e-02, 5.64332642e-02, 0., 0., 0., 0., 0.,
          5.64332642e-02, 0., 0., 5.64332642e-02, 0., 0., 0., 0., 0., 0.,
          0., 0., 5.64332642e-02, 0., 0., 0., 1.12866528e-01, 0., 0., 0.,
          0., 0., 0., 0., 1.69299796e-01, 0., 0., 0., 0., 5.64332642e-02,
          0., 0., 0., 0., 0., 1.12866528e-01, 0., 0., 0., 0.,
          5.64332642e-02, 1.12866528e-01, 0., 0., 1.12866528e-01,
          5.64332642e-02, 0., 0., 5.64332642e-02, 1.12866528e-01,
          5.64332642e-02, 0., 0., 0., 0., 0., 0., 0., 0., 0.,
          1.69299796e-01, 5.64332642e-02, 5.64332642e-02, 1.12866528e-01 ]
      - [ 0., 8.58897492e-02, 0., 8.58897492e-02, 2.86299158e-02, 0., 0.,
          8.58897492e-02, 2.86299158e-02, 2.86299158e-02, 0., 0., 0., 0.,
          0., 5.72598316e-02, 5.72598316e-02, 0., 5.72598316e-02, 0., 0.,
          0., 0., 2.86299158e-02, 5.72598316e-02, 0., 0., 2.86299158e-02,
          5.72598316e-02, 0., 0., 5.72598316e-02, 0., 0., 2.86299158e-02,
          1.14519663e-01, 0., 2.86299158e-02, 0., 0., 0., 0.,
          2.86299158e-02, 2.86299158e-02, 0., 0., 8.58897492e-02,
          2.86299158e-02, 0., 0., 0., 0., 0., 8.58897492e-02, 0., 0., 0.,
          1.14519663e-01, 0., 0., 0., 2.86299158e-02, 2.86299158e-02,
          2.86299158e-02, 0., 5.72598316e-02, 2.86299158e-02,
          2.86299158e-02, 1.14519663e-01, 5.72598316e-02, 0.,
          8.58897492e-02, 0., 0., 0., 0., 0., 5.72598316e-02,
          8.58897492e-02, 2.00409412e-01, 0., 0., 0., 5.72598316e-02,
          5.72598316e-02, 5.72598316e-02, 1.14519663e-01, 0.,
          5.72598316e-02, 2.86299158e-02, 0., 0., 2.86299158e-02, 0.,
          8.58897492e-02, 2.86299158e-02, 2.86299158e-02, 2.86299158e-02,
          0., 0., 2.86299158e-02, 2.29039326e-01, 2.86299158e-02,
          8.58897492e-02, 2.86299158e-02, 5.72598316e-02, 2.86299158e-02,
          0., 5.72598316e-02, 5.72598316e-02, 5.72598316e-02,
          5.72598316e-02, 0., 0., 0., 0., 1.71779498e-01, 0., 0., 0., 0.,
          0., 0., 2.86299158e-02, 0., 0., 2.86299158e-02, 0., 0., 0., 0.,
          8.58897492e-02, 0., 0., 0., 0., 0., 0., 0., 0., 0., 0., 0.,
          1.14519663e-01, 0., 2.86299158e-02, 2.86299158e-02,
          1.71779498e-01, 0., 0., 8.58897492e-02, 1.14519663e-01,
          2.86299158e-02, 0., 0., 8.58897492e-02, 2.86299158e-02, 0., 0.,
          2.86299158e-02, 0., 0., 2.86299158e-02, 0., 0., 5.72598316e-02,
          0., 0., 0., 0., 0., 0., 2.86299158e-02, 0., 0., 0., 0.,
          5.72598316e-02, 0., 0., 2.86299158e-02, 2.86299158e-02, 0., 0.,
          2.86299158e-02, 0., 0., 0., 2.86299158e-02, 8.58897492e-02, 0.,
          0., 0., 0., 0., 0., 0., 5.72598316e-02, 0., 0., 2.86299158e-02,
          0., 0., 0., 0., 5.72598316e-02, 0., 2.86299158e-02, 0.,
          2.86299158e-02, 0., 0., 0., 0., 0., 0., 1.14519663e-01, 0.,
          2.86299158e-02, 0., 5.72598316e-02, 0., 0., 1.71779498e-01, 0.,
          2.86299158e-02, 2.86299158e-02, 2.86299158e-02, 0., 0.,
          2.86299158e-02, 2.86299158e-02, 0., 0., 2.86299158e-02,
          2.86299158e-02, 5.72598316e-02, 1.43149585e-01, 0., 0., 0.,
          5.72598316e-02, 0., 2.86299158e-02, 0., 2.86299158e-02,
          2.86299158e-02, 2.86299158e-02, 0., 2.86299158e-02,
          2.86299158e-02, 5.72598316e-02, 2.86299158e-02, 0.,
          1.14519663e-01, 0., 5.72598316e-02, 2.86299158e-02, 0.,
          2.86299158e-02, 0., 0., 2.86299158e-02, 0., 2.86299158e-02,
          2.86299158e-02, 8.58897492e-02, 2.86299158e-02, 0.,
          2.86299158e-02, 0., 0., 0., 0., 0., 0., 0., 1.43149585e-01,
          2.86299158e-02, 0., 0., 2.86299158e-02, 2.86299158e-02,
          1.43149585e-01, 2.86299158e-02, 5.72598316e-02, 0.,
          2.86299158e-02, 0., 1.14519663e-01, 2.86299158e-02, 0.,
          2.86299158e-02, 2.86299158e-02, 0., 0., 0., 2.86299158e-02,
          2.86299158e-02, 0., 2.86299158e-02, 0., 2.86299158e-02,
          2.86299158e-02, 2.86299158e-02, 2.86299158e-02, 0.,
          2.86299158e-02, 0., 2.86299158e-02, 1.71779498e-01, 0., 0.,
          2.86299158e-02, 1.14519663e-01, 0., 0., 5.72598316e-02, 0., 0.,
          1.71779498e-01, 0., 2.86299158e-02, 2.86299158e-02,
          2.86299158e-02, 0., 2.86299158e-02, 0., 5.72598316e-02,
          2.86299158e-02, 2.86299158e-02, 5.72598316e-02, 0.,
          2.86299158e-02, 2.86299158e-02, 0., 2.57669240e-01,
          2.86299158e-02, 1.14519663e-01, 5.72598316e-02, 0., 0.,
          2.86299158e-02, 0., 0., 2.86299158e-02, 0., 0., 8.58897492e-02,
          0., 0., 2.86299158e-02, 0., 2.86299158e-02, 0., 0., 0.,
          2.86299158e-02, 2.86299158e-02, 5.72598316e-02, 0.,
          5.72598316e-02, 5.72598316e-02, 0., 2.86299158e-02, 0.,
          2.86299158e-02, 0., 0., 0., 0., 0., 1.43149585e-01, 0., 0., 0.,
          0., 0., 1.43149585e-01, 0., 0., 0., 0., 0., 0., 0., 0.,
          2.86299158e-02, 5.72598316e-02, 5.72598316e-02, 0., 0., 0., 0.,
          5.72598316e-02, 0., 0., 0., 0., 2.86299158e-02, 0.,
          5.72598316e-02, 2.86299158e-02, 2.86299158e-02, 2.86299158e-02,
          0., 5.72598316e-02, 0., 2.86299158e-02, 0., 2.86299158e-02,
          2.86299158e-02, 2.86299158e-02, 2.86299158e-02, 0., 0.,
          2.86299158e-02, 2.86299158e-02, 2.86299158e-02, 2.86299158e-02,
          0., 2.86299158e-02, 0., 0., 0., 0., 0., 0., 0., 0.,
          2.86299158e-02, 1.14519663e-01, 0., 0., 0., 2.86299158e-02, 0.,
          0., 0., 2.86299158e-02, 0., 2.86299158e-02, 5.72598316e-02, 0.,
          0., 0., 2.86299158e-02, 2.86299158e-02, 2.86299158e-02,
          2.86299158e-02, 0., 0., 0., 1.14519663e-01, 2.86299158e-02,
          2.86299158e-02, 2.86299158e-02, 0., 0., 2.86299158e-02,
          8.58897492e-02, 2.86299158e-02, 2.86299158e-02, 8.58897492e-02,
          0., 5.72598316e-02, 2.86299158e-02, 5.72598316e-02,
          5.72598316e-02, 0., 2.86299158e-02, 0., 0., 2.86299158e-02, 0.,
          0., 8.58897492e-02, 0., 0., 0., 2.86299158e-02, 2.86299158e-02,
          2.86299158e-02, 8.58897492e-02, 0., 0., 2.86299158e-02, 0.,
          2.86299158e-02, 5.72598316e-02, 0., 0., 2.86299158e-02, 0.,
          1.43149585e-01, 2.86299158e-02, 2.86299158e-02, 0., 0., 0. ]
      - [ 4.89115976e-02, 0., 4.89115976e-02, 4.89115976e-02, 0., 0., 0.,
          0., 4.89115976e-02, 4.89115976e-02, 9.78231952e-02, 0.,
          4.89115976e-02, 0., 4.89115976e-02, 0., 0., 4.89115976e-02,
          4.89115976e-02, 0., 0., 0., 0., 4.89115976e-02, 4.89115976e-02,
          4.89115976e-02, 0., 4.89115976e-02, 0., 0., 1.46734789e-01, 0.,
          4.89115976e-02, 0., 0., 0., 0., 0., 4.89115976e-02, 0., 0., 0.,
          0., 0., 0., 9.78231952e-02, 0., 0., 4.89115976e-02, 0.,
          4.89115976e-02, 0., 0., 0., 0., 0., 0., 0., 0., 0., 0., 0., 0.,
          0., 0., 9.78231952e-02, 4.89115976e-02, 4.89115976e-02, 0.,
          4.89115976e-02, 4.89115976e-02, 1.95646390e-01, 4.89115976e-02,
          4.89115976e-02, 0., 0., 0., 9.78231952e-02, 9.78231952e-02,
          9.78231952e-02, 4.89115976e-02, 4.89115976e-02, 9.78231952e-02,
          0., 4.89115976e-02, 0., 4.89115976e-02, 0., 4.89115976e-02, 0.,
          0., 4.89115976e-02, 9.78231952e-02, 9.78231952e-02,
          1.46734789e-01, 9.78231952e-02, 0., 0., 1.46734789e-01, 0.,
          9.78231952e-02, 4.89115976e-02, 0., 9.78231952e-02, 0., 0., 0.,
          0., 4.89115976e-02, 0., 0., 0., 4.89115976e-02, 0., 0.,
          4.89115976e-02, 0., 0., 0., 0., 0., 0., 0., 0., 4.89115976e-02,
          0., 0., 0., 4.89115976e-02, 0., 0., 0., 0., 4.89115976e-02, 0.,
          4.89115976e-02, 9.78231952e-02, 4.89115976e-02, 0., 0., 0., 0.,
          0., 4.89115976e-02, 0., 9.78231952e-02, 4.89115976e-02, 0., 0.,
          4.89115976e-02, 0., 0., 0., 0., 4.89115976e-02, 9.78231952e-02,
          0., 0., 0., 0., 9.78231952e-02, 9.78231952e-02, 0., 0., 0., 0.,
          4.89115976e-02, 0., 0., 4.89115976e-02, 4.89115976e-02,
          4.89115976e-02, 0., 0., 0., 9.78231952e-02, 0., 0., 0., 0., 0.,
          0., 0., 0., 0., 0., 0., 0., 0., 9.78231952e-02, 4.89115976e-02,
          9.78231952e-02, 0., 0., 0., 4.89115976e-02, 4.89115976e-02, 0.,
          0., 0., 0., 0., 4.89115976e-02, 0., 0., 9.78231952e-02, 0., 0.,
          0., 9.78231952e-02, 0., 0., 0., 4.89115976e-02, 0., 0.,
          2.93469578e-01, 0., 0., 0., 0., 0., 0., 0., 0., 0., 0., 0., 0.,
          0., 4.89115976e-02, 9.78231952e-02, 0., 0., 4.89115976e-02, 0.,
          4.89115976e-02, 0., 4.89115976e-02, 4.89115976e-02, 0.,
          9.78231952e-02, 0., 0., 0., 0., 0., 9.78231952e-02, 0., 0., 0.,
          0., 0., 0., 0., 4.89115976e-02, 9.78231952e-02, 0.,
          4.89115976e-02, 0., 0., 0., 0., 0., 9.78231952e-02, 0., 0., 0.,
          0., 4.89115976e-02, 9.78231952e-02, 0., 0., 0., 0.,
          4.89115976e-02, 0., 1.95646390e-01, 0., 4.89115976e-02,
