%YAML:1.0
---
opencv_ml_svm:
   format: 3
   svmType: C_SVC
   kernel:
      type: CHI2
      gamma: 2.2500000000000003e-03
   C: 3.1250000000000000e+02
   term_criteria: { epsilon:1.0000000000000001e-01 }
   var_count: 500
   class_count: 2
   class_labels: !!opencv-matrix
      rows: 2
      cols: 1
      dt: i
      data: [ 0, 1 ]
   sv_total: 196
   support_vectors:
      - [ 5.95374070e-02, 3.96916047e-02, 3.96916047e-02, 3.96916047e-02,
          0., 0., 0., 9.92290080e-02, 3.96916047e-02, 0., 1.98458023e-02,
          3.96916047e-02, 0., 3.96916047e-02, 3.96916047e-02, 0.,
          3.96916047e-02, 5.95374070e-02, 3.96916047e-02, 1.98458023e-02,
          1.98458023e-02, 0., 0., 1.98458023e-02, 3.96916047e-02,
          1.98458023e-02, 0., 3.96916047e-02, 5.95374070e-02,
          1.98458023e-02, 9.92290080e-02, 0., 0., 1.98458023e-02,
          1.98458023e-02, 2.38149628e-01, 5.95374070e-02, 0.,
          3.96916047e-02, 3.96916047e-02, 0., 0., 1.98458023e-02, 0.,
          3.96916047e-02, 1.98458023e-02, 1.98458023e-02, 0.,
          5.95374070e-02, 3.96916047e-02, 0., 0., 0., 1.98458023e-02,
          1.98458023e-02, 0., 0., 0., 0., 3.96916047e-02, 3.96916047e-02,
          0., 1.98458023e-02, 1.19074814e-01, 1.98458023e-02,
          1.98458023e-02, 5.95374070e-02, 1.98458023e-02, 0.,
          1.98458023e-02, 1.98458023e-02, 1.98458023e-02, 5.95374070e-02,
          3.96916047e-02, 0., 0., 0., 2.97687024e-01, 5.95374070e-02,
          1.98458023e-02, 1.98458023e-02, 1.98458023e-02, 1.98458023e-02,
          3.96916047e-02, 1.58766419e-01, 0., 0., 1.98458023e-02,
          3.96916047e-02, 3.96916047e-02, 0., 3.96916047e-02, 0., 0.,
          5.95374070e-02, 5.95374070e-02, 0., 0., 3.96916047e-02, 0.,
          1.98458023e-02, 2.97687024e-01, 0., 0., 1.98458023e-02,
          5.95374070e-02, 3.96916047e-02, 1.98458023e-02, 1.98458023e-02,
          0., 0., 3.96916047e-02, 1.98458023e-02, 3.96916047e-02, 0., 0.,
          0., 3.96916047e-02, 3.96916047e-02, 1.98458023e-02,
          1.98458023e-02, 0., 1.98458023e-02, 1.98458023e-02,
          1.98458023e-02, 0., 0., 3.96916047e-02, 1.98458023e-02, 0., 0.,
          9.92290080e-02, 7.93832093e-02, 0., 7.93832093e-02,
          1.98458023e-02, 0., 7.93832093e-02, 5.95374070e-02, 0.,
          1.98458023e-02, 1.98458023e-02, 0., 3.96916047e-02,
          1.98458023e-02, 3.96916047e-02, 0., 0., 1.98458023e-02,
          3.96916047e-02, 1.98458023e-02, 1.98458023e-02, 0., 0.,
          3.96916047e-02, 1.98458023e-02, 1.98458023e-02, 5.95374070e-02,
          3.96916047e-02, 1.98458023e-02, 1.98458023e-02, 3.96916047e-02,
          3.96916047e-02, 9.92290080e-02, 5.95374070e-02, 0.,
          1.98458023e-02, 0., 1.98458023e-02, 1.98458023e-02, 0.,
          3.96916047e-02, 1.98458023e-02, 0., 1.98458023e-02, 0., 0.,
          1.98458023e-02, 1.98458023e-02, 0., 0., 0., 1.98458023e-02, 0.,
          3.96916047e-02, 1.98458023e-02, 1.98458023e-02, 1.98458023e-02,
          0., 3.96916047e-02, 1.98458023e-02, 0., 1.98458023e-02, 0.,
          5.95374070e-02, 1.98458023e-02, 0., 0., 0., 3.96916047e-02,
          3.96916047e-02, 0., 3.96916047e-02, 0., 1.98458023e-02,
          1.98458016e-01, 7.93832093e-02, 1.98458023e-02, 0., 0.,
          1.98458023e-02, 1.98458023e-02, 1.98458023e-02, 3.96916047e-02,
          3.96916047e-02, 0., 1.98458023e-02, 1.98458023e-02,
          1.98458023e-02, 9.92290080e-02, 0., 0., 0., 0., 0.,
          1.98458023e-02, 0., 0., 1.98458023e-02, 0., 1.98458023e-02,
          3.96916047e-02, 1.98458023e-02, 0., 1.98458023e-02,
          1.98458023e-02, 0., 0., 1.98458023e-02, 5.95374070e-02, 0., 0.,
          0., 9.92290080e-02, 0., 0., 0., 0., 3.96916047e-02, 0.,
          3.96916047e-02, 0., 3.96916047e-02, 0., 3.96916047e-02,
          3.96916047e-02, 1.98458023e-02, 5.95374070e-02, 1.98458023e-02,
          5.95374070e-02, 1.98458023e-02, 0., 3.96916047e-02, 0., 0., 0.,
          0., 1.98458023e-02, 3.96916047e-02, 0., 9.92290080e-02, 0.,
          1.98458023e-02, 3.96916047e-02, 0., 9.92290080e-02,
          3.96916047e-02, 1.98458023e-02, 3.96916047e-02, 0.,
          1.19074814e-01, 0., 0., 1.98458023e-02, 5.95374070e-02,
          1.98458023e-02, 1.98458023e-02, 1.98458023e-02, 3.96916047e-02,
          0., 1.98458023e-02, 3.96916047e-02, 0., 7.93832093e-02,
          1.98458023e-02, 0., 1.98458023e-02, 0., 0., 0., 1.98458023e-02,
          1.98458023e-02, 3.96916047e-02, 5.95374070e-02, 0., 0.,
          5.95374070e-02, 5.95374070e-02, 0., 0., 1.58766419e-01,
          1.98458023e-02, 1.98458023e-02, 1.98458023e-02, 9.92290080e-02,
          1.98458023e-02, 3.96916047e-02, 7.93832093e-02, 1.98458023e-02,
          0., 1.98458023e-02, 3.96916047e-02, 3.96916047e-02, 0.,
          1.98458023e-02, 0., 0., 3.96916047e-02, 1.98458023e-02, 0.,
          1.98458023e-02, 3.96916047e-02, 0., 0., 1.98458023e-02,
          1.98458023e-02, 3.96916047e-02, 5.95374070e-02, 3.96916047e-02,
          5.95374070e-02, 1.98458023e-02, 0., 1.98458023e-02,
          1.98458023e-02, 0., 0., 0., 5.95374070e-02, 3.96916047e-02, 0.,
          3.96916047e-02, 5.95374070e-02, 1.98458023e-02, 1.98458023e-02,
          1.98458023e-02, 1.98458023e-02, 0., 0., 1.98458023e-02, 0.,
          1.98458023e-02, 2.18303815e-01, 0., 0., 5.95374070e-02,
          5.95374070e-02, 0., 1.98458023e-02, 3.96916047e-02,
          3.96916047e-02, 3.96916047e-02, 1.98458023e-02, 9.92290080e-02,
          3.96916047e-02, 0., 1.98458023e-02, 0., 3.96916047e-02,
          3.96916047e-02, 5.95374070e-02, 1.98458023e-02, 3.96916047e-02,
          0., 0., 3.96916047e-02, 3.96916047e-02, 5.95374070e-02,
          1.98458023e-02, 1.98458023e-02, 5.95374070e-02, 0., 0., 0., 0.,
          1.98458023e-02, 1.98458023e-02, 0., 0., 1.98458023e-02,
          1.98458023e-02, 0., 3.96916047e-02, 0., 1.98458023e-02, 0.,
          1.98458023e-02, 3.96916047e-02, 0., 3.96916047e-02,
          3.96916047e-02, 0., 0., 1.98458023e-02, 3.96916047e-02, 0.,
          1.98458023e-02, 0., 5.95374070e-02, 1.98458023e-02,
          5.95374070e-02, 1.98458023e-02, 0., 1.98458023e-02,
          1.98458023e-02, 1.98458023e-02, 5.95374070e-02, 1.98458023e-02,
          1.98458023e-02, 0., 0., 1.98458023e-02, 9.92290080e-02,
          1.98458023e-02, 5.95374070e-02, 0., 0., 0., 3.96916047e-02, 0.,
          0., 0., 1.98458023e-02, 1.98458023e-02, 5.95374070e-02, 0.,
          1.98458023e-02, 1.98458023e-02, 0., 1.58766419e-01,
          1.98458023e-02, 1.98458023e-02, 3.96916047e-02, 0.,
          7.93832093e-02, 0., 3.96916047e-02, 1.98458023e-02, 0.,
          1.98458023e-02, 0., 1.38920605e-01, 0., 1.98458023e-02,
          1.58766419e-01, 3.96916047e-02, 0., 1.98458023e-02,
          1.98458023e-02, 1.98458023e-02, 0., 3.96916047e-02,
          7.93832093e-02, 1.58766419e-01, 0., 3.96916047e-02, 0.,
          3.96916047e-02, 0., 1.98458023e-02, 3.96916047e-02,
          1.98458023e-02, 0., 0., 0., 5.95374070e-02, 0., 9.92290080e-02,
          1.98458023e-02, 1.98458023e-02, 1.98458023e-02, 3.96916047e-02,
          1.98458023e-02, 3.96916047e-02, 0., 1.98458023e-02, 0.,
          1.98458023e-02, 3.96916047e-02, 0., 0. ]
      - [ 2.56832745e-02, 1.41258016e-01, 1.28416372e-02, 3.85249108e-02,
          0., 0., 2.56832745e-02, 5.13665490e-02, 5.13665490e-02,
          1.28416372e-02, 1.28416372e-02, 0., 0., 0., 2.56832745e-02, 0.,
          1.28416372e-02, 5.13665490e-02, 0., 1.28416372e-02, 0.,
          1.41258016e-01, 1.41258016e-01, 2.56832745e-02, 7.70498216e-02,
          1.28416372e-02, 1.28416372e-02, 2.56832745e-02, 2.56832745e-02,
          2.56832745e-02, 5.13665490e-02, 1.28416372e-02, 1.28416372e-02,
          0., 2.56832745e-02, 2.95357674e-01, 0., 1.28416372e-02, 0.,
          2.56832745e-02, 3.85249108e-02, 2.56832745e-02, 1.28416372e-02,
          2.56832745e-02, 0., 1.28416372e-02, 2.31149480e-01, 0., 0., 0.,
          3.85249108e-02, 1.28416372e-02, 0., 1.15574740e-01, 0.,
          1.28416372e-02, 0., 1.28416372e-02, 0., 0., 3.85249108e-02, 0.,
          5.13665490e-02, 1.66941285e-01, 0., 0., 5.13665490e-02,
          3.85249108e-02, 0., 0., 2.56832745e-02, 2.56832745e-02,
          5.13665490e-02, 1.28416372e-02, 1.28416372e-02, 0., 0.,
          2.69674391e-01, 3.85249108e-02, 5.13665490e-02, 2.56832745e-02,
          6.42081872e-02, 3.85249108e-02, 2.56832745e-02, 2.56832745e-02,
          1.28416372e-02, 0., 0., 3.85249108e-02, 1.28416372e-02,
          2.56832745e-02, 0., 2.56832745e-02, 0., 2.56832745e-02,
          3.85249108e-02, 1.28416372e-02, 2.56832745e-02, 3.85249108e-02,
          0., 1.28416372e-02, 2.18307838e-01, 0., 3.85249108e-02, 0.,
          6.42081872e-02, 1.28416372e-02, 2.56832745e-02, 1.28416372e-02,
          0., 1.28416372e-02, 3.85249108e-02, 0., 1.28416372e-02, 0.,
          2.56832745e-02, 0., 0., 1.28416372e-02, 0., 1.28416372e-02, 0.,
          1.28416372e-02, 1.28416372e-02, 3.85249108e-02, 2.56832745e-02,
          0., 6.42081872e-02, 1.28416372e-02, 3.85249108e-02, 0.,
          2.56832745e-02, 3.85249108e-02, 0., 5.13665490e-02,
          5.13665490e-02, 3.85249108e-02, 1.28416372e-02, 1.28416372e-02,
          2.56832745e-02, 0., 1.28416372e-02, 1.28416372e-02,
          5.13665490e-02, 1.28416372e-02, 2.56832745e-02, 2.56832745e-02,
          5.13665490e-02, 2.56832745e-02, 0., 0., 2.56832745e-02,
          3.85249108e-02, 0., 6.42081872e-02, 3.85249108e-02, 0.,
          2.56832745e-02, 1.28416372e-02, 1.28416372e-02, 2.56832745e-02,
          1.28416372e-02, 2.56832745e-02, 3.85249108e-02, 1.28416372e-02,
          2.56832745e-02, 0., 1.28416372e-02, 1.28416372e-02, 0., 0.,
          2.56832745e-02, 0., 0., 0., 1.28416372e-02, 1.28416372e-02,
          1.28416372e-02, 1.28416372e-02, 1.28416372e-02, 0.,
          1.28416372e-02, 2.56832745e-02, 1.28416372e-02, 6.42081872e-02,
          0., 1.28416372e-02, 1.28416372e-02, 5.13665490e-02, 0., 0., 0.,
          0., 1.28416372e-02, 0., 3.85249108e-02, 1.28416372e-02,
          1.28416372e-02, 3.85249108e-02, 0., 6.42081872e-02, 0.,
          1.28416372e-02, 0., 0., 3.85249108e-02, 0., 2.56832745e-02, 0.,
          0., 2.56832745e-02, 1.28416372e-02, 2.56832745e-02,
          1.28416372e-02, 2.56832745e-02, 1.28416372e-02, 1.28416372e-02,
          0., 0., 6.42081872e-02, 1.28416372e-02, 2.56832745e-02,
          1.28416372e-02, 0., 1.28416372e-02, 3.85249108e-02, 0.,
          2.56832745e-02, 1.28416372e-02, 3.85249108e-02, 0.,
          3.85249108e-02, 0., 0., 6.42081872e-02, 1.28416372e-02,
          1.28416372e-02, 1.28416372e-02, 0., 2.56832745e-02, 0.,
          2.56832745e-02, 1.28416372e-02, 2.56832745e-02, 0.,
          1.28416372e-02, 0., 0., 2.56832745e-02, 1.28416372e-02, 0.,
          6.42081872e-02, 0., 1.28416372e-02, 1.28416372e-02, 0.,
          1.28416372e-02, 2.56832745e-02, 1.28416372e-02, 3.85249108e-02,
          0., 3.85249108e-02, 1.28416372e-02, 0., 3.85249108e-02,
          1.28416372e-02, 2.56832745e-02, 1.28416372e-02, 1.28416372e-02,
          0., 1.28416374e-01, 2.56832745e-02, 1.28416372e-02,
          3.85249108e-02, 1.15574740e-01, 3.85249108e-02, 5.13665490e-02,
          5.13665490e-02, 1.28416372e-02, 1.28416372e-02, 1.15574740e-01,
          8.98914635e-02, 1.28416372e-02, 1.28416372e-02, 0.,
          6.42081872e-02, 1.28416372e-02, 0., 1.02733098e-01, 0., 0., 0.,
          1.28416372e-02, 1.28416372e-02, 3.85249108e-02, 1.28416372e-02,
          5.13665490e-02, 1.28416372e-02, 1.28416372e-02, 0.,
          2.56832745e-02, 1.28416372e-02, 2.56832745e-02, 1.28416372e-02,
          1.28416372e-02, 1.28416372e-02, 0., 0., 0., 0., 1.54099643e-01,
          0., 0., 2.56832745e-02, 8.98914635e-02, 1.28416372e-02,
          8.98914635e-02, 2.56832745e-02, 7.70498216e-02, 0.,
          1.28416372e-02, 3.85249108e-02, 0., 0., 6.42081872e-02,
          5.13665490e-02, 2.56832745e-02, 0., 3.85249108e-02, 0.,
          5.13665490e-02, 1.28416372e-02, 0., 1.28416372e-02, 0.,
          5.13665490e-02, 3.85249108e-02, 0., 7.70498216e-02,
          5.13665490e-02, 0., 2.56832745e-02, 1.28416372e-02,
          1.28416372e-02, 0., 1.28416372e-02, 0., 1.28416372e-02, 0.,
          1.28416372e-02, 2.56832745e-02, 2.56832745e-02, 5.13665490e-02,
          2.56832745e-02, 0., 1.28416372e-02, 2.56832745e-02,
          1.28416372e-02, 1.28416372e-02, 0., 1.28416372e-02,
          2.05466196e-01, 0., 5.13665490e-02, 0., 2.56832745e-02, 0.,
          1.28416372e-02, 5.13665490e-02, 0., 2.56832745e-02, 0.,
          3.85249108e-02, 0., 0., 1.28416372e-02, 1.28416372e-02,
          1.28416372e-02, 2.05466196e-01, 1.41258016e-01, 2.56832745e-02,
          0., 0., 1.28416372e-02, 0., 0., 0., 3.85249108e-02,
          2.56832745e-02, 2.56832745e-02, 0., 0., 7.70498216e-02, 0., 0.,
          1.28416372e-02, 0., 1.28416372e-02, 1.28416372e-02, 0., 0.,
          6.42081872e-02, 0., 2.56832745e-02, 1.28416372e-02,
          2.56832745e-02, 2.56832745e-02, 0., 1.28416372e-02,
          1.28416372e-02, 1.28416372e-02, 1.02733098e-01, 1.28416372e-02,
          5.13665490e-02, 0., 0., 2.56832745e-02, 2.56832745e-02, 0.,
          8.98914635e-02, 0., 0., 1.28416372e-02, 0., 3.85249108e-02, 0.,
          1.28416372e-02, 1.28416372e-02, 0., 0., 7.70498216e-02,
          5.13665490e-02, 2.56832745e-02, 2.56832745e-02, 1.28416372e-02,
          2.56832745e-02, 1.28416372e-02, 0., 0., 2.56832745e-02,
          1.28416372e-02, 1.28416372e-02, 1.28416372e-02, 0.,
          1.28416372e-02, 1.28416372e-02, 0., 0., 7.70498216e-02, 0.,
          2.56832745e-02, 2.56832745e-02, 0., 0., 1.28416372e-02,
          3.85249108e-02, 0., 0., 0., 1.28416372e-02, 2.56832749e-01,
          5.13665490e-02, 3.85249108e-02, 5.13665490e-02, 6.42081872e-02,
          3.85249108e-02, 1.28416372e-02, 1.28416372e-02, 2.56832745e-02,
          0., 5.13665490e-02, 1.02733098e-01, 2.56832745e-02,
          2.56832745e-02, 2.56832745e-02, 2.56832745e-02, 1.02733098e-01,
          1.28416372e-02, 1.28416372e-02, 0., 7.70498216e-02,
          3.85249108e-02, 0., 1.28416372e-02, 2.56832745e-02, 0.,
          1.28416372e-02, 1.28416372e-02, 6.42081872e-02, 2.56832745e-02,
          1.28416372e-02, 1.28416372e-02, 3.85249108e-02, 1.28416372e-02,
          0., 3.85249108e-02, 1.02733098e-01, 2.56832745e-02,
          3.85249108e-02, 0. ]
      - [ 0., 0., 0., 0., 0., 0., 0., 0., 2.42535621e-01, 0., 0., 0., 0.,
          0., 0., 0., 0., 0., 0., 0., 0., 0., 0., 0., 0., 0., 0., 0., 0.,
          0., 0., 0., 0., 0., 0., 0., 0., 0., 4.85071242e-01, 0., 0., 0.,
          0., 0., 0., 0., 0., 0., 0., 0., 0., 0., 0., 0., 0., 0., 0., 0.,
          0., 0., 0., 0., 2.42535621e-01, 0., 0., 0., 0., 0., 0., 0., 0.,
          0., 0., 0., 0., 0., 0., 0., 0., 0., 0., 0., 0., 0., 0., 0., 0.,
          0., 0., 0., 0., 0., 0., 0., 0., 0., 0., 0., 0., 0., 0., 0., 0.,
          0., 0., 0., 0., 0., 0., 0., 0., 0., 0., 0., 0., 0., 0., 0., 0.,
          0., 0., 0., 0., 0., 0., 0., 0., 0., 0., 0., 0., 0., 0., 0., 0.,
          0., 2.42535621e-01, 0., 0., 0., 0., 0., 0., 0., 0., 0., 0., 0.,
          0., 0., 0., 0., 0., 0., 0., 0., 0., 0., 0., 0., 0., 0., 0., 0.,
          0., 0., 0., 0., 0., 0., 0., 0., 0., 0., 0., 0., 0., 0., 0., 0.,
          0., 0., 0., 0., 0., 0., 0., 0., 0., 0., 0., 0., 0., 0., 0., 0.,
          0., 0., 0., 0., 2.42535621e-01, 0., 0., 0., 0., 0., 0., 0., 0.,
          0., 0., 0., 0., 0., 0., 0., 0., 0., 0., 0., 0., 0., 0., 0., 0.,
          0., 0., 0., 0., 0., 0., 0., 0., 0., 0., 0., 0., 0., 0., 0., 0.,
          0., 0., 0., 0., 0., 0., 0., 0., 0., 0., 0., 0., 0., 0., 0., 0.,
          0., 0., 0., 0., 0., 0., 0., 0., 0., 0., 0., 0., 0.,
          2.42535621e-01, 0., 0., 0., 0., 0., 0., 0., 0., 0., 0., 0., 0.,
          0., 0., 0., 0., 0., 0., 0., 0., 0., 0., 0., 0., 0., 0., 0., 0.,
          0., 0., 0., 0., 0., 0., 0., 0., 0., 0., 0., 0., 0., 0., 0., 0.,
          0., 0., 0., 0., 0., 0., 0., 0., 0., 4.85071242e-01, 0., 0., 0.,
          0., 0., 0., 0., 0., 0., 0., 0., 0., 0., 0., 0., 0., 0., 0., 0.,
          0., 0., 0., 0., 0., 0., 0., 0., 0., 0., 0., 0., 0.,
          2.42535621e-01, 0., 0., 0., 2.42535621e-01, 0., 0., 0., 0., 0.,
          0., 0., 0., 0., 0., 0., 0., 0., 0., 0., 0., 0., 0., 0., 0., 0.,
          0., 0., 0., 0., 0., 0., 0., 0., 0., 0., 0., 0., 0., 0., 0., 0.,
          0., 0., 0., 0., 0., 0., 0., 0., 0., 0., 2.42535621e-01, 0., 0.,
          0., 0., 0., 0., 0., 0., 0., 0., 0., 0., 0., 0., 0., 0., 0., 0.,
          0., 0., 0., 0., 0., 0., 0., 0., 0., 0., 0., 0., 0., 0., 0., 0.,
          0., 0., 0., 0., 0., 0., 0., 0., 0., 0., 0., 0., 0., 0., 0., 0.,
          0., 0., 0., 0., 0., 0., 0., 0., 0., 0., 0., 0., 0., 0., 0., 0.,
          0., 0., 0., 0., 0., 0., 0., 0., 0., 0., 0., 0., 0., 0., 0., 0.,
          0., 0., 0., 2.42535621e-01, 0., 0., 0., 0. ]
      - [ 0., 0., 3.87492143e-02, 0., 0., 3.87492143e-02, 0.,
          7.74984285e-02, 0., 0., 7.74984285e-02, 0., 3.87492143e-02, 0.,
          0., 0., 0., 7.74984285e-02, 0., 0., 0., 3.87492143e-02, 0.,
          3.87492143e-02, 0., 0., 0., 0., 0., 0., 7.74984285e-02, 0.,
          3.87492143e-02, 3.87492143e-02, 3.87492143e-02, 0.,
          3.87492143e-02, 0., 3.87492143e-02, 0., 0., 3.87492143e-02,
          3.87492143e-02, 7.74984285e-02, 3.87492143e-02, 7.74984285e-02,
          3.87492143e-02, 3.87492143e-02, 0., 3.87492143e-02, 0., 0.,
          3.87492143e-02, 0., 0., 3.87492143e-02, 3.87492143e-02,
          3.87492143e-02, 0., 7.74984285e-02, 0., 3.87492143e-02,
          3.87492143e-02, 3.87492143e-02, 3.87492143e-02, 0.,
          1.16247639e-01, 3.87492143e-02, 3.87492143e-02, 0.,
          7.74984285e-02, 3.87492143e-02, 0., 3.87492143e-02,
          3.87492143e-02, 3.87492143e-02, 0., 1.16247639e-01,
          1.54996857e-01, 3.87492143e-02, 0., 0., 0., 7.74984285e-02, 0.,
          3.87492143e-02, 3.87492143e-02, 0., 3.87492143e-02, 0., 0., 0.,
          3.87492143e-02, 7.74984285e-02, 0., 3.87492143e-02,
          3.87492143e-02, 3.87492143e-02, 3.87492143e-02, 0.,
          7.74984285e-02, 3.87492143e-02, 0., 0., 7.74984285e-02, 0.,
          3.87492143e-02, 7.74984285e-02, 3.87492143e-02, 0., 0.,
          1.16247639e-01, 3.87492143e-02, 3.87492143e-02, 0.,
          7.74984285e-02, 3.87492143e-02, 3.87492143e-02, 7.74984285e-02,
          0., 0., 3.87492143e-02, 0., 0., 0., 3.87492143e-02, 0., 0., 0.,
          0., 0., 0., 0., 0., 0., 0., 7.74984285e-02, 0., 0.,
          7.74984285e-02, 0., 0., 0., 0., 0., 3.87492143e-02,
          3.87492143e-02, 3.87492143e-02, 0., 3.87492143e-02,
          3.87492143e-02, 0., 3.87492143e-02, 0., 3.87492143e-02,
          3.87492143e-02, 0., 3.87492143e-02, 1.16247639e-01,
          3.87492143e-02, 0., 7.74984285e-02, 3.87492143e-02, 0., 0.,
          3.87492143e-02, 0., 3.87492143e-02, 3.87492143e-02,
          3.87492143e-02, 3.87492143e-02, 1.16247639e-01, 0.,
          3.87492143e-02, 3.87492143e-02, 0., 3.87492143e-02,
          7.74984285e-02, 3.87492143e-02, 0., 0., 0., 3.87492143e-02, 0.,
          0., 0., 3.87492143e-02, 0., 3.87492143e-02, 0., 0., 0.,
          3.87492143e-02, 0., 3.87492143e-02, 1.16247639e-01, 0., 0., 0.,
          3.87492143e-02, 0., 0., 3.87492143e-02, 3.87492143e-02, 0., 0.,
          0., 0., 7.74984285e-02, 0., 3.87492143e-02, 0., 3.87492143e-02,
          3.87492143e-02, 3.87492143e-02, 0., 7.74984285e-02,
          7.74984285e-02, 3.87492143e-02, 0., 7.74984285e-02, 0., 0., 0.,
          0., 3.87492143e-02, 0., 0., 0., 0., 3.87492143e-02,
          3.87492143e-02, 0., 7.74984285e-02, 0., 3.87492143e-02, 0.,
          7.74984285e-02, 7.74984285e-02, 3.87492143e-02, 3.87492143e-02,
          3.87492143e-02, 0., 0., 3.87492143e-02, 7.74984285e-02,
          3.87492143e-02, 3.87492143e-02, 0., 7.74984285e-02, 0., 0.,
          1.16247639e-01, 3.87492143e-02, 0., 3.87492143e-02,
          3.87492143e-02, 7.74984285e-02, 7.74984285e-02, 0.,
          1.54996857e-01, 3.87492143e-02, 1.16247639e-01, 3.87492143e-02,
          0., 0., 0., 3.87492143e-02, 0., 0., 3.87492143e-02, 0.,
          1.16247639e-01, 7.74984285e-02, 0., 3.87492143e-02, 0.,
          1.16247639e-01, 3.87492143e-02, 0., 3.87492143e-02, 0.,
          7.74984285e-02, 3.87492143e-02, 0., 3.87492143e-02,
          7.74984285e-02, 3.87492143e-02, 3.87492143e-02, 0., 0., 0.,
          3.87492143e-02, 3.87492143e-02, 0., 3.87492143e-02, 0., 0., 0.,
          3.87492143e-02, 3.87492143e-02, 0., 1.16247639e-01,
          3.87492143e-02, 7.74984285e-02, 7.74984285e-02, 0., 0., 0.,
          1.16247639e-01, 0., 0., 0., 3.87492143e-02, 0., 0., 0.,
          7.74984285e-02, 1.16247639e-01, 0., 3.87492143e-02, 0., 0., 0.,
          0., 3.87492143e-02, 3.87492143e-02, 0., 3.87492143e-02, 0., 0.,
          3.87492143e-02, 0., 3.87492143e-02, 0., 3.87492143e-02,
          3.87492143e-02, 0., 0., 3.87492143e-02, 0., 3.87492143e-02,
          3.87492143e-02, 3.87492143e-02, 0., 0., 0., 3.87492143e-02,
          7.74984285e-02, 7.74984285e-02, 0., 0., 7.74984285e-02, 0.,
          3.87492143e-02, 0., 0., 3.87492143e-02, 3.87492143e-02, 0.,
          3.87492143e-02, 0., 7.74984285e-02, 0., 0., 0., 0., 0., 0.,
          3.87492143e-02, 0., 0., 7.74984285e-02, 0., 7.74984285e-02, 0.,
          3.87492143e-02, 3.87492143e-02, 0., 0., 0., 0., 0., 0.,
          3.87492143e-02, 3.87492143e-02, 3.87492143e-02, 0.,
          3.87492143e-02, 7.74984285e-02, 0., 3.87492143e-02, 0.,
          7.74984285e-02, 7.74984285e-02, 3.87492143e-02, 0.,
          3.87492143e-02, 0., 3.87492143e-02, 0., 3.87492143e-02, 0.,
          3.87492143e-02, 0., 3.87492143e-02, 0., 0., 3.87492143e-02, 0.,
          0., 1.16247639e-01, 0., 0., 0., 0., 3.87492143e-02,
          1.93746060e-01, 0., 3.87492143e-02, 3.87492143e-02,
          3.87492143e-02, 0., 0., 3.87492143e-02, 0., 1.93746060e-01,
          7.74984285e-02, 0., 3.87492143e-02, 0., 7.74984285e-02, 0.,
          3.87492143e-02, 1.16247639e-01, 7.74984285e-02, 0.,
          1.16247639e-01, 0., 0., 3.87492143e-02, 0., 3.87492143e-02, 0.,
          3.87492143e-02, 3.87492143e-02, 0., 3.87492143e-02, 0., 0.,
          7.74984285e-02, 0., 3.87492143e-02, 3.87492143e-02, 0., 0.,
          1.16247639e-01, 0., 0., 7.74984285e-02, 0., 0., 1.54996857e-01,
          0., 3.87492143e-02, 0., 0., 3.87492143e-02, 3.87492143e-02,
          3.87492143e-02, 7.74984285e-02, 7.74984285e-02, 0.,
          3.87492143e-02, 3.87492143e-02, 0., 7.74984285e-02, 0., 0.,
          3.87492143e-02, 7.74984285e-02, 3.87492143e-02, 0.,
          3.87492143e-02, 3.87492143e-02, 0., 0., 0., 1.16247639e-01,
          7.74984285e-02, 0., 0., 7.74984285e-02, 3.87492143e-02, 0., 0.,
          7.74984285e-02, 1.16247639e-01, 0., 0. ]
      - [ 1.20906699e-02, 1.93450712e-02, 4.35264111e-02, 9.67253558e-03,
          7.73802847e-02, 2.90176068e-02, 6.52896166e-02, 4.35264111e-02,
          2.65994743e-02, 9.67253558e-03, 3.62720080e-02, 2.41813399e-02,
          2.65994743e-02, 1.69269387e-02, 9.67253596e-02, 3.14357430e-02,
          9.67253558e-03, 7.97984228e-02, 7.73802847e-02, 1.20906699e-02,
          5.56170829e-02, 1.45088034e-02, 2.17632055e-02, 1.69269387e-02,
          2.90176068e-02, 1.69269387e-02, 8.46346915e-02, 2.90176068e-02,
          0., 3.38538773e-02, 2.90176068e-02, 5.56170829e-02,
          1.69269387e-02, 1.20906699e-02, 3.62720080e-02, 4.11082767e-02,
          4.83626779e-03, 2.41813399e-02, 3.86901423e-02, 4.11082767e-02,
          2.17632055e-02, 5.07808141e-02, 7.25440169e-03, 1.69269387e-02,
          1.69269387e-02, 2.65994743e-02, 1.69269387e-02, 3.86901423e-02,
          7.25440169e-03, 1.69269387e-02, 1.45088034e-02, 5.56170829e-02,
          1.20906699e-02, 4.83626779e-03, 1.69269387e-02, 7.25440169e-03,
          5.56170829e-02, 6.04533479e-02, 0., 9.67253558e-03,
          9.67253558e-03, 7.25440169e-03, 1.45088034e-02, 2.17632055e-02,
          4.59445454e-02, 1.93450712e-02, 7.49621540e-02, 3.62720080e-02,
          1.93450712e-02, 1.45088034e-02, 1.69269387e-02, 9.67253558e-03,
          8.46346915e-02, 1.69269387e-02, 2.90176068e-02, 1.45088034e-02,
          1.45088034e-02, 3.33702475e-01, 1.45088034e-02, 1.69269387e-02,
          5.31989485e-02, 2.17632055e-02, 9.67253558e-03, 1.93450712e-02,
          7.73802847e-02, 4.35264111e-02, 3.86901423e-02, 7.25440169e-03,
          1.20906699e-02, 6.77077547e-02, 9.67253558e-03, 7.25440169e-03,
          1.93450712e-02, 2.17632055e-02, 7.01258853e-02, 2.65994743e-02,
          2.90176068e-02, 1.45088034e-02, 1.20906699e-02, 1.45088034e-02,
          1.93450712e-02, 2.07959518e-01, 1.20906699e-02, 1.93450712e-02,
          9.67253558e-03, 3.86901423e-02, 4.11082767e-02, 3.86901423e-02,
          4.59445454e-02, 3.62720080e-02, 4.83626798e-02, 9.67253558e-03,
          1.45088034e-02, 4.11082767e-02, 1.45088034e-02, 1.20906699e-02,
          3.38538773e-02, 6.28714859e-02, 2.90176068e-02, 2.41813390e-03,
          2.17632055e-02, 1.45088034e-02, 4.59445454e-02, 4.59445454e-02,
          1.69269387e-02, 2.17632055e-02, 1.45088034e-02, 2.65994743e-02,
          3.86901423e-02, 3.38538773e-02, 3.38538773e-02, 1.69269387e-02,
          5.07808141e-02, 2.90176068e-02, 2.90176068e-02, 1.93450712e-02,
          2.90176068e-02, 2.41813390e-03, 2.17632055e-02, 1.20906699e-02,
          9.67253558e-03, 1.20906699e-02, 2.41813399e-02, 7.49621540e-02,
          7.25440169e-03, 5.31989485e-02, 5.31989485e-02, 3.62720080e-02,
          3.62720080e-02, 5.80352135e-02, 3.14357430e-02, 1.93450712e-02,
          2.90176068e-02, 3.38538773e-02, 1.45088034e-02, 1.93450712e-02,
          3.62720080e-02, 1.20906699e-02, 1.20906699e-02, 1.93450712e-02,
          3.38538773e-02, 7.25440169e-03, 4.83626779e-03, 1.93450712e-02,
          2.41813399e-02, 7.01258853e-02, 4.83626779e-03, 2.41813399e-02,
          2.41813399e-02, 2.41813399e-02, 1.45088034e-02, 3.62720080e-02,
          1.93450712e-02, 2.65994743e-02, 9.91434902e-02, 1.93450712e-02,
          1.45088034e-02, 3.62720080e-02, 2.90176068e-02, 9.67253558e-03,
          2.65994743e-02, 7.25440159e-02, 2.65994743e-02, 1.93450712e-02,
          3.14357430e-02, 3.38538773e-02, 4.59445454e-02, 2.41813399e-02,
          4.35264111e-02, 5.31989485e-02, 6.77077547e-02, 6.77077547e-02,
          2.41813390e-03, 2.41813390e-03, 1.20906699e-02, 1.20906699e-02,
          1.93450712e-02, 4.83626779e-03, 1.93450712e-02, 9.67253558e-03,
          8.46346915e-02, 2.41813390e-03, 2.41813399e-02, 1.45088034e-02,
          9.67253558e-03, 5.31989485e-02, 1.93450712e-02, 1.93450712e-02,
          1.20906699e-02, 7.25440169e-03, 2.41813390e-03, 1.93450712e-02,
          1.93450712e-02, 1.45088034e-02, 2.65994743e-02, 4.83626779e-03,
          1.20906699e-02, 7.49621540e-02, 3.14357430e-02, 1.57178715e-01,
          1.45088034e-02, 9.67253596e-02, 1.45088034e-02, 3.38538773e-02,
          4.35264111e-02, 4.35264111e-02, 3.86901423e-02, 4.35264111e-02,
          3.14357430e-02, 7.25440169e-03, 8.94709602e-02, 3.62720080e-02,
          3.62720080e-02, 4.59445454e-02, 1.20906699e-02, 9.67253558e-03,
          3.38538773e-02, 4.59445454e-02, 1.69269387e-02, 7.73802847e-02,
          7.01258853e-02, 1.93450712e-02, 6.52896166e-02, 1.69269387e-02,
          3.62720080e-02, 7.25440159e-02, 7.49621540e-02, 2.41813399e-02,
          5.80352135e-02, 1.23324834e-01, 4.83626779e-03, 1.20906699e-02,
          5.31989485e-02, 2.17632055e-02, 2.17632055e-02, 2.41813399e-02,
          7.01258853e-02, 1.45088034e-02, 5.31989485e-02, 4.11082767e-02,
          1.93450712e-02, 1.93450712e-02, 1.69269387e-02, 9.67253558e-03,
          2.65994743e-02, 2.17632055e-02, 8.46346915e-02, 2.17632055e-02,
          1.20906699e-02, 8.94709602e-02, 6.04533479e-02, 3.38538773e-02,
          2.65994743e-02, 5.80352135e-02, 1.93450712e-02, 5.31989485e-02,
          7.25440159e-02, 1.45088034e-02, 2.41813399e-02, 3.62720080e-02,
          6.52896166e-02, 6.52896166e-02, 3.62720080e-02, 3.38538773e-02,
          7.97984228e-02, 4.83626779e-03, 2.90176068e-02, 5.07808141e-02,
          3.38538773e-02, 1.45088034e-02, 4.83626779e-03, 1.45088034e-02,
          2.65994743e-02, 2.41813390e-03, 2.65994743e-02, 7.25440169e-03,
          9.67253558e-03, 1.54760569e-01, 4.11082767e-02, 1.20906699e-02,
          2.90176068e-02, 1.20906699e-02, 1.93450712e-02, 1.93450712e-02,
          6.28714859e-02, 4.35264111e-02, 9.67253558e-03, 7.97984228e-02,
          6.28714859e-02, 7.25440159e-02, 1.59596846e-01, 9.67253558e-03,
          1.45088034e-02, 2.41813399e-02, 7.25440169e-03, 1.69269387e-02,
          2.65994743e-02, 5.80352135e-02, 3.86901423e-02, 4.11082767e-02,
          7.25440169e-03, 1.69269387e-02, 2.65994743e-02, 1.69269387e-02,
          2.90176068e-02, 9.67253558e-03, 6.04533479e-02, 7.25440169e-03,
          2.41813399e-02, 7.49621540e-02, 1.45088034e-02, 1.93450712e-02,
          3.86901423e-02, 2.41813399e-02, 1.23324834e-01, 2.90176068e-02,
          4.83626779e-03, 1.20906699e-02, 1.25742972e-01, 1.45088034e-02,
          2.17632055e-02, 1.45088034e-02, 2.17632055e-02, 2.65994743e-02,
          2.17632055e-02, 2.65994743e-02, 2.17632055e-02, 9.67253558e-03,
          1.93450712e-02, 8.46346915e-02, 1.45088034e-02, 3.62720080e-02,
          2.17632055e-02, 8.46346915e-02, 2.90176068e-02, 7.49621540e-02,
          9.67253558e-03, 2.90176068e-02, 1.45088034e-02, 2.90176068e-02,
          5.56170829e-02, 2.41813399e-02, 6.77077547e-02, 3.86901423e-02,
          1.45088034e-02, 1.45088034e-02, 1.08816028e-01, 3.14357430e-02,
          1.03979759e-01, 3.38538773e-02, 4.59445454e-02, 1.20906699e-02,
          3.14357430e-02, 6.77077547e-02, 1.45088034e-02, 3.62720080e-02,
          1.20906699e-02, 9.67253558e-03, 4.83626798e-02, 1.20906699e-02,
          3.14357430e-02, 2.90176068e-02, 7.25440169e-03, 1.69269387e-02,
          1.20906699e-02, 7.49621540e-02, 1.20906699e-02, 9.67253558e-03,
          1.93450712e-02, 3.86901423e-02, 1.20906699e-02, 5.07808141e-02,
          1.45088034e-02, 1.93450712e-02, 3.62720080e-02, 4.83626779e-03,
          3.38538773e-02, 3.38538773e-02, 1.69269387e-02, 3.14357430e-02,
          2.41813390e-03, 1.16070427e-01, 1.45088034e-02, 9.91434902e-02,
          4.83626798e-02, 1.45088034e-02, 8.22165534e-02, 2.41813399e-02,
          1.45088034e-02, 3.38538773e-02, 6.77077547e-02, 1.45088034e-02,
          2.41813399e-02, 3.38538773e-02, 6.28714859e-02, 2.65994743e-02,
          3.14357430e-02, 9.67253558e-03, 4.59445454e-02, 2.65994743e-02,
          1.20906699e-02, 1.20906699e-02, 4.35264111e-02, 4.83626798e-02,
          5.56170829e-02, 7.25440169e-03, 2.41813399e-02, 2.17632055e-02,
          3.14357430e-02, 9.67253558e-03, 6.04533479e-02, 4.35264111e-02,
          4.35264111e-02, 1.93450712e-02, 1.20906699e-02, 8.46346915e-02,
          3.86901423e-02, 2.41813399e-02, 1.45088034e-02, 2.41813390e-03,
          2.41813399e-02, 5.56170829e-02, 4.83626798e-02, 9.67253558e-03,
          2.90176068e-02, 0., 9.67253596e-02, 6.04533479e-02,
          5.56170829e-02, 1.45088034e-02, 3.38538773e-02, 2.41813399e-02,
          1.45088034e-02, 1.45088034e-02, 2.41813390e-03, 1.11234166e-01,
          5.80352135e-02, 1.45088034e-02, 4.35264111e-02, 2.65994743e-02,
          2.41813399e-02, 1.93450712e-02, 2.17632055e-02, 7.49621540e-02,
          3.38538773e-02, 3.38538773e-02, 5.56170829e-02, 1.03979759e-01,
          4.11082767e-02, 1.20906699e-02, 6.04533479e-02, 2.41813399e-02,
          2.41813399e-02, 2.41813399e-02, 7.25440169e-03, 1.20906699e-02,
          7.25440169e-03, 1.20906699e-02, 2.17632055e-02, 2.41813399e-02,
          4.11082767e-02, 1.45088034e-02, 4.83626779e-03, 7.25440159e-02,
          6.28714859e-02, 9.67253558e-03, 9.67253558e-03, 9.67253558e-03,
          7.25440169e-03, 2.17632055e-02, 4.83626779e-03, 2.65994743e-02,
          3.14357430e-02, 9.67253558e-03, 3.14357430e-02, 7.25440169e-03,
          5.31989485e-02, 2.65994743e-02, 5.56170829e-02, 1.93450712e-02 ]
      - [ 1.25988156e-01, 1.25988156e-01, 0., 0., 0., 0., 0., 0., 0., 0.,
          0., 0., 0., 0., 0., 0., 0., 1.25988156e-01, 1.25988156e-01, 0.,
          0., 0., 0., 1.25988156e-01, 0., 0., 0., 0., 0., 0., 0.,
          1.25988156e-01, 0., 0., 1.25988156e-01, 0., 0., 0., 0.,
          1.25988156e-01, 0., 0., 0., 0., 0., 0., 0., 0., 0., 0., 0., 0.,
          0., 0., 0., 0., 0., 0., 0., 0., 0., 0., 0., 0., 0., 0., 0., 0.,
          0., 0., 0., 0., 0., 0., 0., 0., 0., 0., 1.25988156e-01, 0., 0.,
          0., 0., 0., 0., 0., 0., 0., 0., 1.25988156e-01, 0., 0.,
          1.25988156e-01, 0., 0., 0., 0., 0., 0., 0., 0., 0., 0.,
          1.25988156e-01, 0., 0., 0., 0., 0., 0., 0., 0., 0., 0., 0., 0.,
          0., 0., 0., 0., 0., 0., 0., 0., 0., 0., 0., 0., 0., 0., 0., 0.,
          0., 0., 0., 0., 1.25988156e-01, 1.25988156e-01, 0., 0., 0., 0.,
          0., 1.25988156e-01, 0., 1.25988156e-01, 0., 0., 0., 0., 0.,
          1.25988156e-01, 0., 0., 0., 0., 0., 0., 0., 0., 0., 0., 0., 0.,
          0., 0., 0., 1.25988156e-01, 0., 0., 0., 0., 1.25988156e-01, 0.,
          0., 0., 0., 0., 0., 0., 0., 0., 0., 0., 0., 0., 0., 0., 0., 0.,
          0., 0., 0., 1.25988156e-01, 0., 0., 0., 0., 0., 1.25988156e-01,
          1.25988156e-01, 0., 0., 0., 0., 0., 0., 0., 0., 0., 0., 0., 0.,
          0., 0., 0., 0., 0., 0., 0., 0., 0., 0., 0., 0., 0., 0., 0., 0.,
          0., 1.25988156e-01, 0., 0., 0., 0., 0., 0., 0., 1.25988156e-01,
          0., 0., 0., 0., 0., 0., 0., 2.51976311e-01, 0., 0., 0., 0., 0.,
          0., 0., 1.25988156e-01, 0., 2.51976311e-01, 0., 0., 0., 0., 0.,
          1.25988156e-01, 0., 0., 0., 0., 0., 0., 0., 0., 0., 0., 0., 0.,
          0., 0., 2.51976311e-01, 0., 0., 1.25988156e-01, 0., 0., 0., 0.,
          0., 0., 0., 1.25988156e-01, 0., 0., 0., 0., 1.25988156e-01, 0.,
          0., 0., 0., 0., 0., 0., 0., 0., 0., 0., 0., 0., 1.25988156e-01,
          0., 0., 0., 0., 0., 0., 0., 0., 0., 0., 0., 0., 0., 0., 0., 0.,
          0., 0., 0., 0., 0., 0., 0., 0., 0., 0., 0., 0., 0., 0.,
          2.51976311e-01, 1.25988156e-01, 0., 0., 0., 0., 0., 0., 0., 0.,
          0., 0., 0., 0., 1.25988156e-01, 1.25988156e-01, 0., 0., 0., 0.,
          0., 1.25988156e-01, 0., 0., 0., 0., 0., 0., 1.25988156e-01, 0.,
          0., 1.25988156e-01, 0., 0., 0., 0., 0., 0., 0., 0., 0., 0., 0.,
          1.25988156e-01, 0., 0., 0., 0., 0., 0., 0., 0., 0., 0., 0., 0.,
          0., 0., 0., 0., 0., 0., 0., 0., 0., 0., 0., 0., 0., 0.,
          1.25988156e-01, 0., 0., 1.25988156e-01, 0., 0., 0., 0., 0., 0.,
          0., 1.25988156e-01, 0., 0., 1.25988156e-01, 0., 0., 0., 0., 0.,
          0., 0., 0., 0., 0., 0., 0., 0., 0., 0., 0., 0., 0., 0., 0., 0.,
          0., 0., 0., 0., 0., 0., 0., 0., 0., 0., 0., 0., 0., 0.,
          1.25988156e-01, 0., 0., 0., 0., 1.25988156e-01, 0., 0., 0., 0.,
          0., 0., 1.25988156e-01, 0., 0., 0., 0., 0., 0., 0., 0., 0., 0.,
          1.25988156e-01, 0., 0., 0., 0., 0., 0., 0., 0., 0., 0., 0., 0.,
          1.25988156e-01, 0., 0., 0., 1.25988156e-01, 0. ]
      - [ 4.07147072e-02, 4.07147072e-02, 2.03573536e-02, 4.07147072e-02,
          2.03573536e-02, 0., 0., 8.14294145e-02, 1.62858829e-01,
          6.10720627e-02, 6.10720627e-02, 0., 0., 0., 0., 2.03573536e-02,
          2.03573536e-02, 1.22144125e-01, 2.03573536e-02, 2.03573536e-02,
          0., 0., 0., 2.03573536e-02, 4.07147072e-02, 2.03573536e-02, 0.,
          0., 2.03573536e-02, 0., 2.03573536e-02, 2.03573536e-02,
          2.03573536e-02, 4.07147072e-02, 0., 8.14294145e-02, 0., 0.,
          2.03573536e-02, 2.03573536e-02, 2.03573536e-02, 0., 0.,
          1.01786770e-01, 2.03573536e-02, 0., 0., 0., 0., 0.,
          8.14294145e-02, 0., 2.03573536e-02, 0., 2.03573536e-02,
          4.07147072e-02, 0., 0., 0., 2.03573536e-02, 0., 4.07147072e-02,
          6.10720627e-02, 8.14294145e-02, 0., 0., 1.01786770e-01, 0.,
          2.03573536e-02, 2.03573536e-02, 6.10720627e-02, 6.10720627e-02,
          0., 2.03573536e-02, 2.03573536e-02, 2.03573536e-02, 0.,
          4.47861791e-01, 4.07147072e-02, 4.07147072e-02, 0.,
          4.07147072e-02, 4.07147072e-02, 0., 6.10720627e-02, 0.,
          2.03573536e-02, 2.03573536e-02, 0., 4.07147072e-02,
          4.07147072e-02, 4.07147072e-02, 0., 0., 2.03573536e-02, 0., 0.,
          0., 4.07147072e-02, 0., 2.03573536e-02, 3.25717658e-01, 0.,
          2.03573536e-02, 2.03573536e-02, 0., 4.07147072e-02, 0., 0., 0.,
          0., 8.14294145e-02, 0., 2.03573536e-02, 2.03573536e-02, 0., 0.,
          0., 0., 0., 2.03573536e-02, 2.03573536e-02, 2.03573536e-02, 0.,
          2.03573536e-02, 4.07147072e-02, 2.03573536e-02, 6.10720627e-02,
          0., 0., 2.03573536e-02, 0., 4.07147072e-02, 2.03573536e-02,
          2.03573536e-02, 2.03573536e-02, 6.10720627e-02, 4.07147072e-02,
          4.07147072e-02, 6.10720627e-02, 2.03573536e-02, 0., 0., 0., 0.,
          8.14294145e-02, 0., 0., 0., 2.03573536e-02, 2.03573536e-02,
          6.10720627e-02, 6.10720627e-02, 0., 0., 4.07147072e-02, 0.,
          4.07147072e-02, 1.22144125e-01, 0., 0., 2.03573536e-02,
          4.07147072e-02, 0., 0., 0., 0., 2.03573536e-02, 6.10720627e-02,
          2.03573536e-02, 6.10720627e-02, 2.03573536e-02, 0.,
          2.03573536e-02, 0., 0., 6.10720627e-02, 0., 4.07147072e-02, 0.,
          2.03573536e-02, 0., 2.03573536e-02, 4.07147072e-02, 0., 0., 0.,
          4.07147072e-02, 0., 4.07147072e-02, 0., 0., 8.14294145e-02,
          4.07147072e-02, 4.07147072e-02, 6.10720627e-02, 0.,
          2.03573536e-02, 0., 2.03573536e-02, 6.10720627e-02, 0.,
          4.07147072e-02, 0., 0., 6.10720627e-02, 0., 0., 0.,
          2.03573536e-02, 4.07147072e-02, 2.03573536e-02, 6.10720627e-02,
          6.10720627e-02, 0., 8.14294145e-02, 4.07147072e-02,
          8.14294145e-02, 2.03573536e-02, 4.07147072e-02, 8.14294145e-02,
          4.07147072e-02, 4.07147072e-02, 0., 4.07147072e-02,
          4.07147072e-02, 0., 0., 2.03573536e-02, 2.03573536e-02, 0.,
          2.03573536e-02, 0., 4.07147072e-02, 1.01786770e-01,
          2.03573536e-02, 0., 2.03573536e-02, 0., 2.03573536e-02, 0., 0.,
          0., 0., 0., 2.03573536e-02, 0., 2.03573536e-02, 2.03573536e-02,
          0., 2.03573536e-02, 6.10720627e-02, 0., 4.07147072e-02, 0., 0.,
          0., 0., 4.07147072e-02, 0., 4.07147072e-02, 2.03573536e-02,
          4.07147072e-02, 0., 2.03573536e-02, 6.10720627e-02,
          2.03573536e-02, 0., 0., 0., 2.03573536e-02, 4.07147072e-02, 0.,
          2.03573536e-02, 6.10720627e-02, 4.07147072e-02, 0.,
          4.07147072e-02, 2.03573536e-02, 4.07147072e-02, 2.03573536e-02,
          0., 2.03573536e-02, 2.03573536e-02, 0., 0., 2.03573536e-02,
          2.03573536e-02, 0., 4.07147072e-02, 0., 2.03573536e-02, 0., 0.,
          0., 2.03573536e-02, 4.07147072e-02, 0., 0., 2.03573536e-02,
          2.03573536e-02, 4.07147072e-02, 4.07147072e-02, 4.07147072e-02,
          2.03573536e-02, 0., 6.10720627e-02, 2.03573536e-02, 0., 0.,
          1.01786770e-01, 4.07147072e-02, 0., 6.10720627e-02,
          4.07147072e-02, 0., 4.07147072e-02, 2.03573536e-02,
          4.07147072e-02, 2.03573536e-02, 0., 4.07147072e-02,
          4.07147072e-02, 2.03573536e-02, 2.03573536e-02, 2.03573536e-02,
          2.03573536e-02, 0., 6.10720627e-02, 0., 4.07147072e-02,
          6.10720627e-02, 0., 4.07147072e-02, 2.03573536e-02, 0., 0., 0.,
          4.07147072e-02, 0., 0., 0., 2.03573536e-02, 2.03573536e-02,
          6.10720627e-02, 0., 2.03573536e-02, 2.03573536e-02,
          1.01786770e-01, 0., 4.07147072e-02, 2.03573536e-02,
          4.07147072e-02, 0., 0., 0., 2.03573536e-02, 8.14294145e-02,
          2.03573536e-02, 0., 0., 6.10720627e-02, 2.03573536e-02, 0.,
          4.07147072e-02, 0., 0., 0., 6.10720627e-02, 2.03573536e-02,
          2.03573536e-02, 6.10720627e-02, 0., 0., 2.03573536e-02, 0.,
          6.10720627e-02, 0., 0., 1.42501488e-01, 4.07147072e-02, 0., 0.,
          2.03573536e-02, 0., 0., 0., 0., 0., 8.14294145e-02, 0., 0., 0.,
          0., 0., 6.10720627e-02, 4.07147072e-02, 2.03573536e-02,
          2.03573536e-02, 0., 2.03573536e-02, 4.07147072e-02,
          4.07147072e-02, 0., 2.03573536e-02, 4.07147072e-02, 0., 0.,
          2.03573536e-02, 2.03573536e-02, 0., 0., 2.03573536e-02,
          2.03573536e-02, 0., 4.07147072e-02, 2.03573536e-02,
          4.07147072e-02, 4.07147072e-02, 4.07147072e-02, 0.,
          2.03573536e-02, 2.03573536e-02, 2.03573536e-02, 0.,
          2.03573536e-02, 2.03573536e-02, 2.03573536e-02, 6.10720627e-02,
          2.03573536e-02, 0., 4.07147072e-02, 2.03573536e-02,
          2.03573536e-02, 2.03573536e-02, 2.03573536e-02, 4.07147072e-02,
          2.03573536e-02, 4.07147072e-02, 2.03573536e-02, 0., 0., 0.,
          8.14294145e-02, 0., 0., 2.03573536e-02, 0., 8.14294145e-02,
          8.14294145e-02, 0., 2.03573536e-02, 2.03573536e-02,
          1.01786770e-01, 0., 2.03573536e-02, 4.07147072e-02, 0.,
          2.03573536e-02, 2.03573536e-02, 8.14294145e-02, 1.42501488e-01,
          2.03573536e-02, 1.01786770e-01, 1.22144125e-01, 2.03573536e-02,
          0., 2.03573536e-02, 2.03573536e-02, 0., 4.07147072e-02,
          2.03573536e-02, 2.03573536e-02, 8.14294145e-02, 2.03573536e-02,
          6.10720627e-02, 2.03573540e-01, 0., 2.03573536e-02, 0.,
          4.07147072e-02, 6.10720627e-02, 0., 0., 1.42501488e-01,
          6.10720627e-02, 0., 6.10720627e-02, 6.10720627e-02,
          4.07147072e-02, 0., 0., 0., 4.07147072e-02, 2.03573536e-02, 0.,
          4.07147072e-02, 2.03573536e-02, 2.03573536e-02, 0. ]
      - [ 0., 0., 1.30188912e-01, 0., 0., 0., 0., 0., 0., 0., 0.,
          1.30188912e-01, 0., 0., 0., 0., 0., 0., 1.30188912e-01, 0., 0.,
          0., 1.30188912e-01, 0., 0., 0., 0., 0., 0., 0., 0., 0., 0., 0.,
          0., 0., 0., 0., 0., 0., 0., 1.30188912e-01, 1.30188912e-01, 0.,
          0., 0., 0., 0., 0., 0., 0., 0., 0., 0., 0., 0., 0., 0.,
          1.30188912e-01, 0., 0., 0., 0., 0., 0., 0., 0., 0., 0., 0., 0.,
          0., 0., 0., 0., 0., 0., 0., 0., 0., 1.30188912e-01, 0., 0., 0.,
          0., 0., 0., 1.30188912e-01, 0., 0., 0., 0., 0., 0., 0., 0., 0.,
          0., 0., 0., 0., 0., 0., 0., 0., 0., 0., 0., 0., 0., 0., 0., 0.,
          0., 1.30188912e-01, 0., 0., 0., 0., 0., 0., 0., 0., 0., 0., 0.,
          0., 0., 0., 0., 0., 0., 0., 0., 0., 0., 0., 0., 0., 0., 0., 0.,
          1.30188912e-01, 0., 0., 0., 0., 1.30188912e-01, 0., 0., 0., 0.,
          0., 0., 0., 0., 0., 0., 2.60377824e-01, 1.30188912e-01,
          1.30188912e-01, 1.30188912e-01, 0., 0., 0., 0., 0., 0., 0., 0.,
          0., 0., 0., 0., 0., 0., 0., 0., 0., 0., 0., 0., 0., 0., 0., 0.,
          0., 0., 0., 0., 0., 1.30188912e-01, 0., 2.60377824e-01, 0., 0.,
          1.30188912e-01, 0., 0., 0., 0., 0., 0., 0., 0., 0.,
          1.30188912e-01, 0., 0., 0., 0., 0., 0., 0., 0., 0., 0., 0., 0.,
          0., 1.30188912e-01, 0., 0., 0., 0., 0., 0., 0., 0., 0., 0., 0.,
          0., 0., 0., 0., 0., 0., 0., 0., 0., 0., 1.30188912e-01, 0., 0.,
          0., 0., 0., 0., 1.30188912e-01, 0., 0., 0., 0., 0., 0., 0., 0.,
          0., 0., 0., 0., 0., 0., 0., 0., 0., 0., 0., 0., 0., 0., 0., 0.,
          0., 0., 0., 0., 0., 0., 0., 0., 0., 0., 0., 0., 0., 0., 0., 0.,
          0., 0., 0., 1.30188912e-01, 0., 1.30188912e-01, 0., 0., 0., 0.,
          0., 1.30188912e-01, 1.30188912e-01, 0., 0., 1.30188912e-01, 0.,
          0., 0., 0., 0., 0., 0., 0., 0., 0., 0., 1.30188912e-01,
          1.30188912e-01, 0., 0., 2.60377824e-01, 1.30188912e-01, 0., 0.,
          0., 0., 0., 0., 0., 0., 0., 0., 0., 0., 0., 0., 0., 0., 0., 0.,
          0., 0., 0., 0., 0., 0., 0., 0., 0., 0., 0., 2.60377824e-01, 0.,
          0., 0., 0., 0., 0., 0., 0., 0., 0., 0., 0., 0., 0., 0., 0., 0.,
          0., 0., 0., 0., 0., 2.60377824e-01, 0., 1.30188912e-01, 0., 0.,
          0., 0., 0., 0., 0., 0., 0., 0., 0., 1.30188912e-01, 0., 0., 0.,
          0., 1.30188912e-01, 0., 0., 0., 1.30188912e-01, 0., 0., 0., 0.,
          0., 0., 0., 0., 0., 0., 0., 0., 0., 0., 0., 0., 0., 0., 0., 0.,
          0., 0., 0., 0., 0., 0., 0., 0., 1.30188912e-01, 0., 0., 0., 0.,
          0., 0., 0., 0., 1.30188912e-01, 0., 0., 0., 1.30188912e-01, 0.,
          0., 0., 0., 0., 0., 0., 0., 0., 0., 0., 1.30188912e-01, 0., 0.,
          0., 0., 0., 0., 0., 0., 1.30188912e-01, 0., 0., 0., 0., 0., 0.,
          0., 0., 0., 0., 0., 0., 0., 0., 0., 0., 0., 0., 0., 0., 0., 0.,
          0., 0., 1.30188912e-01, 0., 0., 0., 0., 0., 0., 0., 0., 0., 0.,
          0., 0., 0. ]
      - [ 3.88726294e-02, 2.59150863e-02, 1.29575431e-02, 0.,
          1.29575431e-02, 7.77452588e-02, 3.88726294e-02, 5.18301725e-02,
          3.88726294e-02, 5.18301725e-02, 1.29575431e-02, 1.29575431e-02,
          0., 0., 6.47877157e-02, 2.59150863e-02, 3.88726294e-02,
          1.29575431e-02, 1.29575431e-02, 1.29575431e-02, 0.,
          2.59150863e-02, 2.59150863e-02, 2.59150863e-02, 3.88726294e-02,
          5.18301725e-02, 6.47877157e-02, 0., 0., 1.29575431e-02,
          3.88726294e-02, 6.47877157e-02, 3.88726294e-02, 3.88726294e-02,
          3.88726294e-02, 2.59150863e-02, 1.29575431e-02, 0., 0.,
          1.29575431e-02, 1.16617888e-01, 0., 1.29575431e-02,
          6.47877157e-02, 2.59150863e-02, 3.88726294e-02, 2.59150863e-02,
          1.29575431e-02, 1.29575431e-02, 2.59150863e-02, 1.29575431e-02,
          1.29575431e-02, 0., 2.59150863e-02, 1.29575431e-02,
          2.59150863e-02, 5.18301725e-02, 0., 0., 1.29575431e-02,
          1.29575431e-02, 5.18301725e-02, 1.29575431e-02, 3.88726294e-02,
          1.29575431e-02, 1.29575431e-02, 0., 1.29575431e-02,
          1.29575431e-02, 0., 3.88726294e-02, 1.03660345e-01,
          2.59150863e-02, 2.59150863e-02, 1.29575431e-02, 2.59150863e-02,
          1.29575431e-02, 7.77452588e-02, 2.59150863e-02, 3.88726294e-02,
          6.47877157e-02, 1.29575431e-02, 0., 9.07028019e-02,
          2.59150863e-02, 1.29575431e-02, 2.59150863e-02, 0.,
          1.29575431e-02, 2.59150863e-02, 2.59150863e-02, 1.29575431e-02,
          1.29575431e-02, 2.59150863e-02, 1.29575431e-02, 3.88726294e-02,
          2.59150863e-02, 1.29575431e-02, 1.29575431e-02, 3.88726294e-02,
          2.59150863e-02, 7.77452588e-02, 3.88726294e-02, 2.59150863e-02,
          2.59150863e-02, 0., 2.59150863e-02, 3.88726294e-02,
          2.59150863e-02, 1.29575431e-02, 2.59150863e-02, 1.03660345e-01,
          1.29575431e-02, 3.88726294e-02, 3.88726294e-02, 2.59150863e-02,
          2.59150863e-02, 1.03660345e-01, 5.18301725e-02, 2.59150863e-02,
          1.29575431e-02, 2.59150863e-02, 0., 1.29575431e-02, 0.,
          2.59150863e-02, 3.88726294e-02, 1.29575431e-02, 1.29575431e-02,
          2.59150863e-01, 1.29575431e-02, 0., 3.88726294e-02, 0., 0.,
          2.59150863e-02, 2.59150863e-02, 2.59150863e-02, 3.88726294e-02,
          3.88726294e-02, 1.29575431e-02, 1.29575431e-02, 1.29575431e-02,
          9.07028019e-02, 3.88726294e-02, 2.59150863e-02, 1.29575431e-02,
          1.29575431e-02, 2.59150863e-02, 3.88726294e-02, 1.29575431e-02,
          3.88726294e-02, 3.88726294e-02, 2.59150863e-02, 2.59150863e-02,
          3.88726294e-02, 3.88726294e-02, 2.59150863e-02, 7.77452588e-02,
          0., 1.29575431e-02, 0., 0., 2.59150863e-02, 0., 2.59150863e-02,
          0., 2.59150863e-02, 1.29575431e-02, 2.59150863e-02,
          1.29575431e-02, 2.59150863e-02, 3.88726294e-02, 0.,
          2.59150863e-02, 1.29575431e-02, 1.29575431e-02, 1.29575431e-02,
          0., 2.59150863e-02, 7.77452588e-02, 1.29575431e-02,
          3.88726294e-02, 3.88726294e-02, 0., 2.59150863e-02,
          5.18301725e-02, 2.59150863e-02, 6.47877157e-02, 0.,
          1.29575431e-02, 3.88726294e-02, 3.88726294e-02, 2.59150863e-02,
          1.29575431e-02, 1.29575431e-02, 1.29575431e-02, 0.,
          1.29575431e-02, 0., 1.29575431e-02, 0., 5.18301725e-02,
          1.29575431e-02, 1.29575431e-02, 2.59150863e-02, 3.88726294e-02,
          1.29575431e-02, 2.59150863e-02, 3.88726294e-02, 2.59150863e-02,
          1.29575431e-02, 0., 2.59150863e-02, 6.47877157e-02, 0.,
          3.88726294e-02, 2.59150863e-02, 1.29575431e-02, 1.55490518e-01,
          1.29575431e-02, 2.59150863e-02, 0., 5.18301725e-02,
          1.55490518e-01, 2.59150863e-02, 5.18301725e-02, 1.29575431e-02,
          2.59150863e-02, 0., 2.59150863e-02, 1.29575431e-02,
          2.59150863e-02, 1.29575431e-02, 2.59150863e-02, 5.18301725e-02,
          1.29575431e-02, 1.29575431e-02, 1.29575431e-02, 3.88726294e-02,
          0., 2.59150863e-02, 1.29575431e-02, 2.59150863e-02, 0.,
          6.47877157e-02, 1.29575431e-02, 2.59150863e-02, 1.94363147e-01,
          1.29575431e-02, 1.29575431e-02, 1.29575431e-02, 2.59150863e-02,
          2.59150863e-02, 0., 2.59150863e-02, 1.29575431e-02,
          1.29575431e-02, 5.18301725e-02, 2.59150863e-02, 3.88726294e-02,
          2.59150863e-02, 1.29575431e-02, 2.59150863e-02, 1.29575431e-02,
          2.59150863e-02, 2.59150863e-02, 6.47877157e-02, 2.59150863e-02,
          3.88726294e-02, 0., 1.29575431e-02, 0., 2.59150863e-02,
          3.88726294e-02, 1.29575431e-02, 2.59150863e-02, 2.59150863e-02,
          1.29575431e-02, 3.88726294e-02, 0., 2.59150863e-02,
          1.29575431e-01, 5.18301725e-02, 1.29575431e-02, 1.03660345e-01,
          0., 2.59150863e-02, 5.18301725e-02, 0., 6.47877157e-02,
          1.29575431e-02, 0., 1.29575431e-02, 3.88726294e-02, 0., 0.,
          5.18301725e-02, 5.18301725e-02, 1.29575431e-02, 5.18301725e-02,
          3.88726294e-02, 0., 1.29575431e-02, 2.59150863e-02, 0.,
          1.29575431e-02, 5.18301725e-02, 3.88726294e-02, 1.29575431e-02,
          2.59150863e-02, 5.18301725e-02, 2.59150863e-02, 0.,
          3.88726294e-02, 2.59150863e-02, 1.29575431e-01, 1.29575431e-02,
          3.88726294e-02, 2.59150863e-02, 2.59150863e-02, 7.77452588e-02,
          0., 3.88726294e-02, 2.59150863e-02, 2.59150863e-02, 0.,
          3.88726294e-02, 2.59150863e-02, 2.59150863e-02, 1.29575431e-02,
          6.47877157e-02, 3.88726294e-02, 6.47877157e-02, 1.03660345e-01,
          3.88726294e-02, 1.29575431e-02, 0., 0., 1.29575431e-02, 0.,
          9.07028019e-02, 0., 6.47877157e-02, 1.29575431e-02,
          2.59150863e-02, 0., 3.88726294e-02, 1.29575431e-02,
          7.77452588e-02, 0., 2.59150863e-02, 5.18301725e-02,
          6.47877157e-02, 0., 6.47877157e-02, 0., 1.29575431e-02,
          1.29575431e-02, 1.29575431e-02, 3.88726294e-02, 0.,
          3.88726294e-02, 6.47877157e-02, 9.07028019e-02, 3.88726294e-02,
          1.29575431e-02, 1.29575431e-02, 2.59150863e-02, 1.29575431e-02,
          3.88726294e-02, 2.59150863e-02, 1.29575431e-02, 2.59150863e-02,
          3.88726294e-02, 6.47877157e-02, 3.88726294e-02, 1.29575431e-02,
          3.88726294e-02, 3.88726294e-02, 0., 1.29575431e-02, 0.,
          2.59150863e-02, 2.59150863e-02, 1.29575431e-02, 1.29575431e-02,
          5.18301725e-02, 2.59150863e-02, 1.29575431e-02, 1.29575431e-02,
          2.59150863e-02, 1.29575431e-02, 1.29575431e-02, 2.59150863e-02,
          5.18301725e-02, 1.29575431e-02, 1.29575431e-02, 2.59150863e-02,
          0., 6.47877157e-02, 1.29575431e-02, 1.29575431e-02, 0.,
          2.59150863e-02, 3.88726294e-02, 0., 9.07028019e-02,
          3.88726294e-02, 5.18301725e-02, 5.18301725e-02, 6.47877157e-02,
          3.88726294e-02, 1.29575431e-02, 2.59150863e-02, 6.47877157e-02,
          6.47877157e-02, 1.29575431e-02, 5.18301725e-02, 9.07028019e-02,
          2.59150863e-02, 1.29575431e-02, 3.88726294e-02, 0.,
          5.18301725e-02, 1.29575431e-02, 1.29575431e-02, 0.,
          2.59150863e-02, 1.29575431e-02, 0., 1.29575431e-02,
          3.88726294e-02, 2.59150863e-02, 3.88726294e-02, 2.59150863e-02,
          3.88726294e-02, 0., 5.18301725e-02, 1.29575431e-02,
          1.29575431e-02, 3.88726294e-02, 6.47877157e-02, 0., 0.,
          2.59150863e-02, 1.55490518e-01, 1.29575431e-02, 1.29575431e-02,
          5.18301725e-02, 4.01683837e-01, 5.18301725e-02, 3.88726294e-02,
          2.59150863e-02, 2.59150863e-02, 7.77452588e-02, 1.29575431e-02,
          1.29575431e-02, 2.59150863e-02, 2.59150863e-02, 2.59150863e-02,
          3.88726294e-02, 3.88726294e-02, 0., 2.59150863e-02,
          5.18301725e-02, 5.18301725e-02, 2.07320690e-01, 1.29575431e-02,
          0., 1.29575431e-02, 6.47877157e-02, 1.29575431e-02,
          1.29575431e-02, 0., 3.88726294e-02, 2.59150863e-02,
          2.59150863e-02, 0., 0., 2.59150863e-02, 1.03660345e-01,
          6.47877157e-02, 1.29575431e-02, 1.29575431e-02, 2.59150863e-02,
          0., 5.18301725e-02, 2.59150863e-02, 5.18301725e-02,
          1.29575431e-02, 6.47877157e-02, 3.88726294e-02, 5.18301725e-02,
          0., 0., 2.59150863e-02, 1.29575431e-02, 1.29575431e-02, 0. ]
      - [ 0., 0., 2.40562614e-02, 4.81125228e-02, 0., 2.40562614e-02, 0.,
          0., 7.21687824e-02, 2.40562614e-02, 2.40562614e-02, 0., 0.,
          4.81125228e-02, 2.40562614e-02, 0., 2.40562614e-02,
          4.81125228e-02, 2.40562614e-02, 0., 0., 0., 0., 2.40562614e-02,
          7.21687824e-02, 0., 0., 4.81125228e-02, 7.21687824e-02, 0., 0.,
          2.40562614e-02, 0., 2.40562614e-02, 2.40562614e-02,
          4.81125228e-02, 2.40562614e-02, 0., 4.81125228e-02, 0.,
          2.40562614e-02, 4.81125228e-02, 2.40562614e-02, 7.21687824e-02,
          7.21687824e-02, 2.40562614e-02, 0., 2.40562614e-02,
          4.81125228e-02, 7.21687824e-02, 7.21687824e-02, 7.21687824e-02,
          0., 0., 4.81125228e-02, 2.40562614e-02, 0., 4.81125228e-02, 0.,
          0., 2.40562614e-02, 0., 4.81125228e-02, 2.40562614e-02, 0.,
          2.40562614e-02, 7.21687824e-02, 4.81125228e-02, 2.40562614e-02,
          0., 7.21687824e-02, 0., 0., 2.40562614e-02, 2.40562614e-02,
          2.40562614e-02, 2.40562614e-02, 4.08956438e-01, 4.81125228e-02,
          0., 4.81125228e-02, 0., 2.40562614e-02, 2.40562614e-02,
          4.81125228e-02, 0., 2.40562614e-02, 0., 2.40562614e-02,
          7.21687824e-02, 0., 2.40562614e-02, 0., 2.40562614e-02,
          7.21687824e-02, 2.40562614e-02, 0., 0., 2.40562614e-02, 0.,
          2.40562614e-02, 1.44337565e-01, 2.40562614e-02, 0.,
          2.40562614e-02, 0., 4.81125228e-02, 4.81125228e-02,
          2.40562614e-02, 0., 4.81125228e-02, 1.20281309e-01,
          2.40562614e-02, 2.40562614e-02, 2.40562614e-02, 0., 0.,
          9.62250456e-02, 2.40562614e-02, 4.81125228e-02, 1.68393835e-01,
          0., 2.40562614e-02, 7.21687824e-02, 4.81125228e-02,
          4.81125228e-02, 2.40562614e-02, 7.21687824e-02, 0., 0.,
          2.40562614e-02, 2.40562614e-02, 4.81125228e-02, 2.40562614e-02,
          4.81125228e-02, 2.40562614e-02, 7.21687824e-02, 2.40562614e-02,
          0., 0., 4.81125228e-02, 0., 0., 2.40562614e-02, 0.,
          2.40562614e-02, 2.40562614e-02, 4.81125228e-02, 2.40562614e-02,
          4.81125228e-02, 0., 0., 2.40562614e-02, 0., 4.81125228e-02,
          4.81125228e-02, 0., 4.81125228e-02, 2.40562614e-02, 0., 0.,
          7.21687824e-02, 2.40562614e-02, 7.21687824e-02, 4.81125228e-02,
          2.40562614e-02, 4.81125228e-02, 0., 2.40562614e-02,
          2.40562614e-02, 2.40562614e-02, 0., 2.40562614e-02,
          2.40562614e-02, 2.40562614e-02, 0., 4.81125228e-02,
          4.81125228e-02, 0., 2.40562614e-02, 7.21687824e-02, 0., 0., 0.,
          4.81125228e-02, 0., 0., 0., 0., 2.40562614e-02, 2.40562614e-02,
          2.40562614e-02, 4.81125228e-02, 0., 0., 2.40562614e-02, 0.,
          7.21687824e-02, 0., 2.40562614e-02, 4.81125228e-02,
          2.40562614e-02, 2.40562614e-02, 0., 0., 9.62250456e-02, 0., 0.,
          0., 0., 2.40562614e-02, 1.44337565e-01, 2.40562614e-02,
          2.40562614e-02, 0., 2.40562614e-02, 2.40562614e-02,
          4.81125228e-02, 2.40562614e-02, 2.40562614e-02, 7.21687824e-02,
          0., 2.40562614e-02, 0., 9.62250456e-02, 2.40562614e-02,
          2.40562614e-02, 4.81125228e-02, 0., 7.21687824e-02, 0.,
          2.40562614e-02, 2.40562614e-02, 2.40562614e-02, 4.81125228e-02,
          2.40562614e-02, 4.81125228e-02, 4.81125228e-02, 2.40562614e-02,
          7.21687824e-02, 4.81125228e-02, 0., 0., 2.40562614e-02, 0., 0.,
          2.40562614e-02, 2.40562614e-02, 2.40562614e-02, 2.40562614e-02,
          2.40562614e-02, 2.40562614e-02, 0., 0., 1.20281309e-01,
          2.40562614e-02, 0., 2.40562614e-02, 4.81125228e-02, 0.,
          2.40562614e-02, 0., 2.40562614e-02, 0., 2.40562614e-02,
          4.81125228e-02, 2.40562614e-02, 4.81125228e-02, 0.,
          4.81125228e-02, 2.40562614e-02, 4.81125228e-02, 0., 0., 0.,
          2.40562614e-02, 0., 2.40562614e-02, 4.81125228e-02, 0., 0.,
          7.21687824e-02, 2.40562614e-02, 0., 4.81125228e-02,
          2.40562614e-02, 2.40562614e-02, 0., 9.62250456e-02,
          7.21687824e-02, 2.40562614e-02, 7.21687824e-02, 1.20281309e-01,
          2.40562614e-02, 0., 0., 2.40562614e-02, 0., 4.81125228e-02, 0.,
          2.40562614e-02, 2.40562614e-02, 0., 0., 2.40562614e-02,
          2.40562614e-02, 0., 4.81125228e-02, 4.81125228e-02,
          2.40562614e-02, 1.68393835e-01, 0., 2.40562614e-02, 0.,
          1.68393835e-01, 0., 0., 2.40562614e-02, 7.21687824e-02, 0.,
          2.40562614e-02, 4.81125228e-02, 0., 0., 4.81125228e-02, 0., 0.,
          0., 2.40562614e-02, 0., 2.40562614e-02, 4.81125228e-02, 0., 0.,
          4.81125228e-02, 2.40562614e-02, 7.21687824e-02, 0., 0.,
          9.62250456e-02, 0., 0., 7.21687824e-02, 7.21687824e-02,
          4.81125228e-02, 0., 2.40562614e-02, 2.40562614e-02, 0.,
          4.81125228e-02, 0., 0., 9.62250456e-02, 0., 0., 4.81125228e-02,
          2.40562614e-02, 0., 4.81125228e-02, 2.40562614e-02, 0.,
          2.40562614e-02, 0., 2.40562614e-02, 4.81125228e-02,
          4.81125228e-02, 2.40562614e-02, 7.21687824e-02, 0.,
          2.40562614e-02, 0., 0., 0., 0., 0., 0., 2.40562614e-02,
          2.40562614e-02, 2.40562614e-02, 0., 2.40562614e-02, 0., 0.,
          2.40562614e-02, 0., 0., 0., 0., 2.40562614e-02, 4.81125228e-02,
          0., 0., 0., 0., 9.62250456e-02, 4.81125228e-02, 2.40562614e-02,
          0., 0., 2.40562614e-02, 0., 0., 2.40562614e-02, 2.40562614e-02,
          4.81125228e-02, 2.40562614e-02, 0., 0., 0., 0., 4.81125228e-02,
          2.40562614e-02, 4.81125228e-02, 2.40562614e-02, 4.81125228e-02,
          4.81125228e-02, 4.81125228e-02, 2.40562614e-02, 2.40562614e-02,
          0., 2.40562614e-02, 0., 2.40562614e-02, 0., 0., 1.20281309e-01,
          4.81125228e-02, 2.40562614e-02, 4.81125228e-02, 0., 0., 0.,
          2.40562614e-02, 2.40562614e-02, 4.81125228e-02, 2.40562614e-02,
          2.40562614e-02, 0., 2.40562614e-02, 9.62250456e-02,
          4.81125228e-02, 2.40562614e-02, 4.81125228e-02, 0.,
          7.21687824e-02, 2.40562614e-02, 0., 0., 2.40562614e-02,
          2.40562614e-02, 0., 2.40562614e-02, 4.81125228e-02,
          2.40562614e-02, 0., 9.62250456e-02, 2.40562614e-02,
          7.21687824e-02, 2.40562614e-02, 2.40562614e-02, 9.62250456e-02,
          0., 0., 4.81125228e-02, 2.40562614e-02, 0., 0., 2.40562614e-02,
          0., 0., 0., 0., 4.81125228e-02, 2.16506347e-01, 0.,
          7.21687824e-02, 7.21687824e-02, 0., 2.40562614e-02,
          7.21687824e-02, 7.21687824e-02, 7.21687824e-02, 0., 0.,
          2.40562614e-02, 0., 1.20281309e-01, 4.81125228e-02,
          2.40562614e-02, 0., 2.40562614e-02, 2.40562614e-02, 0.,
          7.21687824e-02, 4.81125228e-02, 2.40562614e-02, 9.62250456e-02,
          7.21687824e-02, 0., 2.40562614e-02 ]
      - [ 1.24553191e-02, 1.24553189e-01, 1.24553191e-02, 3.73659581e-02,
          0., 0., 0., 6.22765943e-02, 6.22765943e-02, 1.24553191e-02,
          1.24553191e-02, 0., 1.24553191e-02, 1.24553191e-02, 0.,
          3.73659581e-02, 3.73659581e-02, 4.98212762e-02, 2.49106381e-02,
          7.47319162e-02, 0., 1.24553191e-02, 6.22765943e-02,
          6.22765943e-02, 0., 2.49106381e-02, 1.24553191e-02,
          2.49106381e-02, 3.36293608e-01, 3.73659581e-02, 3.73659581e-02,
          2.49106381e-02, 0., 2.49106381e-02, 2.49106381e-02,
          1.99285105e-01, 2.49106381e-02, 1.24553191e-02, 0.,
          2.49106381e-02, 4.98212762e-02, 1.24553191e-02, 1.24553191e-02,
          2.49106381e-02, 2.49106381e-02, 3.73659581e-02, 3.73659581e-02,
          3.73659581e-02, 1.24553191e-02, 3.73659581e-02, 3.73659581e-02,
          0., 1.24553191e-02, 1.24553191e-02, 0., 6.22765943e-02, 0., 0.,
          1.24553191e-02, 0., 4.98212762e-02, 1.24553191e-02,
          1.24553191e-02, 3.73659581e-02, 2.49106381e-02, 2.49106381e-02,
          4.98212762e-02, 1.24553191e-02, 1.24553191e-02, 2.49106381e-02,
          0., 6.22765943e-02, 1.24553191e-02, 2.49106381e-02, 0.,
          2.49106381e-02, 2.49106381e-02, 9.96425524e-02, 7.47319162e-02,
          1.24553191e-02, 1.24553191e-02, 6.22765943e-02, 1.24553191e-02,
          2.49106381e-02, 4.98212762e-02, 0., 2.49106381e-02,
          4.98212762e-02, 3.73659581e-02, 2.49106381e-02, 8.71872306e-02,
          3.73659581e-02, 1.24553191e-02, 2.49106381e-02, 1.24553191e-02,
          1.24553191e-02, 1.24553191e-02, 2.49106381e-02, 4.98212762e-02,
          0., 2.49106381e-02, 4.98212762e-02, 1.24553191e-02,
          2.49106381e-02, 3.73659581e-02, 3.73659581e-02, 2.49106381e-02,
          3.73659581e-02, 0., 3.73659581e-02, 2.49106381e-02,
          6.22765943e-02, 3.73659581e-02, 2.49106381e-02, 1.24553191e-02,
          0., 6.22765943e-02, 3.73659581e-02, 1.24553191e-02,
          1.24553191e-02, 1.24553191e-02, 2.49106381e-02, 1.24553191e-02,
          0., 4.98212762e-02, 7.47319162e-02, 1.12097867e-01,
          1.24553191e-02, 4.98212762e-02, 0., 3.73659581e-02,
          8.71872306e-02, 2.49106381e-02, 0., 7.47319162e-02,
          1.24553191e-02, 4.98212762e-02, 4.98212762e-02, 2.49106381e-02,
          1.24553191e-02, 0., 2.49106381e-02, 2.49106381e-02,
          6.22765943e-02, 4.98212762e-02, 1.24553191e-02, 1.24553191e-02,
          0., 1.24553191e-02, 1.24553191e-02, 2.49106381e-02,
          7.47319162e-02, 4.98212762e-02, 1.24553191e-02, 1.12097867e-01,
          1.24553191e-02, 0., 3.73659581e-02, 2.49106381e-02, 0.,
          1.24553191e-02, 7.47319162e-02, 3.73659581e-02, 2.49106381e-02,
          0., 1.24553191e-02, 1.24553191e-02, 0., 3.73659581e-02,
          2.49106381e-02, 0., 2.49106381e-02, 0., 0., 1.24553191e-02,
          3.73659581e-02, 4.98212762e-02, 2.49106381e-02, 3.73659581e-02,
          3.73659581e-02, 2.49106381e-02, 1.24553191e-02, 1.24553191e-02,
          0., 6.22765943e-02, 1.24553191e-02, 2.49106381e-02,
          3.73659581e-02, 2.49106381e-02, 2.49106381e-02, 1.24553191e-02,
          0., 2.49106381e-02, 2.49106381e-02, 4.98212762e-02,
          1.24553191e-02, 2.49106381e-02, 2.74017006e-01, 0.,
          4.98212762e-02, 1.24553191e-02, 1.24553191e-02, 6.22765943e-02,
          2.49106381e-02, 2.49106381e-02, 1.24553191e-02, 3.73659581e-02,
          1.24553191e-02, 0., 2.49106381e-02, 3.73659581e-02,
          4.98212762e-02, 0., 2.49106381e-02, 2.49106381e-02,
          2.49106381e-02, 0., 2.49106381e-02, 1.24553191e-02,
          6.22765943e-02, 0., 2.49106381e-02, 1.24553191e-02, 0.,
          2.49106381e-02, 0., 2.49106381e-02, 0., 1.24553191e-02,
          1.74374461e-01, 1.24553191e-02, 4.98212762e-02, 0.,
          3.73659581e-02, 2.49106377e-01, 1.24553191e-02, 7.47319162e-02,
          3.73659581e-02, 2.49106381e-02, 1.24553191e-02, 1.24553191e-02,
          1.24553191e-02, 3.73659581e-02, 2.49106381e-02, 1.24553191e-02,
          0., 1.24553191e-02, 0., 2.49106381e-02, 3.73659581e-02,
          2.49106381e-02, 0., 4.98212762e-02, 1.24553191e-02,
          1.24553191e-02, 3.73659581e-02, 1.24553191e-02, 4.98212762e-02,
          0., 3.73659581e-02, 2.49106381e-02, 0., 3.73659581e-02,
          2.49106381e-02, 3.73659581e-02, 4.98212762e-02, 3.73659581e-02,
          2.49106381e-02, 1.24553191e-02, 0., 1.61919147e-01,
          3.73659581e-02, 1.24553191e-02, 3.73659581e-02, 6.22765943e-02,
          1.24553191e-02, 0., 3.73659581e-02, 3.73659581e-02, 0.,
          2.49106381e-02, 4.98212762e-02, 0., 2.49106381e-02, 0., 0.,
          2.49106381e-02, 0., 0., 1.24553191e-02, 6.22765943e-02,
          1.24553191e-02, 1.24553191e-02, 1.24553189e-01, 1.24553191e-02,
          2.49106381e-02, 2.49106381e-02, 3.73659581e-02, 4.98212762e-02,
          1.24553191e-02, 2.49106381e-02, 0., 4.98212762e-02,
          3.73659581e-02, 1.24553191e-02, 2.49106381e-02, 4.98212762e-02,
          4.98212762e-02, 2.49106381e-02, 2.49106381e-02, 4.98212762e-02,
          2.49106381e-02, 0., 2.49106381e-02, 1.37008503e-01,
          3.73659581e-02, 3.73659581e-02, 1.24553191e-02, 1.24553191e-02,
          2.49106381e-02, 4.98212762e-02, 3.73659581e-02, 2.49106381e-02,
          2.49106381e-02, 1.12097867e-01, 0., 1.24553191e-02,
          2.49106381e-02, 8.71872306e-02, 0., 1.24553191e-02,
          3.73659581e-02, 0., 7.47319162e-02, 0., 2.49106381e-02, 0.,
          4.98212762e-02, 1.24553191e-02, 3.73659581e-02, 1.24553191e-02,
          3.73659581e-02, 1.12097867e-01, 3.73659581e-02, 1.24553191e-02,
          2.49106381e-02, 1.24553191e-02, 0., 3.73659581e-02, 0.,
          6.22765943e-02, 0., 0., 1.24553191e-02, 0., 1.24553191e-02,
          1.24553191e-02, 7.47319162e-02, 4.98212762e-02, 2.49106381e-02,
          0., 4.98212762e-02, 1.24553191e-02, 3.73659581e-02,
          6.22765943e-02, 0., 6.22765943e-02, 0., 2.49106381e-02,
          2.49106381e-02, 1.24553191e-02, 2.49106381e-02, 3.73659581e-02,
          6.22765943e-02, 0., 0., 1.24553191e-02, 1.24553191e-02,
          4.98212762e-02, 3.73659581e-02, 4.98212762e-02, 1.24553191e-02,
          2.49106381e-02, 4.98212762e-02, 2.49106381e-02, 1.24553191e-02,
          3.73659581e-02, 3.73659581e-02, 2.49106381e-02, 8.71872306e-02,
          2.49106381e-02, 1.24553191e-02, 4.98212762e-02, 0.,
          1.24553191e-02, 3.73659581e-02, 1.24553191e-02, 1.24553191e-02,
          2.49106381e-02, 0., 1.24553191e-02, 2.49106381e-02,
          2.49106381e-02, 4.98212762e-02, 3.73659581e-02, 4.98212762e-02,
          2.49106381e-02, 2.49106381e-02, 1.24553191e-02, 2.49106381e-02,
          1.24553191e-02, 3.73659581e-02, 1.24553191e-02, 1.24553191e-02,
          2.49106381e-02, 4.98212762e-02, 2.49106381e-02, 2.49106381e-02,
          1.24553191e-02, 2.49106381e-02, 3.73659581e-02, 1.24553191e-02,
          1.24553191e-02, 1.24553191e-02, 0., 4.98212762e-02, 0.,
          1.24553191e-02, 0., 3.73659581e-02, 4.98212762e-02,
          4.98212762e-02, 1.24553191e-02, 0., 3.73659581e-02,
          2.49106381e-02, 0., 2.49106381e-02, 0., 4.98212762e-02, 0., 0.,
          0., 0., 0., 3.73659581e-02, 2.49106381e-02, 3.73659581e-02,
          3.73659581e-02, 2.49106381e-02, 2.49106381e-02, 2.49106381e-02,
          2.49106381e-02, 3.73659581e-02, 1.24553191e-02, 4.98212762e-02,
          2.49106381e-02, 1.24553191e-02, 3.73659581e-02, 1.24553191e-02,
          4.98212762e-02, 2.49106381e-02, 3.73659581e-02, 2.49106381e-02,
          2.49106381e-02, 0., 3.73659581e-02, 0., 2.49106381e-02, 0.,
          6.22765943e-02, 1.86829776e-01, 1.24553191e-02, 2.49106381e-02,
          2.49106381e-02, 0., 4.98212762e-02, 1.24553191e-02,
          3.73659581e-02, 1.24553191e-02, 6.22765943e-02, 6.22765943e-02,
          3.73659581e-02, 1.49463832e-01, 7.47319162e-02, 4.98212762e-02,
          4.98212762e-02, 4.98212762e-02, 2.49106381e-02, 2.49106381e-02,
          4.98212762e-02, 1.24553191e-02, 1.24553191e-02, 1.24553191e-02,
          3.73659581e-02, 0., 1.24553191e-02, 2.49106381e-02, 0., 0. ]
      - [ 0., 0., 0., 0., 5.42326160e-02, 5.42326160e-02, 0., 0., 0., 0.,
          5.42326160e-02, 0., 5.42326160e-02, 0., 5.42326160e-02, 0., 0.,
          5.42326160e-02, 0., 0., 0., 0., 0., 0., 0., 0., 0., 0., 0., 0.,
          0., 0., 0., 0., 0., 0., 0., 0., 0., 0., 0., 0., 0.,
          1.08465232e-01, 0., 0., 0., 0., 0., 0., 0., 0., 1.62697837e-01,
          0., 0., 0., 0., 0., 1.62697837e-01, 0., 0., 0., 0.,
          1.08465232e-01, 0., 5.42326160e-02, 0., 0., 5.42326160e-02, 0.,
          0., 0., 0., 0., 0., 0., 0., 5.42326160e-02, 0., 0., 0.,
          5.42326160e-02, 0., 0., 0., 0., 0., 0., 5.42326160e-02, 0., 0.,
          0., 5.42326160e-02, 0., 0., 0., 0., 0., 5.42326160e-02, 0., 0.,
          0., 5.42326160e-02, 0., 0., 0., 0., 0., 0., 0., 5.42326160e-02,
          0., 0., 0., 0., 0., 0., 0., 0., 0., 0., 0., 0., 0., 0., 0., 0.,
          0., 0., 0., 0., 1.08465232e-01, 0., 0., 5.42326160e-02, 0., 0.,
          0., 0., 0., 2.16930464e-01, 0., 0., 2.16930464e-01, 0., 0., 0.,
          5.42326160e-02, 0., 0., 0., 0., 0., 0., 0., 0., 0., 0., 0., 0.,
          5.42326160e-02, 0., 0., 0., 0., 0., 0., 0., 0., 0., 0., 0., 0.,
          0., 0., 0., 0., 5.42326160e-02, 0., 0., 0., 0., 0., 0.,
          2.71163076e-01, 0., 0., 0., 0., 0., 5.42326160e-02, 0., 0.,
          5.42326160e-02, 0., 0., 0., 5.42326160e-02, 5.42326160e-02, 0.,
          0., 0., 0., 0., 0., 5.42326160e-02, 0., 0., 0., 0., 0., 0., 0.,
          0., 0., 0., 5.42326160e-02, 0., 0., 0., 0., 0., 0., 0., 0., 0.,
          0., 0., 5.42326160e-02, 0., 0., 0., 0., 5.42326160e-02,
          5.42326160e-02, 0., 0., 0., 0., 0., 0., 0., 0., 0., 0., 0., 0.,
          5.42326160e-02, 0., 0., 0., 0., 0., 0., 0., 1.08465232e-01, 0.,
          0., 0., 0., 0., 0., 0., 0., 2.71163076e-01, 1.62697837e-01, 0.,
          0., 0., 0., 0., 5.42326160e-02, 0., 0., 0., 5.42326160e-02, 0.,
          0., 0., 0., 5.42326160e-02, 5.42326160e-02, 0., 0., 0.,
          5.42326160e-02, 0., 0., 0., 0., 0., 0., 0., 0., 0., 0., 0., 0.,
          0., 0., 0., 0., 0., 0., 0., 0., 5.42326160e-02, 0.,
          5.42326160e-02, 0., 0., 0., 0., 0., 2.16930464e-01, 0., 0., 0.,
          0., 0., 0., 0., 0., 0., 5.42326160e-02, 5.42326160e-02, 0., 0.,
          0., 0., 0., 0., 0., 0., 1.08465232e-01, 0., 0., 0., 0.,
          1.08465232e-01, 0., 0., 0., 0., 1.08465232e-01, 0., 0., 0., 0.,
          0., 0., 0., 0., 0., 0., 0., 0., 0., 0., 5.42326160e-02, 0.,
          2.16930464e-01, 0., 5.42326160e-02, 0., 0., 5.42326160e-02, 0.,
          0., 0., 0., 0., 0., 0., 0., 0., 5.42326160e-02, 0., 0., 0.,
          5.42326160e-02, 0., 0., 0., 0., 0., 0., 0., 0., 0., 0., 0., 0.,
          0., 0., 0., 0., 0., 0., 0., 0., 0., 0., 5.42326160e-02, 0., 0.,
          0., 0., 0., 0., 0., 0., 0., 0., 5.42326160e-02, 0., 0., 0., 0.,
          0., 0., 0., 0., 0., 0., 5.42326160e-02, 0., 0., 0., 0., 0., 0.,
          0., 0., 5.42326160e-02, 0., 0., 0., 0., 0., 0., 0., 0., 0.,
          5.42326160e-02, 0., 0., 0., 0., 0., 0., 0., 0., 0., 0.,
          5.42326160e-02, 0., 0., 0., 0., 1.08465232e-01, 0., 0., 0., 0.,
          5.42326160e-02, 0., 0., 0., 0., 0., 4.33860928e-01, 0., 0., 0.,
          1.08465232e-01, 1.08465232e-01, 0., 0., 0., 0., 1.08465232e-01,
          0., 0., 0., 0., 0., 0., 1.08465232e-01, 0., 0., 0., 0.,
          3.25395674e-01, 0., 0., 0., 0., 0., 5.42326160e-02 ]
      - [ 3.98726128e-02, 3.98726128e-02, 3.98726128e-02, 0.,
          3.98726128e-02, 0., 0., 0., 1.59490451e-01, 0., 0., 0., 0., 0.,
          0., 3.98726128e-02, 0., 0., 0., 0., 0., 3.98726128e-02,
          2.79108286e-01, 0., 1.19617835e-01, 0., 7.97452256e-02, 0., 0.,
          0., 0., 7.97452256e-02, 0., 0., 3.98726128e-02, 0.,
          3.98726128e-02, 0., 0., 7.97452256e-02, 1.19617835e-01, 0., 0.,
          0., 0., 3.98726128e-02, 1.19617835e-01, 0., 0., 0., 0., 0.,
          3.98726128e-02, 3.98726128e-02, 3.98726128e-02, 0., 0., 0., 0.,
          0., 0., 0., 0., 1.99363053e-01, 7.97452256e-02, 0., 0., 0.,
          3.98726128e-02, 3.98726128e-02, 1.59490451e-01, 1.99363053e-01,
          0., 3.98726128e-02, 0., 0., 0., 0., 0., 0., 0., 1.19617835e-01,
          0., 3.98726128e-02, 3.98726128e-02, 0., 0., 3.98726128e-02, 0.,
          0., 0., 0., 0., 0., 7.97452256e-02, 1.19617835e-01, 0.,
          3.98726128e-02, 3.98726128e-02, 0., 0., 3.98726128e-02, 0.,
          1.19617835e-01, 0., 0., 7.97452256e-02, 7.97452256e-02, 0.,
          7.97452256e-02, 0., 0., 0., 7.97452256e-02, 3.98726128e-02, 0.,
          0., 0., 0., 0., 0., 0., 3.98726128e-02, 3.98726128e-02,
          3.98726128e-02, 0., 0., 0., 3.98726128e-02, 0., 0., 0.,
          3.98726128e-02, 0., 0., 0., 0., 0., 3.98726128e-02,
          3.98726128e-02, 0., 0., 0., 3.98726128e-02, 0., 0.,
          3.98726128e-02, 0., 3.98726128e-02, 3.98726128e-02, 0., 0., 0.,
          0., 0., 0., 3.98726128e-02, 0., 3.98726128e-02, 0., 0.,
          3.98726128e-02, 0., 0., 0., 0., 0., 0., 0., 3.98726128e-02, 0.,
          0., 0., 0., 0., 0., 0., 0., 0., 3.98726128e-02, 0.,
          3.98726128e-02, 7.97452256e-02, 0., 0., 0., 0., 1.19617835e-01,
          0., 0., 0., 0., 0., 0., 0., 3.98726128e-02, 0., 0., 0., 0., 0.,
          0., 0., 3.98726128e-02, 3.98726128e-02, 3.98726128e-02, 0.,
          3.98726128e-02, 0., 0., 3.98726128e-02, 0., 7.97452256e-02, 0.,
          0., 0., 1.19617835e-01, 3.98726128e-02, 3.98726128e-02, 0.,
          7.97452256e-02, 3.98726128e-02, 3.98726128e-02, 0., 0., 0., 0.,
          0., 0., 3.98726128e-02, 0., 0., 0., 0., 7.97452256e-02,
          3.98726128e-02, 1.19617835e-01, 0., 0., 0., 0., 7.97452256e-02,
          0., 3.98726128e-02, 0., 0., 3.98726128e-02, 0., 1.19617835e-01,
          0., 0., 3.98726128e-02, 0., 0., 0., 3.98726128e-02, 0.,
          7.97452256e-02, 3.98726128e-02, 7.97452256e-02, 0., 0., 0.,
          3.98726128e-02, 3.98726128e-02, 3.98726128e-02, 3.98726128e-02,
          0., 0., 0., 1.19617835e-01, 7.97452256e-02, 3.98726128e-02,
          3.98726128e-02, 3.98726128e-02, 3.98726128e-02, 0., 0., 0.,
          1.19617835e-01, 1.19617835e-01, 3.98726128e-02, 3.98726128e-02,
          3.98726128e-02, 0., 7.97452256e-02, 0., 3.98726128e-02, 0., 0.,
          0., 0., 0., 0., 3.98726128e-02, 0., 0., 0., 0., 3.98726128e-02,
          3.98726128e-02, 0., 1.59490451e-01, 0., 0., 0., 3.98726128e-02,
          7.97452256e-02, 0., 0., 0., 0., 0., 3.98726128e-02, 0.,
          3.98726128e-02, 3.98726128e-02, 0., 3.98726128e-02, 0., 0.,
          7.97452256e-02, 7.97452256e-02, 0., 0., 3.98726128e-02,
          7.97452256e-02, 0., 0., 0., 3.98726128e-02, 0., 3.98726128e-02,
          0., 0., 0., 0., 3.98726128e-02, 0., 1.19617835e-01, 0.,
          3.98726128e-02, 0., 0., 0., 3.98726128e-02, 0., 3.98726128e-02,
          7.97452256e-02, 0., 3.98726128e-02, 0., 0., 0., 0., 0., 0., 0.,
          0., 3.98726128e-02, 0., 0., 0., 3.98726128e-02, 0.,
          3.98726128e-02, 3.98726128e-02, 0., 0., 3.98726128e-02,
          3.98726128e-02, 1.19617835e-01, 1.19617835e-01, 3.98726128e-02,
          0., 0., 0., 3.98726128e-02, 0., 1.59490451e-01, 0., 0.,
          3.98726128e-02, 0., 3.98726128e-02, 0., 0., 3.98726128e-02,
          3.98726128e-02, 0., 0., 3.98726128e-02, 0., 0., 0., 0.,
          3.98726128e-02, 0., 7.97452256e-02, 0., 0., 1.99363053e-01, 0.,
          3.98726128e-02, 3.98726128e-02, 0., 3.98726128e-02, 0., 0., 0.,
          0., 0., 3.98726128e-02, 3.98726128e-02, 0., 3.98726128e-02, 0.,
          0., 0., 0., 3.98726128e-02, 0., 0., 0., 0., 0., 0., 0., 0.,
          3.98726128e-02, 7.97452256e-02, 0., 3.98726128e-02, 0., 0.,
          1.19617835e-01, 3.98726128e-02, 3.98726128e-02, 0., 0., 0., 0.,
          0., 3.98726128e-02, 0., 0., 3.98726128e-02, 0., 7.97452256e-02,
          3.98726128e-02, 3.98726128e-02, 7.97452256e-02, 0.,
          3.98726128e-02, 0., 7.97452256e-02, 3.98726128e-02, 0., 0., 0.,
          0., 3.98726128e-02, 7.97452256e-02, 7.97452256e-02,
          7.97452256e-02, 0., 3.98726128e-02, 0., 0., 0., 1.19617835e-01,
          7.97452256e-02, 0., 7.97452256e-02, 0., 0., 3.98726128e-02,
          3.98726128e-02, 0., 0., 0., 1.59490451e-01, 0., 0., 0.,
          3.98726128e-02, 3.98726128e-02, 0., 3.98726128e-02,
          3.98726128e-02, 0., 0., 0., 7.97452256e-02, 0., 0., 0.,
          7.97452256e-02, 0., 0. ]
      - [ 0., 0., 2.89520808e-02, 2.89520808e-02, 2.89520808e-02, 0.,
          2.89520808e-02, 2.89520808e-02, 0., 2.89520808e-02, 0., 0., 0.,
          0., 2.89520808e-02, 0., 5.79041615e-02, 0., 5.79041615e-02,
          5.79041615e-02, 0., 1.15808323e-01, 2.89520808e-02, 0., 0.,
          2.89520808e-02, 2.89520808e-02, 2.89520808e-02, 2.89520808e-02,
          0., 0., 5.79041615e-02, 2.89520808e-02, 2.89520808e-02, 0.,
          5.79041615e-02, 0., 1.15808323e-01, 0., 2.02664569e-01,
          5.79041615e-02, 2.89520808e-02, 2.89520808e-02, 2.89520808e-02,
          0., 2.89520808e-02, 5.79041615e-02, 0., 0., 0., 2.89520808e-02,
          2.89520808e-02, 0., 0., 2.89520808e-02, 2.89520808e-02, 0., 0.,
          0., 0., 0., 0., 5.79041615e-02, 1.15808323e-01, 0., 0., 0.,
          2.89520808e-02, 0., 2.89520808e-02, 0., 8.68562385e-02,
          5.79041615e-02, 0., 0., 0., 0., 2.89520808e-02, 1.15808323e-01,
          8.68562385e-02, 0., 0., 0., 5.79041615e-02, 1.15808323e-01,
          2.89520808e-02, 0., 2.89520808e-02, 2.89520808e-02, 0., 0., 0.,
          0., 0., 2.89520808e-02, 2.89520808e-02, 0., 2.89520808e-02,
          8.68562385e-02, 0., 5.79041615e-02, 0., 0., 0., 0.,
          2.89520808e-02, 2.89520808e-02, 0., 0., 0., 0., 5.79041615e-02,
          0., 2.89520808e-02, 0., 0., 0., 0., 2.89520808e-02, 0., 0., 0.,
          2.89520808e-02, 0., 0., 0., 2.89520808e-02, 0., 0., 0., 0.,
          5.79041615e-02, 0., 2.89520808e-02, 1.73712477e-01,
          5.79041615e-02, 2.89520808e-02, 5.79041615e-02, 5.79041615e-02,
          5.79041615e-02, 0., 2.89520808e-02, 0., 5.79041615e-02, 0.,
          2.89520808e-02, 0., 0., 0., 2.89520808e-02, 0., 8.68562385e-02,
          2.89520808e-02, 0., 0., 2.89520808e-02, 0., 0., 2.89520808e-02,
          0., 0., 2.89520808e-02, 2.89520808e-02, 2.89520808e-02, 0.,
          5.79041615e-02, 0., 0., 5.79041615e-02, 8.68562385e-02, 0., 0.,
          5.79041615e-02, 0., 0., 0., 2.89520808e-02, 0., 1.15808323e-01,
          0., 0., 2.89520808e-02, 8.68562385e-02, 0., 0., 2.89520808e-02,
          0., 2.89520808e-02, 2.89520808e-02, 0., 0., 2.89520808e-02, 0.,
          8.68562385e-02, 0., 2.89520808e-02, 0., 1.15808323e-01,
          2.89520808e-02, 0., 1.44760400e-01, 0., 8.68562385e-02, 0., 0.,
          0., 0., 0., 0., 0., 2.89520808e-02, 2.89520808e-02, 0., 0.,
          2.89520808e-02, 0., 5.79041615e-02, 5.79041615e-02, 0.,
          8.68562385e-02, 2.89520808e-02, 0., 0., 0., 2.89520808e-02,
          8.68562385e-02, 0., 0., 0., 0., 0., 5.79041615e-02,
          2.89520808e-02, 2.89520808e-02, 0., 0., 2.89520808e-02, 0.,
          5.79041615e-02, 5.79041615e-02, 0., 0., 0., 0., 0.,
          8.68562385e-02, 0., 0., 2.89520808e-02, 2.89520808e-02,
          2.89520808e-02, 0., 5.79041615e-02, 0., 0., 0., 2.89520808e-02,
          0., 0., 0., 8.68562385e-02, 2.89520808e-02, 0., 2.89520808e-02,
          5.79041615e-02, 2.89520808e-02, 0., 2.89520808e-02, 0., 0.,
          2.89520808e-02, 0., 2.89520808e-02, 2.89520808e-02,
          5.79041615e-02, 2.31616646e-01, 8.68562385e-02, 2.89520808e-02,
          2.89520808e-02, 0., 0., 0., 0., 2.89520808e-02, 2.89520808e-02,
          2.89520808e-02, 2.89520808e-02, 2.89520808e-02, 0., 0., 0., 0.,
          0., 0., 2.89520808e-02, 0., 2.89520808e-02, 0., 2.89520808e-02,
          0., 2.89520808e-02, 2.89520808e-02, 0., 2.89520808e-02,
          2.89520808e-02, 0., 0., 8.68562385e-02, 0., 2.89520808e-02,
          5.79041615e-02, 5.79041615e-02, 5.79041615e-02, 0., 0., 0.,
          5.79041615e-02, 5.79041615e-02, 2.89520808e-02, 2.89520808e-02,
          0., 0., 5.79041615e-02, 0., 2.89520808e-02, 0., 8.68562385e-02,
          0., 5.79041615e-02, 0., 2.89520808e-02, 2.89520808e-02,
          2.89520808e-02, 0., 8.68562385e-02, 0., 5.79041615e-02,
          8.68562385e-02, 5.79041615e-02, 1.15808323e-01, 0., 0.,
          2.89520808e-02, 2.89520808e-02, 2.89520808e-02, 2.89520808e-02,
          0., 0., 1.73712477e-01, 2.89520808e-02, 2.89520808e-02,
          2.89520808e-02, 0., 0., 0., 2.89520808e-02, 0., 5.79041615e-02,
          2.89520808e-02, 0., 2.89520808e-02, 2.60568738e-01,
          2.89520808e-02, 2.89520808e-02, 0., 2.89520808e-02,
          1.44760400e-01, 0., 2.89520808e-02, 2.89520808e-02,
          5.79041615e-02, 2.89520808e-02, 5.79041615e-02, 2.89520808e-02,
          0., 5.79041615e-02, 0., 0., 1.15808323e-01, 8.68562385e-02,
          2.89520808e-02, 0., 2.89520808e-02, 0., 0., 2.89520808e-02, 0.,
          0., 1.73712477e-01, 5.79041615e-02, 0., 0., 1.15808323e-01, 0.,
          0., 0., 2.89520808e-02, 2.89520808e-02, 0., 2.89520808e-02,
          2.89520808e-02, 2.89520808e-02, 2.89520808e-02, 1.44760400e-01,
          2.89520808e-02, 2.89520808e-02, 0., 0., 0., 0., 2.89520808e-02,
          0., 0., 2.89520808e-02, 5.79041615e-02, 2.89520808e-02,
          2.89520808e-02, 0., 0., 1.44760400e-01, 0., 0., 2.89520808e-02,
          0., 5.79041615e-02, 0., 5.79041615e-02, 0., 0., 0.,
          2.89520808e-02, 2.89520808e-02, 5.79041615e-02, 2.89520808e-02,
          0., 0., 5.79041615e-02, 2.89520808e-02, 0., 0., 0.,
          2.89520808e-02, 0., 0., 2.89520808e-02, 0., 0., 2.89520808e-02,
          1.15808323e-01, 0., 1.15808323e-01, 5.79041615e-02,
          2.89520808e-02, 0., 0., 0., 2.89520808e-02, 5.79041615e-02, 0.,
          0., 8.68562385e-02, 0., 2.89520808e-02, 0., 0., 2.89520808e-02,
          2.89520808e-02, 0., 5.79041615e-02, 0., 0., 1.44760400e-01,
          2.89520808e-02, 2.89520808e-02, 5.79041615e-02, 5.79041615e-02,
          2.89520808e-02, 0., 0., 2.89520808e-02, 0., 5.79041615e-02,
          2.89520808e-02, 8.68562385e-02, 2.89520808e-02, 0.,
          5.79041615e-02, 2.89520808e-02, 5.79041615e-02, 0.,
          2.89520808e-02, 0., 8.68562385e-02, 2.89520808e-02,
          2.89520808e-02, 0., 0., 8.68562385e-02, 2.89520808e-02, 0. ]
      - [ 0., 0., 4.34372239e-02, 4.34372239e-02, 0., 0., 0.,
          4.34372239e-02, 4.34372239e-02, 1.73748896e-01, 0., 0.,
          4.34372239e-02, 0., 0., 0., 0., 4.34372239e-02, 4.34372239e-02,
          0., 0., 0., 4.34372239e-02, 4.34372239e-02, 0., 0.,
          8.68744478e-02, 0., 0., 4.34372239e-02, 0., 0., 0., 0., 0., 0.,
          0., 0., 0., 4.34372239e-02, 0., 0., 0., 0., 0., 8.68744478e-02,
          0., 0., 4.34372239e-02, 0., 4.34372239e-02, 0., 4.34372239e-02,
          0., 0., 0., 4.34372239e-02, 0., 0., 0., 0., 0., 0., 0., 0.,
          4.34372239e-02, 1.73748896e-01, 8.68744478e-02, 0., 0.,
          4.34372239e-02, 0., 0., 8.68744478e-02, 1.30311668e-01, 0.,
          4.34372239e-02, 0., 4.34372239e-02, 0., 0., 4.34372239e-02, 0.,
          0., 8.68744478e-02, 0., 0., 4.34372239e-02, 0., 0., 0.,
          4.34372239e-02, 0., 0., 0., 8.68744478e-02, 4.34372239e-02, 0.,
          4.34372239e-02, 4.34372239e-02, 8.68744478e-02, 0., 0., 0., 0.,
          0., 0., 0., 4.34372239e-02, 1.73748896e-01, 4.34372239e-02, 0.,
          0., 0., 0., 0., 0., 0., 0., 0., 0., 4.34372239e-02, 0., 0., 0.,
          0., 0., 0., 0., 0., 0., 0., 8.68744478e-02, 0., 0., 0.,
          1.30311668e-01, 0., 4.34372239e-02, 0., 0., 4.34372239e-02, 0.,
          0., 0., 4.34372239e-02, 4.34372239e-02, 0., 0., 0., 0.,
          8.68744478e-02, 0., 0., 0., 0., 0., 0., 0., 0., 8.68744478e-02,
          0., 0., 4.34372239e-02, 4.34372239e-02, 8.68744478e-02, 0., 0.,
          4.34372239e-02, 0., 0., 4.34372239e-02, 0., 0., 4.34372239e-02,
          0., 0., 4.34372239e-02, 8.68744478e-02, 0., 0., 4.34372239e-02,
          0., 0., 0., 0., 8.68744478e-02, 4.34372239e-02, 0.,
          4.34372239e-02, 0., 0., 0., 0., 4.34372239e-02, 4.34372239e-02,
          0., 0., 0., 4.34372239e-02, 0., 0., 4.34372239e-02, 0., 0.,
          8.68744478e-02, 0., 4.34372239e-02, 0., 4.34372239e-02, 0.,
          4.34372239e-02, 0., 0., 0., 4.34372239e-02, 4.34372239e-02,
          1.30311668e-01, 0., 0., 0., 0., 0., 0., 0., 0., 0.,
          4.34372239e-02, 0., 0., 0., 4.34372239e-02, 0., 0., 0., 0., 0.,
          0., 0., 0., 0., 0., 0., 8.68744478e-02, 0., 0., 0., 0., 0.,
          8.68744478e-02, 0., 0., 0., 0., 4.34372239e-02, 0., 0., 0., 0.,
          0., 0., 0., 4.34372239e-02, 0., 0., 4.34372239e-02,
          4.34372239e-02, 4.34372239e-02, 0., 0., 8.68744478e-02, 0., 0.,
          0., 4.34372239e-02, 0., 4.34372239e-02, 0., 0., 4.34372239e-02,
          8.68744478e-02, 8.68744478e-02, 0., 4.34372239e-02, 0., 0., 0.,
          0., 4.34372239e-02, 0., 0., 0., 0., 0., 0., 0., 8.68744478e-02,
          0., 0., 0., 0., 0., 4.34372239e-02, 0., 0., 0., 4.34372239e-02,
          8.68744478e-02, 4.34372239e-02, 0., 4.34372239e-02, 0.,
          4.34372239e-02, 8.68744478e-02, 0., 0., 0., 0., 8.68744478e-02,
          0., 0., 4.34372239e-02, 4.34372239e-02, 0., 0., 0., 0., 0., 0.,
          0., 0., 0., 0., 0., 4.34372239e-02, 4.34372239e-02, 0.,
          4.34372239e-02, 0., 0., 4.34372239e-02, 0., 0., 0., 0.,
          4.34372239e-02, 0., 8.68744478e-02, 4.34372239e-02, 0.,
          4.34372239e-02, 8.68744478e-02, 4.34372239e-02, 0., 0., 0., 0.,
          4.34372239e-02, 0., 0., 0., 0., 0., 0., 0., 4.34372239e-02,
          4.34372239e-02, 0., 0., 0., 0., 4.34372239e-02, 4.34372239e-02,
          0., 0., 4.34372239e-02, 0., 0., 2.60623336e-01, 0.,
          4.34372239e-02, 0., 0., 0., 4.34372239e-02, 0., 0., 0.,
          8.68744478e-02, 8.68744478e-02, 0., 0., 0., 0., 0., 0.,
          8.68744478e-02, 0., 0., 0., 0., 0., 0., 0., 4.34372239e-02, 0.,
          4.34372239e-02, 8.68744478e-02, 0., 4.34372239e-02, 0., 0.,
          4.34372239e-02, 0., 0., 0., 0., 0., 4.34372239e-02, 0., 0., 0.,
          0., 0., 0., 0., 0., 0., 4.34372239e-02, 0., 0., 4.34372239e-02,
          0., 4.34372239e-02, 4.34372239e-02, 8.68744478e-02,
          4.34372239e-02, 0., 0., 4.34372239e-02, 0., 4.34372239e-02, 0.,
          0., 4.34372239e-02, 4.34372239e-02, 0., 0., 0., 4.34372239e-02,
          0., 0., 0., 0., 0., 0., 0., 0., 0., 0., 4.34372239e-02,
          8.68744478e-02, 0., 4.34372239e-02, 1.73748896e-01,
          8.68744478e-02, 0., 0., 0., 0., 4.34372239e-02, 3.90935004e-01,
          0., 0., 0., 0., 3.90935004e-01, 4.34372239e-02, 0., 0., 0., 0.,
          0., 0., 0., 0., 0., 0., 0., 8.68744478e-02, 0., 0., 0., 0.,
          4.34372239e-02, 0., 8.68744478e-02, 0., 0., 0. ]
      - [ 0., 9.05357450e-02, 0., 0., 0., 0., 0., 9.05357450e-02, 0., 0.,
          4.52678725e-02, 0., 0., 0., 0., 0., 4.52678725e-02,
          4.52678725e-02, 0., 0., 0., 0., 0., 9.05357450e-02,
          4.52678725e-02, 0., 0., 4.52678725e-02, 0., 0., 0., 0., 0.,
          1.35803625e-01, 0., 1.35803625e-01, 0., 0., 4.52678725e-02, 0.,
          0., 0., 0., 0., 4.52678725e-02, 0., 1.35803625e-01, 0., 0., 0.,
          0., 0., 0., 9.05357450e-02, 0., 4.52678725e-02, 4.52678725e-02,
          0., 4.52678725e-02, 0., 0., 0., 0., 9.05357450e-02, 0., 0.,
          4.52678725e-02, 0., 0., 4.52678725e-02, 0., 1.81071490e-01,
          1.35803625e-01, 0., 0., 0., 0., 2.26339370e-01, 1.35803625e-01,
          0., 4.52678725e-02, 0., 4.52678725e-02, 0., 9.05357450e-02, 0.,
          0., 1.35803625e-01, 0., 1.35803625e-01, 0., 0., 0., 0., 0., 0.,
          0., 0., 0., 0., 4.52678725e-02, 0., 4.52678725e-02,
          4.52678725e-02, 4.52678725e-02, 0., 0., 0., 0., 0., 0., 0., 0.,
          0., 0., 0., 0., 0., 4.52678725e-02, 0., 0., 0., 0., 0., 0., 0.,
          4.52678725e-02, 0., 0., 0., 9.05357450e-02, 4.52678725e-02, 0.,
          0., 4.52678725e-02, 4.52678725e-02, 0., 4.52678725e-02, 0.,
          9.05357450e-02, 0., 0., 0., 0., 0., 4.52678725e-02, 0.,
          4.52678725e-02, 0., 0., 4.52678725e-02, 0., 4.52678725e-02, 0.,
          0., 0., 0., 0., 0., 0., 4.52678725e-02, 0., 9.05357450e-02, 0.,
          4.52678725e-02, 0., 0., 0., 4.52678725e-02, 4.52678725e-02, 0.,
          0., 0., 0., 0., 4.52678725e-02, 0., 0., 0., 0., 4.52678725e-02,
          0., 0., 4.52678725e-02, 0., 0., 0., 4.52678725e-02, 0.,
          9.05357450e-02, 4.52678725e-02, 0., 0., 4.52678725e-02, 0., 0.,
          0., 0., 4.52678725e-02, 4.52678725e-02, 4.52678725e-02,
          4.52678725e-02, 9.05357450e-02, 0., 0., 4.52678725e-02, 0., 0.,
          0., 0., 0., 4.52678725e-02, 0., 0., 0., 0., 0., 0., 0.,
          4.52678725e-02, 4.52678725e-02, 0., 0., 0., 0., 0.,
          4.52678725e-02, 0., 4.52678725e-02, 0., 0., 0., 0., 0., 0.,
          4.52678725e-02, 4.52678725e-02, 0., 0., 9.05357450e-02, 0.,
          9.05357450e-02, 9.05357450e-02, 9.05357450e-02, 0., 0., 0., 0.,
          9.05357450e-02, 4.52678725e-02, 4.52678725e-02, 0.,
          4.52678725e-02, 0., 0., 0., 0., 0., 0., 0., 0., 0., 0.,
          4.52678725e-02, 0., 4.52678725e-02, 0., 0., 0., 0., 0., 0., 0.,
          0., 0., 4.52678725e-02, 1.81071490e-01, 2.26339370e-01, 0., 0.,
          0., 4.52678725e-02, 4.52678725e-02, 4.52678725e-02, 0., 0.,
          9.05357450e-02, 0., 4.52678725e-02, 0., 0., 0., 0., 0., 0., 0.,
          0., 0., 0., 4.52678725e-02, 0., 0., 4.52678725e-02, 0., 0., 0.,
          4.52678725e-02, 0., 0., 0., 0., 0., 4.52678725e-02, 0., 0., 0.,
          4.52678725e-02, 0., 1.81071490e-01, 0., 0., 9.05357450e-02,
          9.05357450e-02, 0., 0., 0., 4.52678725e-02, 0., 0., 0.,
          1.35803625e-01, 4.52678725e-02, 0., 4.52678725e-02, 0., 0.,
          4.52678725e-02, 0., 4.52678725e-02, 0., 0., 0., 4.52678725e-02,
          0., 0., 0., 0., 4.52678725e-02, 4.52678725e-02, 0., 0.,
          4.52678725e-02, 0., 0., 0., 0., 0., 1.35803625e-01, 0., 0., 0.,
          3.16875100e-01, 0., 0., 0., 0., 0., 0., 4.52678725e-02,
          4.52678725e-02, 9.05357450e-02, 4.52678725e-02, 0.,
          4.52678725e-02, 0., 0., 0., 0., 4.52678725e-02, 0.,
          4.52678725e-02, 0., 0., 0., 0., 0., 0., 0., 0., 0., 0.,
          4.52678725e-02, 4.52678725e-02, 1.35803625e-01, 4.52678725e-02,
          0., 0., 0., 0., 0., 0., 4.52678725e-02, 0., 0., 0., 0., 0., 0.,
          0., 0., 0., 9.05357450e-02, 0., 0., 4.52678725e-02, 0.,
          1.35803625e-01, 4.52678725e-02, 4.52678725e-02, 4.52678725e-02,
          0., 0., 0., 0., 0., 0., 0., 0., 0., 4.52678725e-02,
          4.52678725e-02, 9.05357450e-02, 0., 0., 0., 0., 0., 0., 0., 0.,
          0., 0., 4.52678725e-02, 4.52678725e-02, 4.52678725e-02, 0., 0.,
          0., 9.05357450e-02, 4.52678725e-02, 4.52678725e-02,
          9.05357450e-02, 4.52678725e-02, 0., 0., 0., 9.05357450e-02, 0.,
          0., 0., 1.81071490e-01, 0., 0., 0., 0., 4.52678725e-02, 0., 0.,
          0., 0., 0., 9.05357450e-02, 0., 1.35803625e-01, 0.,
          4.52678725e-02, 4.52678725e-02, 0., 0., 0., 0., 4.52678725e-02,
          0., 0., 4.52678725e-02, 0., 0., 0., 4.52678725e-02, 0., 0.,
          4.52678725e-02, 4.52678725e-02, 0., 0., 0., 0., 0.,
          1.35803625e-01, 0. ]
      - [ 4.49567512e-02, 4.49567512e-02, 2.99711674e-02, 1.49855837e-02,
          1.49855837e-02, 2.99711674e-02, 4.49567512e-02, 5.99423349e-02,
          7.49279186e-02, 7.49279186e-02, 5.99423349e-02, 1.49855837e-02,
          0., 0., 2.99711674e-02, 0., 0., 1.49855837e-01, 5.99423349e-02,
          2.99711674e-02, 0., 2.99711674e-02, 5.99423349e-02,
          4.49567512e-02, 1.49855837e-02, 1.49855837e-02, 5.99423349e-02,
          1.49855837e-02, 0., 0., 4.49567512e-02, 1.49855837e-02,
          2.99711674e-02, 2.99711674e-02, 5.99423349e-02, 1.94812581e-01,
          4.49567512e-02, 1.49855837e-02, 2.99711674e-02, 4.49567512e-02,
          1.19884670e-01, 1.49855837e-02, 1.49855837e-02, 0., 0.,
          1.04899086e-01, 8.99135023e-02, 1.49855837e-02, 0.,
          1.49855837e-02, 4.49567512e-02, 2.99711674e-02, 0.,
          7.49279186e-02, 0., 1.49855837e-02, 1.49855837e-02,
          5.99423349e-02, 0., 0., 0., 1.49855837e-02, 0., 1.49855837e-02,
          4.49567512e-02, 2.99711674e-02, 1.49855837e-02, 5.99423349e-02,
          1.04899086e-01, 1.49855837e-02, 2.99711674e-02, 8.99135023e-02,
          4.49567512e-02, 2.99711674e-02, 5.99423349e-02, 0.,
          1.49855837e-02, 1.04899086e-01, 1.49855837e-02, 5.99423349e-02,
          2.99711674e-02, 4.49567512e-02, 1.49855837e-02, 5.99423349e-02,
          1.04899086e-01, 2.99711674e-02, 1.49855837e-02, 0.,
          7.49279186e-02, 1.19884670e-01, 0., 2.99711674e-02,
          2.99711674e-02, 5.99423349e-02, 7.49279186e-02, 2.99711674e-02,
          0., 2.99711674e-02, 0., 1.49855837e-02, 1.49855837e-02,
          7.49279186e-02, 0., 7.49279186e-02, 0., 2.99711674e-02,
          2.99711674e-02, 1.49855837e-02, 0., 8.99135023e-02,
          4.49567512e-02, 0., 1.49855837e-02, 0., 7.49279186e-02, 0.,
          1.49855837e-02, 2.99711674e-02, 2.99711674e-02, 4.49567512e-02,
          0., 0., 4.49567512e-02, 0., 1.49855837e-02, 7.49279186e-02, 0.,
          4.49567512e-02, 8.99135023e-02, 1.49855837e-02, 0.,
          4.49567512e-02, 5.99423349e-02, 1.49855837e-02, 4.49567512e-02,
          0., 1.49855837e-02, 0., 2.99711674e-02, 2.99711674e-02, 0.,
          2.99711674e-02, 1.49855837e-02, 5.99423349e-02, 0.,
          5.99423349e-02, 0., 1.49855837e-02, 2.99711674e-02,
          7.49279186e-02, 0., 1.04899086e-01, 5.99423349e-02, 0.,
          2.99711674e-02, 0., 2.99711674e-02, 0., 2.99711674e-02, 0.,
          2.99711674e-02, 1.49855837e-02, 0., 0., 1.49855837e-02,
          1.49855837e-02, 4.49567512e-02, 0., 1.49855837e-02, 0.,
          1.49855837e-02, 2.99711674e-02, 1.49855837e-02, 0.,
          2.99711674e-02, 0., 1.49855837e-02, 1.49855837e-02, 0., 0.,
          1.49855837e-02, 5.99423349e-02, 2.99711674e-02, 0.,
          5.99423349e-02, 2.99711674e-02, 1.49855837e-02, 1.49855837e-02,
          0., 2.99711674e-02, 1.49855837e-02, 1.49855837e-02,
          1.49855837e-02, 1.49855837e-02, 1.49855837e-02, 0.,
          2.99711674e-02, 1.49855837e-02, 0., 1.49855837e-02,
          5.99423349e-02, 0., 7.49279186e-02, 0., 0., 5.99423349e-02,
          2.99711674e-02, 0., 0., 1.49855837e-02, 0., 5.99423349e-02, 0.,
          0., 1.49855837e-02, 0., 7.49279186e-02, 2.99711674e-02, 0.,
          1.04899086e-01, 0., 2.99711674e-02, 0., 0., 2.99711674e-02,
          4.49567512e-02, 2.99711674e-02, 1.49855837e-02, 1.49855837e-02,
          0., 1.49855837e-02, 4.49567512e-02, 1.49855837e-02, 0.,
          4.49567512e-02, 4.49567512e-02, 1.04899086e-01, 2.99711674e-02,
          2.99711674e-02, 4.49567512e-02, 2.99711674e-02, 1.49855837e-02,
          0., 1.49855837e-02, 0., 4.49567512e-02, 2.99711674e-02, 0.,
          7.49279186e-02, 5.99423349e-02, 1.49855837e-02, 4.49567512e-02,
          4.49567512e-02, 1.49855837e-02, 0., 1.49855837e-02,
          1.49855837e-02, 4.49567512e-02, 5.99423349e-02, 7.49279186e-02,
          0., 1.49855837e-02, 2.99711674e-02, 0., 1.49855837e-02,
          2.99711674e-02, 7.49279186e-02, 0., 2.99711674e-02,
          2.99711674e-02, 5.99423349e-02, 0., 2.99711674e-02,
          2.99711674e-02, 1.49855837e-02, 5.99423349e-02, 4.49567512e-02,
          4.49567512e-02, 0., 2.99711674e-02, 4.49567512e-02,
          7.49279186e-02, 0., 4.49567512e-02, 4.49567512e-02,
          8.99135023e-02, 0., 1.49855837e-02, 1.49855837e-02,
          2.99711674e-02, 0., 0., 1.49855837e-02, 1.49855837e-02,
          1.49855837e-02, 1.49855837e-02, 1.49855837e-02, 5.99423349e-02,
          1.49855837e-02, 0., 2.99711674e-02, 0., 1.49855837e-02, 0.,
          2.99711674e-02, 1.49855837e-02, 0., 1.04899086e-01,
          1.04899086e-01, 1.49855837e-02, 0., 0., 0., 0., 8.99135023e-02,
          0., 7.49279186e-02, 1.04899086e-01, 1.49855837e-01,
          1.49855837e-02, 1.49855837e-02, 1.49855837e-02, 5.99423349e-02,
          2.99711674e-02, 0., 1.49855837e-02, 2.99711674e-02, 0.,
          4.49567512e-02, 5.99423349e-02, 1.19884670e-01, 1.49855837e-02,
          1.49855837e-02, 2.99711674e-02, 5.99423349e-02, 0., 0.,
          2.99711674e-02, 4.49567512e-02, 2.99711674e-02, 2.99711674e-02,
          1.49855837e-02, 2.99711674e-02, 5.99423349e-02, 1.49855837e-02,
          1.49855837e-02, 0., 0., 4.49567512e-02, 1.19884670e-01,
          2.99711674e-02, 2.99711674e-02, 1.49855837e-02, 1.19884670e-01,
          0., 5.99423349e-02, 0., 5.99423349e-02, 0., 1.49855837e-02,
          7.49279186e-02, 1.79827005e-01, 5.99423349e-02, 2.99711674e-02,
          2.99711674e-02, 0., 7.49279186e-02, 1.49855837e-02, 0.,
          8.99135023e-02, 7.49279186e-02, 2.99711674e-02, 4.49567512e-02,
          7.49279186e-02, 0., 2.99711674e-02, 0., 0., 2.99711674e-02,
          4.49567512e-02, 2.99711674e-02, 1.49855837e-02, 1.49855837e-02,
          0., 1.49855837e-02, 1.49855837e-02, 1.49855837e-02,
          5.99423349e-02, 5.99423349e-02, 7.49279186e-02, 0.,
          2.99711674e-02, 1.19884670e-01, 2.99711674e-02, 1.49855837e-02,
          0., 1.49855837e-02, 1.49855837e-02, 1.49855837e-02, 0., 0.,
          7.49279186e-02, 0., 5.99423349e-02, 2.99711674e-02, 0.,
          1.19884670e-01, 0., 0., 2.99711674e-02, 2.99711674e-02,
          8.99135023e-02, 0., 0., 4.49567512e-02, 0., 1.49855837e-02,
          1.49855837e-02, 2.99711674e-02, 2.99711674e-02, 2.99711674e-02,
          1.49855837e-02, 4.49567512e-02, 2.99711674e-02, 4.49567512e-02,
          1.49855837e-02, 2.99711674e-02, 5.99423349e-02, 1.49855837e-02,
          1.49855837e-02, 1.04899086e-01, 7.49279186e-02, 2.99711674e-02,
          0., 0., 2.99711674e-02, 1.19884670e-01, 0., 1.49855837e-02, 0.,
          0., 2.99711674e-02, 2.99711674e-02, 1.49855837e-02,
          4.49567512e-02, 2.99711674e-02, 1.49855837e-02, 2.99711674e-02,
          1.49855837e-02, 0., 1.49855837e-02, 7.49279186e-02, 0., 0., 0.,
          1.64841413e-01, 0., 0., 1.49855837e-02, 5.99423349e-02,
          7.49279186e-02, 1.49855837e-02, 0., 7.49279186e-02,
          2.99711674e-02, 8.99135023e-02, 1.49855837e-02, 1.49855837e-02,
          1.34870246e-01, 1.49855837e-02, 8.99135023e-02, 5.99423349e-02,
          0., 2.99711674e-02, 4.49567512e-02, 0., 5.99423349e-02, 0., 0.,
          0., 4.49567512e-02, 4.49567512e-02, 2.99711674e-02,
          1.49855837e-02, 1.49855837e-02, 0., 4.49567512e-02,
          1.49855837e-02, 2.99711674e-02, 8.99135023e-02, 5.99423349e-02,
          4.49567512e-02, 5.99423349e-02, 2.99711674e-02, 1.49855837e-02,
          4.49567512e-02, 2.99711674e-02, 4.49567512e-02, 7.49279186e-02,
          1.49855837e-02 ]
      - [ 0., 7.01862425e-02, 0., 0., 0., 0., 0., 0., 0., 1.40372485e-01,
          0., 0., 0., 0., 0., 0., 7.01862425e-02, 0., 0., 0., 0., 0., 0.,
          7.01862425e-02, 0., 0., 0., 0., 0., 0., 0., 0., 0., 0., 0., 0.,
          0., 7.01862425e-02, 0., 0., 7.01862425e-02, 0., 0., 0., 0.,
          1.40372485e-01, 0., 0., 0., 0., 0., 0., 0., 0., 0., 0., 0., 0.,
          0., 0., 0., 0., 0., 0., 0., 1.40372485e-01, 7.01862425e-02,
          7.01862425e-02, 0., 7.01862425e-02, 7.01862425e-02, 0., 0.,
          7.01862425e-02, 0., 0., 0., 1.40372485e-01, 7.01862425e-02, 0.,
          0., 0., 7.01862425e-02, 7.01862425e-02, 0., 0., 0.,
          1.40372485e-01, 0., 7.01862425e-02, 0., 0., 0., 7.01862425e-02,
          1.40372485e-01, 7.01862425e-02, 0., 0., 0., 0., 1.40372485e-01,
          0., 0., 0., 0., 0., 1.40372485e-01, 0., 0., 0., 0., 0., 0., 0.,
          0., 0., 0., 0., 0., 0., 0., 0., 7.01862425e-02, 0., 0.,
          7.01862425e-02, 0., 0., 7.01862425e-02, 0., 0., 7.01862425e-02,
          0., 0., 0., 0., 7.01862425e-02, 0., 0., 0., 7.01862425e-02, 0.,
          0., 1.40372485e-01, 0., 0., 0., 0., 0., 0., 7.01862425e-02, 0.,
          7.01862425e-02, 0., 7.01862425e-02, 0., 0., 0., 0.,
          7.01862425e-02, 1.40372485e-01, 0., 7.01862425e-02, 0., 0., 0.,
          0., 0., 0., 0., 0., 0., 0., 0., 0., 0., 0., 0., 0., 0., 0., 0.,
          1.40372485e-01, 0., 0., 0., 0., 7.01862425e-02, 7.01862425e-02,
          0., 0., 0., 0., 0., 0., 0., 0., 0., 0., 1.40372485e-01, 0., 0.,
          0., 0., 0., 0., 0., 0., 0., 0., 0., 0., 7.01862425e-02, 0., 0.,
          0., 0., 0., 0., 2.10558727e-01, 0., 0., 0., 0., 0., 0., 0., 0.,
          7.01862425e-02, 0., 0., 0., 7.01862425e-02, 0., 1.40372485e-01,
          0., 0., 0., 7.01862425e-02, 7.01862425e-02, 0., 0., 0., 0., 0.,
          0., 1.40372485e-01, 0., 0., 0., 7.01862425e-02, 7.01862425e-02,
          0., 0., 0., 0., 0., 7.01862425e-02, 0., 0., 0., 0., 0.,
          7.01862425e-02, 0., 0., 0., 0., 0., 0., 0., 1.40372485e-01, 0.,
          0., 1.40372485e-01, 0., 0., 0., 7.01862425e-02, 7.01862425e-02,
          0., 0., 0., 0., 0., 1.40372485e-01, 0., 0., 0., 0., 0., 0., 0.,
          0., 0., 0., 0., 0., 7.01862425e-02, 7.01862425e-02, 0., 0.,
