%YAML:1.0
---
opencv_ml_svm:
   format: 3
   svmType: C_SVC
   kernel:
      type: CHI2
      gamma: 3.3750000000000002e-02
   C: 1.2500000000000000e+01
   term_criteria: { epsilon:1.0000000000000001e-01 }
   var_count: 500
   class_count: 2
   class_labels: !!opencv-matrix
      rows: 2
      cols: 1
      dt: i
      data: [ 0, 1 ]
   sv_total: 282
   support_vectors:
      - [ 5.95374070e-02, 3.96916047e-02, 3.96916047e-02, 3.96916047e-02,
          0., 0., 0., 9.92290080e-02, 3.96916047e-02, 0., 1.98458023e-02,
          3.96916047e-02, 0., 3.96916047e-02, 3.96916047e-02, 0.,
          3.96916047e-02, 5.95374070e-02, 3.96916047e-02, 1.98458023e-02,
          1.98458023e-02, 0., 0., 1.98458023e-02, 3.96916047e-02,
          1.98458023e-02, 0., 3.96916047e-02, 5.95374070e-02,
          1.98458023e-02, 9.92290080e-02, 0., 0., 1.98458023e-02,
          1.98458023e-02, 2.38149628e-01, 5.95374070e-02, 0.,
          3.96916047e-02, 3.96916047e-02, 0., 0., 1.98458023e-02, 0.,
          3.96916047e-02, 1.98458023e-02, 1.98458023e-02, 0.,
          5.95374070e-02, 3.96916047e-02, 0., 0., 0., 1.98458023e-02,
          1.98458023e-02, 0., 0., 0., 0., 3.96916047e-02, 3.96916047e-02,
          0., 1.98458023e-02, 1.19074814e-01, 1.98458023e-02,
          1.98458023e-02, 5.95374070e-02, 1.98458023e-02, 0.,
          1.98458023e-02, 1.98458023e-02, 1.98458023e-02, 5.95374070e-02,
          3.96916047e-02, 0., 0., 0., 2.97687024e-01, 5.95374070e-02,
          1.98458023e-02, 1.98458023e-02, 1.98458023e-02, 1.98458023e-02,
          3.96916047e-02, 1.58766419e-01, 0., 0., 1.98458023e-02,
          3.96916047e-02, 3.96916047e-02, 0., 3.96916047e-02, 0., 0.,
          5.95374070e-02, 5.95374070e-02, 0., 0., 3.96916047e-02, 0.,
          1.98458023e-02, 2.97687024e-01, 0., 0., 1.98458023e-02,
          5.95374070e-02, 3.96916047e-02, 1.98458023e-02, 1.98458023e-02,
          0., 0., 3.96916047e-02, 1.98458023e-02, 3.96916047e-02, 0., 0.,
          0., 3.96916047e-02, 3.96916047e-02, 1.98458023e-02,
          1.98458023e-02, 0., 1.98458023e-02, 1.98458023e-02,
          1.98458023e-02, 0., 0., 3.96916047e-02, 1.98458023e-02, 0., 0.,
          9.92290080e-02, 7.93832093e-02, 0., 7.93832093e-02,
          1.98458023e-02, 0., 7.93832093e-02, 5.95374070e-02, 0.,
          1.98458023e-02, 1.98458023e-02, 0., 3.96916047e-02,
          1.98458023e-02, 3.96916047e-02, 0., 0., 1.98458023e-02,
          3.96916047e-02, 1.98458023e-02, 1.98458023e-02, 0., 0.,
          3.96916047e-02, 1.98458023e-02, 1.98458023e-02, 5.95374070e-02,
          3.96916047e-02, 1.98458023e-02, 1.98458023e-02, 3.96916047e-02,
          3.96916047e-02, 9.92290080e-02, 5.95374070e-02, 0.,
          1.98458023e-02, 0., 1.98458023e-02, 1.98458023e-02, 0.,
          3.96916047e-02, 1.98458023e-02, 0., 1.98458023e-02, 0., 0.,
          1.98458023e-02, 1.98458023e-02, 0., 0., 0., 1.98458023e-02, 0.,
          3.96916047e-02, 1.98458023e-02, 1.98458023e-02, 1.98458023e-02,
          0., 3.96916047e-02, 1.98458023e-02, 0., 1.98458023e-02, 0.,
          5.95374070e-02, 1.98458023e-02, 0., 0., 0., 3.96916047e-02,
          3.96916047e-02, 0., 3.96916047e-02, 0., 1.98458023e-02,
          1.98458016e-01, 7.93832093e-02, 1.98458023e-02, 0., 0.,
          1.98458023e-02, 1.98458023e-02, 1.98458023e-02, 3.96916047e-02,
          3.96916047e-02, 0., 1.98458023e-02, 1.98458023e-02,
          1.98458023e-02, 9.92290080e-02, 0., 0., 0., 0., 0.,
          1.98458023e-02, 0., 0., 1.98458023e-02, 0., 1.98458023e-02,
          3.96916047e-02, 1.98458023e-02, 0., 1.98458023e-02,
          1.98458023e-02, 0., 0., 1.98458023e-02, 5.95374070e-02, 0., 0.,
          0., 9.92290080e-02, 0., 0., 0., 0., 3.96916047e-02, 0.,
          3.96916047e-02, 0., 3.96916047e-02, 0., 3.96916047e-02,
          3.96916047e-02, 1.98458023e-02, 5.95374070e-02, 1.98458023e-02,
          5.95374070e-02, 1.98458023e-02, 0., 3.96916047e-02, 0., 0., 0.,
          0., 1.98458023e-02, 3.96916047e-02, 0., 9.92290080e-02, 0.,
          1.98458023e-02, 3.96916047e-02, 0., 9.92290080e-02,
          3.96916047e-02, 1.98458023e-02, 3.96916047e-02, 0.,
          1.19074814e-01, 0., 0., 1.98458023e-02, 5.95374070e-02,
          1.98458023e-02, 1.98458023e-02, 1.98458023e-02, 3.96916047e-02,
          0., 1.98458023e-02, 3.96916047e-02, 0., 7.93832093e-02,
          1.98458023e-02, 0., 1.98458023e-02, 0., 0., 0., 1.98458023e-02,
          1.98458023e-02, 3.96916047e-02, 5.95374070e-02, 0., 0.,
          5.95374070e-02, 5.95374070e-02, 0., 0., 1.58766419e-01,
          1.98458023e-02, 1.98458023e-02, 1.98458023e-02, 9.92290080e-02,
          1.98458023e-02, 3.96916047e-02, 7.93832093e-02, 1.98458023e-02,
          0., 1.98458023e-02, 3.96916047e-02, 3.96916047e-02, 0.,
          1.98458023e-02, 0., 0., 3.96916047e-02, 1.98458023e-02, 0.,
          1.98458023e-02, 3.96916047e-02, 0., 0., 1.98458023e-02,
          1.98458023e-02, 3.96916047e-02, 5.95374070e-02, 3.96916047e-02,
          5.95374070e-02, 1.98458023e-02, 0., 1.98458023e-02,
          1.98458023e-02, 0., 0., 0., 5.95374070e-02, 3.96916047e-02, 0.,
          3.96916047e-02, 5.95374070e-02, 1.98458023e-02, 1.98458023e-02,
          1.98458023e-02, 1.98458023e-02, 0., 0., 1.98458023e-02, 0.,
          1.98458023e-02, 2.18303815e-01, 0., 0., 5.95374070e-02,
          5.95374070e-02, 0., 1.98458023e-02, 3.96916047e-02,
          3.96916047e-02, 3.96916047e-02, 1.98458023e-02, 9.92290080e-02,
          3.96916047e-02, 0., 1.98458023e-02, 0., 3.96916047e-02,
          3.96916047e-02, 5.95374070e-02, 1.98458023e-02, 3.96916047e-02,
          0., 0., 3.96916047e-02, 3.96916047e-02, 5.95374070e-02,
          1.98458023e-02, 1.98458023e-02, 5.95374070e-02, 0., 0., 0., 0.,
          1.98458023e-02, 1.98458023e-02, 0., 0., 1.98458023e-02,
          1.98458023e-02, 0., 3.96916047e-02, 0., 1.98458023e-02, 0.,
          1.98458023e-02, 3.96916047e-02, 0., 3.96916047e-02,
          3.96916047e-02, 0., 0., 1.98458023e-02, 3.96916047e-02, 0.,
          1.98458023e-02, 0., 5.95374070e-02, 1.98458023e-02,
          5.95374070e-02, 1.98458023e-02, 0., 1.98458023e-02,
          1.98458023e-02, 1.98458023e-02, 5.95374070e-02, 1.98458023e-02,
          1.98458023e-02, 0., 0., 1.98458023e-02, 9.92290080e-02,
          1.98458023e-02, 5.95374070e-02, 0., 0., 0., 3.96916047e-02, 0.,
          0., 0., 1.98458023e-02, 1.98458023e-02, 5.95374070e-02, 0.,
          1.98458023e-02, 1.98458023e-02, 0., 1.58766419e-01,
          1.98458023e-02, 1.98458023e-02, 3.96916047e-02, 0.,
          7.93832093e-02, 0., 3.96916047e-02, 1.98458023e-02, 0.,
          1.98458023e-02, 0., 1.38920605e-01, 0., 1.98458023e-02,
          1.58766419e-01, 3.96916047e-02, 0., 1.98458023e-02,
          1.98458023e-02, 1.98458023e-02, 0., 3.96916047e-02,
          7.93832093e-02, 1.58766419e-01, 0., 3.96916047e-02, 0.,
          3.96916047e-02, 0., 1.98458023e-02, 3.96916047e-02,
          1.98458023e-02, 0., 0., 0., 5.95374070e-02, 0., 9.92290080e-02,
          1.98458023e-02, 1.98458023e-02, 1.98458023e-02, 3.96916047e-02,
          1.98458023e-02, 3.96916047e-02, 0., 1.98458023e-02, 0.,
          1.98458023e-02, 3.96916047e-02, 0., 0. ]
      - [ 3.43756303e-02, 3.43756303e-02, 5.15634455e-02, 0.,
          5.15634455e-02, 0., 0., 3.43756303e-02, 5.15634455e-02,
          3.43756303e-02, 0., 5.15634455e-02, 0., 0., 3.43756303e-02, 0.,
          6.87512606e-02, 8.59390721e-02, 5.15634455e-02, 5.15634455e-02,
          1.03126891e-01, 1.03126891e-01, 0., 1.03126891e-01,
          5.15634455e-02, 0., 1.03126891e-01, 0., 0., 3.43756303e-02,
          3.43756303e-02, 0., 0., 8.59390721e-02, 1.03126891e-01,
          1.71878152e-02, 6.87512606e-02, 0., 3.43756303e-02,
          1.71878152e-02, 0., 5.15634455e-02, 1.71878152e-02, 0.,
          5.15634455e-02, 0., 1.03126891e-01, 3.43756303e-02,
          3.43756303e-02, 0., 1.71878152e-02, 1.71878152e-02, 0., 0.,
          5.15634455e-02, 3.43756303e-02, 6.87512606e-02, 1.71878152e-02,
          0., 0., 1.71878152e-02, 0., 6.87512606e-02, 0., 3.43756303e-02,
          8.59390721e-02, 1.71878152e-02, 1.20314702e-01, 3.43756303e-02,
          0., 1.71878152e-02, 1.71878152e-02, 1.37502521e-01,
          6.87512606e-02, 0., 1.71878152e-02, 3.43756303e-02,
          6.87512606e-02, 5.15634455e-02, 1.71878152e-02, 6.87512606e-02,
          5.15634455e-02, 3.43756303e-02, 0., 5.15634455e-02, 0.,
          5.15634455e-02, 5.15634455e-02, 0., 8.59390721e-02, 0.,
          1.71878152e-02, 1.71878152e-02, 0., 5.15634455e-02,
          5.15634455e-02, 0., 1.71878152e-02, 1.71878152e-02,
          1.71878152e-02, 0., 5.15634455e-02, 0., 1.71878152e-02,
          1.71878152e-02, 0., 1.71878152e-02, 0., 0., 1.71878152e-02, 0.,
          3.43756303e-02, 1.71878152e-02, 0., 3.43756303e-02, 0.,
          8.59390721e-02, 3.43756303e-02, 1.71878152e-02, 0., 0.,
          3.43756303e-02, 1.71878152e-02, 0., 3.43756303e-02,
          1.71878152e-02, 0., 1.71878152e-02, 8.59390721e-02,
          8.59390721e-02, 0., 0., 1.71878152e-02, 1.71878152e-02,
          5.15634455e-02, 1.71878152e-02, 5.15634455e-02, 0.,
          1.71878152e-02, 0., 0., 0., 1.37502521e-01, 1.71878152e-02,
          1.71878152e-02, 6.87512606e-02, 3.43756303e-02, 1.71878152e-02,
          1.71878152e-02, 1.71878152e-02, 3.43756303e-02, 0.,
          8.59390721e-02, 1.71878152e-02, 0., 1.71878152e-02,
          5.15634455e-02, 6.87512606e-02, 3.43756303e-02, 0.,
          1.71878152e-02, 1.71878152e-02, 1.71878152e-02, 6.87512606e-02,
          1.71878152e-02, 5.15634455e-02, 0., 8.59390721e-02,
          5.15634455e-02, 1.71878152e-02, 0., 6.87512606e-02, 0.,
          1.71878152e-02, 0., 1.71878152e-02, 3.43756303e-02,
          1.71878152e-02, 1.71878152e-02, 5.15634455e-02, 0.,
          3.43756303e-02, 3.43756303e-02, 0., 1.71878152e-02, 0.,
          1.71878152e-02, 0., 5.15634455e-02, 5.15634455e-02,
          1.71878152e-02, 6.87512606e-02, 0., 3.43756303e-02,
          3.43756303e-02, 5.15634455e-02, 0., 3.43756303e-02, 0., 0.,
          1.71878152e-02, 0., 1.71878152e-02, 1.71878152e-02,
          1.71878152e-02, 1.37502521e-01, 1.03126891e-01, 3.43756303e-02,
          3.43756303e-02, 1.71878152e-02, 3.43756303e-02, 1.71878152e-02,
          3.43756303e-02, 1.71878152e-02, 5.15634455e-02, 1.71878152e-02,
          1.71878152e-02, 1.71878152e-02, 1.71878152e-02, 1.37502521e-01,
          6.87512606e-02, 1.71878152e-02, 0., 1.71878152e-02,
          1.03126891e-01, 5.15634455e-02, 1.71878152e-02, 0.,
          3.43756303e-02, 0., 6.87512606e-02, 5.15634455e-02,
          1.71878152e-02, 3.43756303e-02, 0., 1.71878152e-02,
          1.71878152e-02, 5.15634455e-02, 3.43756303e-02, 5.15634455e-02,
          1.71878152e-02, 3.43756303e-02, 5.15634455e-02, 6.87512606e-02,
          5.15634455e-02, 8.59390721e-02, 0., 0., 5.15634455e-02,
          5.15634455e-02, 3.43756303e-02, 3.43756303e-02, 1.71878152e-02,
          1.71878152e-02, 0., 3.43756303e-02, 0., 1.71878152e-02,
          3.43756303e-02, 3.43756303e-02, 8.59390721e-02, 8.59390721e-02,
          1.71878152e-02, 0., 1.71878152e-02, 3.43756303e-02, 0.,
          1.71878152e-02, 0., 1.71878152e-02, 1.71878152e-02,
          1.71878152e-02, 3.43756303e-02, 5.15634455e-02, 0.,
          1.03126891e-01, 1.71878152e-02, 1.71878152e-02, 0.,
          6.87512606e-02, 1.71878152e-02, 3.43756303e-02, 3.43756303e-02,
          5.15634455e-02, 8.59390721e-02, 0., 1.71878152e-02,
          8.59390721e-02, 3.43756303e-02, 0., 0., 1.71878152e-02,
          3.43756303e-02, 1.71878152e-02, 0., 1.71878152e-02,
          1.71878152e-02, 6.87512606e-02, 3.43756303e-02, 1.71878152e-02,
          1.71878152e-02, 0., 5.15634455e-02, 1.71878152e-02, 0.,
          1.71878152e-02, 0., 3.43756303e-02, 1.71878152e-02,
          1.71878152e-02, 1.71878152e-02, 0., 3.43756303e-02, 0.,
          5.15634455e-02, 1.71878152e-02, 1.71878152e-02, 3.43756303e-02,
          3.43756303e-02, 1.71878152e-02, 0., 5.15634455e-02,
          6.87512606e-02, 5.15634455e-02, 8.59390721e-02, 1.71878152e-02,
          0., 3.43756303e-02, 8.59390721e-02, 3.43756303e-02,
          5.15634455e-02, 5.15634455e-02, 0., 0., 5.15634455e-02,
          3.43756303e-02, 3.43756303e-02, 5.15634455e-02, 1.71878144e-01,
          1.71878152e-02, 5.15634455e-02, 1.71878152e-02, 0.,
          3.43756303e-02, 6.87512606e-02, 0., 1.71878152e-02, 0.,
          3.43756303e-02, 3.43756303e-02, 0., 8.59390721e-02,
          1.71878152e-02, 6.87512606e-02, 1.71878152e-02, 1.71878152e-02,
          0., 1.71878152e-02, 3.43756303e-02, 3.43756303e-02,
          1.71878152e-02, 1.71878152e-02, 6.87512606e-02, 3.43756303e-02,
          3.43756303e-02, 6.87512606e-02, 1.71878152e-02, 0.,
          6.87512606e-02, 1.71878152e-02, 1.71878152e-02, 3.43756303e-02,
          5.15634455e-02, 1.71878152e-02, 1.71878152e-02, 1.20314702e-01,
          3.43756303e-02, 0., 1.03126891e-01, 1.71878152e-02,
          3.43756303e-02, 3.43756303e-02, 5.15634455e-02, 0.,
          1.71878152e-02, 3.43756303e-02, 1.71878152e-02, 3.43756303e-02,
          3.43756303e-02, 0., 3.43756303e-02, 5.15634455e-02, 0., 0.,
          1.71878152e-02, 0., 5.15634455e-02, 5.15634455e-02, 0., 0., 0.,
          1.71878152e-02, 3.43756303e-02, 1.03126891e-01, 1.71878152e-02,
          1.71878152e-02, 0., 0., 0., 5.15634455e-02, 3.43756303e-02,
          1.71878152e-02, 0., 8.59390721e-02, 0., 6.87512606e-02,
          3.43756303e-02, 0., 0., 5.15634455e-02, 1.71878152e-02, 0.,
          5.15634455e-02, 1.71878152e-02, 3.43756303e-02, 0.,
          1.71878152e-02, 1.71878152e-02, 0., 3.43756303e-02,
          3.43756303e-02, 5.15634455e-02, 6.87512606e-02, 0.,
          6.87512606e-02, 0., 1.71878152e-02, 1.71878152e-02, 0.,
          6.87512606e-02, 1.71878152e-02, 3.43756303e-02, 3.43756303e-02,
          8.59390721e-02, 1.71878152e-02, 0., 1.71878152e-02,
          8.59390721e-02, 5.15634455e-02, 1.71878152e-02, 0., 0.,
          1.03126891e-01, 5.15634455e-02, 0., 1.20314702e-01,
          1.03126891e-01, 0., 5.15634455e-02, 3.43756303e-02,
          1.71878152e-02, 0., 8.59390721e-02, 1.20314702e-01,
          3.43756303e-02, 8.59390721e-02, 5.15634455e-02, 2.57817209e-01,
          1.71878152e-02, 1.71878152e-02, 3.43756303e-02, 3.43756303e-02,
          1.71878152e-02, 5.15634455e-02, 1.71878152e-02, 3.43756303e-02,
          0., 1.71878152e-02, 3.43756303e-02, 1.71878152e-02,
          3.43756303e-02, 3.43756303e-02, 0., 0., 6.87512606e-02, 0.,
          1.71878152e-02, 1.71878152e-02, 0., 5.15634455e-02,
          1.03126891e-01, 1.03126891e-01, 3.43756303e-02, 1.71878152e-02,
          0., 1.71878152e-02, 1.71878152e-02, 1.71878152e-02,
          6.87512606e-02, 0. ]
      - [ 0., 3.56310606e-02, 4.75080833e-02, 1.18770208e-02, 0., 0., 0.,
          1.42524242e-01, 3.56310606e-02, 1.18770208e-02, 1.18770208e-02,
          0., 1.18770208e-02, 0., 1.18770208e-02, 0., 1.18770208e-02,
          2.37540416e-02, 0., 0., 0., 2.37540416e-02, 3.56310606e-02,
          2.37540416e-02, 3.56310606e-02, 0., 0., 2.37540416e-02,
          1.18770208e-02, 2.37540416e-02, 2.37540416e-02, 1.18770208e-02,
          0., 3.56310606e-02, 1.18770208e-02, 4.75080833e-02, 0., 0., 0.,
          2.37540416e-02, 1.18770208e-02, 0., 0., 0., 0., 0.,
          4.75080833e-02, 0., 0., 1.18770208e-02, 2.37540416e-02, 0., 0.,
          3.56310606e-02, 1.18770208e-02, 4.75080833e-02, 0., 0., 0., 0.,
          1.18770208e-02, 0., 0., 5.93851022e-02, 0., 1.18770208e-02,
          1.06893189e-01, 0., 0., 0., 1.18770208e-02, 0., 0.,
          1.18770208e-02, 0., 0., 0., 6.76990151e-01, 1.18770208e-02,
          1.18770208e-02, 0., 2.37540416e-02, 0., 1.18770208e-02,
          1.18770208e-02, 0., 1.18770208e-02, 0., 3.56310606e-02, 0., 0.,
          0., 0., 0., 1.18770208e-02, 1.18770208e-02, 0., 0.,
          1.18770208e-02, 0., 0., 5.70096970e-01, 0., 3.56310606e-02, 0.,
          1.18770208e-02, 0., 0., 0., 0., 0., 1.18770208e-02, 0., 0.,
          1.18770208e-02, 0., 0., 0., 0., 0., 0., 0., 0., 0., 0., 0.,
          2.37540416e-02, 1.18770208e-02, 0., 0., 0., 0., 1.18770208e-02,
          0., 0., 1.18770208e-02, 3.56310606e-02, 1.18770208e-02, 0.,
          2.37540416e-02, 0., 0., 0., 3.56310606e-02, 0., 1.18770208e-02,
          0., 0., 0., 1.18770208e-02, 1.18770208e-02, 0., 0., 0.,
          1.18770208e-02, 0., 0., 2.37540416e-02, 2.37540416e-02, 0., 0.,
          3.56310606e-02, 0., 0., 0., 0., 0., 0., 2.37540416e-02, 0., 0.,
          1.18770208e-02, 0., 1.18770208e-02, 0., 0., 0., 0., 0., 0., 0.,
          0., 0., 0., 1.18770208e-02, 0., 1.18770208e-02, 0.,
          1.18770208e-02, 0., 0., 0., 1.18770208e-02, 4.75080833e-02, 0.,
          3.56310606e-02, 0., 2.37540416e-02, 1.18770208e-02,
          1.18770208e-02, 1.18770208e-02, 0., 0., 0., 0., 1.18770208e-02,
          1.18770208e-02, 0., 0., 0., 0., 0., 1.18770208e-02, 0., 0., 0.,
          2.37540416e-02, 1.18770208e-02, 0., 0., 0., 2.37540416e-02, 0.,
          0., 0., 0., 0., 0., 0., 0., 0., 5.93851022e-02, 0.,
          1.18770208e-02, 2.37540416e-02, 0., 1.18770208e-02, 0., 0., 0.,
          0., 1.18770208e-02, 0., 0., 0., 0., 0., 0., 0., 0.,
          1.18770208e-02, 0., 0., 0., 0., 0., 0., 0., 2.37540416e-02,
          1.18770208e-02, 0., 0., 0., 0., 4.75080833e-02, 0., 0., 0., 0.,
          0., 4.75080833e-02, 0., 0., 0., 1.18770208e-02, 2.37540416e-02,
          0., 1.18770208e-02, 2.37540416e-02, 0., 0., 0., 0.,
          3.56310606e-02, 0., 1.18770208e-02, 0., 0., 0., 0., 0., 0., 0.,
          4.75080833e-02, 1.18770208e-02, 0., 0., 0., 1.18770208e-02, 0.,
          1.18770208e-02, 0., 1.18770208e-02, 1.18770208e-02, 0., 0.,
          1.18770208e-02, 1.18770208e-02, 0., 0., 2.61294454e-01, 0., 0.,
          1.18770208e-02, 2.37540416e-02, 0., 3.56310606e-02, 0.,
          2.37540416e-02, 0., 0., 1.18770208e-02, 3.56310606e-02, 0.,
          1.18770208e-02, 0., 0., 0., 1.18770208e-02, 0., 1.18770208e-02,
          0., 0., 0., 0., 0., 2.37540416e-02, 0., 0., 2.37540416e-02, 0.,
          0., 2.37540416e-02, 0., 0., 0., 0., 2.37540416e-02,
          2.37540416e-02, 0., 0., 0., 4.75080833e-02, 0., 0., 0., 0.,
          1.18770208e-02, 0., 0., 0., 1.18770208e-02, 0., 0., 0.,
          1.18770208e-02, 0., 0., 0., 1.18770208e-02, 1.18770208e-02,
          1.18770208e-02, 4.75080833e-02, 1.18770208e-02, 0., 0., 0., 0.,
          1.18770208e-02, 3.56310606e-02, 0., 0., 0., 0., 0., 0., 0., 0.,
          0., 4.75080833e-02, 0., 1.18770208e-02, 2.37540416e-02, 0., 0.,
          1.18770208e-02, 1.18770208e-02, 0., 0., 0., 0., 0., 0.,
          1.18770208e-02, 0., 0., 0., 0., 0., 0., 0., 4.75080833e-02, 0.,
          2.37540416e-02, 0., 0., 0., 0., 0., 3.56310606e-02, 0., 0.,
          1.18770208e-02, 0., 0., 0., 0., 0., 0., 1.18770208e-02, 0.,
          2.37540416e-02, 0., 0., 1.18770208e-02, 0., 1.18770208e-02, 0.,
          1.18770208e-02, 0., 0., 0., 0., 2.37540416e-02, 3.56310606e-02,
          0., 0., 0., 1.18770208e-02, 0., 3.56310606e-02, 1.18770208e-02,
          0., 0., 0., 0., 2.37540416e-02, 0., 0., 1.18770208e-02,
          5.93851022e-02, 1.18770208e-02, 0., 4.75080833e-02,
          3.56310606e-02, 1.18770208e-02, 0., 0., 1.18770208e-02, 0., 0.,
          2.37540416e-02, 0., 1.18770208e-02, 1.18770208e-02,
          1.18770208e-02, 0., 0., 0., 0., 3.56310606e-02, 1.18770208e-02,
          0., 0., 5.93851022e-02, 3.56310606e-02, 0., 0., 8.31391439e-02,
          1.18770208e-02, 0., 1.18770208e-02, 0., 0., 1.18770208e-02, 0.,
          7.12621212e-02, 1.18770208e-02, 1.18770208e-02, 0. ]
      - [ 2.56832745e-02, 1.41258016e-01, 1.28416372e-02, 3.85249108e-02,
          0., 0., 2.56832745e-02, 5.13665490e-02, 5.13665490e-02,
          1.28416372e-02, 1.28416372e-02, 0., 0., 0., 2.56832745e-02, 0.,
          1.28416372e-02, 5.13665490e-02, 0., 1.28416372e-02, 0.,
          1.41258016e-01, 1.41258016e-01, 2.56832745e-02, 7.70498216e-02,
          1.28416372e-02, 1.28416372e-02, 2.56832745e-02, 2.56832745e-02,
          2.56832745e-02, 5.13665490e-02, 1.28416372e-02, 1.28416372e-02,
          0., 2.56832745e-02, 2.95357674e-01, 0., 1.28416372e-02, 0.,
          2.56832745e-02, 3.85249108e-02, 2.56832745e-02, 1.28416372e-02,
          2.56832745e-02, 0., 1.28416372e-02, 2.31149480e-01, 0., 0., 0.,
          3.85249108e-02, 1.28416372e-02, 0., 1.15574740e-01, 0.,
          1.28416372e-02, 0., 1.28416372e-02, 0., 0., 3.85249108e-02, 0.,
          5.13665490e-02, 1.66941285e-01, 0., 0., 5.13665490e-02,
          3.85249108e-02, 0., 0., 2.56832745e-02, 2.56832745e-02,
          5.13665490e-02, 1.28416372e-02, 1.28416372e-02, 0., 0.,
          2.69674391e-01, 3.85249108e-02, 5.13665490e-02, 2.56832745e-02,
          6.42081872e-02, 3.85249108e-02, 2.56832745e-02, 2.56832745e-02,
          1.28416372e-02, 0., 0., 3.85249108e-02, 1.28416372e-02,
          2.56832745e-02, 0., 2.56832745e-02, 0., 2.56832745e-02,
          3.85249108e-02, 1.28416372e-02, 2.56832745e-02, 3.85249108e-02,
          0., 1.28416372e-02, 2.18307838e-01, 0., 3.85249108e-02, 0.,
          6.42081872e-02, 1.28416372e-02, 2.56832745e-02, 1.28416372e-02,
          0., 1.28416372e-02, 3.85249108e-02, 0., 1.28416372e-02, 0.,
          2.56832745e-02, 0., 0., 1.28416372e-02, 0., 1.28416372e-02, 0.,
          1.28416372e-02, 1.28416372e-02, 3.85249108e-02, 2.56832745e-02,
          0., 6.42081872e-02, 1.28416372e-02, 3.85249108e-02, 0.,
          2.56832745e-02, 3.85249108e-02, 0., 5.13665490e-02,
          5.13665490e-02, 3.85249108e-02, 1.28416372e-02, 1.28416372e-02,
          2.56832745e-02, 0., 1.28416372e-02, 1.28416372e-02,
          5.13665490e-02, 1.28416372e-02, 2.56832745e-02, 2.56832745e-02,
          5.13665490e-02, 2.56832745e-02, 0., 0., 2.56832745e-02,
          3.85249108e-02, 0., 6.42081872e-02, 3.85249108e-02, 0.,
          2.56832745e-02, 1.28416372e-02, 1.28416372e-02, 2.56832745e-02,
          1.28416372e-02, 2.56832745e-02, 3.85249108e-02, 1.28416372e-02,
          2.56832745e-02, 0., 1.28416372e-02, 1.28416372e-02, 0., 0.,
          2.56832745e-02, 0., 0., 0., 1.28416372e-02, 1.28416372e-02,
          1.28416372e-02, 1.28416372e-02, 1.28416372e-02, 0.,
          1.28416372e-02, 2.56832745e-02, 1.28416372e-02, 6.42081872e-02,
          0., 1.28416372e-02, 1.28416372e-02, 5.13665490e-02, 0., 0., 0.,
          0., 1.28416372e-02, 0., 3.85249108e-02, 1.28416372e-02,
          1.28416372e-02, 3.85249108e-02, 0., 6.42081872e-02, 0.,
          1.28416372e-02, 0., 0., 3.85249108e-02, 0., 2.56832745e-02, 0.,
          0., 2.56832745e-02, 1.28416372e-02, 2.56832745e-02,
          1.28416372e-02, 2.56832745e-02, 1.28416372e-02, 1.28416372e-02,
          0., 0., 6.42081872e-02, 1.28416372e-02, 2.56832745e-02,
          1.28416372e-02, 0., 1.28416372e-02, 3.85249108e-02, 0.,
          2.56832745e-02, 1.28416372e-02, 3.85249108e-02, 0.,
          3.85249108e-02, 0., 0., 6.42081872e-02, 1.28416372e-02,
          1.28416372e-02, 1.28416372e-02, 0., 2.56832745e-02, 0.,
          2.56832745e-02, 1.28416372e-02, 2.56832745e-02, 0.,
          1.28416372e-02, 0., 0., 2.56832745e-02, 1.28416372e-02, 0.,
          6.42081872e-02, 0., 1.28416372e-02, 1.28416372e-02, 0.,
          1.28416372e-02, 2.56832745e-02, 1.28416372e-02, 3.85249108e-02,
          0., 3.85249108e-02, 1.28416372e-02, 0., 3.85249108e-02,
          1.28416372e-02, 2.56832745e-02, 1.28416372e-02, 1.28416372e-02,
          0., 1.28416374e-01, 2.56832745e-02, 1.28416372e-02,
          3.85249108e-02, 1.15574740e-01, 3.85249108e-02, 5.13665490e-02,
          5.13665490e-02, 1.28416372e-02, 1.28416372e-02, 1.15574740e-01,
          8.98914635e-02, 1.28416372e-02, 1.28416372e-02, 0.,
          6.42081872e-02, 1.28416372e-02, 0., 1.02733098e-01, 0., 0., 0.,
          1.28416372e-02, 1.28416372e-02, 3.85249108e-02, 1.28416372e-02,
          5.13665490e-02, 1.28416372e-02, 1.28416372e-02, 0.,
          2.56832745e-02, 1.28416372e-02, 2.56832745e-02, 1.28416372e-02,
          1.28416372e-02, 1.28416372e-02, 0., 0., 0., 0., 1.54099643e-01,
          0., 0., 2.56832745e-02, 8.98914635e-02, 1.28416372e-02,
          8.98914635e-02, 2.56832745e-02, 7.70498216e-02, 0.,
          1.28416372e-02, 3.85249108e-02, 0., 0., 6.42081872e-02,
          5.13665490e-02, 2.56832745e-02, 0., 3.85249108e-02, 0.,
          5.13665490e-02, 1.28416372e-02, 0., 1.28416372e-02, 0.,
          5.13665490e-02, 3.85249108e-02, 0., 7.70498216e-02,
          5.13665490e-02, 0., 2.56832745e-02, 1.28416372e-02,
          1.28416372e-02, 0., 1.28416372e-02, 0., 1.28416372e-02, 0.,
          1.28416372e-02, 2.56832745e-02, 2.56832745e-02, 5.13665490e-02,
          2.56832745e-02, 0., 1.28416372e-02, 2.56832745e-02,
          1.28416372e-02, 1.28416372e-02, 0., 1.28416372e-02,
          2.05466196e-01, 0., 5.13665490e-02, 0., 2.56832745e-02, 0.,
          1.28416372e-02, 5.13665490e-02, 0., 2.56832745e-02, 0.,
          3.85249108e-02, 0., 0., 1.28416372e-02, 1.28416372e-02,
          1.28416372e-02, 2.05466196e-01, 1.41258016e-01, 2.56832745e-02,
          0., 0., 1.28416372e-02, 0., 0., 0., 3.85249108e-02,
          2.56832745e-02, 2.56832745e-02, 0., 0., 7.70498216e-02, 0., 0.,
          1.28416372e-02, 0., 1.28416372e-02, 1.28416372e-02, 0., 0.,
          6.42081872e-02, 0., 2.56832745e-02, 1.28416372e-02,
          2.56832745e-02, 2.56832745e-02, 0., 1.28416372e-02,
          1.28416372e-02, 1.28416372e-02, 1.02733098e-01, 1.28416372e-02,
          5.13665490e-02, 0., 0., 2.56832745e-02, 2.56832745e-02, 0.,
          8.98914635e-02, 0., 0., 1.28416372e-02, 0., 3.85249108e-02, 0.,
          1.28416372e-02, 1.28416372e-02, 0., 0., 7.70498216e-02,
          5.13665490e-02, 2.56832745e-02, 2.56832745e-02, 1.28416372e-02,
          2.56832745e-02, 1.28416372e-02, 0., 0., 2.56832745e-02,
          1.28416372e-02, 1.28416372e-02, 1.28416372e-02, 0.,
          1.28416372e-02, 1.28416372e-02, 0., 0., 7.70498216e-02, 0.,
          2.56832745e-02, 2.56832745e-02, 0., 0., 1.28416372e-02,
          3.85249108e-02, 0., 0., 0., 1.28416372e-02, 2.56832749e-01,
          5.13665490e-02, 3.85249108e-02, 5.13665490e-02, 6.42081872e-02,
          3.85249108e-02, 1.28416372e-02, 1.28416372e-02, 2.56832745e-02,
          0., 5.13665490e-02, 1.02733098e-01, 2.56832745e-02,
          2.56832745e-02, 2.56832745e-02, 2.56832745e-02, 1.02733098e-01,
          1.28416372e-02, 1.28416372e-02, 0., 7.70498216e-02,
          3.85249108e-02, 0., 1.28416372e-02, 2.56832745e-02, 0.,
          1.28416372e-02, 1.28416372e-02, 6.42081872e-02, 2.56832745e-02,
          1.28416372e-02, 1.28416372e-02, 3.85249108e-02, 1.28416372e-02,
          0., 3.85249108e-02, 1.02733098e-01, 2.56832745e-02,
          3.85249108e-02, 0. ]
      - [ 4.56435457e-02, 9.12870914e-02, 3.04290317e-02, 4.56435457e-02,
          3.04290317e-02, 3.04290317e-02, 1.52145158e-02, 1.36930645e-01,
          7.60725811e-02, 4.56435457e-02, 0., 0., 0., 1.52145158e-02, 0.,
          1.52145158e-02, 3.04290317e-02, 1.21716127e-01, 9.12870914e-02,
          3.04290317e-02, 4.56435457e-02, 3.04290317e-02, 4.56435457e-02,
          3.04290317e-02, 7.60725811e-02, 1.52145158e-02, 0.,
          1.52145158e-02, 1.52145158e-02, 1.52145158e-02, 1.52145158e-02,
          4.56435457e-02, 3.04290317e-02, 4.56435457e-02, 0.,
          1.21716127e-01, 0., 1.52145158e-02, 1.52145158e-02, 0.,
          1.52145158e-02, 0., 3.04290317e-02, 3.04290317e-02,
          1.52145158e-02, 1.52145158e-02, 1.52145158e-02, 0.,
          3.04290317e-02, 1.52145158e-02, 6.08580634e-02, 3.04290317e-02,
          1.52145158e-02, 3.04290317e-02, 3.04290317e-02, 4.56435457e-02,
          4.56435457e-02, 1.52145158e-02, 0., 0., 3.04290317e-02, 0.,
          1.52145158e-02, 1.52145158e-02, 0., 0., 7.60725811e-02,
          3.04290317e-02, 0., 4.56435457e-02, 3.04290317e-02,
          6.08580634e-02, 4.56435457e-02, 0., 1.52145158e-02, 0.,
          1.52145158e-02, 4.41220939e-01, 1.52145158e-02, 6.08580634e-02,
          1.52145158e-02, 0., 4.56435457e-02, 4.56435457e-02,
          6.08580634e-02, 3.04290317e-02, 1.52145158e-02, 0.,
          7.60725811e-02, 3.04290317e-02, 1.06501609e-01, 4.56435457e-02,
          1.52145158e-02, 0., 3.04290317e-02, 4.56435457e-02, 0.,
          4.56435457e-02, 7.60725811e-02, 1.52145158e-02, 1.52145158e-02,
          1.67359665e-01, 4.56435457e-02, 4.56435457e-02, 0., 0., 0.,
          3.04290317e-02, 1.52145158e-02, 4.56435457e-02, 0.,
          4.56435457e-02, 3.04290317e-02, 0., 3.04290317e-02,
          1.52145158e-02, 0., 6.08580634e-02, 1.52145158e-02, 0.,
          1.52145158e-02, 1.52145158e-02, 0., 0., 1.52145158e-02,
          7.60725811e-02, 3.04290317e-02, 3.04290317e-02, 3.04290317e-02,
          4.56435457e-02, 0., 1.52145158e-02, 1.52145158e-02,
          4.56435457e-02, 3.04290317e-02, 4.56435457e-02, 6.08580634e-02,
          4.56435457e-02, 1.52145158e-02, 1.52145158e-02, 0., 0., 0.,
          7.60725811e-02, 0., 3.04290317e-02, 4.56435457e-02,
          4.56435457e-02, 0., 0., 0., 3.04290317e-02, 1.52145158e-02,
          4.56435457e-02, 4.56435457e-02, 1.52145158e-02, 1.52145158e-02,
          3.04290317e-02, 1.52145158e-02, 1.52145158e-02, 3.04290317e-02,
          0., 1.52145158e-02, 3.04290317e-02, 3.04290317e-02,
          1.52145158e-02, 3.04290317e-02, 1.52145158e-02, 7.60725811e-02,
          0., 1.52145158e-02, 0., 0., 1.52145158e-02, 0., 3.04290317e-02,
          0., 1.52145158e-02, 0., 4.56435457e-02, 0., 1.52145158e-02, 0.,
          3.04290317e-02, 0., 0., 1.52145158e-02, 0., 0., 3.04290317e-02,
          0., 3.04290317e-02, 0., 6.08580634e-02, 6.08580634e-02,
          6.08580634e-02, 0., 1.52145158e-02, 3.04290317e-02,
          3.04290317e-02, 1.52145158e-02, 0., 1.52145158e-02, 0., 0., 0.,
          0., 1.52145158e-02, 0., 1.52145158e-02, 4.56435457e-02, 0., 0.,
          4.56435457e-02, 3.04290317e-02, 3.04290317e-02, 6.08580634e-02,
          1.52145158e-02, 1.52145158e-02, 1.36930645e-01, 3.04290317e-02,
          1.52145158e-02, 0., 0., 9.12870914e-02, 1.52145158e-02, 0.,
          1.52145158e-02, 1.52145158e-02, 3.04290317e-02, 1.52145158e-02,
          3.04290317e-02, 1.52145158e-02, 3.04290317e-02, 7.60725811e-02,
          1.52145158e-02, 0., 0., 0., 3.04290317e-02, 4.56435457e-02, 0.,
          3.04290317e-02, 0., 0., 6.08580634e-02, 0., 3.04290317e-02,
          1.52145158e-02, 0., 1.52145158e-02, 0., 1.52145158e-02,
          1.52145158e-02, 1.52145158e-02, 3.04290317e-02, 6.08580634e-02,
          0., 3.04290317e-02, 1.52145158e-02, 0., 0., 3.04290317e-02,
          1.52145158e-02, 1.52145158e-02, 3.04290317e-02, 1.52145158e-02,
          1.52145158e-02, 1.52145158e-02, 1.52145158e-02, 0.,
          1.52145158e-02, 1.52145158e-02, 3.04290317e-02, 0.,
          1.52145158e-02, 1.52145158e-02, 1.52145158e-02, 1.52145158e-02,
          4.56435457e-02, 0., 1.52145158e-02, 3.04290317e-02,
          1.52145158e-02, 0., 1.52145158e-02, 4.56435457e-02, 0.,
          4.56435457e-02, 0., 3.04290317e-02, 3.04290317e-02,
          1.52145158e-02, 9.12870914e-02, 1.52145158e-02, 0.,
          1.52145158e-02, 0., 1.52145158e-02, 0., 1.52145158e-02,
          1.52145158e-02, 3.04290317e-02, 0., 0., 0., 0., 1.52145158e-02,
          0., 0., 2.89075792e-01, 4.56435457e-02, 0., 9.12870914e-02,
          2.28217736e-01, 0., 1.52145158e-02, 0., 1.52145158e-02, 0., 0.,
          1.52145158e-02, 3.04290317e-02, 1.52145158e-02, 1.52145158e-02,
          1.52145158e-02, 4.56435457e-02, 3.04290317e-02, 1.52145158e-02,
          0., 0., 4.56435457e-02, 0., 1.52145158e-02, 4.56435457e-02, 0.,
          3.04290317e-02, 1.52145158e-02, 4.56435457e-02, 3.04290317e-02,
          0., 3.04290317e-02, 4.56435457e-02, 3.04290317e-02,
          1.52145158e-02, 4.56435457e-02, 0., 3.04290317e-02,
          7.60725811e-02, 1.52145158e-02, 1.52145158e-02, 3.04290317e-02,
          3.04290317e-02, 1.52145158e-02, 1.52145158e-02, 0., 0.,
          1.52145158e-02, 0., 1.52145158e-02, 1.52145158e-02,
          3.04290317e-02, 1.52145158e-02, 3.04290317e-02, 0.,
          1.52145158e-02, 6.08580634e-02, 1.52145158e-02, 3.04290317e-02,
          0., 0., 1.52145158e-02, 1.52145158e-02, 4.56435457e-02, 0., 0.,
          4.56435457e-02, 0., 9.12870914e-02, 6.08580634e-02,
          9.12870914e-02, 0., 3.04290317e-02, 3.04290317e-02, 0.,
          1.52145158e-02, 1.52145158e-02, 1.52145158e-02, 3.04290317e-02,
          4.56435457e-02, 1.52145158e-02, 1.52145158e-02, 3.04290317e-02,
          0., 9.12870914e-02, 4.56435457e-02, 9.12870914e-02, 0., 0., 0.,
          6.08580634e-02, 4.56435457e-02, 1.52145158e-02, 0.,
          1.52145158e-02, 0., 1.52145158e-02, 1.52145158e-02,
          3.04290317e-02, 3.04290317e-02, 1.52145158e-02, 0.,
          1.52145158e-02, 9.12870914e-02, 0., 0., 1.52145158e-02,
          1.52145158e-02, 0., 1.52145158e-02, 0., 0., 3.04290317e-02, 0.,
          3.04290317e-02, 0., 3.04290317e-02, 4.56435457e-02,
          3.04290317e-02, 1.52145158e-02, 0., 3.04290317e-02,
          3.04290317e-02, 7.60725811e-02, 6.08580634e-02, 4.56435457e-02,
          6.08580634e-02, 0., 0., 1.52145158e-02, 0., 4.56435457e-02,
          4.56435457e-02, 3.04290317e-02, 1.52145158e-02, 1.52145158e-02,
          3.04290317e-02, 1.52145158e-02, 1.67359665e-01, 0.,
          6.08580634e-02, 7.60725811e-02, 3.04290317e-02, 3.04290317e-02,
          3.04290317e-02, 1.52145158e-02, 1.52145158e-02, 1.52145158e-02,
          1.52145158e-02, 0., 1.52145162e-01, 0., 0., 0., 4.56435457e-02,
          0., 1.52145158e-02, 1.21716127e-01, 1.52145158e-02,
          1.52145158e-02, 3.04290317e-02, 7.60725811e-02, 3.04290317e-02,
          3.04290317e-02, 1.52145158e-02, 1.52145158e-02, 7.60725811e-02,
          0., 1.52145158e-02, 4.56435457e-02, 6.08580634e-02,
          3.04290317e-02, 0., 0., 1.06501609e-01, 7.60725811e-02, 0.,
          3.04290317e-02, 4.56435457e-02, 6.08580634e-02, 1.52145158e-02,
          4.56435457e-02, 1.52145158e-02, 3.04290317e-02, 6.08580634e-02,
          3.04290317e-02, 4.56435457e-02, 1.52145158e-02, 1.52145158e-02,
          1.52145158e-02 ]
      - [ 0., 0., 0., 0., 0., 0., 0., 0., 2.42535621e-01, 0., 0., 0., 0.,
          0., 0., 0., 0., 0., 0., 0., 0., 0., 0., 0., 0., 0., 0., 0., 0.,
          0., 0., 0., 0., 0., 0., 0., 0., 0., 4.85071242e-01, 0., 0., 0.,
          0., 0., 0., 0., 0., 0., 0., 0., 0., 0., 0., 0., 0., 0., 0., 0.,
          0., 0., 0., 0., 2.42535621e-01, 0., 0., 0., 0., 0., 0., 0., 0.,
          0., 0., 0., 0., 0., 0., 0., 0., 0., 0., 0., 0., 0., 0., 0., 0.,
          0., 0., 0., 0., 0., 0., 0., 0., 0., 0., 0., 0., 0., 0., 0., 0.,
          0., 0., 0., 0., 0., 0., 0., 0., 0., 0., 0., 0., 0., 0., 0., 0.,
          0., 0., 0., 0., 0., 0., 0., 0., 0., 0., 0., 0., 0., 0., 0., 0.,
          0., 2.42535621e-01, 0., 0., 0., 0., 0., 0., 0., 0., 0., 0., 0.,
          0., 0., 0., 0., 0., 0., 0., 0., 0., 0., 0., 0., 0., 0., 0., 0.,
          0., 0., 0., 0., 0., 0., 0., 0., 0., 0., 0., 0., 0., 0., 0., 0.,
          0., 0., 0., 0., 0., 0., 0., 0., 0., 0., 0., 0., 0., 0., 0., 0.,
          0., 0., 0., 0., 2.42535621e-01, 0., 0., 0., 0., 0., 0., 0., 0.,
          0., 0., 0., 0., 0., 0., 0., 0., 0., 0., 0., 0., 0., 0., 0., 0.,
          0., 0., 0., 0., 0., 0., 0., 0., 0., 0., 0., 0., 0., 0., 0., 0.,
          0., 0., 0., 0., 0., 0., 0., 0., 0., 0., 0., 0., 0., 0., 0., 0.,
          0., 0., 0., 0., 0., 0., 0., 0., 0., 0., 0., 0., 0.,
          2.42535621e-01, 0., 0., 0., 0., 0., 0., 0., 0., 0., 0., 0., 0.,
          0., 0., 0., 0., 0., 0., 0., 0., 0., 0., 0., 0., 0., 0., 0., 0.,
          0., 0., 0., 0., 0., 0., 0., 0., 0., 0., 0., 0., 0., 0., 0., 0.,
          0., 0., 0., 0., 0., 0., 0., 0., 0., 4.85071242e-01, 0., 0., 0.,
          0., 0., 0., 0., 0., 0., 0., 0., 0., 0., 0., 0., 0., 0., 0., 0.,
          0., 0., 0., 0., 0., 0., 0., 0., 0., 0., 0., 0., 0.,
          2.42535621e-01, 0., 0., 0., 2.42535621e-01, 0., 0., 0., 0., 0.,
          0., 0., 0., 0., 0., 0., 0., 0., 0., 0., 0., 0., 0., 0., 0., 0.,
          0., 0., 0., 0., 0., 0., 0., 0., 0., 0., 0., 0., 0., 0., 0., 0.,
          0., 0., 0., 0., 0., 0., 0., 0., 0., 0., 2.42535621e-01, 0., 0.,
          0., 0., 0., 0., 0., 0., 0., 0., 0., 0., 0., 0., 0., 0., 0., 0.,
          0., 0., 0., 0., 0., 0., 0., 0., 0., 0., 0., 0., 0., 0., 0., 0.,
          0., 0., 0., 0., 0., 0., 0., 0., 0., 0., 0., 0., 0., 0., 0., 0.,
          0., 0., 0., 0., 0., 0., 0., 0., 0., 0., 0., 0., 0., 0., 0., 0.,
          0., 0., 0., 0., 0., 0., 0., 0., 0., 0., 0., 0., 0., 0., 0., 0.,
          0., 0., 0., 2.42535621e-01, 0., 0., 0., 0. ]
      - [ 0., 0., 3.87492143e-02, 0., 0., 3.87492143e-02, 0.,
          7.74984285e-02, 0., 0., 7.74984285e-02, 0., 3.87492143e-02, 0.,
          0., 0., 0., 7.74984285e-02, 0., 0., 0., 3.87492143e-02, 0.,
          3.87492143e-02, 0., 0., 0., 0., 0., 0., 7.74984285e-02, 0.,
          3.87492143e-02, 3.87492143e-02, 3.87492143e-02, 0.,
          3.87492143e-02, 0., 3.87492143e-02, 0., 0., 3.87492143e-02,
          3.87492143e-02, 7.74984285e-02, 3.87492143e-02, 7.74984285e-02,
          3.87492143e-02, 3.87492143e-02, 0., 3.87492143e-02, 0., 0.,
          3.87492143e-02, 0., 0., 3.87492143e-02, 3.87492143e-02,
          3.87492143e-02, 0., 7.74984285e-02, 0., 3.87492143e-02,
          3.87492143e-02, 3.87492143e-02, 3.87492143e-02, 0.,
          1.16247639e-01, 3.87492143e-02, 3.87492143e-02, 0.,
          7.74984285e-02, 3.87492143e-02, 0., 3.87492143e-02,
          3.87492143e-02, 3.87492143e-02, 0., 1.16247639e-01,
          1.54996857e-01, 3.87492143e-02, 0., 0., 0., 7.74984285e-02, 0.,
          3.87492143e-02, 3.87492143e-02, 0., 3.87492143e-02, 0., 0., 0.,
          3.87492143e-02, 7.74984285e-02, 0., 3.87492143e-02,
          3.87492143e-02, 3.87492143e-02, 3.87492143e-02, 0.,
          7.74984285e-02, 3.87492143e-02, 0., 0., 7.74984285e-02, 0.,
          3.87492143e-02, 7.74984285e-02, 3.87492143e-02, 0., 0.,
          1.16247639e-01, 3.87492143e-02, 3.87492143e-02, 0.,
          7.74984285e-02, 3.87492143e-02, 3.87492143e-02, 7.74984285e-02,
          0., 0., 3.87492143e-02, 0., 0., 0., 3.87492143e-02, 0., 0., 0.,
          0., 0., 0., 0., 0., 0., 0., 7.74984285e-02, 0., 0.,
          7.74984285e-02, 0., 0., 0., 0., 0., 3.87492143e-02,
          3.87492143e-02, 3.87492143e-02, 0., 3.87492143e-02,
          3.87492143e-02, 0., 3.87492143e-02, 0., 3.87492143e-02,
          3.87492143e-02, 0., 3.87492143e-02, 1.16247639e-01,
          3.87492143e-02, 0., 7.74984285e-02, 3.87492143e-02, 0., 0.,
          3.87492143e-02, 0., 3.87492143e-02, 3.87492143e-02,
          3.87492143e-02, 3.87492143e-02, 1.16247639e-01, 0.,
          3.87492143e-02, 3.87492143e-02, 0., 3.87492143e-02,
          7.74984285e-02, 3.87492143e-02, 0., 0., 0., 3.87492143e-02, 0.,
          0., 0., 3.87492143e-02, 0., 3.87492143e-02, 0., 0., 0.,
          3.87492143e-02, 0., 3.87492143e-02, 1.16247639e-01, 0., 0., 0.,
          3.87492143e-02, 0., 0., 3.87492143e-02, 3.87492143e-02, 0., 0.,
          0., 0., 7.74984285e-02, 0., 3.87492143e-02, 0., 3.87492143e-02,
          3.87492143e-02, 3.87492143e-02, 0., 7.74984285e-02,
          7.74984285e-02, 3.87492143e-02, 0., 7.74984285e-02, 0., 0., 0.,
          0., 3.87492143e-02, 0., 0., 0., 0., 3.87492143e-02,
          3.87492143e-02, 0., 7.74984285e-02, 0., 3.87492143e-02, 0.,
          7.74984285e-02, 7.74984285e-02, 3.87492143e-02, 3.87492143e-02,
          3.87492143e-02, 0., 0., 3.87492143e-02, 7.74984285e-02,
          3.87492143e-02, 3.87492143e-02, 0., 7.74984285e-02, 0., 0.,
          1.16247639e-01, 3.87492143e-02, 0., 3.87492143e-02,
          3.87492143e-02, 7.74984285e-02, 7.74984285e-02, 0.,
          1.54996857e-01, 3.87492143e-02, 1.16247639e-01, 3.87492143e-02,
          0., 0., 0., 3.87492143e-02, 0., 0., 3.87492143e-02, 0.,
          1.16247639e-01, 7.74984285e-02, 0., 3.87492143e-02, 0.,
          1.16247639e-01, 3.87492143e-02, 0., 3.87492143e-02, 0.,
          7.74984285e-02, 3.87492143e-02, 0., 3.87492143e-02,
          7.74984285e-02, 3.87492143e-02, 3.87492143e-02, 0., 0., 0.,
          3.87492143e-02, 3.87492143e-02, 0., 3.87492143e-02, 0., 0., 0.,
          3.87492143e-02, 3.87492143e-02, 0., 1.16247639e-01,
          3.87492143e-02, 7.74984285e-02, 7.74984285e-02, 0., 0., 0.,
          1.16247639e-01, 0., 0., 0., 3.87492143e-02, 0., 0., 0.,
          7.74984285e-02, 1.16247639e-01, 0., 3.87492143e-02, 0., 0., 0.,
          0., 3.87492143e-02, 3.87492143e-02, 0., 3.87492143e-02, 0., 0.,
          3.87492143e-02, 0., 3.87492143e-02, 0., 3.87492143e-02,
          3.87492143e-02, 0., 0., 3.87492143e-02, 0., 3.87492143e-02,
          3.87492143e-02, 3.87492143e-02, 0., 0., 0., 3.87492143e-02,
          7.74984285e-02, 7.74984285e-02, 0., 0., 7.74984285e-02, 0.,
          3.87492143e-02, 0., 0., 3.87492143e-02, 3.87492143e-02, 0.,
          3.87492143e-02, 0., 7.74984285e-02, 0., 0., 0., 0., 0., 0.,
          3.87492143e-02, 0., 0., 7.74984285e-02, 0., 7.74984285e-02, 0.,
          3.87492143e-02, 3.87492143e-02, 0., 0., 0., 0., 0., 0.,
          3.87492143e-02, 3.87492143e-02, 3.87492143e-02, 0.,
          3.87492143e-02, 7.74984285e-02, 0., 3.87492143e-02, 0.,
          7.74984285e-02, 7.74984285e-02, 3.87492143e-02, 0.,
          3.87492143e-02, 0., 3.87492143e-02, 0., 3.87492143e-02, 0.,
          3.87492143e-02, 0., 3.87492143e-02, 0., 0., 3.87492143e-02, 0.,
          0., 1.16247639e-01, 0., 0., 0., 0., 3.87492143e-02,
          1.93746060e-01, 0., 3.87492143e-02, 3.87492143e-02,
          3.87492143e-02, 0., 0., 3.87492143e-02, 0., 1.93746060e-01,
          7.74984285e-02, 0., 3.87492143e-02, 0., 7.74984285e-02, 0.,
          3.87492143e-02, 1.16247639e-01, 7.74984285e-02, 0.,
          1.16247639e-01, 0., 0., 3.87492143e-02, 0., 3.87492143e-02, 0.,
          3.87492143e-02, 3.87492143e-02, 0., 3.87492143e-02, 0., 0.,
          7.74984285e-02, 0., 3.87492143e-02, 3.87492143e-02, 0., 0.,
          1.16247639e-01, 0., 0., 7.74984285e-02, 0., 0., 1.54996857e-01,
          0., 3.87492143e-02, 0., 0., 3.87492143e-02, 3.87492143e-02,
          3.87492143e-02, 7.74984285e-02, 7.74984285e-02, 0.,
          3.87492143e-02, 3.87492143e-02, 0., 7.74984285e-02, 0., 0.,
          3.87492143e-02, 7.74984285e-02, 3.87492143e-02, 0.,
          3.87492143e-02, 3.87492143e-02, 0., 0., 0., 1.16247639e-01,
          7.74984285e-02, 0., 0., 7.74984285e-02, 3.87492143e-02, 0., 0.,
          7.74984285e-02, 1.16247639e-01, 0., 0. ]
      - [ 1.20906699e-02, 1.93450712e-02, 4.35264111e-02, 9.67253558e-03,
          7.73802847e-02, 2.90176068e-02, 6.52896166e-02, 4.35264111e-02,
          2.65994743e-02, 9.67253558e-03, 3.62720080e-02, 2.41813399e-02,
          2.65994743e-02, 1.69269387e-02, 9.67253596e-02, 3.14357430e-02,
          9.67253558e-03, 7.97984228e-02, 7.73802847e-02, 1.20906699e-02,
          5.56170829e-02, 1.45088034e-02, 2.17632055e-02, 1.69269387e-02,
          2.90176068e-02, 1.69269387e-02, 8.46346915e-02, 2.90176068e-02,
          0., 3.38538773e-02, 2.90176068e-02, 5.56170829e-02,
          1.69269387e-02, 1.20906699e-02, 3.62720080e-02, 4.11082767e-02,
          4.83626779e-03, 2.41813399e-02, 3.86901423e-02, 4.11082767e-02,
          2.17632055e-02, 5.07808141e-02, 7.25440169e-03, 1.69269387e-02,
          1.69269387e-02, 2.65994743e-02, 1.69269387e-02, 3.86901423e-02,
          7.25440169e-03, 1.69269387e-02, 1.45088034e-02, 5.56170829e-02,
          1.20906699e-02, 4.83626779e-03, 1.69269387e-02, 7.25440169e-03,
          5.56170829e-02, 6.04533479e-02, 0., 9.67253558e-03,
          9.67253558e-03, 7.25440169e-03, 1.45088034e-02, 2.17632055e-02,
          4.59445454e-02, 1.93450712e-02, 7.49621540e-02, 3.62720080e-02,
          1.93450712e-02, 1.45088034e-02, 1.69269387e-02, 9.67253558e-03,
          8.46346915e-02, 1.69269387e-02, 2.90176068e-02, 1.45088034e-02,
          1.45088034e-02, 3.33702475e-01, 1.45088034e-02, 1.69269387e-02,
          5.31989485e-02, 2.17632055e-02, 9.67253558e-03, 1.93450712e-02,
          7.73802847e-02, 4.35264111e-02, 3.86901423e-02, 7.25440169e-03,
          1.20906699e-02, 6.77077547e-02, 9.67253558e-03, 7.25440169e-03,
          1.93450712e-02, 2.17632055e-02, 7.01258853e-02, 2.65994743e-02,
          2.90176068e-02, 1.45088034e-02, 1.20906699e-02, 1.45088034e-02,
          1.93450712e-02, 2.07959518e-01, 1.20906699e-02, 1.93450712e-02,
          9.67253558e-03, 3.86901423e-02, 4.11082767e-02, 3.86901423e-02,
          4.59445454e-02, 3.62720080e-02, 4.83626798e-02, 9.67253558e-03,
          1.45088034e-02, 4.11082767e-02, 1.45088034e-02, 1.20906699e-02,
          3.38538773e-02, 6.28714859e-02, 2.90176068e-02, 2.41813390e-03,
          2.17632055e-02, 1.45088034e-02, 4.59445454e-02, 4.59445454e-02,
          1.69269387e-02, 2.17632055e-02, 1.45088034e-02, 2.65994743e-02,
          3.86901423e-02, 3.38538773e-02, 3.38538773e-02, 1.69269387e-02,
          5.07808141e-02, 2.90176068e-02, 2.90176068e-02, 1.93450712e-02,
          2.90176068e-02, 2.41813390e-03, 2.17632055e-02, 1.20906699e-02,
          9.67253558e-03, 1.20906699e-02, 2.41813399e-02, 7.49621540e-02,
          7.25440169e-03, 5.31989485e-02, 5.31989485e-02, 3.62720080e-02,
          3.62720080e-02, 5.80352135e-02, 3.14357430e-02, 1.93450712e-02,
          2.90176068e-02, 3.38538773e-02, 1.45088034e-02, 1.93450712e-02,
          3.62720080e-02, 1.20906699e-02, 1.20906699e-02, 1.93450712e-02,
          3.38538773e-02, 7.25440169e-03, 4.83626779e-03, 1.93450712e-02,
          2.41813399e-02, 7.01258853e-02, 4.83626779e-03, 2.41813399e-02,
          2.41813399e-02, 2.41813399e-02, 1.45088034e-02, 3.62720080e-02,
          1.93450712e-02, 2.65994743e-02, 9.91434902e-02, 1.93450712e-02,
          1.45088034e-02, 3.62720080e-02, 2.90176068e-02, 9.67253558e-03,
          2.65994743e-02, 7.25440159e-02, 2.65994743e-02, 1.93450712e-02,
          3.14357430e-02, 3.38538773e-02, 4.59445454e-02, 2.41813399e-02,
          4.35264111e-02, 5.31989485e-02, 6.77077547e-02, 6.77077547e-02,
          2.41813390e-03, 2.41813390e-03, 1.20906699e-02, 1.20906699e-02,
          1.93450712e-02, 4.83626779e-03, 1.93450712e-02, 9.67253558e-03,
          8.46346915e-02, 2.41813390e-03, 2.41813399e-02, 1.45088034e-02,
          9.67253558e-03, 5.31989485e-02, 1.93450712e-02, 1.93450712e-02,
          1.20906699e-02, 7.25440169e-03, 2.41813390e-03, 1.93450712e-02,
          1.93450712e-02, 1.45088034e-02, 2.65994743e-02, 4.83626779e-03,
          1.20906699e-02, 7.49621540e-02, 3.14357430e-02, 1.57178715e-01,
          1.45088034e-02, 9.67253596e-02, 1.45088034e-02, 3.38538773e-02,
          4.35264111e-02, 4.35264111e-02, 3.86901423e-02, 4.35264111e-02,
          3.14357430e-02, 7.25440169e-03, 8.94709602e-02, 3.62720080e-02,
          3.62720080e-02, 4.59445454e-02, 1.20906699e-02, 9.67253558e-03,
          3.38538773e-02, 4.59445454e-02, 1.69269387e-02, 7.73802847e-02,
          7.01258853e-02, 1.93450712e-02, 6.52896166e-02, 1.69269387e-02,
          3.62720080e-02, 7.25440159e-02, 7.49621540e-02, 2.41813399e-02,
          5.80352135e-02, 1.23324834e-01, 4.83626779e-03, 1.20906699e-02,
          5.31989485e-02, 2.17632055e-02, 2.17632055e-02, 2.41813399e-02,
          7.01258853e-02, 1.45088034e-02, 5.31989485e-02, 4.11082767e-02,
          1.93450712e-02, 1.93450712e-02, 1.69269387e-02, 9.67253558e-03,
          2.65994743e-02, 2.17632055e-02, 8.46346915e-02, 2.17632055e-02,
          1.20906699e-02, 8.94709602e-02, 6.04533479e-02, 3.38538773e-02,
          2.65994743e-02, 5.80352135e-02, 1.93450712e-02, 5.31989485e-02,
          7.25440159e-02, 1.45088034e-02, 2.41813399e-02, 3.62720080e-02,
          6.52896166e-02, 6.52896166e-02, 3.62720080e-02, 3.38538773e-02,
          7.97984228e-02, 4.83626779e-03, 2.90176068e-02, 5.07808141e-02,
          3.38538773e-02, 1.45088034e-02, 4.83626779e-03, 1.45088034e-02,
          2.65994743e-02, 2.41813390e-03, 2.65994743e-02, 7.25440169e-03,
          9.67253558e-03, 1.54760569e-01, 4.11082767e-02, 1.20906699e-02,
          2.90176068e-02, 1.20906699e-02, 1.93450712e-02, 1.93450712e-02,
          6.28714859e-02, 4.35264111e-02, 9.67253558e-03, 7.97984228e-02,
          6.28714859e-02, 7.25440159e-02, 1.59596846e-01, 9.67253558e-03,
          1.45088034e-02, 2.41813399e-02, 7.25440169e-03, 1.69269387e-02,
          2.65994743e-02, 5.80352135e-02, 3.86901423e-02, 4.11082767e-02,
          7.25440169e-03, 1.69269387e-02, 2.65994743e-02, 1.69269387e-02,
          2.90176068e-02, 9.67253558e-03, 6.04533479e-02, 7.25440169e-03,
          2.41813399e-02, 7.49621540e-02, 1.45088034e-02, 1.93450712e-02,
          3.86901423e-02, 2.41813399e-02, 1.23324834e-01, 2.90176068e-02,
          4.83626779e-03, 1.20906699e-02, 1.25742972e-01, 1.45088034e-02,
          2.17632055e-02, 1.45088034e-02, 2.17632055e-02, 2.65994743e-02,
          2.17632055e-02, 2.65994743e-02, 2.17632055e-02, 9.67253558e-03,
          1.93450712e-02, 8.46346915e-02, 1.45088034e-02, 3.62720080e-02,
          2.17632055e-02, 8.46346915e-02, 2.90176068e-02, 7.49621540e-02,
          9.67253558e-03, 2.90176068e-02, 1.45088034e-02, 2.90176068e-02,
          5.56170829e-02, 2.41813399e-02, 6.77077547e-02, 3.86901423e-02,
          1.45088034e-02, 1.45088034e-02, 1.08816028e-01, 3.14357430e-02,
          1.03979759e-01, 3.38538773e-02, 4.59445454e-02, 1.20906699e-02,
          3.14357430e-02, 6.77077547e-02, 1.45088034e-02, 3.62720080e-02,
          1.20906699e-02, 9.67253558e-03, 4.83626798e-02, 1.20906699e-02,
          3.14357430e-02, 2.90176068e-02, 7.25440169e-03, 1.69269387e-02,
          1.20906699e-02, 7.49621540e-02, 1.20906699e-02, 9.67253558e-03,
          1.93450712e-02, 3.86901423e-02, 1.20906699e-02, 5.07808141e-02,
          1.45088034e-02, 1.93450712e-02, 3.62720080e-02, 4.83626779e-03,
          3.38538773e-02, 3.38538773e-02, 1.69269387e-02, 3.14357430e-02,
          2.41813390e-03, 1.16070427e-01, 1.45088034e-02, 9.91434902e-02,
          4.83626798e-02, 1.45088034e-02, 8.22165534e-02, 2.41813399e-02,
          1.45088034e-02, 3.38538773e-02, 6.77077547e-02, 1.45088034e-02,
          2.41813399e-02, 3.38538773e-02, 6.28714859e-02, 2.65994743e-02,
          3.14357430e-02, 9.67253558e-03, 4.59445454e-02, 2.65994743e-02,
          1.20906699e-02, 1.20906699e-02, 4.35264111e-02, 4.83626798e-02,
          5.56170829e-02, 7.25440169e-03, 2.41813399e-02, 2.17632055e-02,
          3.14357430e-02, 9.67253558e-03, 6.04533479e-02, 4.35264111e-02,
          4.35264111e-02, 1.93450712e-02, 1.20906699e-02, 8.46346915e-02,
          3.86901423e-02, 2.41813399e-02, 1.45088034e-02, 2.41813390e-03,
          2.41813399e-02, 5.56170829e-02, 4.83626798e-02, 9.67253558e-03,
          2.90176068e-02, 0., 9.67253596e-02, 6.04533479e-02,
          5.56170829e-02, 1.45088034e-02, 3.38538773e-02, 2.41813399e-02,
          1.45088034e-02, 1.45088034e-02, 2.41813390e-03, 1.11234166e-01,
          5.80352135e-02, 1.45088034e-02, 4.35264111e-02, 2.65994743e-02,
          2.41813399e-02, 1.93450712e-02, 2.17632055e-02, 7.49621540e-02,
          3.38538773e-02, 3.38538773e-02, 5.56170829e-02, 1.03979759e-01,
          4.11082767e-02, 1.20906699e-02, 6.04533479e-02, 2.41813399e-02,
          2.41813399e-02, 2.41813399e-02, 7.25440169e-03, 1.20906699e-02,
          7.25440169e-03, 1.20906699e-02, 2.17632055e-02, 2.41813399e-02,
          4.11082767e-02, 1.45088034e-02, 4.83626779e-03, 7.25440159e-02,
          6.28714859e-02, 9.67253558e-03, 9.67253558e-03, 9.67253558e-03,
          7.25440169e-03, 2.17632055e-02, 4.83626779e-03, 2.65994743e-02,
          3.14357430e-02, 9.67253558e-03, 3.14357430e-02, 7.25440169e-03,
          5.31989485e-02, 2.65994743e-02, 5.56170829e-02, 1.93450712e-02 ]
      - [ 2.02361159e-02, 0., 2.02361159e-02, 4.04722318e-02, 0.,
          4.04722318e-02, 2.02361159e-02, 6.07083477e-02, 1.01180583e-01,
          0., 8.09444636e-02, 2.02361159e-02, 0., 2.02361159e-02, 0.,
          4.04722318e-02, 0., 0., 0., 2.02361159e-02, 6.07083477e-02,
          8.09444636e-02, 6.07083477e-02, 4.04722318e-02, 6.07083477e-02,
          4.04722318e-02, 0., 2.02361159e-02, 4.04722318e-02, 0.,
          2.02361159e-02, 0., 0., 4.04722318e-02, 2.02361159e-02, 0.,
          2.02361159e-02, 2.02361159e-02, 4.04722318e-02, 2.02361159e-02,
          1.21416695e-01, 0., 4.04722318e-02, 6.07083477e-02,
          8.09444636e-02, 4.04722318e-02, 2.02361159e-02, 0., 0.,
          2.02361159e-02, 2.02361159e-02, 6.07083477e-02, 0.,
          2.02361159e-02, 0., 4.04722318e-02, 0., 0., 2.02361159e-02, 0.,
          2.02361159e-02, 2.02361159e-02, 4.04722318e-02, 8.09444636e-02,
          2.02361159e-02, 2.02361159e-02, 1.61888927e-01, 4.04722318e-02,
          6.07083477e-02, 6.07083477e-02, 0., 4.04722318e-02, 0.,
          4.04722318e-02, 4.04722318e-02, 0., 2.02361159e-02,
          1.01180583e-01, 4.04722318e-02, 0., 4.04722318e-02, 0.,
          2.02361159e-02, 2.02361159e-02, 2.02361159e-02, 0.,
          2.02361159e-02, 0., 4.04722318e-02, 2.02361159e-02, 0.,
          2.02361159e-02, 4.04722318e-02, 0., 0., 8.09444636e-02, 0.,
          2.02361159e-02, 2.02361159e-02, 0., 0., 6.07083477e-02, 0., 0.,
          6.07083477e-02, 4.04722318e-02, 2.02361159e-02, 2.02361159e-02,
          2.02361159e-02, 2.02361159e-02, 0., 4.04722318e-02, 0., 0.,
          1.41652822e-01, 0., 2.02361159e-02, 0., 2.02361159e-02,
          4.04722318e-02, 6.07083477e-02, 2.02361159e-02, 2.02361159e-02,
          0., 0., 2.02361159e-02, 0., 0., 0., 0., 0., 0., 0., 0., 0.,
          8.09444636e-02, 4.04722318e-02, 4.04722318e-02, 4.04722318e-02,
          1.01180583e-01, 2.02361159e-02, 2.02361159e-02, 2.02361159e-02,
          0., 2.02361159e-02, 4.04722318e-02, 0., 8.09444636e-02, 0.,
          4.04722318e-02, 2.02361159e-02, 0., 4.04722318e-02, 0.,
          6.07083477e-02, 2.02361159e-02, 0., 2.02361159e-02,
          2.02361159e-02, 6.07083477e-02, 2.02361159e-02, 4.04722318e-02,
          6.07083477e-02, 0., 2.02361159e-02, 0., 0., 2.02361159e-02,
          4.04722318e-02, 2.02361159e-02, 4.04722318e-02, 4.04722318e-02,
          0., 0., 2.02361159e-02, 0., 6.07083477e-02, 0., 0.,
          2.02361159e-02, 0., 2.02361159e-02, 0., 0., 6.07083477e-02,
          2.02361159e-02, 0., 2.02361159e-02, 4.04722318e-02,
          2.02361159e-02, 2.02361159e-02, 2.02361159e-02, 2.02361159e-02,
          2.02361159e-02, 6.07083477e-02, 0., 0., 2.02361159e-02,
          2.02361159e-02, 4.04722318e-02, 0., 0., 6.07083477e-02,
          4.04722318e-02, 0., 0., 0., 0., 2.02361159e-02, 0.,
          2.02361159e-02, 2.02361159e-02, 2.02361159e-02, 0., 0.,
          6.07083477e-02, 2.02361159e-02, 0., 0., 3.03541750e-01,
          4.04722318e-02, 2.02361159e-02, 2.02361159e-02, 0.,
          2.02361159e-02, 0., 0., 2.02361159e-02, 0., 1.21416695e-01, 0.,
          2.02361159e-02, 0., 0., 6.07083477e-02, 2.02361159e-02,
          4.04722318e-02, 0., 2.02361159e-02, 2.02361159e-02, 0., 0., 0.,
          2.02361159e-02, 2.02361159e-02, 0., 0., 4.04722318e-02, 0., 0.,
          4.04722318e-02, 0., 2.02361159e-02, 2.02361159e-02,
          2.02361159e-02, 6.07083477e-02, 0., 0., 0., 4.04722318e-02,
          4.04722318e-02, 0., 6.07083477e-02, 0., 8.09444636e-02, 0.,
          2.02361159e-02, 2.02361159e-02, 0., 4.04722318e-02,
          8.09444636e-02, 1.01180583e-01, 0., 0., 2.02361159e-02,
          4.04722318e-02, 0., 2.02361159e-02, 2.02361159e-02, 0.,
          2.02361159e-02, 0., 0., 0., 6.07083477e-02, 6.07083477e-02,
          2.02361159e-02, 0., 0., 0., 2.02361159e-02, 4.04722318e-02, 0.,
          0., 4.04722318e-02, 2.02361159e-02, 6.07083477e-02, 0.,
          2.02361159e-02, 8.09444636e-02, 0., 2.02361159e-02,
          6.07083477e-02, 0., 2.02361159e-02, 0., 8.09444636e-02,
          8.09444636e-02, 0., 0., 6.07083477e-02, 0., 0., 2.02361159e-02,
          1.21416695e-01, 4.04722318e-02, 8.09444636e-02, 2.02361159e-02,
          4.04722318e-02, 2.02361159e-02, 0., 2.02361159e-02,
          8.09444636e-02, 0., 8.09444636e-02, 0., 2.02361159e-02, 0.,
          4.04722318e-02, 0., 2.02361159e-02, 4.04722318e-02,
          2.02361159e-02, 6.07083477e-02, 4.04722318e-02, 6.07083477e-02,
          0., 2.02361159e-02, 6.07083477e-02, 0., 0., 4.04722318e-02,
          8.09444636e-02, 2.02361159e-02, 0., 0., 0., 0., 2.02361159e-02,
          0., 2.02361159e-02, 0., 0., 2.02361159e-02, 0., 0.,
          8.09444636e-02, 6.07083477e-02, 0., 0., 0., 0., 4.04722318e-02,
          0., 0., 2.02361159e-02, 2.02361159e-02, 2.02361159e-02,
          2.02361159e-02, 0., 0., 0., 2.02361159e-02, 2.02361159e-02,
          2.02361159e-02, 0., 4.04722318e-02, 0., 2.02361166e-01, 0., 0.,
          2.02361159e-02, 0., 2.02361159e-02, 0., 0., 0., 2.02361159e-02,
          1.01180583e-01, 6.07083477e-02, 2.02361159e-02, 0.,
          4.04722318e-02, 0., 0., 4.04722318e-02, 4.04722318e-02, 0.,
          2.02361159e-02, 2.02361159e-02, 8.09444636e-02, 0.,
          2.02361159e-02, 0., 0., 4.04722318e-02, 0., 4.04722318e-02,
          4.04722318e-02, 2.02361159e-02, 4.04722318e-02, 2.02361159e-02,
          0., 4.04722318e-02, 4.04722318e-02, 1.01180583e-01, 0.,
          4.04722318e-02, 2.02361159e-02, 2.02361159e-02, 2.02361159e-02,
          2.02361159e-02, 0., 0., 2.02361159e-02, 2.02361159e-02,
          4.04722318e-02, 0., 0., 4.04722318e-02, 4.04722318e-02,
          4.04722318e-02, 0., 0., 2.02361159e-02, 2.02361159e-02,
          2.02361159e-02, 1.21416695e-01, 4.04722318e-02, 4.04722318e-02,
          4.04722318e-02, 0., 2.02361159e-02, 2.02361159e-02,
          2.02361159e-02, 2.02361159e-02, 0., 4.04722318e-02,
          2.02361159e-02, 8.09444636e-02, 4.24958438e-01, 8.09444636e-02,
          2.02361159e-02, 0., 0., 0., 2.02361159e-02, 6.07083477e-02, 0.,
          0., 6.07083477e-02, 4.04722318e-02, 4.04722318e-02, 0.,
          4.04722318e-02, 0., 2.02361159e-02, 0., 4.04722318e-02, 0., 0.,
          1.82125047e-01, 4.04722318e-02, 2.02361159e-02, 0., 0.,
          1.21416695e-01, 4.04722318e-02, 2.02361159e-02, 4.04722318e-02,
          6.07083477e-02, 4.04722318e-02, 2.02361159e-02, 0.,
          6.07083477e-02, 2.02361159e-02, 6.07083477e-02, 2.02361159e-02,
          2.02361159e-02, 0., 4.04722318e-02, 6.07083477e-02,
          4.04722318e-02, 6.07083477e-02, 4.04722318e-02, 0.,
          4.04722318e-02, 2.02361159e-02, 0., 0. ]
      - [ 0., 0., 0., 6.68153092e-02, 0., 0., 0., 0., 0., 0.,
          6.68153092e-02, 0., 0., 6.68153092e-02, 0., 0., 0.,
          6.68153092e-02, 0., 0., 0., 0., 0., 1.33630618e-01, 0., 0., 0.,
          6.68153092e-02, 6.68153092e-02, 0., 0., 0., 0., 0., 0., 0., 0.,
          0., 0., 0., 0., 0., 6.68153092e-02, 0., 6.68153092e-02, 0.,
          6.68153092e-02, 0., 0., 0., 0., 0., 0., 0., 6.68153092e-02,
          6.68153092e-02, 0., 0., 0., 0., 0., 6.68153092e-02,
          6.68153092e-02, 0., 0., 0., 0., 0., 0., 0., 0., 0., 0., 0., 0.,
          6.68153092e-02, 6.68153092e-02, 0., 0., 6.68153092e-02, 0., 0.,
          1.33630618e-01, 0., 2.00445935e-01, 0., 0., 0., 0., 0., 0., 0.,
          0., 0., 0., 0., 0., 0., 1.33630618e-01, 6.68153092e-02, 0., 0.,
          0., 0., 0., 6.68153092e-02, 0., 0., 0., 6.68153092e-02, 0.,
          1.33630618e-01, 0., 0., 0., 0., 0., 0., 0., 0., 0., 0., 0.,
          6.68153092e-02, 0., 6.68153092e-02, 0., 0., 0., 0., 0., 0., 0.,
          0., 0., 2.00445935e-01, 0., 0., 0., 6.68153092e-02,
          1.33630618e-01, 0., 0., 0., 0., 6.68153092e-02, 0., 0.,
          6.68153092e-02, 0., 6.68153092e-02, 0., 0., 0., 0., 0., 0.,
          6.68153092e-02, 0., 0., 0., 0., 0., 0., 0., 0., 0., 0.,
          6.68153092e-02, 0., 6.68153092e-02, 6.68153092e-02, 0., 0., 0.,
          0., 6.68153092e-02, 0., 0., 0., 0., 0., 0., 0., 0., 0., 0.,
          6.68153092e-02, 6.68153092e-02, 0., 6.68153092e-02, 0., 0., 0.,
          0., 6.68153092e-02, 0., 6.68153092e-02, 0., 0., 6.68153092e-02,
          0., 0., 0., 0., 0., 0., 0., 6.68153092e-02, 0., 0., 0.,
          6.68153092e-02, 0., 0., 0., 0., 0., 1.33630618e-01, 0.,
          6.68153092e-02, 6.68153092e-02, 6.68153092e-02, 0., 0.,
          6.68153092e-02, 6.68153092e-02, 0., 0., 0., 0., 6.68153092e-02,
          0., 0., 0., 0., 0., 0., 6.68153092e-02, 0., 0., 0., 0., 0., 0.,
          0., 0., 6.68153092e-02, 0., 6.68153092e-02, 0., 0., 0., 0., 0.,
          6.68153092e-02, 0., 0., 6.68153092e-02, 0., 6.68153092e-02, 0.,
          0., 0., 1.33630618e-01, 0., 0., 0., 6.68153092e-02, 0., 0., 0.,
          0., 0., 0., 6.68153092e-02, 0., 0., 0., 0., 1.33630618e-01, 0.,
          0., 0., 0., 6.68153092e-02, 0., 0., 0., 0., 0., 6.68153092e-02,
          0., 2.00445935e-01, 0., 6.68153092e-02, 0., 0., 6.68153092e-02,
          0., 0., 0., 0., 0., 0., 0., 0., 6.68153092e-02, 0., 0., 0., 0.,
          0., 0., 0., 6.68153092e-02, 0., 6.68153092e-02, 1.33630618e-01,
          0., 0., 0., 0., 6.68153092e-02, 6.68153092e-02, 0., 0.,
          6.68153092e-02, 0., 0., 0., 0., 0., 0., 0., 0., 2.00445935e-01,
          0., 0., 6.68153092e-02, 0., 1.33630618e-01, 0., 1.33630618e-01,
          0., 1.33630618e-01, 0., 0., 6.68153092e-02, 0., 0., 0.,
          1.33630618e-01, 0., 0., 0., 0., 0., 6.68153092e-02, 0., 0.,
          6.68153092e-02, 0., 0., 0., 6.68153092e-02, 6.68153092e-02, 0.,
          0., 0., 0., 0., 0., 1.33630618e-01, 0., 0., 6.68153092e-02, 0.,
          0., 0., 6.68153092e-02, 1.33630618e-01, 1.33630618e-01,
          6.68153092e-02, 0., 0., 6.68153092e-02, 0., 0., 0., 0., 0., 0.,
          6.68153092e-02, 0., 0., 0., 0., 6.68153092e-02, 0., 0.,
          6.68153092e-02, 0., 0., 0., 0., 0., 0., 0., 0., 6.68153092e-02,
          6.68153092e-02, 0., 6.68153092e-02, 0., 0., 0., 6.68153092e-02,
          0., 0., 0., 0., 6.68153092e-02, 0., 0., 6.68153092e-02,
          1.33630618e-01, 0., 0., 0., 0., 0., 0., 0., 0., 0., 0., 0.,
          6.68153092e-02, 0., 0., 0., 0., 0., 0., 0., 0., 6.68153092e-02,
          0., 1.33630618e-01, 0., 0., 6.68153092e-02, 0., 0.,
          6.68153092e-02, 0., 0., 0., 0., 1.33630618e-01, 0., 0., 0.,
          1.33630618e-01, 0., 6.68153092e-02, 0., 6.68153092e-02, 0., 0.,
          0., 0., 6.68153092e-02, 0., 0., 6.68153092e-02, 0., 0., 0., 0.,
          0., 0., 0., 6.68153092e-02, 2.00445935e-01, 0., 1.33630618e-01,
          0., 6.68153092e-02, 1.33630618e-01, 0., 0., 0., 0., 0., 0., 0.,
          0., 0. ]
      - [ 0., 0., 1.25988156e-01, 0., 0., 0., 0., 0., 0., 0., 0., 0., 0.,
          0., 0., 0., 0., 0., 0., 0., 0., 0., 2.51976311e-01, 0.,
          1.25988156e-01, 0., 0., 0., 0., 0., 0., 0., 0., 0., 0., 0., 0.,
          0., 0., 1.25988156e-01, 3.77964467e-01, 0., 0., 0., 0., 0., 0.,
          0., 0., 0., 0., 0., 0., 0., 0., 0., 0., 1.25988156e-01, 0., 0.,
          0., 0., 0., 0., 0., 0., 0., 0., 0., 0., 0., 0., 0., 0., 0., 0.,
          0., 1.25988156e-01, 0., 0., 0., 0., 1.25988156e-01, 0., 0., 0.,
          0., 0., 0., 0., 0., 0., 0., 0., 0., 0., 0., 0., 0., 0., 0.,
          3.77964467e-01, 0., 0., 0., 1.25988156e-01, 0., 0., 0., 0., 0.,
          0., 0., 0., 0., 0., 0., 0., 0., 0., 0., 0., 0., 0.,
          1.25988156e-01, 0., 0., 0., 0., 0., 0., 0., 0., 0., 0., 0., 0.,
          0., 0., 0., 0., 0., 0., 0., 0., 0., 0., 0., 0., 0., 0., 0.,
          1.25988156e-01, 0., 0., 0., 0., 1.25988156e-01, 0., 0., 0., 0.,
          0., 0., 0., 0., 0., 0., 0., 0., 0., 0., 0., 0., 0., 0., 0., 0.,
          0., 0., 0., 0., 0., 0., 0., 0., 0., 0., 0., 0., 0., 0., 0., 0.,
          0., 0., 0., 0., 0., 0., 0., 0., 0., 0., 0., 2.51976311e-01, 0.,
          0., 0., 0., 0., 0., 0., 0., 0., 0., 0., 0., 0., 0., 0., 0., 0.,
          0., 0., 0., 0., 0., 0., 0., 0., 0., 0., 1.25988156e-01, 0., 0.,
          0., 0., 0., 0., 0., 0., 0., 0., 0., 0., 0., 0., 0., 0., 0., 0.,
          0., 0., 0., 0., 0., 0., 0., 0., 0., 0., 0., 0., 0., 0., 0., 0.,
          0., 0., 0., 0., 0., 0., 0., 0., 1.25988156e-01, 0., 0., 0., 0.,
          0., 0., 0., 0., 0., 0., 0., 0., 0., 0., 0., 0., 0., 0., 0., 0.,
          0., 0., 0., 0., 0., 0., 0., 0., 0., 0., 0., 0., 0.,
          1.25988156e-01, 0., 0., 0., 0., 0., 1.25988156e-01,
          1.25988156e-01, 0., 0., 0., 1.25988156e-01, 0., 0., 0., 0., 0.,
          0., 0., 0., 0., 0., 0., 0., 0., 0., 0., 0., 0., 0., 0., 0., 0.,
          0., 0., 0., 0., 0., 0., 0., 0., 0., 0., 0., 0., 0., 0., 0., 0.,
          0., 0., 0., 0., 0., 0., 0., 1.25988156e-01, 1.25988156e-01, 0.,
          0., 0., 0., 0., 0., 0., 0., 0., 0., 0., 2.51976311e-01, 0., 0.,
          0., 1.25988156e-01, 0., 0., 0., 0., 0., 1.25988156e-01, 0., 0.,
          0., 0., 0., 0., 0., 0., 0., 0., 0., 0., 0., 0., 0., 0., 0., 0.,
          0., 0., 0., 1.25988156e-01, 1.25988156e-01, 0., 0., 0., 0., 0.,
          0., 0., 0., 0., 0., 0., 0., 1.25988156e-01, 0., 0., 0., 0., 0.,
          0., 0., 0., 0., 0., 0., 0., 0., 0., 0., 0., 0., 0., 0., 0., 0.,
          0., 0., 0., 0., 0., 0., 0., 0., 0., 0., 0., 0., 0.,
          1.25988156e-01, 0., 0., 2.51976311e-01, 0., 1.25988156e-01, 0.,
          0., 0., 0., 0., 0., 0., 0., 0., 0., 0., 0., 0., 1.25988156e-01,
          1.25988156e-01, 0., 0., 0., 1.25988156e-01, 0., 0., 0., 0., 0.,
          0., 0., 1.25988156e-01, 0., 0., 0., 0., 0., 0., 0. ]
      - [ 1.25988156e-01, 1.25988156e-01, 0., 0., 0., 0., 0., 0., 0., 0.,
          0., 0., 0., 0., 0., 0., 0., 1.25988156e-01, 1.25988156e-01, 0.,
          0., 0., 0., 1.25988156e-01, 0., 0., 0., 0., 0., 0., 0.,
          1.25988156e-01, 0., 0., 1.25988156e-01, 0., 0., 0., 0.,
          1.25988156e-01, 0., 0., 0., 0., 0., 0., 0., 0., 0., 0., 0., 0.,
          0., 0., 0., 0., 0., 0., 0., 0., 0., 0., 0., 0., 0., 0., 0., 0.,
          0., 0., 0., 0., 0., 0., 0., 0., 0., 0., 1.25988156e-01, 0., 0.,
          0., 0., 0., 0., 0., 0., 0., 0., 1.25988156e-01, 0., 0.,
          1.25988156e-01, 0., 0., 0., 0., 0., 0., 0., 0., 0., 0.,
          1.25988156e-01, 0., 0., 0., 0., 0., 0., 0., 0., 0., 0., 0., 0.,
          0., 0., 0., 0., 0., 0., 0., 0., 0., 0., 0., 0., 0., 0., 0., 0.,
          0., 0., 0., 0., 1.25988156e-01, 1.25988156e-01, 0., 0., 0., 0.,
          0., 1.25988156e-01, 0., 1.25988156e-01, 0., 0., 0., 0., 0.,
          1.25988156e-01, 0., 0., 0., 0., 0., 0., 0., 0., 0., 0., 0., 0.,
          0., 0., 0., 1.25988156e-01, 0., 0., 0., 0., 1.25988156e-01, 0.,
          0., 0., 0., 0., 0., 0., 0., 0., 0., 0., 0., 0., 0., 0., 0., 0.,
          0., 0., 0., 1.25988156e-01, 0., 0., 0., 0., 0., 1.25988156e-01,
          1.25988156e-01, 0., 0., 0., 0., 0., 0., 0., 0., 0., 0., 0., 0.,
          0., 0., 0., 0., 0., 0., 0., 0., 0., 0., 0., 0., 0., 0., 0., 0.,
          0., 1.25988156e-01, 0., 0., 0., 0., 0., 0., 0., 1.25988156e-01,
          0., 0., 0., 0., 0., 0., 0., 2.51976311e-01, 0., 0., 0., 0., 0.,
          0., 0., 1.25988156e-01, 0., 2.51976311e-01, 0., 0., 0., 0., 0.,
          1.25988156e-01, 0., 0., 0., 0., 0., 0., 0., 0., 0., 0., 0., 0.,
          0., 0., 2.51976311e-01, 0., 0., 1.25988156e-01, 0., 0., 0., 0.,
          0., 0., 0., 1.25988156e-01, 0., 0., 0., 0., 1.25988156e-01, 0.,
          0., 0., 0., 0., 0., 0., 0., 0., 0., 0., 0., 0., 1.25988156e-01,
          0., 0., 0., 0., 0., 0., 0., 0., 0., 0., 0., 0., 0., 0., 0., 0.,
          0., 0., 0., 0., 0., 0., 0., 0., 0., 0., 0., 0., 0., 0.,
          2.51976311e-01, 1.25988156e-01, 0., 0., 0., 0., 0., 0., 0., 0.,
          0., 0., 0., 0., 1.25988156e-01, 1.25988156e-01, 0., 0., 0., 0.,
          0., 1.25988156e-01, 0., 0., 0., 0., 0., 0., 1.25988156e-01, 0.,
          0., 1.25988156e-01, 0., 0., 0., 0., 0., 0., 0., 0., 0., 0., 0.,
          1.25988156e-01, 0., 0., 0., 0., 0., 0., 0., 0., 0., 0., 0., 0.,
          0., 0., 0., 0., 0., 0., 0., 0., 0., 0., 0., 0., 0., 0.,
          1.25988156e-01, 0., 0., 1.25988156e-01, 0., 0., 0., 0., 0., 0.,
          0., 1.25988156e-01, 0., 0., 1.25988156e-01, 0., 0., 0., 0., 0.,
          0., 0., 0., 0., 0., 0., 0., 0., 0., 0., 0., 0., 0., 0., 0., 0.,
          0., 0., 0., 0., 0., 0., 0., 0., 0., 0., 0., 0., 0., 0.,
          1.25988156e-01, 0., 0., 0., 0., 1.25988156e-01, 0., 0., 0., 0.,
          0., 0., 1.25988156e-01, 0., 0., 0., 0., 0., 0., 0., 0., 0., 0.,
          1.25988156e-01, 0., 0., 0., 0., 0., 0., 0., 0., 0., 0., 0., 0.,
          1.25988156e-01, 0., 0., 0., 1.25988156e-01, 0. ]
      - [ 0., 1.15384616e-01, 0., 0., 0., 0., 0., 2.30769232e-01, 0., 0.,
          0., 0., 0., 0., 3.84615399e-02, 0., 3.84615399e-02,
          1.15384616e-01, 3.84615399e-02, 0., 0., 0., 0., 0.,
          3.84615399e-02, 0., 0., 0., 0., 0., 7.69230798e-02,
          3.84615399e-02, 0., 0., 7.69230798e-02, 1.53846160e-01, 0.,
          7.69230798e-02, 0., 1.15384616e-01, 0., 3.84615399e-02,
          3.84615399e-02, 0., 0., 1.15384616e-01, 3.84615399e-02, 0., 0.,
          3.84615399e-02, 7.69230798e-02, 3.84615399e-02, 0.,
          3.84615399e-02, 0., 3.84615399e-02, 3.84615399e-02,
          3.84615399e-02, 0., 0., 7.69230798e-02, 7.69230798e-02,
          3.84615399e-02, 0., 3.84615399e-02, 0., 3.84615399e-02, 0., 0.,
          0., 0., 3.84615399e-02, 1.15384616e-01, 7.69230798e-02,
          7.69230798e-02, 0., 0., 1.15384616e-01, 0., 0., 0.,
          2.30769232e-01, 0., 0., 3.84615399e-02, 0., 0., 0.,
          3.84615399e-02, 0., 0., 0., 0., 0., 0., 0., 0., 0.,
          1.15384616e-01, 0., 0., 3.84615399e-02, 0., 3.84615399e-02,
          1.53846160e-01, 7.69230798e-02, 0., 1.53846160e-01,
          7.69230798e-02, 3.84615399e-02, 0., 3.84615399e-02, 0., 0.,
          3.84615399e-02, 0., 0., 0., 3.84615399e-02, 3.84615399e-02, 0.,
          0., 0., 0., 0., 0., 0., 1.92307696e-01, 3.84615399e-02, 0.,
          3.84615399e-02, 7.69230798e-02, 3.84615399e-02, 0.,
          7.69230798e-02, 0., 0., 7.69230798e-02, 0., 0., 0., 0., 0., 0.,
          0., 3.84615399e-02, 0., 3.84615399e-02, 0., 0., 7.69230798e-02,
          3.84615399e-02, 1.15384616e-01, 0., 1.15384616e-01, 0., 0.,
          3.84615399e-02, 7.69230798e-02, 3.84615399e-02, 0., 0.,
          3.84615399e-02, 3.84615399e-02, 0., 0., 0., 0., 3.84615399e-02,
          7.69230798e-02, 0., 3.84615399e-02, 0., 0., 0., 0.,
          7.69230798e-02, 0., 3.84615399e-02, 0., 0., 0., 3.84615399e-02,
          3.84615399e-02, 3.84615399e-02, 7.69230798e-02, 0.,
          7.69230798e-02, 0., 7.69230798e-02, 0., 3.84615399e-02,
          7.69230798e-02, 0., 3.84615399e-02, 0., 0., 0., 0.,
          3.84615399e-02, 3.84615399e-02, 0., 3.84615399e-02, 0., 0.,
          3.84615399e-02, 0., 0., 0., 0., 3.84615399e-02, 3.84615399e-02,
          3.84615399e-02, 0., 7.69230798e-02, 0., 0., 3.84615399e-02, 0.,
          7.69230798e-02, 3.84615399e-02, 7.69230798e-02, 0., 0., 0., 0.,
          0., 0., 0., 0., 0., 0., 3.84615399e-02, 0., 7.69230798e-02, 0.,
          3.84615399e-02, 0., 0., 3.84615399e-02, 0., 3.84615399e-02, 0.,
          0., 0., 0., 3.84615399e-02, 0., 3.84615399e-02, 0.,
          3.84615399e-02, 0., 0., 0., 0., 0., 3.84615399e-02,
          7.69230798e-02, 3.84615399e-02, 3.84615399e-02, 3.84615399e-02,
          7.69230798e-02, 3.84615399e-02, 3.84615399e-02, 0., 0.,
          3.84615399e-02, 3.84615399e-02, 3.84615399e-02, 0., 0., 0., 0.,
          0., 7.69230798e-02, 3.84615399e-02, 3.84615399e-02, 0.,
          3.84615399e-02, 0., 0., 3.84615399e-02, 0., 3.84615399e-02, 0.,
          3.84615399e-02, 7.69230798e-02, 3.84615399e-02, 3.84615399e-02,
          0., 0., 0., 0., 3.84615399e-02, 0., 3.84615399e-02,
          3.84615399e-02, 0., 3.84615399e-02, 0., 0., 1.15384616e-01,
          3.84615399e-02, 0., 0., 0., 3.84615399e-02, 1.15384616e-01, 0.,
          0., 1.15384616e-01, 3.84615399e-02, 0., 0., 0., 0., 0., 0., 0.,
          0., 0., 7.69230798e-02, 7.69230798e-02, 0., 1.15384616e-01, 0.,
          0., 3.84615399e-02, 7.69230798e-02, 3.84615399e-02,
          3.84615399e-02, 0., 0., 0., 7.69230798e-02, 0., 0., 0., 0., 0.,
          3.84615399e-02, 0., 3.84615399e-02, 0., 0., 0., 3.84615399e-02,
          3.84615399e-02, 0., 0., 3.84615399e-02, 0., 0., 0., 0.,
          3.84615399e-02, 0., 7.69230798e-02, 3.84615399e-02, 0.,
          3.84615399e-02, 3.84615399e-02, 0., 3.84615399e-02, 0., 0., 0.,
          0., 0., 7.69230798e-02, 3.84615399e-02, 0., 7.69230798e-02,
          1.15384616e-01, 3.84615399e-02, 3.84615399e-02, 3.84615399e-02,
          0., 1.15384616e-01, 3.84615399e-02, 0., 0., 0., 0.,
          3.84615399e-02, 0., 0., 7.69230798e-02, 3.84615399e-02,
          3.84615399e-02, 1.15384616e-01, 0., 0., 0., 0., 3.84615399e-02,
          3.84615399e-02, 0., 0., 0., 0., 3.84615399e-02, 0.,
          1.53846160e-01, 0., 0., 3.84615399e-02, 0., 0., 0., 0., 0., 0.,
          3.84615399e-02, 0., 0., 0., 3.84615399e-02, 3.84615399e-02, 0.,
          3.84615399e-02, 0., 0., 0., 0., 0., 0., 3.84615399e-02, 0., 0.,
          3.84615399e-02, 0., 0., 0., 0., 3.84615399e-02, 0., 0., 0., 0.,
          0., 0., 0., 0., 0., 0., 0., 3.84615399e-02, 1.53846160e-01, 0.,
          0., 3.84615399e-02, 0., 0., 0., 0., 0., 0., 0., 0., 0., 0.,
          7.69230798e-02, 0., 0., 0., 0., 0., 1.53846160e-01, 0., 0., 0.,
          0., 3.84615399e-02, 0., 0., 3.84615399e-02, 0., 0., 0.,
          1.53846160e-01, 3.84615399e-02, 0., 0., 3.84615399e-02, 0., 0.,
          3.84615399e-02, 2.30769232e-01, 0., 7.69230798e-02,
          3.84615399e-02, 0., 3.84615399e-02, 0., 0., 7.69230798e-02,
          3.84615399e-02, 0., 0. ]
      - [ 0., 0., 1.23560414e-01, 0., 0., 0., 0., 2.47120827e-01,
          2.47120827e-01, 0., 0., 0., 0., 0., 0., 0., 0., 0., 0., 0., 0.,
          0., 0., 0., 0., 0., 0., 0., 0., 0., 0., 0., 0., 0., 0., 0., 0.,
          0., 0., 0., 0., 0., 0., 0., 0., 0., 0., 0., 0., 0., 0., 0., 0.,
          0., 0., 0., 0., 0., 0., 0., 0., 0., 0., 0., 0., 6.17802069e-02,
          6.17802069e-02, 0., 6.17802069e-02, 0., 1.85340613e-01,
          6.17802069e-02, 0., 0., 0., 0., 0., 6.17802083e-01,
          6.17802069e-02, 6.17802069e-02, 0., 0., 6.17802069e-02,
          6.17802069e-02, 6.17802069e-02, 0., 6.17802069e-02,
          6.17802069e-02, 0., 0., 0., 0., 0., 0., 0., 0., 0., 0., 0., 0.,
          0., 2.47120827e-01, 0., 0., 0., 0., 0., 0., 0., 0., 0., 0., 0.,
          0., 0., 0., 0., 0., 0., 0., 0., 0., 0., 0., 0., 0.,
          6.17802069e-02, 0., 0., 0., 6.17802069e-02, 0., 0., 0., 0., 0.,
          0., 6.17802069e-02, 0., 6.17802069e-02, 0., 0., 0., 0., 0., 0.,
          0., 0., 0., 0., 0., 0., 0., 0., 0., 0., 0., 0., 0., 0., 0., 0.,
          0., 1.23560414e-01, 0., 0., 0., 0., 0., 0., 0., 0., 0., 0., 0.,
          0., 0., 6.17802069e-02, 0., 0., 0., 0., 6.17802069e-02, 0., 0.,
          0., 0., 0., 0., 0., 0., 0., 0., 0., 0., 6.17802069e-02, 0., 0.,
          0., 0., 0., 6.17802069e-02, 0., 0., 0., 0., 0., 0., 0., 0., 0.,
          0., 0., 0., 0., 0., 0., 0., 0., 0., 0., 0., 0., 0., 0., 0., 0.,
          0., 0., 0., 0., 1.23560414e-01, 0., 0., 0., 0., 0., 0., 0., 0.,
          0., 0., 0., 6.17802069e-02, 0., 0., 0., 0., 0., 0., 0., 0., 0.,
          0., 0., 0., 0., 0., 0., 0., 0., 0., 6.17802069e-02, 0., 0., 0.,
          0., 0., 0., 0., 6.17802069e-02, 0., 0., 0., 0., 0., 0., 0., 0.,
          0., 6.17802069e-02, 0., 0., 0., 0., 0., 0., 0., 0., 0., 0., 0.,
          0., 1.23560414e-01, 0., 0., 6.17802069e-02, 0., 0., 0.,
          6.17802069e-02, 0., 0., 0., 0., 0., 0., 0., 0., 0., 0., 0., 0.,
          6.17802069e-02, 0., 0., 0., 0., 0., 0., 0., 6.17802069e-02,
          6.17802069e-02, 0., 0., 0., 0., 0., 6.17802069e-02, 0., 0., 0.,
          0., 0., 0., 0., 6.17802069e-02, 0., 0., 0., 0., 0., 0., 0., 0.,
          0., 0., 6.17802069e-02, 0., 0., 0., 6.17802069e-02, 0., 0., 0.,
          0., 0., 0., 6.17802069e-02, 0., 0., 0., 0., 0., 0., 0., 0., 0.,
          0., 0., 0., 0., 0., 0., 0., 0., 0., 0., 1.23560414e-01, 0., 0.,
          0., 0., 0., 0., 0., 0., 0., 0., 0., 0., 0., 0., 0., 0., 0.,
          6.17802069e-02, 0., 0., 0., 0., 0., 0., 0., 0., 0., 0., 0., 0.,
          0., 0., 0., 0., 0., 0., 0., 0., 0., 0., 0., 0., 0., 0., 0., 0.,
          0., 0., 0., 0., 1.23560414e-01, 0., 6.17802069e-02, 0., 0., 0.,
          0., 0., 6.17802069e-02, 0., 0., 0., 0., 0., 0., 0., 0., 0., 0.,
          0., 0., 0., 0., 0., 0., 0., 0., 0., 0., 0., 0., 0.,
          6.17802069e-02, 0., 0., 2.47120827e-01, 0., 0., 0., 0., 0., 0.,
          0., 0., 1.23560414e-01, 0., 0., 0., 0., 0., 0., 1.23560414e-01,
          0., 6.17802069e-02, 0., 2.47120827e-01, 0., 6.17802069e-02, 0.,
          0., 0., 0., 6.17802069e-02, 0., 0., 0., 0., 6.17802069e-02, 0.,
          0., 0. ]
      - [ 4.07147072e-02, 4.07147072e-02, 2.03573536e-02, 4.07147072e-02,
          2.03573536e-02, 0., 0., 8.14294145e-02, 1.62858829e-01,
          6.10720627e-02, 6.10720627e-02, 0., 0., 0., 0., 2.03573536e-02,
          2.03573536e-02, 1.22144125e-01, 2.03573536e-02, 2.03573536e-02,
          0., 0., 0., 2.03573536e-02, 4.07147072e-02, 2.03573536e-02, 0.,
          0., 2.03573536e-02, 0., 2.03573536e-02, 2.03573536e-02,
          2.03573536e-02, 4.07147072e-02, 0., 8.14294145e-02, 0., 0.,
          2.03573536e-02, 2.03573536e-02, 2.03573536e-02, 0., 0.,
          1.01786770e-01, 2.03573536e-02, 0., 0., 0., 0., 0.,
          8.14294145e-02, 0., 2.03573536e-02, 0., 2.03573536e-02,
          4.07147072e-02, 0., 0., 0., 2.03573536e-02, 0., 4.07147072e-02,
          6.10720627e-02, 8.14294145e-02, 0., 0., 1.01786770e-01, 0.,
          2.03573536e-02, 2.03573536e-02, 6.10720627e-02, 6.10720627e-02,
          0., 2.03573536e-02, 2.03573536e-02, 2.03573536e-02, 0.,
          4.47861791e-01, 4.07147072e-02, 4.07147072e-02, 0.,
          4.07147072e-02, 4.07147072e-02, 0., 6.10720627e-02, 0.,
          2.03573536e-02, 2.03573536e-02, 0., 4.07147072e-02,
          4.07147072e-02, 4.07147072e-02, 0., 0., 2.03573536e-02, 0., 0.,
          0., 4.07147072e-02, 0., 2.03573536e-02, 3.25717658e-01, 0.,
          2.03573536e-02, 2.03573536e-02, 0., 4.07147072e-02, 0., 0., 0.,
          0., 8.14294145e-02, 0., 2.03573536e-02, 2.03573536e-02, 0., 0.,
          0., 0., 0., 2.03573536e-02, 2.03573536e-02, 2.03573536e-02, 0.,
          2.03573536e-02, 4.07147072e-02, 2.03573536e-02, 6.10720627e-02,
          0., 0., 2.03573536e-02, 0., 4.07147072e-02, 2.03573536e-02,
          2.03573536e-02, 2.03573536e-02, 6.10720627e-02, 4.07147072e-02,
          4.07147072e-02, 6.10720627e-02, 2.03573536e-02, 0., 0., 0., 0.,
          8.14294145e-02, 0., 0., 0., 2.03573536e-02, 2.03573536e-02,
          6.10720627e-02, 6.10720627e-02, 0., 0., 4.07147072e-02, 0.,
          4.07147072e-02, 1.22144125e-01, 0., 0., 2.03573536e-02,
          4.07147072e-02, 0., 0., 0., 0., 2.03573536e-02, 6.10720627e-02,
          2.03573536e-02, 6.10720627e-02, 2.03573536e-02, 0.,
          2.03573536e-02, 0., 0., 6.10720627e-02, 0., 4.07147072e-02, 0.,
          2.03573536e-02, 0., 2.03573536e-02, 4.07147072e-02, 0., 0., 0.,
          4.07147072e-02, 0., 4.07147072e-02, 0., 0., 8.14294145e-02,
          4.07147072e-02, 4.07147072e-02, 6.10720627e-02, 0.,
          2.03573536e-02, 0., 2.03573536e-02, 6.10720627e-02, 0.,
          4.07147072e-02, 0., 0., 6.10720627e-02, 0., 0., 0.,
          2.03573536e-02, 4.07147072e-02, 2.03573536e-02, 6.10720627e-02,
          6.10720627e-02, 0., 8.14294145e-02, 4.07147072e-02,
          8.14294145e-02, 2.03573536e-02, 4.07147072e-02, 8.14294145e-02,
          4.07147072e-02, 4.07147072e-02, 0., 4.07147072e-02,
          4.07147072e-02, 0., 0., 2.03573536e-02, 2.03573536e-02, 0.,
          2.03573536e-02, 0., 4.07147072e-02, 1.01786770e-01,
          2.03573536e-02, 0., 2.03573536e-02, 0., 2.03573536e-02, 0., 0.,
          0., 0., 0., 2.03573536e-02, 0., 2.03573536e-02, 2.03573536e-02,
          0., 2.03573536e-02, 6.10720627e-02, 0., 4.07147072e-02, 0., 0.,
          0., 0., 4.07147072e-02, 0., 4.07147072e-02, 2.03573536e-02,
          4.07147072e-02, 0., 2.03573536e-02, 6.10720627e-02,
          2.03573536e-02, 0., 0., 0., 2.03573536e-02, 4.07147072e-02, 0.,
          2.03573536e-02, 6.10720627e-02, 4.07147072e-02, 0.,
          4.07147072e-02, 2.03573536e-02, 4.07147072e-02, 2.03573536e-02,
          0., 2.03573536e-02, 2.03573536e-02, 0., 0., 2.03573536e-02,
          2.03573536e-02, 0., 4.07147072e-02, 0., 2.03573536e-02, 0., 0.,
          0., 2.03573536e-02, 4.07147072e-02, 0., 0., 2.03573536e-02,
          2.03573536e-02, 4.07147072e-02, 4.07147072e-02, 4.07147072e-02,
          2.03573536e-02, 0., 6.10720627e-02, 2.03573536e-02, 0., 0.,
          1.01786770e-01, 4.07147072e-02, 0., 6.10720627e-02,
          4.07147072e-02, 0., 4.07147072e-02, 2.03573536e-02,
          4.07147072e-02, 2.03573536e-02, 0., 4.07147072e-02,
          4.07147072e-02, 2.03573536e-02, 2.03573536e-02, 2.03573536e-02,
          2.03573536e-02, 0., 6.10720627e-02, 0., 4.07147072e-02,
          6.10720627e-02, 0., 4.07147072e-02, 2.03573536e-02, 0., 0., 0.,
          4.07147072e-02, 0., 0., 0., 2.03573536e-02, 2.03573536e-02,
          6.10720627e-02, 0., 2.03573536e-02, 2.03573536e-02,
          1.01786770e-01, 0., 4.07147072e-02, 2.03573536e-02,
          4.07147072e-02, 0., 0., 0., 2.03573536e-02, 8.14294145e-02,
          2.03573536e-02, 0., 0., 6.10720627e-02, 2.03573536e-02, 0.,
          4.07147072e-02, 0., 0., 0., 6.10720627e-02, 2.03573536e-02,
          2.03573536e-02, 6.10720627e-02, 0., 0., 2.03573536e-02, 0.,
          6.10720627e-02, 0., 0., 1.42501488e-01, 4.07147072e-02, 0., 0.,
          2.03573536e-02, 0., 0., 0., 0., 0., 8.14294145e-02, 0., 0., 0.,
          0., 0., 6.10720627e-02, 4.07147072e-02, 2.03573536e-02,
          2.03573536e-02, 0., 2.03573536e-02, 4.07147072e-02,
          4.07147072e-02, 0., 2.03573536e-02, 4.07147072e-02, 0., 0.,
          2.03573536e-02, 2.03573536e-02, 0., 0., 2.03573536e-02,
          2.03573536e-02, 0., 4.07147072e-02, 2.03573536e-02,
          4.07147072e-02, 4.07147072e-02, 4.07147072e-02, 0.,
          2.03573536e-02, 2.03573536e-02, 2.03573536e-02, 0.,
          2.03573536e-02, 2.03573536e-02, 2.03573536e-02, 6.10720627e-02,
          2.03573536e-02, 0., 4.07147072e-02, 2.03573536e-02,
          2.03573536e-02, 2.03573536e-02, 2.03573536e-02, 4.07147072e-02,
          2.03573536e-02, 4.07147072e-02, 2.03573536e-02, 0., 0., 0.,
          8.14294145e-02, 0., 0., 2.03573536e-02, 0., 8.14294145e-02,
          8.14294145e-02, 0., 2.03573536e-02, 2.03573536e-02,
          1.01786770e-01, 0., 2.03573536e-02, 4.07147072e-02, 0.,
          2.03573536e-02, 2.03573536e-02, 8.14294145e-02, 1.42501488e-01,
          2.03573536e-02, 1.01786770e-01, 1.22144125e-01, 2.03573536e-02,
          0., 2.03573536e-02, 2.03573536e-02, 0., 4.07147072e-02,
          2.03573536e-02, 2.03573536e-02, 8.14294145e-02, 2.03573536e-02,
          6.10720627e-02, 2.03573540e-01, 0., 2.03573536e-02, 0.,
          4.07147072e-02, 6.10720627e-02, 0., 0., 1.42501488e-01,
          6.10720627e-02, 0., 6.10720627e-02, 6.10720627e-02,
          4.07147072e-02, 0., 0., 0., 4.07147072e-02, 2.03573536e-02, 0.,
          4.07147072e-02, 2.03573536e-02, 2.03573536e-02, 0. ]
      - [ 1.66666672e-01, 0., 0., 0., 0., 0., 0., 0., 0., 0., 0., 0., 0.,
          0., 0., 0., 0., 0., 0., 0., 0., 0., 0., 0., 1.66666672e-01, 0.,
          0., 0., 0., 0., 0., 0., 0., 0., 0., 0., 0., 0., 0., 0., 0., 0.,
          0., 1.66666672e-01, 0., 0., 0., 0., 0., 0., 1.66666672e-01, 0.,
          0., 0., 0., 0., 0., 1.66666672e-01, 0., 0., 0., 0., 0., 0., 0.,
          0., 0., 0., 0., 0., 0., 0., 0., 0., 0., 0., 0., 1.66666672e-01,
          1.66666672e-01, 0., 0., 0., 0., 0., 0., 0., 0., 0., 0., 0., 0.,
          0., 0., 0., 0., 1.66666672e-01, 0., 0., 0., 0., 0., 0., 0., 0.,
          0., 0., 0., 0., 0., 0., 0., 0., 0., 0., 1.66666672e-01, 0., 0.,
          0., 0., 0., 0., 0., 0., 0., 1.66666672e-01, 0., 0., 0., 0., 0.,
          1.66666672e-01, 0., 0., 0., 0., 0., 0., 0., 0., 0., 0., 0., 0.,
          0., 0., 0., 0., 0., 0., 0., 0., 0., 0., 1.66666672e-01, 0., 0.,
          0., 0., 0., 1.66666672e-01, 0., 0., 0., 0., 0., 0., 0., 0., 0.,
          0., 0., 0., 0., 0., 0., 0., 0., 0., 0., 0., 0., 0.,
          1.66666672e-01, 0., 0., 0., 1.66666672e-01, 0., 1.66666672e-01,
          0., 0., 0., 0., 0., 0., 0., 0., 0., 0., 0., 0., 0., 0., 0., 0.,
          0., 0., 0., 0., 0., 0., 0., 1.66666672e-01, 1.66666672e-01, 0.,
          0., 0., 0., 0., 0., 0., 0., 0., 0., 0., 0., 0., 0., 0., 0., 0.,
          0., 0., 0., 0., 0., 0., 0., 0., 0., 0., 0., 0., 0., 0., 0., 0.,
          0., 1.66666672e-01, 0., 0., 1.66666672e-01, 0., 0., 0., 0., 0.,
          0., 0., 0., 0., 0., 1.66666672e-01, 0., 0., 0., 0., 0., 0., 0.,
          0., 0., 0., 1.66666672e-01, 0., 0., 0., 0., 0., 0., 0., 0., 0.,
          0., 0., 0., 0., 0., 0., 0., 0., 1.66666672e-01, 0., 0., 0., 0.,
          0., 0., 0., 0., 0., 0., 0., 0., 0., 0., 0., 0., 0., 0.,
          3.33333343e-01, 0., 0., 0., 0., 0., 0., 0., 0., 0., 0., 0., 0.,
          0., 0., 0., 0., 0., 1.66666672e-01, 0., 0., 0., 0., 0., 0., 0.,
          0., 0., 0., 0., 0., 0., 0., 0., 0., 0., 0., 0., 0., 0., 0., 0.,
          0., 0., 0., 0., 0., 0., 0., 0., 0., 0., 0., 0., 0., 0., 0., 0.,
          0., 3.33333343e-01, 0., 0., 0., 0., 0., 0., 0., 0., 0., 0., 0.,
          1.66666672e-01, 0., 0., 0., 0., 0., 1.66666672e-01, 0., 0., 0.,
          0., 0., 0., 0., 0., 0., 0., 0., 0., 0., 0., 0., 0., 0., 0., 0.,
          0., 0., 0., 0., 0., 0., 0., 0., 0., 0., 0., 0., 0., 0., 0., 0.,
          0., 0., 0., 0., 0., 0., 1.66666672e-01, 0., 0., 0., 0., 0., 0.,
          0., 0., 0., 0., 0., 0., 0., 0., 0., 0., 0., 0., 0., 0., 0., 0.,
          0., 0., 0., 0., 0., 0., 0., 0., 0., 0., 0., 0., 0., 0., 0., 0.,
          0., 0., 0., 0., 0., 0., 0., 0., 0., 0., 0., 0., 0., 0., 0., 0.,
          0., 0., 0., 0., 0., 0., 1.66666672e-01, 0., 0., 0., 0., 0., 0.,
          0., 0., 0. ]
      - [ 3.11437324e-02, 0., 9.34311971e-02, 3.11437324e-02,
          3.11437324e-02, 3.11437324e-02, 3.11437324e-02, 2.80293584e-01,
          3.11437324e-02, 6.22874647e-02, 6.22874647e-02, 0., 0.,
          3.11437324e-02, 0., 0., 0., 0., 3.11437324e-02, 0., 0., 0.,
          3.11437324e-02, 9.34311971e-02, 1.55718669e-01, 3.11437324e-02,
          0., 3.11437324e-02, 0., 3.11437324e-02, 3.11437324e-02,
          3.11437324e-02, 0., 3.11437324e-02, 6.22874647e-02, 0., 0., 0.,
          3.11437324e-02, 3.11437324e-02, 0., 0., 3.11437324e-02,
          3.11437324e-02, 3.11437324e-02, 6.22874647e-02, 3.11437324e-02,
          3.11437324e-02, 3.11437324e-02, 0., 9.34311971e-02, 0., 0.,
          3.11437324e-02, 0., 3.11437324e-02, 0., 0., 0., 3.11437324e-02,
          6.22874647e-02, 0., 3.11437324e-02, 0., 3.11437324e-02,
          3.11437324e-02, 6.22874647e-02, 9.34311971e-02, 3.11437324e-02,
          3.11437324e-02, 3.11437324e-02, 6.22874647e-02, 3.11437324e-02,
          3.11437324e-02, 6.22874647e-02, 0., 0., 3.42581064e-01,
          3.11437324e-02, 0., 3.11437324e-02, 3.11437324e-02, 0., 0.,
          6.22874647e-02, 6.22874647e-02, 0., 0., 6.22874647e-02,
          3.11437324e-02, 0., 0., 0., 0., 0., 6.22874647e-02, 0.,
          6.22874647e-02, 0., 3.11437324e-02, 6.22874647e-02,
          1.24574929e-01, 0., 0., 6.22874647e-02, 3.11437324e-02,
          9.34311971e-02, 0., 0., 3.11437324e-02, 0., 6.22874647e-02,
          3.11437324e-02, 0., 9.34311971e-02, 0., 3.11437324e-02,
          3.11437324e-02, 3.11437324e-02, 0., 3.11437324e-02, 0., 0.,
          3.11437324e-02, 3.11437324e-02, 3.11437324e-02, 3.11437324e-02,
          0., 0., 0., 6.22874647e-02, 0., 9.34311971e-02, 0.,
          6.22874647e-02, 6.22874647e-02, 6.22874647e-02, 0.,
          3.11437324e-02, 0., 0., 0., 0., 0., 0., 9.34311971e-02, 0., 0.,
          3.11437324e-02, 3.11437324e-02, 3.11437324e-02, 0.,
          1.24574929e-01, 0., 0., 9.34311971e-02, 0., 0., 6.22874647e-02,
          0., 3.11437324e-02, 3.11437324e-02, 3.11437324e-02, 0., 0.,
          6.22874647e-02, 0., 0., 3.11437324e-02, 0., 0., 3.11437324e-02,
          0., 0., 0., 0., 0., 0., 0., 0., 3.11437324e-02, 0.,
          3.11437324e-02, 3.11437324e-02, 0., 0., 6.22874647e-02,
          1.55718669e-01, 6.22874647e-02, 0., 6.22874647e-02, 0., 0., 0.,
          0., 0., 3.11437324e-02, 0., 0., 6.22874647e-02, 6.22874647e-02,
          0., 0., 0., 0., 6.22874647e-02, 0., 3.11437324e-02,
          3.11437324e-02, 0., 6.22874647e-02, 3.11437324e-02,
          6.22874647e-02, 0., 0., 0., 3.11437324e-02, 6.22874647e-02,
          6.22874647e-02, 6.22874647e-02, 0., 9.34311971e-02, 0., 0.,
          3.11437324e-02, 0., 0., 6.22874647e-02, 0., 3.11437324e-02, 0.,
          3.11437324e-02, 0., 0., 0., 0., 3.11437324e-02, 3.11437324e-02,
          3.11437324e-02, 0., 0., 3.11437324e-02, 3.11437324e-02,
          3.11437324e-02, 0., 0., 6.22874647e-02, 0., 3.11437324e-02, 0.,
          0., 9.34311971e-02, 0., 3.11437324e-02, 3.11437324e-02, 0., 0.,
          3.11437324e-02, 3.11437324e-02, 3.11437324e-02, 0.,
          3.11437324e-02, 3.11437324e-02, 0., 3.11437324e-02,
          3.11437324e-02, 0., 0., 3.11437324e-02, 0., 9.34311971e-02,
          6.22874647e-02, 3.11437324e-02, 1.24574929e-01, 0., 0.,
          6.22874647e-02, 3.11437324e-02, 0., 0., 1.24574929e-01,
          3.11437324e-02, 3.11437324e-02, 9.34311971e-02, 3.11437324e-02,
          3.11437324e-02, 6.22874647e-02, 0., 3.11437324e-02, 0., 0., 0.,
          3.11437324e-02, 3.11437324e-02, 0., 0., 0., 0., 0., 0., 0., 0.,
          9.34311971e-02, 3.11437324e-02, 0., 0., 3.11437324e-02,
          6.22874647e-02, 0., 0., 6.22874647e-02, 0., 0., 0.,
          3.11437324e-02, 0., 0., 3.11437324e-02, 6.22874647e-02,
          3.11437324e-02, 0., 3.11437324e-02, 6.22874647e-02,
          9.34311971e-02, 9.34311971e-02, 0., 3.11437324e-02, 0.,
          3.11437324e-02, 0., 6.22874647e-02, 3.11437324e-02,
          6.22874647e-02, 0., 0., 9.34311971e-02, 0., 0., 3.11437324e-02,
          1.24574929e-01, 0., 0., 0., 0., 6.22874647e-02, 3.11437324e-02,
          0., 3.11437324e-02, 3.11437324e-02, 0., 3.11437324e-02,
          6.22874647e-02, 0., 6.22874647e-02, 3.11437324e-02, 0.,
          3.11437324e-02, 3.11437324e-02, 0., 0., 9.34311971e-02,
          3.11437324e-02, 0., 0., 0., 0., 3.11437324e-02, 3.11437324e-02,
          6.22874647e-02, 3.11437324e-02, 0., 0., 9.34311971e-02,
          3.11437324e-02, 0., 0., 3.11437324e-02, 0., 1.24574929e-01,
          6.22874647e-02, 3.11437324e-02, 0., 0., 3.11437324e-02, 0.,
          9.34311971e-02, 0., 3.11437324e-02, 3.11437324e-02,
          9.34311971e-02, 0., 3.11437324e-02, 0., 0., 3.11437324e-02, 0.,
          6.22874647e-02, 3.11437324e-02, 0., 0., 0., 3.11437324e-02,
          3.11437324e-02, 0., 0., 6.22874647e-02, 6.22874647e-02, 0., 0.,
          0., 0., 6.22874647e-02, 0., 0., 3.11437324e-02, 0.,
          6.22874647e-02, 0., 0., 0., 0., 0., 3.11437324e-02, 0., 0.,
          3.11437324e-02, 0., 3.11437324e-02, 3.11437324e-02, 0., 0., 0.,
          0., 9.34311971e-02, 3.11437324e-02, 3.11437324e-02, 0.,
          3.11437324e-02, 0., 3.11437324e-02, 0., 3.11437324e-02,
          3.11437324e-02, 0., 0., 0., 0., 3.11437324e-02, 3.11437324e-02,
          6.22874647e-02, 0., 9.34311971e-02, 3.11437324e-02, 0., 0.,
          3.11437324e-02, 0., 6.22874647e-02, 0., 0., 0., 3.11437324e-02,
          9.34311971e-02, 1.24574929e-01, 9.34311971e-02, 0., 0., 0.,
          6.22874647e-02, 0., 6.22874647e-02, 0., 3.11437324e-02,
          6.22874647e-02, 0., 0., 0., 0., 0., 3.11437324e-02, 0., 0., 0.,
          0., 1.86862394e-01, 0., 6.22874647e-02, 0., 0., 6.22874647e-02,
          3.11437324e-02, 3.11437324e-02, 6.22874647e-02, 0., 0., 0.,
          9.34311971e-02, 0., 3.11437324e-02, 0. ]
      - [ 0., 0., 1.30188912e-01, 0., 0., 0., 0., 0., 0., 0., 0.,
          1.30188912e-01, 0., 0., 0., 0., 0., 0., 1.30188912e-01, 0., 0.,
          0., 1.30188912e-01, 0., 0., 0., 0., 0., 0., 0., 0., 0., 0., 0.,
          0., 0., 0., 0., 0., 0., 0., 1.30188912e-01, 1.30188912e-01, 0.,
          0., 0., 0., 0., 0., 0., 0., 0., 0., 0., 0., 0., 0., 0.,
          1.30188912e-01, 0., 0., 0., 0., 0., 0., 0., 0., 0., 0., 0., 0.,
          0., 0., 0., 0., 0., 0., 0., 0., 0., 1.30188912e-01, 0., 0., 0.,
          0., 0., 0., 1.30188912e-01, 0., 0., 0., 0., 0., 0., 0., 0., 0.,
          0., 0., 0., 0., 0., 0., 0., 0., 0., 0., 0., 0., 0., 0., 0., 0.,
          0., 1.30188912e-01, 0., 0., 0., 0., 0., 0., 0., 0., 0., 0., 0.,
          0., 0., 0., 0., 0., 0., 0., 0., 0., 0., 0., 0., 0., 0., 0., 0.,
          1.30188912e-01, 0., 0., 0., 0., 1.30188912e-01, 0., 0., 0., 0.,
          0., 0., 0., 0., 0., 0., 2.60377824e-01, 1.30188912e-01,
          1.30188912e-01, 1.30188912e-01, 0., 0., 0., 0., 0., 0., 0., 0.,
          0., 0., 0., 0., 0., 0., 0., 0., 0., 0., 0., 0., 0., 0., 0., 0.,
          0., 0., 0., 0., 0., 1.30188912e-01, 0., 2.60377824e-01, 0., 0.,
          1.30188912e-01, 0., 0., 0., 0., 0., 0., 0., 0., 0.,
          1.30188912e-01, 0., 0., 0., 0., 0., 0., 0., 0., 0., 0., 0., 0.,
          0., 1.30188912e-01, 0., 0., 0., 0., 0., 0., 0., 0., 0., 0., 0.,
          0., 0., 0., 0., 0., 0., 0., 0., 0., 0., 1.30188912e-01, 0., 0.,
          0., 0., 0., 0., 1.30188912e-01, 0., 0., 0., 0., 0., 0., 0., 0.,
          0., 0., 0., 0., 0., 0., 0., 0., 0., 0., 0., 0., 0., 0., 0., 0.,
          0., 0., 0., 0., 0., 0., 0., 0., 0., 0., 0., 0., 0., 0., 0., 0.,
          0., 0., 0., 1.30188912e-01, 0., 1.30188912e-01, 0., 0., 0., 0.,
          0., 1.30188912e-01, 1.30188912e-01, 0., 0., 1.30188912e-01, 0.,
          0., 0., 0., 0., 0., 0., 0., 0., 0., 0., 1.30188912e-01,
          1.30188912e-01, 0., 0., 2.60377824e-01, 1.30188912e-01, 0., 0.,
          0., 0., 0., 0., 0., 0., 0., 0., 0., 0., 0., 0., 0., 0., 0., 0.,
          0., 0., 0., 0., 0., 0., 0., 0., 0., 0., 0., 2.60377824e-01, 0.,
          0., 0., 0., 0., 0., 0., 0., 0., 0., 0., 0., 0., 0., 0., 0., 0.,
          0., 0., 0., 0., 0., 2.60377824e-01, 0., 1.30188912e-01, 0., 0.,
          0., 0., 0., 0., 0., 0., 0., 0., 0., 1.30188912e-01, 0., 0., 0.,
          0., 1.30188912e-01, 0., 0., 0., 1.30188912e-01, 0., 0., 0., 0.,
          0., 0., 0., 0., 0., 0., 0., 0., 0., 0., 0., 0., 0., 0., 0., 0.,
          0., 0., 0., 0., 0., 0., 0., 0., 1.30188912e-01, 0., 0., 0., 0.,
          0., 0., 0., 0., 1.30188912e-01, 0., 0., 0., 1.30188912e-01, 0.,
          0., 0., 0., 0., 0., 0., 0., 0., 0., 0., 1.30188912e-01, 0., 0.,
          0., 0., 0., 0., 0., 0., 1.30188912e-01, 0., 0., 0., 0., 0., 0.,
          0., 0., 0., 0., 0., 0., 0., 0., 0., 0., 0., 0., 0., 0., 0., 0.,
          0., 0., 1.30188912e-01, 0., 0., 0., 0., 0., 0., 0., 0., 0., 0.,
          0., 0., 0. ]
      - [ 0., 0., 6.91714436e-02, 0., 0., 0., 0., 0., 1.38342887e-01, 0.,
          6.91714436e-02, 0., 0., 0., 0., 0., 0., 0., 0., 0., 0.,
          6.91714436e-02, 0., 1.38342887e-01, 6.91714436e-02, 0., 0., 0.,
          0., 0., 0., 0., 6.91714436e-02, 1.38342887e-01, 2.07514346e-01,
          0., 2.07514346e-01, 0., 0., 0., 0., 0., 6.91714436e-02,
          6.91714436e-02, 0., 0., 0., 0., 0., 0., 1.38342887e-01, 0., 0.,
          0., 6.91714436e-02, 0., 0., 0., 0., 6.91714436e-02, 0., 0.,
          1.38342887e-01, 6.91714436e-02, 0., 0., 0., 6.91714436e-02, 0.,
          0., 0., 0., 0., 1.38342887e-01, 6.91714436e-02, 0.,
          6.91714436e-02, 3.45857233e-01, 0., 0., 0., 0., 0., 0., 0., 0.,
          0., 0., 0., 0., 0., 0., 0., 0., 0., 6.91714436e-02, 0., 0., 0.,
          0., 6.91714436e-02, 1.38342887e-01, 0., 1.38342887e-01, 0., 0.,
          0., 0., 0., 0., 0., 0., 0., 0., 0., 0., 0., 0., 0., 0., 0., 0.,
          0., 0., 0., 0., 0., 0., 0., 0., 0., 0., 6.91714436e-02, 0., 0.,
          0., 0., 0., 0., 6.91714436e-02, 0., 0., 0., 0., 0., 0., 0., 0.,
          0., 0., 6.91714436e-02, 0., 0., 0., 6.91714436e-02, 0., 0., 0.,
          0., 0., 0., 6.91714436e-02, 0., 0., 0., 6.91714436e-02, 0., 0.,
          6.91714436e-02, 0., 0., 0., 0., 0., 0., 0., 6.91714436e-02, 0.,
          6.91714436e-02, 0., 0., 0., 0., 0., 0., 0., 0., 1.38342887e-01,
          0., 0., 0., 0., 0., 0., 6.91714436e-02, 6.91714436e-02, 0., 0.,
          0., 0., 0., 0., 0., 6.91714436e-02, 0., 0., 0., 0., 0., 0., 0.,
          0., 0., 0., 6.91714436e-02, 0., 6.91714436e-02, 0., 0., 0., 0.,
          0., 0., 0., 0., 1.38342887e-01, 0., 0., 0., 0., 0.,
          1.38342887e-01, 0., 6.91714436e-02, 0., 0., 0., 0., 0., 0., 0.,
          0., 0., 0., 0., 0., 0., 0., 0., 0., 0., 0., 0., 0., 0., 0., 0.,
          1.38342887e-01, 0., 0., 1.38342887e-01, 0., 0., 0., 0., 0., 0.,
          0., 0., 0., 6.91714436e-02, 6.91714436e-02, 0., 0., 0., 0.,
          1.38342887e-01, 0., 0., 0., 6.91714436e-02, 0., 6.91714436e-02,
          0., 0., 0., 6.91714436e-02, 0., 0., 0., 0., 0., 0.,
          6.91714436e-02, 0., 0., 0., 0., 0., 0., 0., 6.91714436e-02,
          6.91714436e-02, 0., 0., 6.91714436e-02, 0., 0., 0., 0., 0., 0.,
          0., 0., 0., 0., 0., 6.91714436e-02, 0., 0., 0., 6.91714436e-02,
          1.38342887e-01, 0., 0., 0., 0., 0., 1.38342887e-01, 0., 0., 0.,
          0., 0., 0., 0., 0., 0., 0., 0., 0., 0., 0., 0., 0., 0., 0.,
          1.38342887e-01, 6.91714436e-02, 0., 0., 6.91714436e-02,
          2.76685774e-01, 0., 0., 0., 0., 0., 0., 0., 0., 0., 0., 0., 0.,
          0., 0., 0., 0., 0., 0., 1.38342887e-01, 0., 0., 0., 0.,
          6.91714436e-02, 0., 6.91714436e-02, 0., 0., 0., 0.,
          6.91714436e-02, 0., 6.91714436e-02, 0., 0., 0., 6.91714436e-02,
          0., 0., 0., 0., 0., 0., 6.91714436e-02, 0., 0., 0., 0., 0., 0.,
          0., 0., 0., 0., 0., 0., 0., 0., 6.91714436e-02, 0., 0., 0., 0.,
          6.91714436e-02, 0., 1.38342887e-01, 0., 0., 6.91714436e-02, 0.,
          0., 0., 0., 0., 0., 0., 0., 0., 0., 0., 0., 1.38342887e-01, 0.,
          0., 0., 0., 0., 0., 0., 0., 0., 0., 0., 0., 0., 0.,
          6.91714436e-02, 0., 6.91714436e-02, 0., 0., 0., 0., 0.,
          6.91714436e-02, 0., 0., 0., 0., 6.91714436e-02, 0.,
          6.91714436e-02, 0., 0., 0., 0., 0., 0., 0., 0., 0.,
          6.91714436e-02, 0., 0., 0., 0., 0., 6.91714436e-02, 0., 0., 0.,
          6.91714436e-02, 0., 1.38342887e-01, 0., 0., 0., 6.91714436e-02,
          6.91714436e-02, 0., 0., 0., 0., 1.38342887e-01, 0., 0., 0. ]
      - [ 0., 2.17906814e-02, 8.71627256e-02, 4.35813628e-02,
          1.08953409e-01, 2.17906814e-02, 2.17906814e-02, 1.30744085e-01,
          4.35813628e-02, 0., 0., 2.17906814e-02, 2.17906814e-02, 0.,
          2.17906814e-02, 2.17906814e-02, 2.17906814e-02, 6.53720424e-02,
          0., 0., 0., 6.53720424e-02, 4.35813628e-02, 4.35813628e-02,
          6.53720424e-02, 8.71627256e-02, 4.35813628e-02, 0., 0.,
          4.35813628e-02, 4.35813628e-02, 4.35813628e-02, 2.17906814e-02,
          4.35813628e-02, 4.35813628e-02, 6.53720424e-02, 6.53720424e-02,
          1.08953409e-01, 0., 4.35813628e-02, 2.17906814e-02, 0.,
          2.17906814e-02, 4.35813628e-02, 2.17906814e-02, 6.53720424e-02,
          1.08953409e-01, 2.17906814e-02, 2.17906814e-02, 4.35813628e-02,
          0., 2.17906814e-02, 0., 6.53720424e-02, 4.35813628e-02,
          1.30744085e-01, 2.17906814e-02, 2.17906814e-02, 0.,
          4.35813628e-02, 8.71627256e-02, 2.17906814e-02, 4.35813628e-02,
          0., 2.17906814e-02, 4.35813628e-02, 2.17906814e-02,
          1.30744085e-01, 2.17906814e-02, 8.71627256e-02, 2.17906814e-02,
          8.71627256e-02, 4.35813628e-02, 0., 2.17906814e-02,
          2.17906814e-02, 0., 1.52534768e-01, 2.17906814e-02,
          4.35813628e-02, 2.17906814e-02, 2.17906814e-02, 4.35813628e-02,
          6.53720424e-02, 2.17906814e-02, 4.35813628e-02, 4.35813628e-02,
          0., 2.17906814e-02, 0., 4.35813628e-02, 2.17906814e-02, 0.,
          2.17906814e-02, 6.53720424e-02, 6.53720424e-02, 0.,
          2.17906814e-02, 0., 4.35813628e-02, 8.71627256e-02,
          1.52534768e-01, 4.35813628e-02, 4.35813628e-02, 6.53720424e-02,
          2.17906814e-02, 4.35813628e-02, 0., 4.35813628e-02,
          4.35813628e-02, 0., 6.53720424e-02, 2.17906814e-02, 0., 0.,
          8.71627256e-02, 2.17906814e-02, 0., 4.35813628e-02, 0., 0.,
          6.53720424e-02, 2.17906814e-02, 2.17906814e-02, 2.17906814e-02,
          2.17906814e-02, 0., 2.17906814e-02, 0., 0., 0., 6.53720424e-02,
          2.17906814e-02, 2.17906814e-02, 2.17906814e-02, 0., 0., 0.,
          6.53720424e-02, 4.35813628e-02, 0., 4.35813628e-02,
          2.17906814e-02, 4.35813628e-02, 2.17906814e-02, 4.35813628e-02,
