%YAML:1.0
---
opencv_ml_svm:
   format: 3
   svmType: C_SVC
   kernel:
      type: CHI2
      gamma: 3.3750000000000002e-02
   C: 2.5000000000000000e+00
   term_criteria: { epsilon:1.0000000000000001e-01 }
   var_count: 500
   class_count: 2
   class_labels: !!opencv-matrix
      rows: 2
      cols: 1
      dt: i
      data: [ 0, 1 ]
   sv_total: 228
   support_vectors:
      - [ 3.43756303e-02, 3.43756303e-02, 5.15634455e-02, 0.,
          5.15634455e-02, 0., 0., 3.43756303e-02, 5.15634455e-02,
          3.43756303e-02, 0., 5.15634455e-02, 0., 0., 3.43756303e-02, 0.,
          6.87512606e-02, 8.59390721e-02, 5.15634455e-02, 5.15634455e-02,
          1.03126891e-01, 1.03126891e-01, 0., 1.03126891e-01,
          5.15634455e-02, 0., 1.03126891e-01, 0., 0., 3.43756303e-02,
          3.43756303e-02, 0., 0., 8.59390721e-02, 1.03126891e-01,
          1.71878152e-02, 6.87512606e-02, 0., 3.43756303e-02,
          1.71878152e-02, 0., 5.15634455e-02, 1.71878152e-02, 0.,
          5.15634455e-02, 0., 1.03126891e-01, 3.43756303e-02,
          3.43756303e-02, 0., 1.71878152e-02, 1.71878152e-02, 0., 0.,
          5.15634455e-02, 3.43756303e-02, 6.87512606e-02, 1.71878152e-02,
          0., 0., 1.71878152e-02, 0., 6.87512606e-02, 0., 3.43756303e-02,
          8.59390721e-02, 1.71878152e-02, 1.20314702e-01, 3.43756303e-02,
          0., 1.71878152e-02, 1.71878152e-02, 1.37502521e-01,
          6.87512606e-02, 0., 1.71878152e-02, 3.43756303e-02,
          6.87512606e-02, 5.15634455e-02, 1.71878152e-02, 6.87512606e-02,
          5.15634455e-02, 3.43756303e-02, 0., 5.15634455e-02, 0.,
          5.15634455e-02, 5.15634455e-02, 0., 8.59390721e-02, 0.,
          1.71878152e-02, 1.71878152e-02, 0., 5.15634455e-02,
          5.15634455e-02, 0., 1.71878152e-02, 1.71878152e-02,
          1.71878152e-02, 0., 5.15634455e-02, 0., 1.71878152e-02,
          1.71878152e-02, 0., 1.71878152e-02, 0., 0., 1.71878152e-02, 0.,
          3.43756303e-02, 1.71878152e-02, 0., 3.43756303e-02, 0.,
          8.59390721e-02, 3.43756303e-02, 1.71878152e-02, 0., 0.,
          3.43756303e-02, 1.71878152e-02, 0., 3.43756303e-02,
          1.71878152e-02, 0., 1.71878152e-02, 8.59390721e-02,
          8.59390721e-02, 0., 0., 1.71878152e-02, 1.71878152e-02,
          5.15634455e-02, 1.71878152e-02, 5.15634455e-02, 0.,
          1.71878152e-02, 0., 0., 0., 1.37502521e-01, 1.71878152e-02,
          1.71878152e-02, 6.87512606e-02, 3.43756303e-02, 1.71878152e-02,
          1.71878152e-02, 1.71878152e-02, 3.43756303e-02, 0.,
          8.59390721e-02, 1.71878152e-02, 0., 1.71878152e-02,
          5.15634455e-02, 6.87512606e-02, 3.43756303e-02, 0.,
          1.71878152e-02, 1.71878152e-02, 1.71878152e-02, 6.87512606e-02,
          1.71878152e-02, 5.15634455e-02, 0., 8.59390721e-02,
          5.15634455e-02, 1.71878152e-02, 0., 6.87512606e-02, 0.,
          1.71878152e-02, 0., 1.71878152e-02, 3.43756303e-02,
          1.71878152e-02, 1.71878152e-02, 5.15634455e-02, 0.,
          3.43756303e-02, 3.43756303e-02, 0., 1.71878152e-02, 0.,
          1.71878152e-02, 0., 5.15634455e-02, 5.15634455e-02,
          1.71878152e-02, 6.87512606e-02, 0., 3.43756303e-02,
          3.43756303e-02, 5.15634455e-02, 0., 3.43756303e-02, 0., 0.,
          1.71878152e-02, 0., 1.71878152e-02, 1.71878152e-02,
          1.71878152e-02, 1.37502521e-01, 1.03126891e-01, 3.43756303e-02,
          3.43756303e-02, 1.71878152e-02, 3.43756303e-02, 1.71878152e-02,
          3.43756303e-02, 1.71878152e-02, 5.15634455e-02, 1.71878152e-02,
          1.71878152e-02, 1.71878152e-02, 1.71878152e-02, 1.37502521e-01,
          6.87512606e-02, 1.71878152e-02, 0., 1.71878152e-02,
          1.03126891e-01, 5.15634455e-02, 1.71878152e-02, 0.,
          3.43756303e-02, 0., 6.87512606e-02, 5.15634455e-02,
          1.71878152e-02, 3.43756303e-02, 0., 1.71878152e-02,
          1.71878152e-02, 5.15634455e-02, 3.43756303e-02, 5.15634455e-02,
          1.71878152e-02, 3.43756303e-02, 5.15634455e-02, 6.87512606e-02,
          5.15634455e-02, 8.59390721e-02, 0., 0., 5.15634455e-02,
          5.15634455e-02, 3.43756303e-02, 3.43756303e-02, 1.71878152e-02,
          1.71878152e-02, 0., 3.43756303e-02, 0., 1.71878152e-02,
          3.43756303e-02, 3.43756303e-02, 8.59390721e-02, 8.59390721e-02,
          1.71878152e-02, 0., 1.71878152e-02, 3.43756303e-02, 0.,
          1.71878152e-02, 0., 1.71878152e-02, 1.71878152e-02,
          1.71878152e-02, 3.43756303e-02, 5.15634455e-02, 0.,
          1.03126891e-01, 1.71878152e-02, 1.71878152e-02, 0.,
          6.87512606e-02, 1.71878152e-02, 3.43756303e-02, 3.43756303e-02,
          5.15634455e-02, 8.59390721e-02, 0., 1.71878152e-02,
          8.59390721e-02, 3.43756303e-02, 0., 0., 1.71878152e-02,
          3.43756303e-02, 1.71878152e-02, 0., 1.71878152e-02,
          1.71878152e-02, 6.87512606e-02, 3.43756303e-02, 1.71878152e-02,
          1.71878152e-02, 0., 5.15634455e-02, 1.71878152e-02, 0.,
          1.71878152e-02, 0., 3.43756303e-02, 1.71878152e-02,
          1.71878152e-02, 1.71878152e-02, 0., 3.43756303e-02, 0.,
          5.15634455e-02, 1.71878152e-02, 1.71878152e-02, 3.43756303e-02,
          3.43756303e-02, 1.71878152e-02, 0., 5.15634455e-02,
          6.87512606e-02, 5.15634455e-02, 8.59390721e-02, 1.71878152e-02,
          0., 3.43756303e-02, 8.59390721e-02, 3.43756303e-02,
          5.15634455e-02, 5.15634455e-02, 0., 0., 5.15634455e-02,
          3.43756303e-02, 3.43756303e-02, 5.15634455e-02, 1.71878144e-01,
          1.71878152e-02, 5.15634455e-02, 1.71878152e-02, 0.,
          3.43756303e-02, 6.87512606e-02, 0., 1.71878152e-02, 0.,
          3.43756303e-02, 3.43756303e-02, 0., 8.59390721e-02,
          1.71878152e-02, 6.87512606e-02, 1.71878152e-02, 1.71878152e-02,
          0., 1.71878152e-02, 3.43756303e-02, 3.43756303e-02,
          1.71878152e-02, 1.71878152e-02, 6.87512606e-02, 3.43756303e-02,
          3.43756303e-02, 6.87512606e-02, 1.71878152e-02, 0.,
          6.87512606e-02, 1.71878152e-02, 1.71878152e-02, 3.43756303e-02,
          5.15634455e-02, 1.71878152e-02, 1.71878152e-02, 1.20314702e-01,
          3.43756303e-02, 0., 1.03126891e-01, 1.71878152e-02,
          3.43756303e-02, 3.43756303e-02, 5.15634455e-02, 0.,
          1.71878152e-02, 3.43756303e-02, 1.71878152e-02, 3.43756303e-02,
          3.43756303e-02, 0., 3.43756303e-02, 5.15634455e-02, 0., 0.,
          1.71878152e-02, 0., 5.15634455e-02, 5.15634455e-02, 0., 0., 0.,
          1.71878152e-02, 3.43756303e-02, 1.03126891e-01, 1.71878152e-02,
          1.71878152e-02, 0., 0., 0., 5.15634455e-02, 3.43756303e-02,
          1.71878152e-02, 0., 8.59390721e-02, 0., 6.87512606e-02,
          3.43756303e-02, 0., 0., 5.15634455e-02, 1.71878152e-02, 0.,
          5.15634455e-02, 1.71878152e-02, 3.43756303e-02, 0.,
          1.71878152e-02, 1.71878152e-02, 0., 3.43756303e-02,
          3.43756303e-02, 5.15634455e-02, 6.87512606e-02, 0.,
          6.87512606e-02, 0., 1.71878152e-02, 1.71878152e-02, 0.,
          6.87512606e-02, 1.71878152e-02, 3.43756303e-02, 3.43756303e-02,
          8.59390721e-02, 1.71878152e-02, 0., 1.71878152e-02,
          8.59390721e-02, 5.15634455e-02, 1.71878152e-02, 0., 0.,
          1.03126891e-01, 5.15634455e-02, 0., 1.20314702e-01,
          1.03126891e-01, 0., 5.15634455e-02, 3.43756303e-02,
          1.71878152e-02, 0., 8.59390721e-02, 1.20314702e-01,
          3.43756303e-02, 8.59390721e-02, 5.15634455e-02, 2.57817209e-01,
          1.71878152e-02, 1.71878152e-02, 3.43756303e-02, 3.43756303e-02,
          1.71878152e-02, 5.15634455e-02, 1.71878152e-02, 3.43756303e-02,
          0., 1.71878152e-02, 3.43756303e-02, 1.71878152e-02,
          3.43756303e-02, 3.43756303e-02, 0., 0., 6.87512606e-02, 0.,
          1.71878152e-02, 1.71878152e-02, 0., 5.15634455e-02,
          1.03126891e-01, 1.03126891e-01, 3.43756303e-02, 1.71878152e-02,
          0., 1.71878152e-02, 1.71878152e-02, 1.71878152e-02,
          6.87512606e-02, 0. ]
      - [ 4.56435457e-02, 9.12870914e-02, 3.04290317e-02, 4.56435457e-02,
          3.04290317e-02, 3.04290317e-02, 1.52145158e-02, 1.36930645e-01,
          7.60725811e-02, 4.56435457e-02, 0., 0., 0., 1.52145158e-02, 0.,
          1.52145158e-02, 3.04290317e-02, 1.21716127e-01, 9.12870914e-02,
          3.04290317e-02, 4.56435457e-02, 3.04290317e-02, 4.56435457e-02,
          3.04290317e-02, 7.60725811e-02, 1.52145158e-02, 0.,
          1.52145158e-02, 1.52145158e-02, 1.52145158e-02, 1.52145158e-02,
          4.56435457e-02, 3.04290317e-02, 4.56435457e-02, 0.,
          1.21716127e-01, 0., 1.52145158e-02, 1.52145158e-02, 0.,
          1.52145158e-02, 0., 3.04290317e-02, 3.04290317e-02,
          1.52145158e-02, 1.52145158e-02, 1.52145158e-02, 0.,
          3.04290317e-02, 1.52145158e-02, 6.08580634e-02, 3.04290317e-02,
          1.52145158e-02, 3.04290317e-02, 3.04290317e-02, 4.56435457e-02,
          4.56435457e-02, 1.52145158e-02, 0., 0., 3.04290317e-02, 0.,
          1.52145158e-02, 1.52145158e-02, 0., 0., 7.60725811e-02,
          3.04290317e-02, 0., 4.56435457e-02, 3.04290317e-02,
          6.08580634e-02, 4.56435457e-02, 0., 1.52145158e-02, 0.,
          1.52145158e-02, 4.41220939e-01, 1.52145158e-02, 6.08580634e-02,
          1.52145158e-02, 0., 4.56435457e-02, 4.56435457e-02,
          6.08580634e-02, 3.04290317e-02, 1.52145158e-02, 0.,
          7.60725811e-02, 3.04290317e-02, 1.06501609e-01, 4.56435457e-02,
          1.52145158e-02, 0., 3.04290317e-02, 4.56435457e-02, 0.,
          4.56435457e-02, 7.60725811e-02, 1.52145158e-02, 1.52145158e-02,
          1.67359665e-01, 4.56435457e-02, 4.56435457e-02, 0., 0., 0.,
          3.04290317e-02, 1.52145158e-02, 4.56435457e-02, 0.,
          4.56435457e-02, 3.04290317e-02, 0., 3.04290317e-02,
          1.52145158e-02, 0., 6.08580634e-02, 1.52145158e-02, 0.,
          1.52145158e-02, 1.52145158e-02, 0., 0., 1.52145158e-02,
          7.60725811e-02, 3.04290317e-02, 3.04290317e-02, 3.04290317e-02,
          4.56435457e-02, 0., 1.52145158e-02, 1.52145158e-02,
          4.56435457e-02, 3.04290317e-02, 4.56435457e-02, 6.08580634e-02,
          4.56435457e-02, 1.52145158e-02, 1.52145158e-02, 0., 0., 0.,
          7.60725811e-02, 0., 3.04290317e-02, 4.56435457e-02,
          4.56435457e-02, 0., 0., 0., 3.04290317e-02, 1.52145158e-02,
          4.56435457e-02, 4.56435457e-02, 1.52145158e-02, 1.52145158e-02,
          3.04290317e-02, 1.52145158e-02, 1.52145158e-02, 3.04290317e-02,
          0., 1.52145158e-02, 3.04290317e-02, 3.04290317e-02,
          1.52145158e-02, 3.04290317e-02, 1.52145158e-02, 7.60725811e-02,
          0., 1.52145158e-02, 0., 0., 1.52145158e-02, 0., 3.04290317e-02,
          0., 1.52145158e-02, 0., 4.56435457e-02, 0., 1.52145158e-02, 0.,
          3.04290317e-02, 0., 0., 1.52145158e-02, 0., 0., 3.04290317e-02,
          0., 3.04290317e-02, 0., 6.08580634e-02, 6.08580634e-02,
          6.08580634e-02, 0., 1.52145158e-02, 3.04290317e-02,
          3.04290317e-02, 1.52145158e-02, 0., 1.52145158e-02, 0., 0., 0.,
          0., 1.52145158e-02, 0., 1.52145158e-02, 4.56435457e-02, 0., 0.,
          4.56435457e-02, 3.04290317e-02, 3.04290317e-02, 6.08580634e-02,
          1.52145158e-02, 1.52145158e-02, 1.36930645e-01, 3.04290317e-02,
          1.52145158e-02, 0., 0., 9.12870914e-02, 1.52145158e-02, 0.,
          1.52145158e-02, 1.52145158e-02, 3.04290317e-02, 1.52145158e-02,
          3.04290317e-02, 1.52145158e-02, 3.04290317e-02, 7.60725811e-02,
          1.52145158e-02, 0., 0., 0., 3.04290317e-02, 4.56435457e-02, 0.,
          3.04290317e-02, 0., 0., 6.08580634e-02, 0., 3.04290317e-02,
          1.52145158e-02, 0., 1.52145158e-02, 0., 1.52145158e-02,
          1.52145158e-02, 1.52145158e-02, 3.04290317e-02, 6.08580634e-02,
          0., 3.04290317e-02, 1.52145158e-02, 0., 0., 3.04290317e-02,
          1.52145158e-02, 1.52145158e-02, 3.04290317e-02, 1.52145158e-02,
          1.52145158e-02, 1.52145158e-02, 1.52145158e-02, 0.,
          1.52145158e-02, 1.52145158e-02, 3.04290317e-02, 0.,
          1.52145158e-02, 1.52145158e-02, 1.52145158e-02, 1.52145158e-02,
          4.56435457e-02, 0., 1.52145158e-02, 3.04290317e-02,
          1.52145158e-02, 0., 1.52145158e-02, 4.56435457e-02, 0.,
          4.56435457e-02, 0., 3.04290317e-02, 3.04290317e-02,
          1.52145158e-02, 9.12870914e-02, 1.52145158e-02, 0.,
          1.52145158e-02, 0., 1.52145158e-02, 0., 1.52145158e-02,
          1.52145158e-02, 3.04290317e-02, 0., 0., 0., 0., 1.52145158e-02,
          0., 0., 2.89075792e-01, 4.56435457e-02, 0., 9.12870914e-02,
          2.28217736e-01, 0., 1.52145158e-02, 0., 1.52145158e-02, 0., 0.,
          1.52145158e-02, 3.04290317e-02, 1.52145158e-02, 1.52145158e-02,
          1.52145158e-02, 4.56435457e-02, 3.04290317e-02, 1.52145158e-02,
          0., 0., 4.56435457e-02, 0., 1.52145158e-02, 4.56435457e-02, 0.,
          3.04290317e-02, 1.52145158e-02, 4.56435457e-02, 3.04290317e-02,
          0., 3.04290317e-02, 4.56435457e-02, 3.04290317e-02,
          1.52145158e-02, 4.56435457e-02, 0., 3.04290317e-02,
          7.60725811e-02, 1.52145158e-02, 1.52145158e-02, 3.04290317e-02,
          3.04290317e-02, 1.52145158e-02, 1.52145158e-02, 0., 0.,
          1.52145158e-02, 0., 1.52145158e-02, 1.52145158e-02,
          3.04290317e-02, 1.52145158e-02, 3.04290317e-02, 0.,
          1.52145158e-02, 6.08580634e-02, 1.52145158e-02, 3.04290317e-02,
          0., 0., 1.52145158e-02, 1.52145158e-02, 4.56435457e-02, 0., 0.,
          4.56435457e-02, 0., 9.12870914e-02, 6.08580634e-02,
          9.12870914e-02, 0., 3.04290317e-02, 3.04290317e-02, 0.,
          1.52145158e-02, 1.52145158e-02, 1.52145158e-02, 3.04290317e-02,
          4.56435457e-02, 1.52145158e-02, 1.52145158e-02, 3.04290317e-02,
          0., 9.12870914e-02, 4.56435457e-02, 9.12870914e-02, 0., 0., 0.,
          6.08580634e-02, 4.56435457e-02, 1.52145158e-02, 0.,
          1.52145158e-02, 0., 1.52145158e-02, 1.52145158e-02,
          3.04290317e-02, 3.04290317e-02, 1.52145158e-02, 0.,
          1.52145158e-02, 9.12870914e-02, 0., 0., 1.52145158e-02,
          1.52145158e-02, 0., 1.52145158e-02, 0., 0., 3.04290317e-02, 0.,
          3.04290317e-02, 0., 3.04290317e-02, 4.56435457e-02,
          3.04290317e-02, 1.52145158e-02, 0., 3.04290317e-02,
          3.04290317e-02, 7.60725811e-02, 6.08580634e-02, 4.56435457e-02,
          6.08580634e-02, 0., 0., 1.52145158e-02, 0., 4.56435457e-02,
          4.56435457e-02, 3.04290317e-02, 1.52145158e-02, 1.52145158e-02,
          3.04290317e-02, 1.52145158e-02, 1.67359665e-01, 0.,
          6.08580634e-02, 7.60725811e-02, 3.04290317e-02, 3.04290317e-02,
          3.04290317e-02, 1.52145158e-02, 1.52145158e-02, 1.52145158e-02,
          1.52145158e-02, 0., 1.52145162e-01, 0., 0., 0., 4.56435457e-02,
          0., 1.52145158e-02, 1.21716127e-01, 1.52145158e-02,
          1.52145158e-02, 3.04290317e-02, 7.60725811e-02, 3.04290317e-02,
          3.04290317e-02, 1.52145158e-02, 1.52145158e-02, 7.60725811e-02,
          0., 1.52145158e-02, 4.56435457e-02, 6.08580634e-02,
          3.04290317e-02, 0., 0., 1.06501609e-01, 7.60725811e-02, 0.,
          3.04290317e-02, 4.56435457e-02, 6.08580634e-02, 1.52145158e-02,
          4.56435457e-02, 1.52145158e-02, 3.04290317e-02, 6.08580634e-02,
          3.04290317e-02, 4.56435457e-02, 1.52145158e-02, 1.52145158e-02,
          1.52145158e-02 ]
      - [ 2.02361159e-02, 0., 2.02361159e-02, 4.04722318e-02, 0.,
          4.04722318e-02, 2.02361159e-02, 6.07083477e-02, 1.01180583e-01,
          0., 8.09444636e-02, 2.02361159e-02, 0., 2.02361159e-02, 0.,
          4.04722318e-02, 0., 0., 0., 2.02361159e-02, 6.07083477e-02,
          8.09444636e-02, 6.07083477e-02, 4.04722318e-02, 6.07083477e-02,
          4.04722318e-02, 0., 2.02361159e-02, 4.04722318e-02, 0.,
          2.02361159e-02, 0., 0., 4.04722318e-02, 2.02361159e-02, 0.,
          2.02361159e-02, 2.02361159e-02, 4.04722318e-02, 2.02361159e-02,
          1.21416695e-01, 0., 4.04722318e-02, 6.07083477e-02,
          8.09444636e-02, 4.04722318e-02, 2.02361159e-02, 0., 0.,
          2.02361159e-02, 2.02361159e-02, 6.07083477e-02, 0.,
          2.02361159e-02, 0., 4.04722318e-02, 0., 0., 2.02361159e-02, 0.,
          2.02361159e-02, 2.02361159e-02, 4.04722318e-02, 8.09444636e-02,
          2.02361159e-02, 2.02361159e-02, 1.61888927e-01, 4.04722318e-02,
          6.07083477e-02, 6.07083477e-02, 0., 4.04722318e-02, 0.,
          4.04722318e-02, 4.04722318e-02, 0., 2.02361159e-02,
          1.01180583e-01, 4.04722318e-02, 0., 4.04722318e-02, 0.,
          2.02361159e-02, 2.02361159e-02, 2.02361159e-02, 0.,
          2.02361159e-02, 0., 4.04722318e-02, 2.02361159e-02, 0.,
          2.02361159e-02, 4.04722318e-02, 0., 0., 8.09444636e-02, 0.,
          2.02361159e-02, 2.02361159e-02, 0., 0., 6.07083477e-02, 0., 0.,
          6.07083477e-02, 4.04722318e-02, 2.02361159e-02, 2.02361159e-02,
          2.02361159e-02, 2.02361159e-02, 0., 4.04722318e-02, 0., 0.,
          1.41652822e-01, 0., 2.02361159e-02, 0., 2.02361159e-02,
          4.04722318e-02, 6.07083477e-02, 2.02361159e-02, 2.02361159e-02,
          0., 0., 2.02361159e-02, 0., 0., 0., 0., 0., 0., 0., 0., 0.,
          8.09444636e-02, 4.04722318e-02, 4.04722318e-02, 4.04722318e-02,
          1.01180583e-01, 2.02361159e-02, 2.02361159e-02, 2.02361159e-02,
          0., 2.02361159e-02, 4.04722318e-02, 0., 8.09444636e-02, 0.,
          4.04722318e-02, 2.02361159e-02, 0., 4.04722318e-02, 0.,
          6.07083477e-02, 2.02361159e-02, 0., 2.02361159e-02,
          2.02361159e-02, 6.07083477e-02, 2.02361159e-02, 4.04722318e-02,
          6.07083477e-02, 0., 2.02361159e-02, 0., 0., 2.02361159e-02,
          4.04722318e-02, 2.02361159e-02, 4.04722318e-02, 4.04722318e-02,
          0., 0., 2.02361159e-02, 0., 6.07083477e-02, 0., 0.,
          2.02361159e-02, 0., 2.02361159e-02, 0., 0., 6.07083477e-02,
          2.02361159e-02, 0., 2.02361159e-02, 4.04722318e-02,
          2.02361159e-02, 2.02361159e-02, 2.02361159e-02, 2.02361159e-02,
          2.02361159e-02, 6.07083477e-02, 0., 0., 2.02361159e-02,
          2.02361159e-02, 4.04722318e-02, 0., 0., 6.07083477e-02,
          4.04722318e-02, 0., 0., 0., 0., 2.02361159e-02, 0.,
          2.02361159e-02, 2.02361159e-02, 2.02361159e-02, 0., 0.,
          6.07083477e-02, 2.02361159e-02, 0., 0., 3.03541750e-01,
          4.04722318e-02, 2.02361159e-02, 2.02361159e-02, 0.,
          2.02361159e-02, 0., 0., 2.02361159e-02, 0., 1.21416695e-01, 0.,
          2.02361159e-02, 0., 0., 6.07083477e-02, 2.02361159e-02,
          4.04722318e-02, 0., 2.02361159e-02, 2.02361159e-02, 0., 0., 0.,
          2.02361159e-02, 2.02361159e-02, 0., 0., 4.04722318e-02, 0., 0.,
          4.04722318e-02, 0., 2.02361159e-02, 2.02361159e-02,
          2.02361159e-02, 6.07083477e-02, 0., 0., 0., 4.04722318e-02,
          4.04722318e-02, 0., 6.07083477e-02, 0., 8.09444636e-02, 0.,
          2.02361159e-02, 2.02361159e-02, 0., 4.04722318e-02,
          8.09444636e-02, 1.01180583e-01, 0., 0., 2.02361159e-02,
          4.04722318e-02, 0., 2.02361159e-02, 2.02361159e-02, 0.,
          2.02361159e-02, 0., 0., 0., 6.07083477e-02, 6.07083477e-02,
          2.02361159e-02, 0., 0., 0., 2.02361159e-02, 4.04722318e-02, 0.,
          0., 4.04722318e-02, 2.02361159e-02, 6.07083477e-02, 0.,
          2.02361159e-02, 8.09444636e-02, 0., 2.02361159e-02,
          6.07083477e-02, 0., 2.02361159e-02, 0., 8.09444636e-02,
          8.09444636e-02, 0., 0., 6.07083477e-02, 0., 0., 2.02361159e-02,
          1.21416695e-01, 4.04722318e-02, 8.09444636e-02, 2.02361159e-02,
          4.04722318e-02, 2.02361159e-02, 0., 2.02361159e-02,
          8.09444636e-02, 0., 8.09444636e-02, 0., 2.02361159e-02, 0.,
          4.04722318e-02, 0., 2.02361159e-02, 4.04722318e-02,
          2.02361159e-02, 6.07083477e-02, 4.04722318e-02, 6.07083477e-02,
          0., 2.02361159e-02, 6.07083477e-02, 0., 0., 4.04722318e-02,
          8.09444636e-02, 2.02361159e-02, 0., 0., 0., 0., 2.02361159e-02,
          0., 2.02361159e-02, 0., 0., 2.02361159e-02, 0., 0.,
          8.09444636e-02, 6.07083477e-02, 0., 0., 0., 0., 4.04722318e-02,
          0., 0., 2.02361159e-02, 2.02361159e-02, 2.02361159e-02,
          2.02361159e-02, 0., 0., 0., 2.02361159e-02, 2.02361159e-02,
          2.02361159e-02, 0., 4.04722318e-02, 0., 2.02361166e-01, 0., 0.,
          2.02361159e-02, 0., 2.02361159e-02, 0., 0., 0., 2.02361159e-02,
          1.01180583e-01, 6.07083477e-02, 2.02361159e-02, 0.,
          4.04722318e-02, 0., 0., 4.04722318e-02, 4.04722318e-02, 0.,
          2.02361159e-02, 2.02361159e-02, 8.09444636e-02, 0.,
          2.02361159e-02, 0., 0., 4.04722318e-02, 0., 4.04722318e-02,
          4.04722318e-02, 2.02361159e-02, 4.04722318e-02, 2.02361159e-02,
          0., 4.04722318e-02, 4.04722318e-02, 1.01180583e-01, 0.,
          4.04722318e-02, 2.02361159e-02, 2.02361159e-02, 2.02361159e-02,
          2.02361159e-02, 0., 0., 2.02361159e-02, 2.02361159e-02,
          4.04722318e-02, 0., 0., 4.04722318e-02, 4.04722318e-02,
          4.04722318e-02, 0., 0., 2.02361159e-02, 2.02361159e-02,
          2.02361159e-02, 1.21416695e-01, 4.04722318e-02, 4.04722318e-02,
          4.04722318e-02, 0., 2.02361159e-02, 2.02361159e-02,
          2.02361159e-02, 2.02361159e-02, 0., 4.04722318e-02,
          2.02361159e-02, 8.09444636e-02, 4.24958438e-01, 8.09444636e-02,
          2.02361159e-02, 0., 0., 0., 2.02361159e-02, 6.07083477e-02, 0.,
          0., 6.07083477e-02, 4.04722318e-02, 4.04722318e-02, 0.,
          4.04722318e-02, 0., 2.02361159e-02, 0., 4.04722318e-02, 0., 0.,
          1.82125047e-01, 4.04722318e-02, 2.02361159e-02, 0., 0.,
          1.21416695e-01, 4.04722318e-02, 2.02361159e-02, 4.04722318e-02,
          6.07083477e-02, 4.04722318e-02, 2.02361159e-02, 0.,
          6.07083477e-02, 2.02361159e-02, 6.07083477e-02, 2.02361159e-02,
          2.02361159e-02, 0., 4.04722318e-02, 6.07083477e-02,
          4.04722318e-02, 6.07083477e-02, 4.04722318e-02, 0.,
          4.04722318e-02, 2.02361159e-02, 0., 0. ]
      - [ 3.88726294e-02, 2.59150863e-02, 1.29575431e-02, 0.,
          1.29575431e-02, 7.77452588e-02, 3.88726294e-02, 5.18301725e-02,
          3.88726294e-02, 5.18301725e-02, 1.29575431e-02, 1.29575431e-02,
          0., 0., 6.47877157e-02, 2.59150863e-02, 3.88726294e-02,
          1.29575431e-02, 1.29575431e-02, 1.29575431e-02, 0.,
          2.59150863e-02, 2.59150863e-02, 2.59150863e-02, 3.88726294e-02,
          5.18301725e-02, 6.47877157e-02, 0., 0., 1.29575431e-02,
          3.88726294e-02, 6.47877157e-02, 3.88726294e-02, 3.88726294e-02,
          3.88726294e-02, 2.59150863e-02, 1.29575431e-02, 0., 0.,
          1.29575431e-02, 1.16617888e-01, 0., 1.29575431e-02,
          6.47877157e-02, 2.59150863e-02, 3.88726294e-02, 2.59150863e-02,
          1.29575431e-02, 1.29575431e-02, 2.59150863e-02, 1.29575431e-02,
          1.29575431e-02, 0., 2.59150863e-02, 1.29575431e-02,
          2.59150863e-02, 5.18301725e-02, 0., 0., 1.29575431e-02,
          1.29575431e-02, 5.18301725e-02, 1.29575431e-02, 3.88726294e-02,
          1.29575431e-02, 1.29575431e-02, 0., 1.29575431e-02,
          1.29575431e-02, 0., 3.88726294e-02, 1.03660345e-01,
          2.59150863e-02, 2.59150863e-02, 1.29575431e-02, 2.59150863e-02,
          1.29575431e-02, 7.77452588e-02, 2.59150863e-02, 3.88726294e-02,
          6.47877157e-02, 1.29575431e-02, 0., 9.07028019e-02,
          2.59150863e-02, 1.29575431e-02, 2.59150863e-02, 0.,
          1.29575431e-02, 2.59150863e-02, 2.59150863e-02, 1.29575431e-02,
          1.29575431e-02, 2.59150863e-02, 1.29575431e-02, 3.88726294e-02,
          2.59150863e-02, 1.29575431e-02, 1.29575431e-02, 3.88726294e-02,
          2.59150863e-02, 7.77452588e-02, 3.88726294e-02, 2.59150863e-02,
          2.59150863e-02, 0., 2.59150863e-02, 3.88726294e-02,
          2.59150863e-02, 1.29575431e-02, 2.59150863e-02, 1.03660345e-01,
          1.29575431e-02, 3.88726294e-02, 3.88726294e-02, 2.59150863e-02,
          2.59150863e-02, 1.03660345e-01, 5.18301725e-02, 2.59150863e-02,
          1.29575431e-02, 2.59150863e-02, 0., 1.29575431e-02, 0.,
          2.59150863e-02, 3.88726294e-02, 1.29575431e-02, 1.29575431e-02,
          2.59150863e-01, 1.29575431e-02, 0., 3.88726294e-02, 0., 0.,
          2.59150863e-02, 2.59150863e-02, 2.59150863e-02, 3.88726294e-02,
          3.88726294e-02, 1.29575431e-02, 1.29575431e-02, 1.29575431e-02,
          9.07028019e-02, 3.88726294e-02, 2.59150863e-02, 1.29575431e-02,
          1.29575431e-02, 2.59150863e-02, 3.88726294e-02, 1.29575431e-02,
          3.88726294e-02, 3.88726294e-02, 2.59150863e-02, 2.59150863e-02,
          3.88726294e-02, 3.88726294e-02, 2.59150863e-02, 7.77452588e-02,
          0., 1.29575431e-02, 0., 0., 2.59150863e-02, 0., 2.59150863e-02,
          0., 2.59150863e-02, 1.29575431e-02, 2.59150863e-02,
          1.29575431e-02, 2.59150863e-02, 3.88726294e-02, 0.,
          2.59150863e-02, 1.29575431e-02, 1.29575431e-02, 1.29575431e-02,
          0., 2.59150863e-02, 7.77452588e-02, 1.29575431e-02,
          3.88726294e-02, 3.88726294e-02, 0., 2.59150863e-02,
          5.18301725e-02, 2.59150863e-02, 6.47877157e-02, 0.,
          1.29575431e-02, 3.88726294e-02, 3.88726294e-02, 2.59150863e-02,
          1.29575431e-02, 1.29575431e-02, 1.29575431e-02, 0.,
          1.29575431e-02, 0., 1.29575431e-02, 0., 5.18301725e-02,
          1.29575431e-02, 1.29575431e-02, 2.59150863e-02, 3.88726294e-02,
          1.29575431e-02, 2.59150863e-02, 3.88726294e-02, 2.59150863e-02,
          1.29575431e-02, 0., 2.59150863e-02, 6.47877157e-02, 0.,
          3.88726294e-02, 2.59150863e-02, 1.29575431e-02, 1.55490518e-01,
          1.29575431e-02, 2.59150863e-02, 0., 5.18301725e-02,
          1.55490518e-01, 2.59150863e-02, 5.18301725e-02, 1.29575431e-02,
          2.59150863e-02, 0., 2.59150863e-02, 1.29575431e-02,
          2.59150863e-02, 1.29575431e-02, 2.59150863e-02, 5.18301725e-02,
          1.29575431e-02, 1.29575431e-02, 1.29575431e-02, 3.88726294e-02,
          0., 2.59150863e-02, 1.29575431e-02, 2.59150863e-02, 0.,
          6.47877157e-02, 1.29575431e-02, 2.59150863e-02, 1.94363147e-01,
          1.29575431e-02, 1.29575431e-02, 1.29575431e-02, 2.59150863e-02,
          2.59150863e-02, 0., 2.59150863e-02, 1.29575431e-02,
          1.29575431e-02, 5.18301725e-02, 2.59150863e-02, 3.88726294e-02,
          2.59150863e-02, 1.29575431e-02, 2.59150863e-02, 1.29575431e-02,
          2.59150863e-02, 2.59150863e-02, 6.47877157e-02, 2.59150863e-02,
          3.88726294e-02, 0., 1.29575431e-02, 0., 2.59150863e-02,
          3.88726294e-02, 1.29575431e-02, 2.59150863e-02, 2.59150863e-02,
          1.29575431e-02, 3.88726294e-02, 0., 2.59150863e-02,
          1.29575431e-01, 5.18301725e-02, 1.29575431e-02, 1.03660345e-01,
          0., 2.59150863e-02, 5.18301725e-02, 0., 6.47877157e-02,
          1.29575431e-02, 0., 1.29575431e-02, 3.88726294e-02, 0., 0.,
          5.18301725e-02, 5.18301725e-02, 1.29575431e-02, 5.18301725e-02,
          3.88726294e-02, 0., 1.29575431e-02, 2.59150863e-02, 0.,
          1.29575431e-02, 5.18301725e-02, 3.88726294e-02, 1.29575431e-02,
          2.59150863e-02, 5.18301725e-02, 2.59150863e-02, 0.,
          3.88726294e-02, 2.59150863e-02, 1.29575431e-01, 1.29575431e-02,
          3.88726294e-02, 2.59150863e-02, 2.59150863e-02, 7.77452588e-02,
          0., 3.88726294e-02, 2.59150863e-02, 2.59150863e-02, 0.,
          3.88726294e-02, 2.59150863e-02, 2.59150863e-02, 1.29575431e-02,
          6.47877157e-02, 3.88726294e-02, 6.47877157e-02, 1.03660345e-01,
          3.88726294e-02, 1.29575431e-02, 0., 0., 1.29575431e-02, 0.,
          9.07028019e-02, 0., 6.47877157e-02, 1.29575431e-02,
          2.59150863e-02, 0., 3.88726294e-02, 1.29575431e-02,
          7.77452588e-02, 0., 2.59150863e-02, 5.18301725e-02,
          6.47877157e-02, 0., 6.47877157e-02, 0., 1.29575431e-02,
          1.29575431e-02, 1.29575431e-02, 3.88726294e-02, 0.,
          3.88726294e-02, 6.47877157e-02, 9.07028019e-02, 3.88726294e-02,
          1.29575431e-02, 1.29575431e-02, 2.59150863e-02, 1.29575431e-02,
          3.88726294e-02, 2.59150863e-02, 1.29575431e-02, 2.59150863e-02,
          3.88726294e-02, 6.47877157e-02, 3.88726294e-02, 1.29575431e-02,
          3.88726294e-02, 3.88726294e-02, 0., 1.29575431e-02, 0.,
          2.59150863e-02, 2.59150863e-02, 1.29575431e-02, 1.29575431e-02,
          5.18301725e-02, 2.59150863e-02, 1.29575431e-02, 1.29575431e-02,
          2.59150863e-02, 1.29575431e-02, 1.29575431e-02, 2.59150863e-02,
          5.18301725e-02, 1.29575431e-02, 1.29575431e-02, 2.59150863e-02,
          0., 6.47877157e-02, 1.29575431e-02, 1.29575431e-02, 0.,
          2.59150863e-02, 3.88726294e-02, 0., 9.07028019e-02,
          3.88726294e-02, 5.18301725e-02, 5.18301725e-02, 6.47877157e-02,
          3.88726294e-02, 1.29575431e-02, 2.59150863e-02, 6.47877157e-02,
          6.47877157e-02, 1.29575431e-02, 5.18301725e-02, 9.07028019e-02,
          2.59150863e-02, 1.29575431e-02, 3.88726294e-02, 0.,
          5.18301725e-02, 1.29575431e-02, 1.29575431e-02, 0.,
          2.59150863e-02, 1.29575431e-02, 0., 1.29575431e-02,
          3.88726294e-02, 2.59150863e-02, 3.88726294e-02, 2.59150863e-02,
          3.88726294e-02, 0., 5.18301725e-02, 1.29575431e-02,
          1.29575431e-02, 3.88726294e-02, 6.47877157e-02, 0., 0.,
          2.59150863e-02, 1.55490518e-01, 1.29575431e-02, 1.29575431e-02,
          5.18301725e-02, 4.01683837e-01, 5.18301725e-02, 3.88726294e-02,
          2.59150863e-02, 2.59150863e-02, 7.77452588e-02, 1.29575431e-02,
          1.29575431e-02, 2.59150863e-02, 2.59150863e-02, 2.59150863e-02,
          3.88726294e-02, 3.88726294e-02, 0., 2.59150863e-02,
          5.18301725e-02, 5.18301725e-02, 2.07320690e-01, 1.29575431e-02,
          0., 1.29575431e-02, 6.47877157e-02, 1.29575431e-02,
          1.29575431e-02, 0., 3.88726294e-02, 2.59150863e-02,
          2.59150863e-02, 0., 0., 2.59150863e-02, 1.03660345e-01,
          6.47877157e-02, 1.29575431e-02, 1.29575431e-02, 2.59150863e-02,
          0., 5.18301725e-02, 2.59150863e-02, 5.18301725e-02,
          1.29575431e-02, 6.47877157e-02, 3.88726294e-02, 5.18301725e-02,
          0., 0., 2.59150863e-02, 1.29575431e-02, 1.29575431e-02, 0. ]
      - [ 0., 0., 2.40562614e-02, 4.81125228e-02, 0., 2.40562614e-02, 0.,
          0., 7.21687824e-02, 2.40562614e-02, 2.40562614e-02, 0., 0.,
          4.81125228e-02, 2.40562614e-02, 0., 2.40562614e-02,
          4.81125228e-02, 2.40562614e-02, 0., 0., 0., 0., 2.40562614e-02,
          7.21687824e-02, 0., 0., 4.81125228e-02, 7.21687824e-02, 0., 0.,
          2.40562614e-02, 0., 2.40562614e-02, 2.40562614e-02,
          4.81125228e-02, 2.40562614e-02, 0., 4.81125228e-02, 0.,
          2.40562614e-02, 4.81125228e-02, 2.40562614e-02, 7.21687824e-02,
          7.21687824e-02, 2.40562614e-02, 0., 2.40562614e-02,
          4.81125228e-02, 7.21687824e-02, 7.21687824e-02, 7.21687824e-02,
          0., 0., 4.81125228e-02, 2.40562614e-02, 0., 4.81125228e-02, 0.,
          0., 2.40562614e-02, 0., 4.81125228e-02, 2.40562614e-02, 0.,
          2.40562614e-02, 7.21687824e-02, 4.81125228e-02, 2.40562614e-02,
          0., 7.21687824e-02, 0., 0., 2.40562614e-02, 2.40562614e-02,
          2.40562614e-02, 2.40562614e-02, 4.08956438e-01, 4.81125228e-02,
          0., 4.81125228e-02, 0., 2.40562614e-02, 2.40562614e-02,
          4.81125228e-02, 0., 2.40562614e-02, 0., 2.40562614e-02,
          7.21687824e-02, 0., 2.40562614e-02, 0., 2.40562614e-02,
          7.21687824e-02, 2.40562614e-02, 0., 0., 2.40562614e-02, 0.,
          2.40562614e-02, 1.44337565e-01, 2.40562614e-02, 0.,
          2.40562614e-02, 0., 4.81125228e-02, 4.81125228e-02,
          2.40562614e-02, 0., 4.81125228e-02, 1.20281309e-01,
          2.40562614e-02, 2.40562614e-02, 2.40562614e-02, 0., 0.,
          9.62250456e-02, 2.40562614e-02, 4.81125228e-02, 1.68393835e-01,
          0., 2.40562614e-02, 7.21687824e-02, 4.81125228e-02,
          4.81125228e-02, 2.40562614e-02, 7.21687824e-02, 0., 0.,
          2.40562614e-02, 2.40562614e-02, 4.81125228e-02, 2.40562614e-02,
          4.81125228e-02, 2.40562614e-02, 7.21687824e-02, 2.40562614e-02,
          0., 0., 4.81125228e-02, 0., 0., 2.40562614e-02, 0.,
          2.40562614e-02, 2.40562614e-02, 4.81125228e-02, 2.40562614e-02,
          4.81125228e-02, 0., 0., 2.40562614e-02, 0., 4.81125228e-02,
          4.81125228e-02, 0., 4.81125228e-02, 2.40562614e-02, 0., 0.,
          7.21687824e-02, 2.40562614e-02, 7.21687824e-02, 4.81125228e-02,
          2.40562614e-02, 4.81125228e-02, 0., 2.40562614e-02,
          2.40562614e-02, 2.40562614e-02, 0., 2.40562614e-02,
          2.40562614e-02, 2.40562614e-02, 0., 4.81125228e-02,
          4.81125228e-02, 0., 2.40562614e-02, 7.21687824e-02, 0., 0., 0.,
          4.81125228e-02, 0., 0., 0., 0., 2.40562614e-02, 2.40562614e-02,
          2.40562614e-02, 4.81125228e-02, 0., 0., 2.40562614e-02, 0.,
          7.21687824e-02, 0., 2.40562614e-02, 4.81125228e-02,
          2.40562614e-02, 2.40562614e-02, 0., 0., 9.62250456e-02, 0., 0.,
          0., 0., 2.40562614e-02, 1.44337565e-01, 2.40562614e-02,
          2.40562614e-02, 0., 2.40562614e-02, 2.40562614e-02,
          4.81125228e-02, 2.40562614e-02, 2.40562614e-02, 7.21687824e-02,
          0., 2.40562614e-02, 0., 9.62250456e-02, 2.40562614e-02,
          2.40562614e-02, 4.81125228e-02, 0., 7.21687824e-02, 0.,
          2.40562614e-02, 2.40562614e-02, 2.40562614e-02, 4.81125228e-02,
          2.40562614e-02, 4.81125228e-02, 4.81125228e-02, 2.40562614e-02,
          7.21687824e-02, 4.81125228e-02, 0., 0., 2.40562614e-02, 0., 0.,
          2.40562614e-02, 2.40562614e-02, 2.40562614e-02, 2.40562614e-02,
          2.40562614e-02, 2.40562614e-02, 0., 0., 1.20281309e-01,
          2.40562614e-02, 0., 2.40562614e-02, 4.81125228e-02, 0.,
          2.40562614e-02, 0., 2.40562614e-02, 0., 2.40562614e-02,
          4.81125228e-02, 2.40562614e-02, 4.81125228e-02, 0.,
          4.81125228e-02, 2.40562614e-02, 4.81125228e-02, 0., 0., 0.,
          2.40562614e-02, 0., 2.40562614e-02, 4.81125228e-02, 0., 0.,
          7.21687824e-02, 2.40562614e-02, 0., 4.81125228e-02,
          2.40562614e-02, 2.40562614e-02, 0., 9.62250456e-02,
          7.21687824e-02, 2.40562614e-02, 7.21687824e-02, 1.20281309e-01,
          2.40562614e-02, 0., 0., 2.40562614e-02, 0., 4.81125228e-02, 0.,
          2.40562614e-02, 2.40562614e-02, 0., 0., 2.40562614e-02,
          2.40562614e-02, 0., 4.81125228e-02, 4.81125228e-02,
          2.40562614e-02, 1.68393835e-01, 0., 2.40562614e-02, 0.,
          1.68393835e-01, 0., 0., 2.40562614e-02, 7.21687824e-02, 0.,
          2.40562614e-02, 4.81125228e-02, 0., 0., 4.81125228e-02, 0., 0.,
          0., 2.40562614e-02, 0., 2.40562614e-02, 4.81125228e-02, 0., 0.,
          4.81125228e-02, 2.40562614e-02, 7.21687824e-02, 0., 0.,
          9.62250456e-02, 0., 0., 7.21687824e-02, 7.21687824e-02,
          4.81125228e-02, 0., 2.40562614e-02, 2.40562614e-02, 0.,
          4.81125228e-02, 0., 0., 9.62250456e-02, 0., 0., 4.81125228e-02,
          2.40562614e-02, 0., 4.81125228e-02, 2.40562614e-02, 0.,
          2.40562614e-02, 0., 2.40562614e-02, 4.81125228e-02,
          4.81125228e-02, 2.40562614e-02, 7.21687824e-02, 0.,
          2.40562614e-02, 0., 0., 0., 0., 0., 0., 2.40562614e-02,
          2.40562614e-02, 2.40562614e-02, 0., 2.40562614e-02, 0., 0.,
          2.40562614e-02, 0., 0., 0., 0., 2.40562614e-02, 4.81125228e-02,
          0., 0., 0., 0., 9.62250456e-02, 4.81125228e-02, 2.40562614e-02,
          0., 0., 2.40562614e-02, 0., 0., 2.40562614e-02, 2.40562614e-02,
          4.81125228e-02, 2.40562614e-02, 0., 0., 0., 0., 4.81125228e-02,
          2.40562614e-02, 4.81125228e-02, 2.40562614e-02, 4.81125228e-02,
          4.81125228e-02, 4.81125228e-02, 2.40562614e-02, 2.40562614e-02,
          0., 2.40562614e-02, 0., 2.40562614e-02, 0., 0., 1.20281309e-01,
          4.81125228e-02, 2.40562614e-02, 4.81125228e-02, 0., 0., 0.,
          2.40562614e-02, 2.40562614e-02, 4.81125228e-02, 2.40562614e-02,
          2.40562614e-02, 0., 2.40562614e-02, 9.62250456e-02,
          4.81125228e-02, 2.40562614e-02, 4.81125228e-02, 0.,
          7.21687824e-02, 2.40562614e-02, 0., 0., 2.40562614e-02,
          2.40562614e-02, 0., 2.40562614e-02, 4.81125228e-02,
          2.40562614e-02, 0., 9.62250456e-02, 2.40562614e-02,
          7.21687824e-02, 2.40562614e-02, 2.40562614e-02, 9.62250456e-02,
          0., 0., 4.81125228e-02, 2.40562614e-02, 0., 0., 2.40562614e-02,
          0., 0., 0., 0., 4.81125228e-02, 2.16506347e-01, 0.,
          7.21687824e-02, 7.21687824e-02, 0., 2.40562614e-02,
          7.21687824e-02, 7.21687824e-02, 7.21687824e-02, 0., 0.,
          2.40562614e-02, 0., 1.20281309e-01, 4.81125228e-02,
          2.40562614e-02, 0., 2.40562614e-02, 2.40562614e-02, 0.,
          7.21687824e-02, 4.81125228e-02, 2.40562614e-02, 9.62250456e-02,
          7.21687824e-02, 0., 2.40562614e-02 ]
      - [ 1.24553191e-02, 1.24553189e-01, 1.24553191e-02, 3.73659581e-02,
          0., 0., 0., 6.22765943e-02, 6.22765943e-02, 1.24553191e-02,
          1.24553191e-02, 0., 1.24553191e-02, 1.24553191e-02, 0.,
          3.73659581e-02, 3.73659581e-02, 4.98212762e-02, 2.49106381e-02,
          7.47319162e-02, 0., 1.24553191e-02, 6.22765943e-02,
          6.22765943e-02, 0., 2.49106381e-02, 1.24553191e-02,
          2.49106381e-02, 3.36293608e-01, 3.73659581e-02, 3.73659581e-02,
          2.49106381e-02, 0., 2.49106381e-02, 2.49106381e-02,
          1.99285105e-01, 2.49106381e-02, 1.24553191e-02, 0.,
          2.49106381e-02, 4.98212762e-02, 1.24553191e-02, 1.24553191e-02,
          2.49106381e-02, 2.49106381e-02, 3.73659581e-02, 3.73659581e-02,
          3.73659581e-02, 1.24553191e-02, 3.73659581e-02, 3.73659581e-02,
          0., 1.24553191e-02, 1.24553191e-02, 0., 6.22765943e-02, 0., 0.,
          1.24553191e-02, 0., 4.98212762e-02, 1.24553191e-02,
          1.24553191e-02, 3.73659581e-02, 2.49106381e-02, 2.49106381e-02,
          4.98212762e-02, 1.24553191e-02, 1.24553191e-02, 2.49106381e-02,
          0., 6.22765943e-02, 1.24553191e-02, 2.49106381e-02, 0.,
          2.49106381e-02, 2.49106381e-02, 9.96425524e-02, 7.47319162e-02,
          1.24553191e-02, 1.24553191e-02, 6.22765943e-02, 1.24553191e-02,
          2.49106381e-02, 4.98212762e-02, 0., 2.49106381e-02,
          4.98212762e-02, 3.73659581e-02, 2.49106381e-02, 8.71872306e-02,
          3.73659581e-02, 1.24553191e-02, 2.49106381e-02, 1.24553191e-02,
          1.24553191e-02, 1.24553191e-02, 2.49106381e-02, 4.98212762e-02,
          0., 2.49106381e-02, 4.98212762e-02, 1.24553191e-02,
          2.49106381e-02, 3.73659581e-02, 3.73659581e-02, 2.49106381e-02,
          3.73659581e-02, 0., 3.73659581e-02, 2.49106381e-02,
          6.22765943e-02, 3.73659581e-02, 2.49106381e-02, 1.24553191e-02,
          0., 6.22765943e-02, 3.73659581e-02, 1.24553191e-02,
          1.24553191e-02, 1.24553191e-02, 2.49106381e-02, 1.24553191e-02,
          0., 4.98212762e-02, 7.47319162e-02, 1.12097867e-01,
          1.24553191e-02, 4.98212762e-02, 0., 3.73659581e-02,
          8.71872306e-02, 2.49106381e-02, 0., 7.47319162e-02,
          1.24553191e-02, 4.98212762e-02, 4.98212762e-02, 2.49106381e-02,
          1.24553191e-02, 0., 2.49106381e-02, 2.49106381e-02,
          6.22765943e-02, 4.98212762e-02, 1.24553191e-02, 1.24553191e-02,
          0., 1.24553191e-02, 1.24553191e-02, 2.49106381e-02,
          7.47319162e-02, 4.98212762e-02, 1.24553191e-02, 1.12097867e-01,
          1.24553191e-02, 0., 3.73659581e-02, 2.49106381e-02, 0.,
          1.24553191e-02, 7.47319162e-02, 3.73659581e-02, 2.49106381e-02,
          0., 1.24553191e-02, 1.24553191e-02, 0., 3.73659581e-02,
          2.49106381e-02, 0., 2.49106381e-02, 0., 0., 1.24553191e-02,
          3.73659581e-02, 4.98212762e-02, 2.49106381e-02, 3.73659581e-02,
          3.73659581e-02, 2.49106381e-02, 1.24553191e-02, 1.24553191e-02,
          0., 6.22765943e-02, 1.24553191e-02, 2.49106381e-02,
          3.73659581e-02, 2.49106381e-02, 2.49106381e-02, 1.24553191e-02,
          0., 2.49106381e-02, 2.49106381e-02, 4.98212762e-02,
          1.24553191e-02, 2.49106381e-02, 2.74017006e-01, 0.,
          4.98212762e-02, 1.24553191e-02, 1.24553191e-02, 6.22765943e-02,
          2.49106381e-02, 2.49106381e-02, 1.24553191e-02, 3.73659581e-02,
          1.24553191e-02, 0., 2.49106381e-02, 3.73659581e-02,
          4.98212762e-02, 0., 2.49106381e-02, 2.49106381e-02,
          2.49106381e-02, 0., 2.49106381e-02, 1.24553191e-02,
          6.22765943e-02, 0., 2.49106381e-02, 1.24553191e-02, 0.,
          2.49106381e-02, 0., 2.49106381e-02, 0., 1.24553191e-02,
          1.74374461e-01, 1.24553191e-02, 4.98212762e-02, 0.,
          3.73659581e-02, 2.49106377e-01, 1.24553191e-02, 7.47319162e-02,
          3.73659581e-02, 2.49106381e-02, 1.24553191e-02, 1.24553191e-02,
          1.24553191e-02, 3.73659581e-02, 2.49106381e-02, 1.24553191e-02,
          0., 1.24553191e-02, 0., 2.49106381e-02, 3.73659581e-02,
          2.49106381e-02, 0., 4.98212762e-02, 1.24553191e-02,
          1.24553191e-02, 3.73659581e-02, 1.24553191e-02, 4.98212762e-02,
          0., 3.73659581e-02, 2.49106381e-02, 0., 3.73659581e-02,
          2.49106381e-02, 3.73659581e-02, 4.98212762e-02, 3.73659581e-02,
          2.49106381e-02, 1.24553191e-02, 0., 1.61919147e-01,
          3.73659581e-02, 1.24553191e-02, 3.73659581e-02, 6.22765943e-02,
          1.24553191e-02, 0., 3.73659581e-02, 3.73659581e-02, 0.,
          2.49106381e-02, 4.98212762e-02, 0., 2.49106381e-02, 0., 0.,
          2.49106381e-02, 0., 0., 1.24553191e-02, 6.22765943e-02,
          1.24553191e-02, 1.24553191e-02, 1.24553189e-01, 1.24553191e-02,
          2.49106381e-02, 2.49106381e-02, 3.73659581e-02, 4.98212762e-02,
          1.24553191e-02, 2.49106381e-02, 0., 4.98212762e-02,
          3.73659581e-02, 1.24553191e-02, 2.49106381e-02, 4.98212762e-02,
          4.98212762e-02, 2.49106381e-02, 2.49106381e-02, 4.98212762e-02,
          2.49106381e-02, 0., 2.49106381e-02, 1.37008503e-01,
          3.73659581e-02, 3.73659581e-02, 1.24553191e-02, 1.24553191e-02,
          2.49106381e-02, 4.98212762e-02, 3.73659581e-02, 2.49106381e-02,
          2.49106381e-02, 1.12097867e-01, 0., 1.24553191e-02,
          2.49106381e-02, 8.71872306e-02, 0., 1.24553191e-02,
          3.73659581e-02, 0., 7.47319162e-02, 0., 2.49106381e-02, 0.,
          4.98212762e-02, 1.24553191e-02, 3.73659581e-02, 1.24553191e-02,
          3.73659581e-02, 1.12097867e-01, 3.73659581e-02, 1.24553191e-02,
          2.49106381e-02, 1.24553191e-02, 0., 3.73659581e-02, 0.,
          6.22765943e-02, 0., 0., 1.24553191e-02, 0., 1.24553191e-02,
          1.24553191e-02, 7.47319162e-02, 4.98212762e-02, 2.49106381e-02,
          0., 4.98212762e-02, 1.24553191e-02, 3.73659581e-02,
          6.22765943e-02, 0., 6.22765943e-02, 0., 2.49106381e-02,
          2.49106381e-02, 1.24553191e-02, 2.49106381e-02, 3.73659581e-02,
          6.22765943e-02, 0., 0., 1.24553191e-02, 1.24553191e-02,
          4.98212762e-02, 3.73659581e-02, 4.98212762e-02, 1.24553191e-02,
          2.49106381e-02, 4.98212762e-02, 2.49106381e-02, 1.24553191e-02,
          3.73659581e-02, 3.73659581e-02, 2.49106381e-02, 8.71872306e-02,
          2.49106381e-02, 1.24553191e-02, 4.98212762e-02, 0.,
          1.24553191e-02, 3.73659581e-02, 1.24553191e-02, 1.24553191e-02,
          2.49106381e-02, 0., 1.24553191e-02, 2.49106381e-02,
          2.49106381e-02, 4.98212762e-02, 3.73659581e-02, 4.98212762e-02,
          2.49106381e-02, 2.49106381e-02, 1.24553191e-02, 2.49106381e-02,
          1.24553191e-02, 3.73659581e-02, 1.24553191e-02, 1.24553191e-02,
          2.49106381e-02, 4.98212762e-02, 2.49106381e-02, 2.49106381e-02,
          1.24553191e-02, 2.49106381e-02, 3.73659581e-02, 1.24553191e-02,
          1.24553191e-02, 1.24553191e-02, 0., 4.98212762e-02, 0.,
          1.24553191e-02, 0., 3.73659581e-02, 4.98212762e-02,
          4.98212762e-02, 1.24553191e-02, 0., 3.73659581e-02,
          2.49106381e-02, 0., 2.49106381e-02, 0., 4.98212762e-02, 0., 0.,
          0., 0., 0., 3.73659581e-02, 2.49106381e-02, 3.73659581e-02,
          3.73659581e-02, 2.49106381e-02, 2.49106381e-02, 2.49106381e-02,
          2.49106381e-02, 3.73659581e-02, 1.24553191e-02, 4.98212762e-02,
          2.49106381e-02, 1.24553191e-02, 3.73659581e-02, 1.24553191e-02,
          4.98212762e-02, 2.49106381e-02, 3.73659581e-02, 2.49106381e-02,
          2.49106381e-02, 0., 3.73659581e-02, 0., 2.49106381e-02, 0.,
          6.22765943e-02, 1.86829776e-01, 1.24553191e-02, 2.49106381e-02,
          2.49106381e-02, 0., 4.98212762e-02, 1.24553191e-02,
          3.73659581e-02, 1.24553191e-02, 6.22765943e-02, 6.22765943e-02,
          3.73659581e-02, 1.49463832e-01, 7.47319162e-02, 4.98212762e-02,
          4.98212762e-02, 4.98212762e-02, 2.49106381e-02, 2.49106381e-02,
          4.98212762e-02, 1.24553191e-02, 1.24553191e-02, 1.24553191e-02,
          3.73659581e-02, 0., 1.24553191e-02, 2.49106381e-02, 0., 0. ]
      - [ 5.90281337e-02, 8.85422006e-02, 2.95140669e-02, 2.95140669e-02,
          2.95140669e-02, 2.95140669e-02, 0., 2.95140669e-02, 0., 0.,
          5.90281337e-02, 2.95140669e-02, 0., 8.85422006e-02,
          8.85422006e-02, 2.95140669e-02, 2.95140669e-02, 1.47570327e-01,
          0., 0., 5.90281337e-02, 0., 0., 8.85422006e-02, 5.90281337e-02,
          0., 0., 0., 2.95140669e-02, 5.90281337e-02, 0., 0., 0.,
          2.95140669e-02, 5.90281337e-02, 2.06598461e-01, 5.90281337e-02,
          0., 0., 0., 0., 0., 0., 0., 2.95140669e-02, 2.95140669e-02, 0.,
          2.95140669e-02, 5.90281337e-02, 2.95140669e-02, 0.,
          2.95140669e-02, 0., 0., 0., 5.90281337e-02, 5.90281337e-02,
          2.95140669e-02, 0., 0., 0., 0., 2.95140669e-02, 0.,
          5.90281337e-02, 0., 8.85422006e-02, 0., 2.95140669e-02,
          2.95140669e-02, 0., 0., 1.18056267e-01, 5.90281337e-02,
          2.95140669e-02, 0., 0., 1.77084401e-01, 0., 2.95140669e-02, 0.,
          0., 2.95140669e-02, 0., 8.85422006e-02, 0., 0., 0., 0., 0., 0.,
          2.95140669e-02, 0., 0., 1.18056267e-01, 8.85422006e-02, 0., 0.,
          0., 0., 0., 2.95140654e-01, 0., 2.95140669e-02, 0.,
          2.95140669e-02, 0., 0., 5.90281337e-02, 0., 0., 2.95140669e-02,
          2.95140669e-02, 0., 0., 2.95140669e-02, 2.95140669e-02,
          2.95140669e-02, 0., 0., 2.95140669e-02, 0., 2.95140669e-02, 0.,
          2.95140669e-02, 0., 2.95140669e-02, 0., 2.95140669e-02,
          8.85422006e-02, 0., 1.47570327e-01, 5.90281337e-02, 0.,
          5.90281337e-02, 2.95140669e-02, 2.95140669e-02, 0., 0.,
          5.90281337e-02, 0., 5.90281337e-02, 2.95140669e-02, 0., 0.,
          8.85422006e-02, 2.95140669e-02, 0., 0., 2.95140669e-02, 0., 0.,
          2.95140669e-02, 5.90281337e-02, 8.85422006e-02, 0., 0.,
          5.90281337e-02, 2.95140669e-02, 2.95140669e-02, 5.90281337e-02,
          2.95140669e-02, 0., 8.85422006e-02, 2.95140669e-02, 0., 0., 0.,
          1.18056267e-01, 0., 0., 5.90281337e-02, 1.18056267e-01, 0., 0.,
          0., 0., 5.90281337e-02, 2.95140669e-02, 0., 2.95140669e-02, 0.,
          2.95140669e-02, 2.95140669e-02, 2.95140669e-02, 0., 0.,
          8.85422006e-02, 0., 0., 0., 2.95140669e-02, 2.95140669e-02,
          5.90281337e-02, 8.85422006e-02, 2.95140669e-02, 0.,
          2.95140669e-02, 0., 0., 8.85422006e-02, 0., 5.90281337e-02, 0.,
          0., 2.95140669e-02, 8.85422006e-02, 0., 5.90281337e-02,
          5.90281337e-02, 2.95140669e-02, 0., 0., 0., 2.95140669e-02, 0.,
          2.95140669e-02, 0., 0., 2.06598461e-01, 2.95140669e-02,
          2.95140669e-02, 0., 0., 0., 0., 2.95140669e-02, 0., 0., 0., 0.,
          2.95140669e-02, 0., 2.95140669e-02, 2.95140669e-02, 0., 0.,
          2.95140669e-02, 2.95140669e-02, 0., 2.95140669e-02, 0.,
          2.95140669e-02, 0., 0., 2.95140669e-02, 2.95140669e-02, 0.,
          1.47570327e-01, 2.95140669e-02, 5.90281337e-02, 2.95140669e-02,
          5.90281337e-02, 0., 0., 0., 8.85422006e-02, 8.85422006e-02,
          2.95140669e-02, 0., 0., 0., 0., 2.95140669e-02, 5.90281337e-02,
          0., 2.95140669e-02, 0., 5.90281337e-02, 0., 5.90281337e-02, 0.,
          0., 2.95140669e-02, 0., 5.90281337e-02, 0., 5.90281337e-02,
          2.95140669e-02, 0., 8.85422006e-02, 0., 0., 2.95140669e-02,
          2.95140669e-02, 2.95140669e-02, 2.95140669e-02, 5.90281337e-02,
          2.95140669e-02, 2.95140669e-02, 0., 0., 0., 2.95140669e-02, 0.,
          5.90281337e-02, 2.95140669e-02, 2.95140669e-02, 0., 0.,
          5.90281337e-02, 2.95140669e-02, 2.95140669e-02, 2.95140669e-02,
          0., 0., 5.90281337e-02, 5.90281337e-02, 2.95140669e-02,
          2.95140669e-02, 5.90281337e-02, 0., 2.95140669e-02,
          2.95140669e-02, 0., 0., 8.85422006e-02, 2.95140669e-02,
          1.18056267e-01, 0., 0., 2.95140669e-02, 8.85422006e-02,
          2.95140669e-02, 2.95140669e-02, 0., 0., 0., 5.90281337e-02,
          2.95140669e-02, 2.95140669e-02, 0., 2.95140669e-02, 0., 0.,
          2.95140669e-02, 0., 0., 5.90281337e-02, 8.85422006e-02,
          2.95140669e-02, 0., 0., 0., 2.95140669e-02, 0., 0.,
          5.90281337e-02, 0., 2.95140669e-02, 0., 5.90281337e-02,
          8.85422006e-02, 2.95140669e-02, 0., 0., 0., 0., 1.47570327e-01,
          0., 0., 1.47570327e-01, 0., 0., 2.95140669e-02, 2.95140669e-02,
          2.95140669e-02, 0., 1.18056267e-01, 2.95140669e-02, 0., 0.,
          2.95140669e-02, 0., 0., 0., 2.95140669e-02, 0., 2.95140669e-02,
          2.95140669e-02, 2.95140669e-02, 2.95140669e-02, 0.,
          2.95140669e-02, 0., 0., 0., 0., 0., 8.85422006e-02,
          2.95140669e-02, 0., 0., 0., 2.95140669e-02, 0., 0., 0.,
          2.95140669e-02, 0., 0., 2.95140669e-02, 5.90281337e-02,
          5.90281337e-02, 0., 0., 2.95140669e-02, 0., 0., 0.,
          2.95140669e-02, 2.95140669e-02, 0., 0., 5.90281337e-02,
          2.95140669e-02, 2.95140669e-02, 2.95140669e-02, 0.,
          8.85422006e-02, 2.95140669e-02, 0., 0., 2.95140669e-02, 0.,
          1.47570327e-01, 0., 2.95140669e-02, 0., 2.95140669e-02,
          2.95140669e-02, 0., 0., 2.95140669e-02, 0., 8.85422006e-02, 0.,
          0., 0., 0., 0., 0., 0., 0., 2.95140669e-02, 5.90281337e-02,
          2.95140669e-02, 2.95140669e-02, 1.18056267e-01, 8.85422006e-02,
          1.47570327e-01, 2.95140669e-02, 2.95140669e-02, 2.95140669e-02,
          0., 0., 0., 0., 8.85422006e-02, 2.95140669e-02, 0.,
          2.95140669e-02, 5.90281337e-02, 2.95140669e-02, 8.85422006e-02,
          0., 2.95140669e-02, 5.90281337e-02, 2.95140669e-02, 0.,
          2.95140669e-02, 0., 0., 5.90281337e-02, 0., 0., 0., 0., 0., 0.,
          2.95140669e-02, 0., 2.95140669e-02, 0., 0., 5.90281337e-02,
          5.90281337e-02, 8.85422006e-02, 0., 0., 2.95140669e-02,
          2.95140669e-02, 2.95140669e-02, 5.90281337e-02, 0.,
          2.95140669e-02, 5.90281337e-02, 0., 0., 0. ]
      - [ 2.63706334e-02, 2.63706334e-02, 0., 7.91118965e-02,
          2.63706334e-02, 0., 0., 2.63706334e-02, 5.27412668e-02,
          5.27412668e-02, 2.63706334e-02, 7.91118965e-02, 5.27412668e-02,
          0., 0., 0., 2.63706334e-02, 7.91118965e-02, 2.63706334e-02, 0.,
          0., 2.63706334e-02, 0., 1.05482534e-01, 5.27412668e-02,
          2.63706334e-02, 2.63706334e-02, 0., 0., 2.63706334e-02,
          2.63706334e-02, 2.63706334e-02, 0., 2.63706334e-02,
          2.63706334e-02, 0., 0., 2.63706334e-02, 2.63706334e-02,
          5.27412668e-02, 0., 0., 0., 5.27412668e-02, 5.27412668e-02,
          7.91118965e-02, 2.63706334e-02, 0., 0., 0., 2.63706334e-02,
          2.63706334e-02, 5.27412668e-02, 0., 0., 2.63706334e-02,
          2.63706334e-02, 0., 7.91118965e-02, 2.63706334e-02,
          7.91118965e-02, 2.63706334e-02, 7.91118965e-02, 0.,
          5.27412668e-02, 5.27412668e-02, 2.63706334e-02, 5.27412668e-02,
          7.91118965e-02, 2.63706334e-02, 2.63706334e-02, 2.63706334e-02,
          2.63706334e-02, 7.91118965e-02, 5.27412668e-02, 2.63706334e-02,
          0., 7.91118965e-02, 0., 2.63706334e-02, 2.63706334e-02, 0.,
          7.91118965e-02, 7.91118965e-02, 1.05482534e-01, 0., 0.,
          2.63706334e-02, 0., 2.63706334e-02, 2.63706334e-02,
          2.63706334e-02, 0., 0., 2.63706334e-02, 5.27412668e-02, 0.,
          2.63706334e-02, 7.91118965e-02, 5.27412668e-02, 5.27412668e-02,
          5.27412668e-02, 2.63706334e-02, 0., 5.27412668e-02,
          5.27412668e-02, 2.63706334e-02, 7.91118965e-02, 2.63706334e-02,
          0., 5.27412668e-02, 1.58223793e-01, 0., 0., 2.63706334e-02,
          7.91118965e-02, 0., 2.63706334e-02, 5.27412668e-02, 0.,
          2.63706334e-02, 0., 0., 0., 2.63706334e-02, 2.63706334e-02,
          1.58223793e-01, 2.63706334e-02, 5.27412668e-02, 0.,
          2.63706334e-02, 0., 0., 0., 0., 2.63706334e-02, 5.27412668e-02,
          2.63706334e-02, 2.63706334e-02, 2.63706334e-02, 0.,
          2.63706334e-02, 2.63706334e-02, 5.27412668e-02, 2.63706334e-02,
          5.27412668e-02, 5.27412668e-02, 5.27412668e-02, 5.27412668e-02,
          2.63706334e-02, 2.63706334e-02, 0., 0., 0., 2.63706334e-02, 0.,
          2.63706334e-02, 2.63706334e-02, 0., 5.27412668e-02,
          5.27412668e-02, 2.63706334e-02, 2.63706334e-02, 5.27412668e-02,
          0., 2.63706334e-02, 2.63706334e-02, 2.63706334e-02,
          5.27412668e-02, 2.63706334e-02, 2.63706334e-02, 2.63706334e-02,
          2.63706334e-02, 2.63706334e-02, 5.27412668e-02, 5.27412668e-02,
          0., 2.63706334e-02, 0., 0., 2.63706334e-02, 2.63706334e-02,
          7.91118965e-02, 0., 5.27412668e-02, 2.63706334e-02,
          2.63706334e-02, 5.27412668e-02, 5.27412668e-02, 5.27412668e-02,
          0., 0., 2.63706334e-02, 1.05482534e-01, 0., 2.63706334e-02, 0.,
          2.63706334e-02, 2.63706334e-02, 5.27412668e-02, 2.63706334e-02,
          0., 2.63706334e-02, 0., 0., 1.05482534e-01, 5.27412668e-02,
          2.63706334e-02, 0., 0., 2.63706334e-02, 2.63706334e-02,
          2.63706334e-02, 0., 5.27412668e-02, 0., 2.63706334e-02, 0., 0.,
          0., 5.27412668e-02, 7.91118965e-02, 2.63706334e-02,
          5.27412668e-02, 2.63706334e-02, 7.91118965e-02, 2.63706334e-02,
          2.63706334e-02, 2.63706334e-02, 0., 5.27412668e-02,
          1.84594437e-01, 0., 5.27412668e-02, 2.63706334e-02, 0.,
          2.63706334e-02, 2.63706334e-02, 5.27412668e-02, 7.91118965e-02,
          0., 0., 0., 0., 5.27412668e-02, 2.63706334e-02, 7.91118965e-02,
          2.63706334e-02, 5.27412668e-02, 5.27412668e-02, 2.63706334e-02,
          2.63706334e-02, 2.63706334e-02, 0., 2.63706334e-02,
          5.27412668e-02, 0., 2.63706334e-02, 0., 2.63706334e-02,
          2.63706334e-02, 5.27412668e-02, 2.63706334e-02, 5.27412668e-02,
          0., 7.91118965e-02, 0., 5.27412668e-02, 0., 7.91118965e-02,
          5.27412668e-02, 2.63706334e-02, 0., 0., 0., 7.91118965e-02, 0.,
          5.27412668e-02, 5.27412668e-02, 2.63706334e-02, 7.91118965e-02,
          5.27412668e-02, 0., 0., 5.27412668e-02, 7.91118965e-02,
          7.91118965e-02, 0., 5.27412668e-02, 0., 0., 1.31853163e-01,
          5.27412668e-02, 1.05482534e-01, 2.63706334e-02, 5.27412668e-02,
          7.91118965e-02, 0., 0., 2.63706334e-02, 5.27412668e-02,
          2.63706334e-02, 2.63706334e-02, 5.27412668e-02, 0.,
          5.27412668e-02, 5.27412668e-02, 2.63706334e-02, 1.05482534e-01,
          2.63706334e-02, 0., 2.63706334e-02, 2.63706334e-02,
          1.05482534e-01, 7.91118965e-02, 5.27412668e-02, 0.,
          7.91118965e-02, 5.27412668e-02, 0., 5.27412668e-02,
          5.27412668e-02, 5.27412668e-02, 2.63706334e-02, 2.63706334e-02,
          5.27412668e-02, 0., 7.91118965e-02, 2.63706334e-02,
          2.63706334e-02, 0., 2.63706334e-02, 0., 0., 0., 2.63706334e-02,
          5.27412668e-02, 5.27412668e-02, 0., 5.27412668e-02,
          2.63706334e-02, 2.63706334e-02, 0., 2.63706334e-02, 0., 0.,
          5.27412668e-02, 0., 7.91118965e-02, 5.27412668e-02, 0., 0.,
          5.27412668e-02, 5.27412668e-02, 7.91118965e-02, 2.63706334e-02,
          5.27412668e-02, 5.27412668e-02, 0., 2.63706334e-02,
          5.27412668e-02, 7.91118965e-02, 2.63706334e-02, 0., 0.,
          5.27412668e-02, 0., 2.63706334e-02, 7.91118965e-02,
          5.27412668e-02, 5.27412668e-02, 2.63706334e-02, 7.91118965e-02,
          5.27412668e-02, 0., 0., 0., 5.27412668e-02, 1.31853163e-01,
          2.63706334e-02, 0., 2.63706334e-02, 7.91118965e-02, 0.,
          2.63706334e-02, 1.31853163e-01, 0., 1.31853163e-01,
          5.27412668e-02, 5.27412668e-02, 5.27412668e-02, 2.63706334e-02,
          0., 2.63706334e-02, 5.27412668e-02, 2.63706334e-02,
          5.27412668e-02, 0., 2.63706334e-02, 2.63706334e-02,
          2.63706334e-02, 2.63706334e-02, 5.27412668e-02, 2.63706334e-02,
          5.27412668e-02, 2.63706334e-02, 7.91118965e-02, 2.63706334e-02,
          0., 2.63706334e-02, 2.63706334e-02, 2.63706334e-02, 0.,
          2.63706334e-02, 7.91118965e-02, 2.63706334e-02, 2.63706334e-02,
          5.27412668e-02, 2.63706334e-02, 5.27412668e-02, 0.,
          2.63706334e-02, 0., 2.63706334e-02, 0., 2.63706334e-02,
          1.05482534e-01, 2.63706334e-02, 2.63706334e-02, 2.63706334e-02,
          0., 5.27412668e-02, 2.63706334e-02, 2.63706334e-02, 0.,
          2.63706334e-02, 0., 2.63706334e-02, 2.63706334e-02,
          5.27412668e-02, 2.63706334e-02, 7.91118965e-02, 5.27412668e-02,
          0., 1.05482534e-01, 2.63706334e-02, 0., 5.27412668e-02,
          1.05482534e-01, 7.91118965e-02, 0., 7.91118965e-02, 0.,
          2.63706334e-02, 0., 2.63706334e-02, 7.91118965e-02,
          5.27412668e-02, 5.27412668e-02, 0., 7.91118965e-02,
          5.27412668e-02, 2.63706334e-02, 1.31853163e-01, 2.63706334e-02,
          0., 0., 0., 2.63706334e-02, 0., 2.63706334e-02, 2.63706334e-02,
          5.27412668e-02, 2.63706334e-02, 5.27412668e-02, 7.91118965e-02,
          5.27412668e-02, 0., 2.63706334e-02, 5.27412668e-02, 0.,
          2.63706334e-02, 0., 2.63706334e-02, 7.91118965e-02,
          2.63706334e-02, 2.63706334e-02, 5.27412668e-02, 5.27412668e-02,
          0., 2.63706334e-02, 5.27412668e-02, 5.27412668e-02, 0.,
          5.27412668e-02, 0., 5.27412668e-02, 5.27412668e-02, 0.,
          5.27412668e-02 ]
      - [ 0., 6.27455786e-02, 0., 0., 0., 6.27455786e-02, 0., 0.,
          1.88236743e-01, 0., 0., 6.27455786e-02, 6.27455786e-02,
          6.27455786e-02, 0., 0., 0., 1.25491157e-01, 0., 0., 0., 0., 0.,
          0., 0., 6.27455786e-02, 0., 0., 0., 0., 6.27455786e-02, 0., 0.,
          0., 6.27455786e-02, 0., 0., 0., 0., 0., 0., 0., 6.27455786e-02,
          6.27455786e-02, 0., 6.27455786e-02, 0., 0., 1.25491157e-01,
          6.27455786e-02, 0., 0., 0., 0., 0., 0., 0., 0., 0., 0., 0., 0.,
          0., 6.27455786e-02, 0., 0., 1.25491157e-01, 0., 6.27455786e-02,
          6.27455786e-02, 6.27455786e-02, 0., 6.27455786e-02,
          6.27455786e-02, 0., 0., 0., 3.13727915e-01, 0., 0., 0., 0., 0.,
          0., 1.25491157e-01, 0., 6.27455786e-02, 6.27455786e-02, 0., 0.,
          0., 0., 0., 6.27455786e-02, 0., 0., 6.27455786e-02, 0., 0., 0.,
          0., 0., 0., 0., 0., 6.27455786e-02, 0., 0., 0., 0., 0., 0., 0.,
          0., 0., 0., 0., 0., 0., 6.27455786e-02, 0., 0., 0.,
          6.27455786e-02, 0., 0., 0., 0., 6.27455786e-02, 0., 0., 0., 0.,
          0., 0., 0., 1.88236743e-01, 6.27455786e-02, 0., 6.27455786e-02,
          0., 0., 0., 0., 6.27455786e-02, 2.50982314e-01, 0., 0., 0., 0.,
          0., 0., 0., 0., 0., 0., 0., 0., 0., 0., 0., 0., 0., 0., 0., 0.,
          0., 0., 0., 6.27455786e-02, 0., 0., 6.27455786e-02, 0., 0.,
          6.27455786e-02, 0., 0., 0., 0., 0., 0., 0., 0., 0.,
          6.27455786e-02, 0., 0., 0., 0., 0., 0., 0., 1.88236743e-01, 0.,
          0., 0., 0., 0., 0., 1.25491157e-01, 6.27455786e-02, 0., 0., 0.,
          0., 0., 0., 0., 0., 0., 0., 0., 6.27455786e-02, 0., 0.,
          6.27455786e-02, 0., 0., 0., 0., 6.27455786e-02, 0.,
          6.27455786e-02, 0., 6.27455786e-02, 6.27455786e-02, 0., 0., 0.,
          6.27455786e-02, 6.27455786e-02, 0., 0., 2.50982314e-01, 0., 0.,
          0., 0., 0., 0., 6.27455786e-02, 6.27455786e-02, 0., 0.,
          6.27455786e-02, 0., 0., 0., 0., 0., 0., 0., 0., 0., 0., 0., 0.,
          0., 6.27455786e-02, 0., 0., 0., 1.25491157e-01, 0., 0., 0., 0.,
          0., 0., 0., 0., 0., 0., 0., 6.27455786e-02, 0., 0., 0., 0., 0.,
          6.27455786e-02, 0., 0., 0., 0., 0., 0., 0., 0., 0.,
          6.27455786e-02, 6.27455786e-02, 0., 0., 0., 0., 0., 0., 0., 0.,
          0., 0., 0., 0., 0., 0., 0., 0., 0., 1.25491157e-01, 0., 0., 0.,
          6.27455786e-02, 0., 0., 0., 0., 0., 0., 6.27455786e-02,
          6.27455786e-02, 0., 0., 0., 0., 0., 6.27455786e-02, 0., 0., 0.,
          0., 6.27455786e-02, 0., 0., 0., 0., 6.27455786e-02, 0., 0., 0.,
          0., 1.25491157e-01, 0., 0., 0., 0., 0., 6.27455786e-02, 0.,
          6.27455786e-02, 6.27455786e-02, 0., 0., 0., 0., 1.25491157e-01,
          0., 6.27455786e-02, 0., 0., 0., 0., 0., 0., 0., 0., 0., 0., 0.,
          0., 0., 0., 0., 0., 0., 0., 0., 6.27455786e-02, 0., 0., 0., 0.,
          0., 0., 0., 0., 0., 3.13727915e-01, 6.27455786e-02, 0., 0.,
          2.50982314e-01, 6.27455786e-02, 0., 0., 0., 0., 0., 0.,
          6.27455786e-02, 0., 6.27455786e-02, 0., 0., 6.27455786e-02, 0.,
          0., 0., 6.27455786e-02, 0., 0., 6.27455786e-02, 0., 0., 0.,
          6.27455786e-02, 0., 0., 6.27455786e-02, 6.27455786e-02, 0.,
          6.27455786e-02, 0., 1.25491157e-01, 0., 0., 0., 0., 0., 0., 0.,
          0., 0., 0., 0., 0., 0., 0., 0., 0., 0., 0., 0., 0., 0., 0.,
          6.27455786e-02, 6.27455786e-02, 0., 0., 0., 0., 0., 0., 0., 0.,
          0., 0., 0., 0., 0., 0., 6.27455786e-02, 6.27455786e-02, 0., 0.,
          0., 6.27455786e-02, 0., 0., 0., 0., 6.27455786e-02, 0., 0., 0.,
          0., 0., 1.25491157e-01, 0., 0., 0., 6.27455786e-02, 0., 0.,
          1.25491157e-01, 0., 0., 6.27455786e-02, 0., 0., 0., 0., 0., 0.,
          6.27455786e-02, 0., 0. ]
      - [ 5.91312386e-02, 0., 1.18262477e-01, 0., 0., 0., 0.,
          5.91312386e-02, 5.91312386e-02, 0., 0., 0., 0., 0.,
          5.91312386e-02, 0., 5.91312386e-02, 0., 0., 0., 0.,
          1.18262477e-01, 0., 1.18262477e-01, 0., 0., 0., 0.,
          5.91312386e-02, 0., 0., 0., 5.91312386e-02, 0., 0., 0., 0.,
          5.91312386e-02, 5.91312386e-02, 5.91312386e-02, 0., 0., 0., 0.,
          0., 0., 0., 0., 0., 0., 5.91312386e-02, 0., 0., 0.,
          5.91312386e-02, 5.91312386e-02, 0., 0., 0., 5.91312386e-02,
          5.91312386e-02, 0., 0., 0., 0., 0., 0., 5.91312386e-02, 0., 0.,
          0., 5.91312386e-02, 5.91312386e-02, 5.91312386e-02, 0., 0.,
          5.91312386e-02, 1.77393720e-01, 5.91312386e-02, 0.,
          1.18262477e-01, 5.91312386e-02, 0., 0., 0., 5.91312386e-02,
          5.91312386e-02, 0., 0., 0., 0., 5.91312386e-02, 0.,
          5.91312386e-02, 5.91312386e-02, 1.77393720e-01, 5.91312386e-02,
          0., 0., 0., 5.91312386e-02, 0., 0., 0., 0., 0., 5.91312386e-02,
          0., 0., 0., 0., 0., 0., 5.91312386e-02, 0., 0., 0., 0., 0.,
          1.18262477e-01, 0., 0., 0., 0., 0., 0., 0., 1.18262477e-01, 0.,
          1.18262477e-01, 5.91312386e-02, 0., 0., 0., 0., 0.,
          5.91312386e-02, 0., 0., 0., 0., 0., 0., 0., 0., 5.91312386e-02,
          0., 5.91312386e-02, 0., 5.91312386e-02, 0., 0., 0., 0.,
          4.13918674e-01, 0., 0., 0., 0., 0., 1.18262477e-01, 0., 0., 0.,
          0., 5.91312386e-02, 0., 0., 0., 0., 0., 5.91312386e-02, 0., 0.,
          0., 0., 5.91312386e-02, 0., 0., 0., 0., 0., 0., 0.,
          1.18262477e-01, 0., 0., 0., 5.91312386e-02, 0., 0., 0.,
          5.91312386e-02, 0., 0., 1.18262477e-01, 5.91312386e-02, 0., 0.,
          5.91312386e-02, 0., 0., 0., 0., 0., 0., 0., 0., 0., 0., 0.,
          5.91312386e-02, 0., 0., 0., 0., 1.18262477e-01, 0., 0., 0.,
          1.18262477e-01, 5.91312386e-02, 0., 0., 0., 1.18262477e-01, 0.,
          0., 0., 0., 0., 0., 0., 0., 0., 0., 0., 0., 0., 0.,
          5.91312386e-02, 5.91312386e-02, 0., 0., 0., 0., 0., 0.,
          5.91312386e-02, 0., 0., 0., 0., 5.91312386e-02, 1.18262477e-01,
          0., 0., 0., 0., 0., 1.18262477e-01, 0., 0., 0., 5.91312386e-02,
          5.91312386e-02, 5.91312386e-02, 0., 0., 0., 0., 0., 0., 0.,
          5.91312386e-02, 5.91312386e-02, 0., 5.91312386e-02, 0., 0.,
          5.91312386e-02, 0., 0., 0., 0., 0., 1.18262477e-01, 0., 0., 0.,
          0., 5.91312386e-02, 0., 0., 0., 5.91312386e-02, 0.,
          5.91312386e-02, 5.91312386e-02, 0., 5.91312386e-02,
          5.91312386e-02, 1.18262477e-01, 1.18262477e-01, 0., 0., 0., 0.,
          0., 0., 0., 0., 5.91312386e-02, 0., 0., 0., 1.18262477e-01,
          5.91312386e-02, 0., 5.91312386e-02, 0., 0., 0., 0., 0., 0., 0.,
          5.91312386e-02, 5.91312386e-02, 0., 0., 5.91312386e-02, 0., 0.,
          5.91312386e-02, 5.91312386e-02, 0., 5.91312386e-02, 0.,
          1.18262477e-01, 0., 0., 0., 1.18262477e-01, 5.91312386e-02, 0.,
          0., 0., 0., 5.91312386e-02, 5.91312386e-02, 0., 5.91312386e-02,
          0., 5.91312386e-02, 5.91312386e-02, 0., 5.91312386e-02,
          5.91312386e-02, 0., 0., 1.18262477e-01, 0., 0., 0.,
          5.91312386e-02, 0., 5.91312386e-02, 0., 0., 0., 0., 0.,
          5.91312386e-02, 0., 0., 5.91312386e-02, 0., 0., 0., 0., 0., 0.,
          0., 0., 0., 0., 0., 0., 0., 0., 5.91312386e-02, 5.91312386e-02,
          0., 5.91312386e-02, 0., 0., 5.91312386e-02, 0., 0., 0.,
          5.91312386e-02, 0., 5.91312386e-02, 0., 0., 0., 5.91312386e-02,
          0., 0., 0., 1.18262477e-01, 5.91312386e-02, 5.91312386e-02, 0.,
          1.18262477e-01, 0., 0., 0., 0., 5.91312386e-02, 0., 0., 0., 0.,
          5.91312386e-02, 0., 5.91312386e-02, 5.91312386e-02, 0.,
          5.91312386e-02, 1.18262477e-01, 0., 0., 0., 5.91312386e-02, 0.,
          0., 0., 0., 0., 0., 0., 0., 0., 5.91312386e-02, 0., 0., 0., 0.,
          0., 5.91312386e-02, 0., 5.91312386e-02, 0., 0., 0.,
          1.18262477e-01, 0., 0., 5.91312386e-02, 0., 5.91312386e-02, 0.,
          5.91312386e-02, 0., 0., 0., 5.91312386e-02, 0., 0., 0.,
          1.18262477e-01, 0., 0., 0., 0., 0., 0., 0., 0., 0.,
          1.18262477e-01, 0., 0., 0., 0., 0., 0., 0., 0., 0.,
          5.91312386e-02, 0., 0., 0., 0., 0., 0., 5.91312386e-02 ]
      - [ 0., 0., 0., 0., 0., 0., 0., 8.25488344e-02, 4.12744172e-02,
          4.12744172e-02, 4.12744172e-02, 0., 0., 0., 0., 0., 0., 0., 0.,
          4.12744172e-02, 0., 1.65097669e-01, 0., 8.25488344e-02, 0., 0.,
          0., 0., 0., 0., 0., 8.25488344e-02, 0., 0., 0., 0.,
          8.25488344e-02, 0., 8.25488344e-02, 0., 0., 0., 0., 0.,
          4.12744172e-02, 0., 0., 4.12744172e-02, 0., 0., 8.25488344e-02,
          0., 0., 0., 0., 4.12744172e-02, 0., 0., 0., 8.25488344e-02, 0.,
          0., 4.12744172e-02, 8.25488344e-02, 0., 0., 4.12744172e-02,
          4.12744172e-02, 0., 0., 8.25488344e-02, 0., 4.12744172e-02, 0.,
          4.12744172e-02, 0., 0., 3.30195338e-01, 0., 0., 0.,
          4.12744172e-02, 4.12744172e-02, 0., 4.12744172e-02, 0., 0.,
          8.25488344e-02, 8.25488344e-02, 4.12744172e-02, 0., 0., 0., 0.,
          0., 4.12744172e-02, 0., 0., 4.12744172e-02, 4.12744172e-02, 0.,
          1.23823248e-01, 0., 0., 0., 4.12744172e-02, 0., 4.12744172e-02,
          0., 0., 0., 8.25488344e-02, 0., 0., 0., 0., 4.12744172e-02, 0.,
          0., 8.25488344e-02, 0., 4.12744172e-02, 0., 0., 0., 0., 0., 0.,
          0., 0., 4.12744172e-02, 1.23823248e-01, 0., 0., 0., 0., 0.,
          4.12744172e-02, 4.12744172e-02, 0., 0., 4.12744172e-02, 0., 0.,
          4.12744172e-02, 4.12744172e-02, 0., 4.12744172e-02, 0., 0., 0.,
          4.12744172e-02, 4.12744172e-02, 0., 0., 4.12744172e-02, 0.,
          2.47646496e-01, 0., 0., 0., 0., 0., 8.25488344e-02,
          4.12744172e-02, 0., 0., 0., 0., 4.12744172e-02, 0., 0., 0., 0.,
          0., 4.12744172e-02, 0., 4.12744172e-02, 4.12744172e-02, 0., 0.,
          0., 0., 0., 0., 0., 0., 0., 0., 8.25488344e-02, 0., 0.,
          1.65097669e-01, 0., 8.25488344e-02, 2.47646496e-01, 0., 0.,
          4.12744172e-02, 0., 0., 0., 0., 0., 8.25488344e-02,
          4.12744172e-02, 0., 0., 0., 0., 4.12744172e-02, 0., 0.,
          4.12744172e-02, 4.12744172e-02, 0., 0., 0., 4.12744172e-02, 0.,
          0., 0., 4.12744172e-02, 4.12744172e-02, 0., 0., 0., 0., 0.,
          1.65097669e-01, 0., 0., 0., 0., 4.12744172e-02, 0.,
          8.25488344e-02, 4.12744172e-02, 0., 0., 0., 8.25488344e-02, 0.,
          4.12744172e-02, 0., 0., 0., 0., 0., 0., 4.12744172e-02,
          8.25488344e-02, 0., 4.12744172e-02, 0., 8.25488344e-02, 0., 0.,
          0., 0., 4.12744172e-02, 0., 0., 0., 0., 0., 0., 0.,
          4.12744172e-02, 0., 8.25488344e-02, 0., 0., 4.12744172e-02,
          8.25488344e-02, 4.12744172e-02, 0., 0., 0., 0., 4.12744172e-02,
          8.25488344e-02, 0., 4.12744172e-02, 0., 0., 8.25488344e-02, 0.,
          0., 0., 0., 0., 0., 0., 0., 8.25488344e-02, 4.12744172e-02, 0.,
          0., 0., 4.12744172e-02, 0., 0., 4.12744172e-02, 0.,
          4.12744172e-02, 0., 0., 4.12744172e-02, 0., 0., 2.06372082e-01,
          4.12744172e-02, 0., 4.12744172e-02, 0., 0., 4.12744172e-02,
          8.25488344e-02, 0., 0., 0., 4.12744172e-02, 4.12744172e-02, 0.,
          0., 0., 0., 4.12744172e-02, 0., 4.12744172e-02, 0., 0.,
          4.12744172e-02, 0., 4.12744172e-02, 4.12744172e-02,
          4.12744172e-02, 0., 0., 0., 8.25488344e-02, 4.12744172e-02, 0.,
          0., 0., 0., 4.12744172e-02, 4.12744172e-02, 0., 0., 0., 0., 0.,
          8.25488344e-02, 0., 0., 4.12744172e-02, 4.12744172e-02,
          4.12744172e-02, 0., 0., 4.12744172e-02, 0., 0., 4.12744172e-02,
          0., 0., 0., 4.12744172e-02, 0., 0., 0., 0., 8.25488344e-02,
          8.25488344e-02, 0., 0., 8.25488344e-02, 4.12744172e-02, 0.,
          4.12744172e-02, 0., 0., 0., 0., 0., 0., 0., 4.12744172e-02, 0.,
          0., 0., 0., 0., 0., 4.12744172e-02, 0., 4.12744172e-02, 0., 0.,
          0., 4.12744172e-02, 0., 0., 0., 0., 0., 0., 0., 0.,
          3.71469766e-01, 0., 0., 0., 0., 8.25488344e-02, 4.12744172e-02,
          0., 8.25488344e-02, 0., 0., 0., 0., 0., 4.12744172e-02,
          4.12744172e-02, 0., 0., 0., 4.12744172e-02, 8.25488344e-02, 0.,
          0., 0., 4.12744172e-02, 0., 8.25488344e-02, 0., 0., 0., 0., 0.,
          0., 0., 0., 0., 4.12744172e-02, 8.25488344e-02, 4.12744172e-02,
          0., 4.12744172e-02, 0., 0., 0., 4.12744172e-02, 0., 0., 0., 0.,
          0., 0., 8.25488344e-02, 0., 4.12744172e-02, 0., 0., 0.,
          4.12744172e-02, 4.12744172e-02, 0., 0., 0., 8.25488344e-02, 0.,
          0., 0., 0., 1.23823248e-01, 4.12744172e-02, 4.12744172e-02, 0.,
          0., 0., 4.12744172e-02, 0., 4.12744172e-02, 0., 0.,
          4.12744172e-02, 4.12744172e-02, 0., 4.12744172e-02,
          4.12744172e-02, 0., 4.12744172e-02, 8.25488344e-02,
          4.12744172e-02, 0., 0. ]
      - [ 4.27005701e-02, 2.84670480e-02, 4.27005701e-02, 1.42335240e-02,
          2.84670480e-02, 7.11676180e-02, 7.11676180e-02, 5.69340959e-02,
          1.42335240e-02, 4.27005701e-02, 4.27005701e-02, 4.27005701e-02,
          0., 0., 0., 0., 1.42335240e-02, 7.11676180e-02, 5.69340959e-02,
          5.69340959e-02, 0., 0., 1.42335240e-02, 7.11676180e-02,
          1.42335240e-02, 5.69340959e-02, 2.84670480e-02, 2.84670480e-02,
          9.96346623e-02, 0., 1.42335240e-02, 1.42335240e-02,
          1.42335240e-02, 4.27005701e-02, 1.42335240e-02, 0.,
          4.27005701e-02, 2.84670480e-02, 1.42335240e-02, 5.69340959e-02,
          2.84670480e-02, 5.69340959e-02, 0., 7.11676180e-02, 0.,
          1.42335240e-02, 1.42335240e-02, 1.42335240e-02, 2.84670480e-02,
          2.84670480e-02, 7.11676180e-02, 7.11676180e-02, 0., 0.,
          5.69340959e-02, 2.84670480e-02, 4.27005701e-02, 0., 0.,
          4.27005701e-02, 1.42335240e-02, 2.84670480e-02, 1.42335240e-02,
          1.42335240e-02, 1.42335240e-02, 1.42335240e-02, 1.28101707e-01,
          1.42335240e-02, 5.69340959e-02, 1.42335240e-02, 8.54011402e-02,
          2.84670480e-02, 1.42335240e-02, 0., 2.84670480e-02, 0.,
          2.84670480e-02, 3.13137531e-01, 1.13868192e-01, 4.27005701e-02,
          2.84670480e-02, 4.27005701e-02, 5.69340959e-02, 4.27005701e-02,
          2.84670480e-02, 1.42335240e-02, 2.84670480e-02, 1.42335240e-02,
          1.42335240e-02, 1.42335240e-02, 4.27005701e-02, 2.84670480e-02,
          7.11676180e-02, 0., 5.69340959e-02, 2.84670480e-02,
          1.42335240e-02, 5.69340959e-02, 7.11676180e-02, 1.42335240e-02,
          0., 1.85035810e-01, 1.42335240e-02, 5.69340959e-02, 0.,
          2.84670480e-02, 1.42335240e-02, 0., 0., 1.42335240e-02, 0.,
          7.11676180e-02, 5.69340959e-02, 2.84670480e-02, 2.84670480e-02,
          0., 5.69340959e-02, 4.27005701e-02, 1.42335240e-02,
          2.84670480e-02, 4.27005701e-02, 0., 1.42335240e-02,
          4.27005701e-02, 2.84670480e-02, 1.42335240e-02, 8.54011402e-02,
          7.11676180e-02, 5.69340959e-02, 1.42335240e-02, 1.42335240e-02,
          4.27005701e-02, 1.42335240e-02, 0., 4.27005701e-02,
          7.11676180e-02, 1.42335240e-02, 2.84670480e-02, 0.,
          4.27005701e-02, 2.84670480e-02, 0., 5.69340959e-02,
          1.42335240e-02, 1.42335240e-02, 1.42335240e-02, 0.,
          5.69340959e-02, 1.42335240e-02, 5.69340959e-02, 1.42335240e-02,
          1.42335240e-02, 2.84670480e-02, 2.84670480e-02, 2.84670480e-02,
          0., 2.84670480e-02, 9.96346623e-02, 1.42335240e-02,
          1.42335240e-02, 0., 5.69340959e-02, 4.27005701e-02,
          8.54011402e-02, 4.27005701e-02, 0., 1.42335240e-02,
          1.42335240e-02, 9.96346623e-02, 4.27005701e-02, 0.,
          4.27005701e-02, 0., 1.42335240e-02, 0., 1.42335240e-02, 0.,
          1.42335240e-02, 1.42335240e-02, 4.27005701e-02, 0.,
          4.27005701e-02, 5.69340959e-02, 1.42335240e-02, 2.84670480e-02,
          2.84670480e-02, 1.42335240e-02, 1.42335240e-02, 4.27005701e-02,
          8.54011402e-02, 1.42335240e-02, 1.42335240e-02, 2.84670480e-02,
          8.54011402e-02, 1.42335240e-02, 7.11676180e-02, 4.27005701e-02,
          5.69340959e-02, 2.84670480e-02, 4.27005701e-02, 5.69340959e-02,
          0., 2.84670480e-02, 0., 5.69340959e-02, 4.27005701e-02,
          4.27005701e-02, 1.42335240e-02, 2.84670480e-02, 1.42335240e-02,
          1.42335240e-02, 2.84670480e-02, 0., 5.69340959e-02,
          2.84670480e-02, 1.42335240e-02, 2.84670480e-02, 0.,
          1.42335240e-02, 1.42335240e-02, 4.27005701e-02, 1.42335240e-02,
          1.42335240e-02, 1.42335240e-02, 4.27005701e-02, 2.84670480e-02,
          1.42335240e-02, 5.69340959e-02, 4.27005701e-02, 4.27005701e-02,
          0., 2.84670480e-02, 1.42335240e-02, 1.42335240e-02,
          5.69340959e-02, 4.27005701e-02, 0., 2.84670480e-02,
          1.56568766e-01, 1.42335240e-02, 4.27005701e-02, 2.84670480e-02,
          0., 4.27005701e-02, 1.42335240e-02, 7.11676180e-02,
          2.84670480e-02, 0., 1.42335240e-02, 4.27005701e-02,
          1.28101707e-01, 1.42335240e-02, 0., 0., 0., 0., 1.42335240e-02,
          2.84670480e-02, 4.27005701e-02, 0., 1.42335240e-02,
          8.54011402e-02, 9.96346623e-02, 0., 0., 5.69340959e-02,
          1.42335240e-02, 2.84670480e-02, 0., 0., 4.27005701e-02,
          2.84670480e-02, 2.84670480e-02, 1.42335240e-02, 1.42335240e-02,
          4.27005701e-02, 2.84670480e-02, 8.54011402e-02, 7.11676180e-02,
          1.42335240e-02, 7.11676180e-02, 4.27005701e-02, 2.84670480e-02,
          4.27005701e-02, 2.84670480e-02, 7.11676180e-02, 2.84670480e-02,
          1.42335240e-02, 2.84670480e-02, 2.84670480e-02, 0.,
          1.42335240e-02, 0., 4.27005701e-02, 1.42335240e-02,
          8.54011402e-02, 0., 2.84670480e-02, 4.27005701e-02, 0.,
          1.42335240e-02, 0., 1.42335240e-02, 2.84670480e-02,
          1.42335240e-02, 0., 4.27005701e-02, 5.69340959e-02, 0., 0.,
          2.84670480e-02, 2.84670480e-02, 7.11676180e-02, 4.27005701e-02,
          1.13868192e-01, 2.84670480e-02, 7.11676180e-02, 0.,
          7.11676180e-02, 1.42335240e-02, 2.84670480e-02, 0.,
          4.27005701e-02, 1.42335240e-02, 7.11676180e-02, 2.84670480e-02,
          0., 1.42335240e-02, 1.42335240e-02, 2.84670480e-02,
          2.84670480e-02, 1.28101707e-01, 1.42335240e-02, 0., 0.,
          2.84670480e-02, 1.42335240e-02, 1.13868192e-01, 1.42335240e-02,
          2.84670480e-02, 1.42335240e-02, 1.42335240e-02, 2.84670480e-02,
          7.11676180e-02, 0., 1.42335240e-02, 1.42335240e-02,
          4.27005701e-02, 4.27005701e-02, 4.27005701e-02, 7.11676180e-02,
          4.27005701e-02, 4.27005701e-02, 4.27005701e-02, 1.42335240e-02,
          2.84670480e-02, 1.42335240e-02, 1.13868192e-01, 8.54011402e-02,
          4.27005701e-02, 4.27005701e-02, 5.69340959e-02, 0.,
          2.84670480e-02, 5.69340959e-02, 4.27005701e-02, 2.84670480e-02,
          2.84670480e-02, 5.69340959e-02, 2.84670480e-02, 1.42335240e-02,
          2.84670480e-02, 2.84670480e-02, 1.13868192e-01, 0.,
          2.84670480e-02, 0., 1.42335240e-02, 5.69340959e-02,
          4.27005701e-02, 5.69340959e-02, 7.11676180e-02, 5.69340959e-02,
          1.13868192e-01, 2.84670480e-02, 2.84670480e-02, 2.84670480e-02,
          0., 4.27005701e-02, 0., 2.84670480e-02, 1.42335240e-02,
          1.42335240e-02, 7.11676180e-02, 4.27005701e-02, 4.27005701e-02,
          1.42335240e-02, 2.84670480e-02, 0., 1.42335240e-02,
          1.42335240e-02, 2.84670480e-02, 0., 7.11676180e-02, 0., 0.,
          4.27005701e-02, 0., 4.27005701e-02, 2.84670480e-02,
          1.42335240e-02, 4.27005701e-02, 2.84670480e-02, 1.42335240e-02,
          4.27005701e-02, 2.84670480e-02, 2.84670480e-02, 0., 0.,
          4.27005701e-02, 0., 1.42335240e-02, 2.84670480e-02,
          4.27005701e-02, 5.69340959e-02, 8.54011402e-02, 5.69340959e-02,
          1.42335240e-02, 2.84670480e-02, 1.42335240e-02, 4.27005701e-02,
          2.84670480e-02, 2.84670480e-02, 2.84670480e-02, 0.,
          2.84670480e-02, 4.27005701e-02, 2.84670480e-02, 2.84670480e-02,
          1.42335240e-02, 1.42335240e-02, 1.42335240e-02, 4.27005701e-02,
          2.84670480e-02, 4.27005701e-02, 4.27005701e-02, 2.84670480e-02,
          2.84670480e-02, 2.84670480e-02, 9.96346623e-02, 4.27005701e-02,
          5.69340959e-02, 1.42335240e-02, 8.54011402e-02, 4.27005701e-02,
          2.84670480e-02, 4.27005701e-02, 4.27005701e-02, 1.42335240e-02,
          4.27005701e-02, 1.42335240e-02, 4.27005701e-02, 2.84670480e-02,
          4.27005701e-02, 8.54011402e-02, 5.69340959e-02, 1.42335240e-02,
          1.42335240e-02, 2.84670480e-02, 5.69340959e-02, 1.42335240e-02,
          7.11676180e-02, 4.27005701e-02, 0., 4.27005701e-02,
          4.27005701e-02, 5.69340959e-02, 1.42335240e-02, 4.27005701e-02,
          0., 5.69340959e-02, 5.69340959e-02, 0., 2.84670480e-02,
          1.28101707e-01, 4.27005701e-02, 8.54011402e-02, 8.54011402e-02,
          1.42335240e-02, 7.11676180e-02, 1.42335240e-02, 2.84670480e-02,
          5.69340959e-02, 0., 0., 2.84670480e-02, 5.69340959e-02,
          4.27005701e-02, 1.42335240e-02, 4.27005701e-02 ]
      - [ 0., 0., 0., 0., 0., 0., 0., 0., 0., 7.21687824e-02,
          7.21687824e-02, 0., 0., 0., 0., 1.44337565e-01, 7.21687824e-02,
          0., 0., 0., 0., 0., 0., 0., 0., 7.21687824e-02, 0., 0.,
          7.21687824e-02, 0., 0., 0., 7.21687824e-02, 0., 0.,
          7.21687824e-02, 0., 0., 0., 0., 0., 0., 0., 0., 0., 0., 0.,
          7.21687824e-02, 7.21687824e-02, 0., 7.21687824e-02, 0., 0., 0.,
          0., 1.44337565e-01, 0., 0., 0., 0., 7.21687824e-02, 0., 0., 0.,
          0., 0., 0., 0., 0., 0., 0., 0., 0., 0., 7.21687824e-02, 0., 0.,
          0., 7.21687824e-02, 0., 0., 7.21687824e-02, 0., 0., 0., 0., 0.,
          0., 0., 0., 0., 0., 7.21687824e-02, 0., 7.21687824e-02, 0., 0.,
          0., 0., 7.21687824e-02, 0., 0., 0., 0., 0., 0., 0., 0., 0., 0.,
          0., 0., 0., 0., 0., 7.21687824e-02, 0., 0., 0., 0., 0., 0., 0.,
          0., 0., 0., 0., 0., 0., 0., 0., 2.88675129e-01, 0., 0., 0., 0.,
          0., 0., 0., 0., 0., 0., 0., 0., 0., 0., 0., 0., 0., 0., 0., 0.,
          0., 0., 1.44337565e-01, 0., 0., 0., 0., 7.21687824e-02, 0., 0.,
          7.21687824e-02, 0., 7.21687824e-02, 0., 0., 0., 0., 0., 0., 0.,
          7.21687824e-02, 0., 0., 7.21687824e-02, 0., 0., 7.21687824e-02,
          0., 1.44337565e-01, 0., 0., 0., 0., 0., 0., 0., 0., 0., 0.,
          7.21687824e-02, 1.44337565e-01, 1.44337565e-01, 0., 0., 0.,
          1.44337565e-01, 0., 7.21687824e-02, 0., 0., 0., 0., 0.,
          7.21687824e-02, 7.21687824e-02, 7.21687824e-02, 0., 0., 0.,
          7.21687824e-02, 0., 0., 0., 7.21687824e-02, 7.21687824e-02, 0.,
          0., 0., 0., 0., 0., 0., 7.21687824e-02, 0., 0., 0., 0., 0., 0.,
          0., 0., 0., 2.88675129e-01, 0., 1.44337565e-01, 7.21687824e-02,
          0., 0., 0., 0., 0., 7.21687824e-02, 0., 0., 0., 0., 0., 0., 0.,
          1.44337565e-01, 0., 0., 0., 0., 7.21687824e-02, 0., 0., 0., 0.,
          0., 0., 7.21687824e-02, 0., 0., 0., 0., 0., 0., 0.,
          7.21687824e-02, 0., 0., 0., 0., 0., 7.21687824e-02, 0., 0., 0.,
          0., 7.21687824e-02, 7.21687824e-02, 0., 0., 0., 0., 0.,
          2.16506347e-01, 0., 0., 0., 1.44337565e-01, 0., 0., 0., 0., 0.,
          7.21687824e-02, 0., 0., 0., 7.21687824e-02, 0., 0., 0., 0.,
          7.21687824e-02, 0., 0., 0., 0., 0., 1.44337565e-01, 0., 0., 0.,
          0., 0., 0., 0., 0., 7.21687824e-02, 7.21687824e-02, 0., 0., 0.,
          0., 7.21687824e-02, 0., 7.21687824e-02, 0., 0., 0., 0., 0., 0.,
          0., 0., 0., 0., 0., 0., 0., 0., 7.21687824e-02, 0., 0., 0., 0.,
          0., 0., 0., 0., 0., 0., 0., 0., 0., 0., 7.21687824e-02, 0., 0.,
          0., 0., 0., 0., 0., 0., 0., 0., 0., 7.21687824e-02, 0.,
          7.21687824e-02, 0., 7.21687824e-02, 0., 0., 0., 0., 0., 0., 0.,
          0., 0., 0., 0., 0., 7.21687824e-02, 0., 2.16506347e-01, 0., 0.,
          0., 0., 0., 0., 0., 0., 0., 0., 0., 0., 0., 0., 0., 0., 0., 0.,
          7.21687824e-02, 0., 0., 0., 0., 0., 0., 0., 7.21687824e-02, 0.,
          0., 0., 0., 7.21687824e-02, 0., 0., 0., 0., 1.44337565e-01, 0.,
          0., 0., 0., 0., 7.21687824e-02, 0., 7.21687824e-02, 0., 0., 0.,
          0., 7.21687824e-02, 0., 0., 0., 0., 0., 0., 0., 0., 0., 0.,
          7.21687824e-02, 0., 0., 0., 0., 7.21687824e-02, 7.21687824e-02,
          0., 0., 0., 7.21687824e-02, 0., 0., 0., 0., 0., 0.,
          7.21687824e-02, 0., 7.21687824e-02, 0., 0., 7.21687824e-02,
          3.60843927e-01, 0., 7.21687824e-02, 7.21687824e-02, 0., 0., 0.,
          0., 0., 0., 0., 0., 0., 0., 0., 0., 0., 0., 0., 0., 0., 0., 0.,
          0. ]
      - [ 5.56199662e-02, 1.39049917e-01, 2.78099831e-02, 1.11239932e-01,
          0., 1.11239932e-01, 0., 2.78099831e-02, 2.78099831e-02, 0., 0.,
          0., 0., 0., 2.78099831e-02, 0., 0., 0., 0., 0., 0., 0., 0.,
          2.78099831e-02, 0., 0., 0., 0., 0., 0., 2.78099831e-02, 0., 0.,
          2.78099831e-02, 0., 5.56199662e-02, 0., 0., 2.78099831e-02, 0.,
          0., 0., 0., 2.78099831e-02, 0., 0., 5.56199662e-02, 0., 0., 0.,
          2.78099831e-02, 5.56199662e-02, 2.22479865e-01, 0.,
          5.56199662e-02, 0., 0., 0., 5.84009647e-01, 0., 0., 0.,
          2.22479865e-01, 0., 2.78099831e-02, 0., 0., 0., 0.,
          5.56199662e-02, 0., 0., 0., 2.78099831e-02, 2.78099831e-02,
          2.78099831e-02, 5.56199662e-02, 5.56199662e-02, 2.78099831e-02,
          0., 0., 2.78099831e-02, 0., 2.78099831e-02, 0., 0., 0., 0.,
          2.78099831e-02, 0., 2.78099831e-02, 0., 0., 0., 0., 0., 0., 0.,
          1.39049917e-01, 2.78099831e-02, 0., 0., 0., 5.56199662e-02, 0.,
          2.78099831e-02, 0., 0., 0., 2.78099831e-02, 2.78099831e-02, 0.,
          0., 0., 0., 0., 0., 5.56199662e-02, 0., 0., 0., 5.56199662e-02,
          0., 0., 0., 8.34299549e-02, 0., 1.11239932e-01, 0.,
          1.11239932e-01, 0., 5.56199662e-02, 0., 5.56199662e-02,
          1.11239932e-01, 5.56199662e-02, 5.56199662e-02, 0.,
          2.78099831e-02, 2.78099831e-02, 1.66859910e-01, 0.,
          1.11239932e-01, 0., 0., 2.78099831e-02, 0., 2.78099831e-02, 0.,
          0., 0., 0., 0., 0., 2.78099831e-02, 2.78099831e-02, 0., 0., 0.,
          0., 0., 0., 0., 0., 0., 0., 0., 0., 0., 0., 1.11239932e-01,
          2.78099831e-02, 0., 2.78099831e-02, 0., 0., 0., 0., 0., 0., 0.,
          0., 0., 0., 2.78099831e-02, 0., 0., 0., 0., 0., 0., 0.,
          5.56199662e-02, 0., 0., 0., 5.56199662e-02, 0., 0., 0.,
          2.78099831e-02, 0., 0., 0., 1.66859910e-01, 0., 1.11239932e-01,
          0., 0., 0., 0., 0., 0., 0., 5.56199662e-02, 0., 0., 0., 0., 0.,
          2.78099831e-02, 0., 2.78099831e-02, 0., 2.78099831e-02, 0., 0.,
          0., 0., 2.78099831e-02, 0., 2.78099831e-02, 2.78099831e-02,
          2.78099831e-02, 0., 0., 0., 0., 0., 0., 2.78099831e-02,
          2.78099831e-02, 0., 0., 2.78099831e-02, 0., 0., 8.34299549e-02,
          0., 2.78099831e-02, 0., 2.78099831e-02, 0., 0., 0., 0., 0., 0.,
          1.66859910e-01, 0., 0., 0., 0., 0., 0., 0., 0., 2.78099831e-02,
          0., 0., 0., 0., 0., 0., 0., 0., 0., 5.56199662e-02, 0.,
          2.78099831e-02, 0., 0., 0., 2.78099831e-02, 2.78099831e-02, 0.,
          0., 0., 0., 0., 0., 0., 0., 0., 0., 0., 2.78099831e-02,
          5.56199662e-02, 0., 0., 0., 0., 0., 0., 0., 2.78099831e-02,
          2.78099831e-02, 0., 0., 8.34299549e-02, 0., 2.78099831e-02, 0.,
          0., 0., 0., 2.78099831e-02, 0., 0., 2.78099831e-02, 0., 0., 0.,
          0., 1.39049917e-01, 5.56199662e-02, 0., 0., 0., 0., 0., 0.,
          2.78099831e-02, 0., 0., 2.78099831e-02, 8.34299549e-02, 0., 0.,
          0., 0., 5.56199662e-02, 0., 1.11239932e-01, 5.56199662e-02,
          8.34299549e-02, 5.56199662e-02, 0., 0., 2.78099831e-02, 0., 0.,
          0., 0., 8.34299549e-02, 0., 0., 2.78099831e-02, 0., 0., 0., 0.,
          0., 2.78099831e-02, 1.39049917e-01, 0., 0., 0., 0., 0.,
          2.78099831e-02, 2.78099831e-02, 0., 2.78099831e-02,
          2.78099831e-02, 0., 5.56199662e-02, 2.78099831e-02, 0.,
          2.78099831e-02, 2.78099831e-02, 0., 5.56199662e-02, 0., 0., 0.,
          0., 0., 0., 0., 5.56199662e-02, 0., 2.78099831e-02,
          8.34299549e-02, 0., 5.56199662e-02, 8.34299549e-02, 0.,
          5.56199662e-02, 0., 5.56199662e-02, 0., 0., 0., 0.,
          5.56199662e-02, 0., 1.39049917e-01, 2.78099831e-02,
          5.56199662e-02, 0., 0., 8.34299549e-02, 0., 0., 1.11239932e-01,
          2.78099831e-02, 0., 0., 0., 0., 0., 0., 2.78099831e-02,
          2.78099831e-02, 0., 0., 0., 5.56199662e-02, 0., 0.,
          2.78099831e-02, 0., 0., 2.78099831e-02, 8.34299549e-02, 0., 0.,
          2.78099831e-02, 0., 2.78099831e-02, 0., 0., 0., 0.,
          2.78099831e-02, 0., 0., 0., 5.56199662e-02, 0., 0.,
          2.78099831e-02, 2.78099831e-02, 0., 0., 0., 0., 5.56199662e-02,
          5.56199662e-02, 0., 0., 0., 2.78099831e-02, 2.78099831e-02, 0.,
          0., 0., 0., 0., 0., 0., 0., 0., 0., 2.78099831e-02, 0., 0., 0.,
          0., 0., 0., 0., 0., 0., 2.78099831e-02, 0., 5.56199662e-02, 0.,
          0., 0., 0., 0., 8.34299549e-02, 0., 0., 0., 2.78099831e-02, 0.,
          0. ]
      - [ 0., 0., 0., 2.86534131e-02, 1.14613652e-01, 8.59602392e-02, 0.,
          2.86534131e-02, 5.73068261e-02, 8.59602392e-02, 2.86534131e-02,
          0., 0., 2.86534131e-02, 5.73068261e-02, 0., 2.86534131e-02,
          2.86534131e-02, 5.73068261e-02, 2.86534131e-02, 2.86534131e-02,
          0., 0., 5.73068261e-02, 5.73068261e-02, 0., 0., 5.73068261e-02,
          0., 0., 0., 0., 2.86534131e-02, 2.86534131e-02, 5.73068261e-02,
          0., 0., 5.73068261e-02, 0., 2.86534131e-02, 0., 5.73068261e-02,
          2.86534131e-02, 2.86534131e-02, 2.86534131e-02, 2.86534131e-02,
          0., 2.86534131e-02, 2.86534131e-02, 0., 0., 0., 2.86534131e-02,
          2.86534131e-02, 5.73068261e-02, 0., 0., 5.73068261e-02, 0.,
          8.59602392e-02, 2.86534131e-02, 0., 2.86534131e-02, 0.,
          1.14613652e-01, 2.86534131e-02, 2.86534131e-02, 1.14613652e-01,
          8.59602392e-02, 2.86534131e-02, 2.86534131e-02, 0.,
          5.73068261e-02, 2.86534131e-02, 1.14613652e-01, 2.86534131e-02,
          0., 2.86534131e-02, 2.86534131e-02, 0., 2.86534131e-02, 0.,
          5.73068261e-02, 0., 2.86534131e-02, 8.59602392e-02,
          2.86534131e-02, 0., 8.59602392e-02, 0., 2.86534131e-02,
          2.86534131e-02, 2.86534131e-02, 0., 2.86534131e-02,
          2.86534131e-02, 0., 2.86534131e-02, 1.14613652e-01,
          5.73068261e-02, 2.86534131e-02, 2.86534131e-02, 0.,
          5.73068261e-02, 0., 5.73068261e-02, 2.86534131e-02, 0.,
          2.86534131e-02, 8.59602392e-02, 0., 2.86534131e-02,
          1.14613652e-01, 0., 0., 0., 0., 2.86534131e-02, 2.86534131e-02,
          2.86534131e-02, 2.86534131e-02, 2.86534131e-02, 2.86534131e-02,
          0., 0., 5.73068261e-02, 0., 5.73068261e-02, 8.59602392e-02,
          2.86534131e-02, 5.73068261e-02, 1.14613652e-01, 0.,
          2.86534131e-02, 2.86534131e-02, 5.73068261e-02, 0.,
          5.73068261e-02, 0., 2.86534131e-02, 0., 2.86534131e-02, 0.,
          2.86534131e-02, 0., 2.86534131e-02, 8.59602392e-02,
          2.86534131e-02, 8.59602392e-02, 2.86534131e-02, 2.86534131e-02,
          5.73068261e-02, 2.86534131e-02, 2.86534131e-02, 5.73068261e-02,
          0., 5.73068261e-02, 5.73068261e-02, 2.86534131e-02, 0.,
          5.73068261e-02, 2.86534131e-02, 2.86534131e-02, 5.73068261e-02,
          2.86534131e-02, 0., 0., 2.86534131e-02, 0., 2.86534131e-02,
          5.73068261e-02, 1.43267065e-01, 0., 0., 2.86534131e-02, 0.,
          2.86534131e-02, 2.86534131e-02, 0., 0., 5.73068261e-02,
          5.73068261e-02, 2.86534131e-02, 2.86534131e-02, 5.73068261e-02,
          8.59602392e-02, 2.86534131e-02, 2.86534131e-02, 0.,
          2.86534131e-02, 8.59602392e-02, 5.73068261e-02, 8.59602392e-02,
          0., 2.86534131e-02, 5.73068261e-02, 0., 0., 5.73068261e-02,
          5.73068261e-02, 0., 0., 2.86534131e-02, 0., 5.73068261e-02, 0.,
          2.86534131e-02, 1.14613652e-01, 2.86534131e-02, 0.,
          8.59602392e-02, 8.59602392e-02, 0., 0., 0., 0., 0., 0.,
          8.59602392e-02, 8.59602392e-02, 5.73068261e-02, 5.73068261e-02,
          0., 0., 8.59602392e-02, 5.73068261e-02, 0., 2.86534131e-02,
          2.86534131e-02, 0., 8.59602392e-02, 0., 0., 0., 8.59602392e-02,
          0., 0., 8.59602392e-02, 8.59602392e-02, 2.86534131e-02,
          5.73068261e-02, 2.86534131e-02, 5.73068261e-02, 2.86534131e-02,
          0., 0., 2.86534131e-02, 0., 0., 2.86534131e-02, 2.86534131e-02,
          2.86534131e-02, 5.73068261e-02, 2.86534131e-02, 0., 0.,
          5.73068261e-02, 0., 2.86534131e-02, 5.73068261e-02, 0.,
          2.86534131e-02, 2.86534131e-02, 0., 2.86534131e-02, 0.,
          2.86534131e-02, 2.86534131e-02, 0., 2.86534131e-02,
          2.86534131e-02, 2.86534131e-02, 2.86534131e-02, 5.73068261e-02,
          0., 5.73068261e-02, 8.59602392e-02, 2.86534131e-02,
          2.86534131e-02, 0., 1.71920478e-01, 2.86534131e-02, 0., 0.,
          5.73068261e-02, 2.86534131e-02, 5.73068261e-02, 2.86534131e-02,
          0., 2.86534131e-02, 0., 5.73068261e-02, 0., 2.86534131e-02,
          5.73068261e-02, 2.86534131e-02, 2.86534131e-02, 0., 0., 0., 0.,
          0., 2.86534131e-02, 5.73068261e-02, 8.59602392e-02,
          1.43267065e-01, 2.86534131e-02, 1.14613652e-01, 5.73068261e-02,
          8.59602392e-02, 2.86534131e-02, 0., 2.86534131e-02,
          2.86534131e-02, 5.73068261e-02, 2.86534131e-02, 0.,
          1.14613652e-01, 0., 0., 0., 0., 5.73068261e-02, 2.86534131e-02,
          5.73068261e-02, 0., 5.73068261e-02, 0., 5.73068261e-02,
          5.73068261e-02, 5.73068261e-02, 2.86534131e-02, 0.,
          2.86534131e-02, 1.14613652e-01, 2.86534131e-02, 0.,
          8.59602392e-02, 5.73068261e-02, 5.73068261e-02, 2.86534131e-02,
          2.86534131e-02, 0., 8.59602392e-02, 0., 2.86534131e-02,
          2.86534131e-02, 0., 8.59602392e-02, 2.86534131e-02,
          2.86534131e-02, 0., 0., 8.59602392e-02, 8.59602392e-02,
          2.86534131e-02, 0., 0., 2.86534131e-02, 5.73068261e-02,
          5.73068261e-02, 0., 2.86534131e-02, 2.86534131e-02,
          2.86534131e-02, 0., 8.59602392e-02, 5.73068261e-02, 0.,
          5.73068261e-02, 0., 2.86534131e-02, 0., 1.14613652e-01, 0., 0.,
          0., 0., 1.43267065e-01, 5.73068261e-02, 2.86534131e-02, 0., 0.,
          0., 0., 5.73068261e-02, 0., 2.86534131e-02, 2.86534131e-02, 0.,
          0., 0., 0., 0., 5.73068261e-02, 5.73068261e-02, 0.,
          2.86534131e-02, 0., 2.86534131e-02, 2.86534131e-02, 0., 0.,
          2.86534131e-02, 8.59602392e-02, 0., 0., 2.86534131e-02,
          1.14613652e-01, 2.86534131e-02, 0., 0., 2.86534131e-02, 0.,
          8.59602392e-02, 2.86534131e-02, 5.73068261e-02, 0.,
          8.59602392e-02, 5.73068261e-02, 5.73068261e-02, 5.73068261e-02,
          2.86534131e-02, 0., 2.86534131e-02, 5.73068261e-02,
          2.86534131e-02, 5.73068261e-02, 0., 0., 0., 5.73068261e-02, 0.,
          2.86534131e-02, 2.86534131e-02, 0., 0., 8.59602392e-02, 0.,
          2.86534131e-02, 2.86534131e-02, 5.73068261e-02, 8.59602392e-02,
          0., 0., 2.86534131e-02, 1.14613652e-01, 5.73068261e-02,
          5.73068261e-02, 1.14613652e-01, 0., 5.73068261e-02,
          5.73068261e-02, 5.73068261e-02, 0., 5.73068261e-02,
          5.73068261e-02, 2.86534131e-02, 5.73068261e-02, 0.,
          2.86534131e-02, 5.73068261e-02, 2.86534131e-02, 8.59602392e-02,
          2.86534131e-02, 0., 5.73068261e-02, 2.86534131e-02,
          2.86534131e-02, 0., 8.59602392e-02, 0., 2.86534131e-02, 0., 0.,
          2.86534131e-02, 0., 0., 2.86534131e-02, 5.73068261e-02, 0., 0.,
          0., 0., 2.86534131e-02, 0., 5.73068261e-02, 2.86534131e-02,
          5.73068261e-02, 0., 2.86534131e-02, 0., 0., 0., 0., 0.,
          2.86534131e-02, 2.86534131e-02, 2.86534131e-02, 2.86534131e-02 ]
      - [ 3.94055210e-02, 0., 0., 1.57622084e-01, 0., 0., 0., 0., 0.,
          1.18216559e-01, 0., 0., 0., 0., 0., 0., 3.94055210e-02, 0., 0.,
          0., 0., 3.94055210e-02, 0., 0., 3.94055210e-02, 3.94055210e-02,
          3.94055210e-02, 7.88110420e-02, 0., 3.94055210e-02, 0.,
          3.94055210e-02, 3.94055210e-02, 3.94055210e-02, 7.88110420e-02,
          0., 7.88110420e-02, 3.94055210e-02, 0., 7.88110420e-02,
          3.94055210e-02, 0., 3.94055210e-02, 7.88110420e-02, 0.,
          7.88110420e-02, 0., 7.88110420e-02, 0., 0., 0., 7.88110420e-02,
          3.94055210e-02, 0., 3.94055210e-02, 3.94055210e-02,
          7.88110420e-02, 0., 0., 0., 0., 0., 7.88110420e-02, 0., 0., 0.,
          0., 3.94055210e-02, 3.94055210e-02, 3.94055210e-02, 0.,
          3.94055210e-02, 0., 3.94055210e-02, 0., 7.88110420e-02,
          7.88110420e-02, 0., 3.94055210e-02, 0., 0., 0., 1.18216559e-01,
          1.57622084e-01, 0., 0., 0., 3.94055210e-02, 0., 0., 0., 0.,
          7.88110420e-02, 0., 0., 0., 0., 1.18216559e-01, 1.18216559e-01,
          1.18216559e-01, 0., 0., 3.94055210e-02, 3.94055210e-02,
          1.18216559e-01, 0., 0., 0., 0., 3.94055210e-02, 0.,
          7.88110420e-02, 3.94055210e-02, 0., 3.94055210e-02, 0., 0., 0.,
          3.94055210e-02, 7.88110420e-02, 0., 0., 3.94055210e-02, 0., 0.,
          3.94055210e-02, 3.94055210e-02, 0., 0., 3.94055210e-02, 0., 0.,
          0., 3.94055210e-02, 0., 1.57622084e-01, 3.94055210e-02,
          7.88110420e-02, 0., 1.97027609e-01, 0., 3.94055210e-02, 0.,
          3.94055210e-02, 3.94055210e-02, 0., 0., 0., 0., 0.,
          7.88110420e-02, 7.88110420e-02, 0., 3.94055210e-02,
          3.94055210e-02, 3.94055210e-02, 0., 0., 3.94055210e-02,
          7.88110420e-02, 3.94055210e-02, 0., 0., 0., 3.94055210e-02,
          3.94055210e-02, 0., 3.94055210e-02, 3.94055210e-02,
          3.94055210e-02, 7.88110420e-02, 7.88110420e-02, 3.94055210e-02,
          0., 0., 3.94055210e-02, 0., 0., 0., 0., 0., 3.94055210e-02, 0.,
          3.94055210e-02, 0., 0., 0., 7.88110420e-02, 3.94055210e-02,
          3.94055210e-02, 0., 0., 0., 7.88110420e-02, 0., 3.94055210e-02,
          0., 0., 3.94055210e-02, 0., 3.94055210e-02, 0., 0., 0.,
          3.94055210e-02, 0., 0., 3.94055210e-02, 0., 0., 3.94055210e-02,
          0., 0., 0., 3.94055210e-02, 3.94055210e-02, 3.15244168e-01, 0.,
          0., 0., 1.18216559e-01, 0., 0., 0., 3.94055210e-02, 0., 0.,
          3.94055210e-02, 3.94055210e-02, 3.94055210e-02, 0., 0., 0., 0.,
          0., 3.94055210e-02, 0., 3.94055210e-02, 0., 0., 0.,
          3.94055210e-02, 0., 0., 0., 0., 0., 0., 0., 0., 0., 0., 0.,
          3.94055210e-02, 0., 0., 0., 0., 0., 0., 3.94055210e-02,
          3.94055210e-02, 0., 3.94055210e-02, 0., 0., 0., 0.,
          7.88110420e-02, 7.88110420e-02, 0., 3.94055210e-02, 0., 0.,
          7.88110420e-02, 0., 0., 0., 0., 0., 0., 0., 0., 3.94055210e-02,
          3.94055210e-02, 0., 3.94055210e-02, 0., 1.18216559e-01, 0.,
          7.88110420e-02, 3.94055210e-02, 0., 0., 0., 0., 0., 0., 0., 0.,
          0., 0., 3.94055210e-02, 0., 0., 0., 0., 0., 0., 0.,
          3.94055210e-02, 7.88110420e-02, 0., 0., 3.94055210e-02,
          3.94055210e-02, 0., 0., 0., 0., 0., 3.94055210e-02,
          7.88110420e-02, 0., 0., 3.94055210e-02, 0., 0., 0., 0., 0., 0.,
          3.94055210e-02, 3.94055210e-02, 3.94055210e-02, 0.,
          1.57622084e-01, 7.88110420e-02, 0., 7.88110420e-02,
          3.94055210e-02, 3.94055210e-02, 0., 7.88110420e-02,
          3.94055210e-02, 0., 3.94055210e-02, 0., 7.88110420e-02, 0., 0.,
          3.94055210e-02, 0., 0., 0., 7.88110420e-02, 0., 0.,
          3.94055210e-02, 0., 0., 0., 0., 0., 7.88110420e-02,
          3.94055210e-02, 3.94055210e-02, 0., 0., 0., 3.94055210e-02, 0.,
          0., 0., 0., 3.94055210e-02, 0., 0., 3.94055210e-02, 0., 0.,
          7.88110420e-02, 1.57622084e-01, 3.94055210e-02, 7.88110420e-02,
          7.88110420e-02, 3.94055210e-02, 0., 0., 0., 0., 7.88110420e-02,
          0., 7.88110420e-02, 0., 3.94055210e-02, 3.94055210e-02, 0.,
          3.94055210e-02, 0., 7.88110420e-02, 3.94055210e-02, 0.,
          7.88110420e-02, 0., 3.94055210e-02, 3.94055210e-02, 0., 0.,
          1.97027609e-01, 0., 3.94055210e-02, 3.94055210e-02, 0., 0.,
          3.94055210e-02, 0., 3.94055210e-02, 7.88110420e-02, 0.,
          3.94055210e-02, 3.94055210e-02, 0., 0., 7.88110420e-02, 0.,
          1.18216559e-01, 0., 7.88110420e-02, 0., 7.88110420e-02, 0.,
          3.94055210e-02, 0., 0., 0., 3.94055210e-02, 0., 7.88110420e-02,
          3.94055210e-02, 0., 0., 0., 1.18216559e-01, 3.94055210e-02,
          3.94055210e-02, 3.94055210e-02, 0., 0., 3.94055210e-02, 0., 0.,
          3.94055210e-02, 0., 0., 1.18216559e-01, 0., 0., 0., 0., 0., 0.,
          0., 0., 0., 3.94055210e-02, 0., 0., 0., 3.94055210e-02, 0.,
          7.88110420e-02, 0., 0., 0., 7.88110420e-02, 1.57622084e-01,
          7.88110420e-02, 3.94055210e-02, 0., 0., 3.94055210e-02, 0.,
          3.94055210e-02, 0., 7.88110420e-02, 0., 0., 3.94055210e-02, 0.,
          3.94055210e-02, 0., 3.94055210e-02, 0., 3.94055210e-02, 0.,
          3.94055210e-02, 3.94055210e-02, 0., 0. ]
      - [ 3.32779177e-02, 1.66389585e-01, 0., 0., 9.98337492e-02, 0., 0.,
          9.98337492e-02, 0., 0., 0., 3.32779177e-02, 0., 9.98337492e-02,
          0., 6.65558353e-02, 0., 0., 6.65558353e-02, 0., 0.,
          3.32779177e-02, 0., 3.32779177e-02, 3.32779177e-02, 0., 0., 0.,
          0., 0., 0., 0., 6.65558353e-02, 0., 9.98337492e-02,
          6.65558353e-02, 3.32779177e-02, 3.32779177e-02, 3.32779177e-02,
          1.66389585e-01, 0., 3.32779177e-02, 0., 1.33111671e-01, 0., 0.,
          0., 6.65558353e-02, 1.33111671e-01, 6.65558353e-02, 0., 0.,
          3.32779177e-02, 0., 0., 0., 6.65558353e-02, 3.32779177e-02, 0.,
          0., 0., 1.66389585e-01, 9.98337492e-02, 6.65558353e-02,
          3.32779177e-02, 0., 0., 3.32779177e-02, 3.32779177e-02, 0., 0.,
          9.98337492e-02, 0., 6.65558353e-02, 0., 0., 0., 1.99667498e-01,
          6.65558353e-02, 0., 0., 3.32779177e-02, 0., 1.33111671e-01,
          1.66389585e-01, 0., 9.98337492e-02, 3.32779177e-02, 0.,
          3.32779177e-02, 3.32779177e-02, 0., 3.32779177e-02, 0., 0., 0.,
          6.65558353e-02, 1.33111671e-01, 3.32779177e-02, 0., 0.,
          1.66389585e-01, 3.32779177e-02, 3.32779177e-02, 9.98337492e-02,
          0., 0., 3.32779177e-02, 0., 3.32779177e-02, 9.98337492e-02,
          6.65558353e-02, 0., 0., 3.32779177e-02, 0., 3.32779177e-02,
