%YAML:1.0
---
opencv_ml_svm:
   format: 3
   svmType: C_SVC
   kernel:
      type: CHI2
      gamma: 3.3750000000000002e-02
   C: 2.5000000000000000e+00
   term_criteria: { epsilon:1.0000000000000001e-01 }
   var_count: 500
   class_count: 2
   class_labels: !!opencv-matrix
      rows: 2
      cols: 1
      dt: i
      data: [ 0, 1 ]
   sv_total: 250
   support_vectors:
      - [ 3.43756303e-02, 3.43756303e-02, 5.15634455e-02, 0.,
          5.15634455e-02, 0., 0., 3.43756303e-02, 5.15634455e-02,
          3.43756303e-02, 0., 5.15634455e-02, 0., 0., 3.43756303e-02, 0.,
          6.87512606e-02, 8.59390721e-02, 5.15634455e-02, 5.15634455e-02,
          1.03126891e-01, 1.03126891e-01, 0., 1.03126891e-01,
          5.15634455e-02, 0., 1.03126891e-01, 0., 0., 3.43756303e-02,
          3.43756303e-02, 0., 0., 8.59390721e-02, 1.03126891e-01,
          1.71878152e-02, 6.87512606e-02, 0., 3.43756303e-02,
          1.71878152e-02, 0., 5.15634455e-02, 1.71878152e-02, 0.,
          5.15634455e-02, 0., 1.03126891e-01, 3.43756303e-02,
          3.43756303e-02, 0., 1.71878152e-02, 1.71878152e-02, 0., 0.,
          5.15634455e-02, 3.43756303e-02, 6.87512606e-02, 1.71878152e-02,
          0., 0., 1.71878152e-02, 0., 6.87512606e-02, 0., 3.43756303e-02,
          8.59390721e-02, 1.71878152e-02, 1.20314702e-01, 3.43756303e-02,
          0., 1.71878152e-02, 1.71878152e-02, 1.37502521e-01,
          6.87512606e-02, 0., 1.71878152e-02, 3.43756303e-02,
          6.87512606e-02, 5.15634455e-02, 1.71878152e-02, 6.87512606e-02,
          5.15634455e-02, 3.43756303e-02, 0., 5.15634455e-02, 0.,
          5.15634455e-02, 5.15634455e-02, 0., 8.59390721e-02, 0.,
          1.71878152e-02, 1.71878152e-02, 0., 5.15634455e-02,
          5.15634455e-02, 0., 1.71878152e-02, 1.71878152e-02,
          1.71878152e-02, 0., 5.15634455e-02, 0., 1.71878152e-02,
          1.71878152e-02, 0., 1.71878152e-02, 0., 0., 1.71878152e-02, 0.,
          3.43756303e-02, 1.71878152e-02, 0., 3.43756303e-02, 0.,
          8.59390721e-02, 3.43756303e-02, 1.71878152e-02, 0., 0.,
          3.43756303e-02, 1.71878152e-02, 0., 3.43756303e-02,
          1.71878152e-02, 0., 1.71878152e-02, 8.59390721e-02,
          8.59390721e-02, 0., 0., 1.71878152e-02, 1.71878152e-02,
          5.15634455e-02, 1.71878152e-02, 5.15634455e-02, 0.,
          1.71878152e-02, 0., 0., 0., 1.37502521e-01, 1.71878152e-02,
          1.71878152e-02, 6.87512606e-02, 3.43756303e-02, 1.71878152e-02,
          1.71878152e-02, 1.71878152e-02, 3.43756303e-02, 0.,
          8.59390721e-02, 1.71878152e-02, 0., 1.71878152e-02,
          5.15634455e-02, 6.87512606e-02, 3.43756303e-02, 0.,
          1.71878152e-02, 1.71878152e-02, 1.71878152e-02, 6.87512606e-02,
          1.71878152e-02, 5.15634455e-02, 0., 8.59390721e-02,
          5.15634455e-02, 1.71878152e-02, 0., 6.87512606e-02, 0.,
          1.71878152e-02, 0., 1.71878152e-02, 3.43756303e-02,
          1.71878152e-02, 1.71878152e-02, 5.15634455e-02, 0.,
          3.43756303e-02, 3.43756303e-02, 0., 1.71878152e-02, 0.,
          1.71878152e-02, 0., 5.15634455e-02, 5.15634455e-02,
          1.71878152e-02, 6.87512606e-02, 0., 3.43756303e-02,
          3.43756303e-02, 5.15634455e-02, 0., 3.43756303e-02, 0., 0.,
          1.71878152e-02, 0., 1.71878152e-02, 1.71878152e-02,
          1.71878152e-02, 1.37502521e-01, 1.03126891e-01, 3.43756303e-02,
          3.43756303e-02, 1.71878152e-02, 3.43756303e-02, 1.71878152e-02,
          3.43756303e-02, 1.71878152e-02, 5.15634455e-02, 1.71878152e-02,
          1.71878152e-02, 1.71878152e-02, 1.71878152e-02, 1.37502521e-01,
          6.87512606e-02, 1.71878152e-02, 0., 1.71878152e-02,
          1.03126891e-01, 5.15634455e-02, 1.71878152e-02, 0.,
          3.43756303e-02, 0., 6.87512606e-02, 5.15634455e-02,
          1.71878152e-02, 3.43756303e-02, 0., 1.71878152e-02,
          1.71878152e-02, 5.15634455e-02, 3.43756303e-02, 5.15634455e-02,
          1.71878152e-02, 3.43756303e-02, 5.15634455e-02, 6.87512606e-02,
          5.15634455e-02, 8.59390721e-02, 0., 0., 5.15634455e-02,
          5.15634455e-02, 3.43756303e-02, 3.43756303e-02, 1.71878152e-02,
          1.71878152e-02, 0., 3.43756303e-02, 0., 1.71878152e-02,
          3.43756303e-02, 3.43756303e-02, 8.59390721e-02, 8.59390721e-02,
          1.71878152e-02, 0., 1.71878152e-02, 3.43756303e-02, 0.,
          1.71878152e-02, 0., 1.71878152e-02, 1.71878152e-02,
          1.71878152e-02, 3.43756303e-02, 5.15634455e-02, 0.,
          1.03126891e-01, 1.71878152e-02, 1.71878152e-02, 0.,
          6.87512606e-02, 1.71878152e-02, 3.43756303e-02, 3.43756303e-02,
          5.15634455e-02, 8.59390721e-02, 0., 1.71878152e-02,
          8.59390721e-02, 3.43756303e-02, 0., 0., 1.71878152e-02,
          3.43756303e-02, 1.71878152e-02, 0., 1.71878152e-02,
          1.71878152e-02, 6.87512606e-02, 3.43756303e-02, 1.71878152e-02,
          1.71878152e-02, 0., 5.15634455e-02, 1.71878152e-02, 0.,
          1.71878152e-02, 0., 3.43756303e-02, 1.71878152e-02,
          1.71878152e-02, 1.71878152e-02, 0., 3.43756303e-02, 0.,
          5.15634455e-02, 1.71878152e-02, 1.71878152e-02, 3.43756303e-02,
          3.43756303e-02, 1.71878152e-02, 0., 5.15634455e-02,
          6.87512606e-02, 5.15634455e-02, 8.59390721e-02, 1.71878152e-02,
          0., 3.43756303e-02, 8.59390721e-02, 3.43756303e-02,
          5.15634455e-02, 5.15634455e-02, 0., 0., 5.15634455e-02,
          3.43756303e-02, 3.43756303e-02, 5.15634455e-02, 1.71878144e-01,
          1.71878152e-02, 5.15634455e-02, 1.71878152e-02, 0.,
          3.43756303e-02, 6.87512606e-02, 0., 1.71878152e-02, 0.,
          3.43756303e-02, 3.43756303e-02, 0., 8.59390721e-02,
          1.71878152e-02, 6.87512606e-02, 1.71878152e-02, 1.71878152e-02,
          0., 1.71878152e-02, 3.43756303e-02, 3.43756303e-02,
          1.71878152e-02, 1.71878152e-02, 6.87512606e-02, 3.43756303e-02,
          3.43756303e-02, 6.87512606e-02, 1.71878152e-02, 0.,
          6.87512606e-02, 1.71878152e-02, 1.71878152e-02, 3.43756303e-02,
          5.15634455e-02, 1.71878152e-02, 1.71878152e-02, 1.20314702e-01,
          3.43756303e-02, 0., 1.03126891e-01, 1.71878152e-02,
          3.43756303e-02, 3.43756303e-02, 5.15634455e-02, 0.,
          1.71878152e-02, 3.43756303e-02, 1.71878152e-02, 3.43756303e-02,
          3.43756303e-02, 0., 3.43756303e-02, 5.15634455e-02, 0., 0.,
          1.71878152e-02, 0., 5.15634455e-02, 5.15634455e-02, 0., 0., 0.,
          1.71878152e-02, 3.43756303e-02, 1.03126891e-01, 1.71878152e-02,
          1.71878152e-02, 0., 0., 0., 5.15634455e-02, 3.43756303e-02,
          1.71878152e-02, 0., 8.59390721e-02, 0., 6.87512606e-02,
          3.43756303e-02, 0., 0., 5.15634455e-02, 1.71878152e-02, 0.,
          5.15634455e-02, 1.71878152e-02, 3.43756303e-02, 0.,
          1.71878152e-02, 1.71878152e-02, 0., 3.43756303e-02,
          3.43756303e-02, 5.15634455e-02, 6.87512606e-02, 0.,
          6.87512606e-02, 0., 1.71878152e-02, 1.71878152e-02, 0.,
          6.87512606e-02, 1.71878152e-02, 3.43756303e-02, 3.43756303e-02,
          8.59390721e-02, 1.71878152e-02, 0., 1.71878152e-02,
          8.59390721e-02, 5.15634455e-02, 1.71878152e-02, 0., 0.,
          1.03126891e-01, 5.15634455e-02, 0., 1.20314702e-01,
          1.03126891e-01, 0., 5.15634455e-02, 3.43756303e-02,
          1.71878152e-02, 0., 8.59390721e-02, 1.20314702e-01,
          3.43756303e-02, 8.59390721e-02, 5.15634455e-02, 2.57817209e-01,
          1.71878152e-02, 1.71878152e-02, 3.43756303e-02, 3.43756303e-02,
          1.71878152e-02, 5.15634455e-02, 1.71878152e-02, 3.43756303e-02,
          0., 1.71878152e-02, 3.43756303e-02, 1.71878152e-02,
          3.43756303e-02, 3.43756303e-02, 0., 0., 6.87512606e-02, 0.,
          1.71878152e-02, 1.71878152e-02, 0., 5.15634455e-02,
          1.03126891e-01, 1.03126891e-01, 3.43756303e-02, 1.71878152e-02,
          0., 1.71878152e-02, 1.71878152e-02, 1.71878152e-02,
          6.87512606e-02, 0. ]
      - [ 0., 0., 3.87492143e-02, 0., 0., 3.87492143e-02, 0.,
          7.74984285e-02, 0., 0., 7.74984285e-02, 0., 3.87492143e-02, 0.,
          0., 0., 0., 7.74984285e-02, 0., 0., 0., 3.87492143e-02, 0.,
          3.87492143e-02, 0., 0., 0., 0., 0., 0., 7.74984285e-02, 0.,
          3.87492143e-02, 3.87492143e-02, 3.87492143e-02, 0.,
          3.87492143e-02, 0., 3.87492143e-02, 0., 0., 3.87492143e-02,
          3.87492143e-02, 7.74984285e-02, 3.87492143e-02, 7.74984285e-02,
          3.87492143e-02, 3.87492143e-02, 0., 3.87492143e-02, 0., 0.,
          3.87492143e-02, 0., 0., 3.87492143e-02, 3.87492143e-02,
          3.87492143e-02, 0., 7.74984285e-02, 0., 3.87492143e-02,
          3.87492143e-02, 3.87492143e-02, 3.87492143e-02, 0.,
          1.16247639e-01, 3.87492143e-02, 3.87492143e-02, 0.,
          7.74984285e-02, 3.87492143e-02, 0., 3.87492143e-02,
          3.87492143e-02, 3.87492143e-02, 0., 1.16247639e-01,
          1.54996857e-01, 3.87492143e-02, 0., 0., 0., 7.74984285e-02, 0.,
          3.87492143e-02, 3.87492143e-02, 0., 3.87492143e-02, 0., 0., 0.,
          3.87492143e-02, 7.74984285e-02, 0., 3.87492143e-02,
          3.87492143e-02, 3.87492143e-02, 3.87492143e-02, 0.,
          7.74984285e-02, 3.87492143e-02, 0., 0., 7.74984285e-02, 0.,
          3.87492143e-02, 7.74984285e-02, 3.87492143e-02, 0., 0.,
          1.16247639e-01, 3.87492143e-02, 3.87492143e-02, 0.,
          7.74984285e-02, 3.87492143e-02, 3.87492143e-02, 7.74984285e-02,
          0., 0., 3.87492143e-02, 0., 0., 0., 3.87492143e-02, 0., 0., 0.,
          0., 0., 0., 0., 0., 0., 0., 7.74984285e-02, 0., 0.,
          7.74984285e-02, 0., 0., 0., 0., 0., 3.87492143e-02,
          3.87492143e-02, 3.87492143e-02, 0., 3.87492143e-02,
          3.87492143e-02, 0., 3.87492143e-02, 0., 3.87492143e-02,
          3.87492143e-02, 0., 3.87492143e-02, 1.16247639e-01,
          3.87492143e-02, 0., 7.74984285e-02, 3.87492143e-02, 0., 0.,
          3.87492143e-02, 0., 3.87492143e-02, 3.87492143e-02,
          3.87492143e-02, 3.87492143e-02, 1.16247639e-01, 0.,
          3.87492143e-02, 3.87492143e-02, 0., 3.87492143e-02,
          7.74984285e-02, 3.87492143e-02, 0., 0., 0., 3.87492143e-02, 0.,
          0., 0., 3.87492143e-02, 0., 3.87492143e-02, 0., 0., 0.,
          3.87492143e-02, 0., 3.87492143e-02, 1.16247639e-01, 0., 0., 0.,
          3.87492143e-02, 0., 0., 3.87492143e-02, 3.87492143e-02, 0., 0.,
          0., 0., 7.74984285e-02, 0., 3.87492143e-02, 0., 3.87492143e-02,
          3.87492143e-02, 3.87492143e-02, 0., 7.74984285e-02,
          7.74984285e-02, 3.87492143e-02, 0., 7.74984285e-02, 0., 0., 0.,
          0., 3.87492143e-02, 0., 0., 0., 0., 3.87492143e-02,
          3.87492143e-02, 0., 7.74984285e-02, 0., 3.87492143e-02, 0.,
          7.74984285e-02, 7.74984285e-02, 3.87492143e-02, 3.87492143e-02,
          3.87492143e-02, 0., 0., 3.87492143e-02, 7.74984285e-02,
          3.87492143e-02, 3.87492143e-02, 0., 7.74984285e-02, 0., 0.,
          1.16247639e-01, 3.87492143e-02, 0., 3.87492143e-02,
          3.87492143e-02, 7.74984285e-02, 7.74984285e-02, 0.,
          1.54996857e-01, 3.87492143e-02, 1.16247639e-01, 3.87492143e-02,
          0., 0., 0., 3.87492143e-02, 0., 0., 3.87492143e-02, 0.,
          1.16247639e-01, 7.74984285e-02, 0., 3.87492143e-02, 0.,
          1.16247639e-01, 3.87492143e-02, 0., 3.87492143e-02, 0.,
          7.74984285e-02, 3.87492143e-02, 0., 3.87492143e-02,
          7.74984285e-02, 3.87492143e-02, 3.87492143e-02, 0., 0., 0.,
          3.87492143e-02, 3.87492143e-02, 0., 3.87492143e-02, 0., 0., 0.,
          3.87492143e-02, 3.87492143e-02, 0., 1.16247639e-01,
          3.87492143e-02, 7.74984285e-02, 7.74984285e-02, 0., 0., 0.,
          1.16247639e-01, 0., 0., 0., 3.87492143e-02, 0., 0., 0.,
          7.74984285e-02, 1.16247639e-01, 0., 3.87492143e-02, 0., 0., 0.,
          0., 3.87492143e-02, 3.87492143e-02, 0., 3.87492143e-02, 0., 0.,
          3.87492143e-02, 0., 3.87492143e-02, 0., 3.87492143e-02,
          3.87492143e-02, 0., 0., 3.87492143e-02, 0., 3.87492143e-02,
          3.87492143e-02, 3.87492143e-02, 0., 0., 0., 3.87492143e-02,
          7.74984285e-02, 7.74984285e-02, 0., 0., 7.74984285e-02, 0.,
          3.87492143e-02, 0., 0., 3.87492143e-02, 3.87492143e-02, 0.,
          3.87492143e-02, 0., 7.74984285e-02, 0., 0., 0., 0., 0., 0.,
          3.87492143e-02, 0., 0., 7.74984285e-02, 0., 7.74984285e-02, 0.,
          3.87492143e-02, 3.87492143e-02, 0., 0., 0., 0., 0., 0.,
          3.87492143e-02, 3.87492143e-02, 3.87492143e-02, 0.,
          3.87492143e-02, 7.74984285e-02, 0., 3.87492143e-02, 0.,
          7.74984285e-02, 7.74984285e-02, 3.87492143e-02, 0.,
          3.87492143e-02, 0., 3.87492143e-02, 0., 3.87492143e-02, 0.,
          3.87492143e-02, 0., 3.87492143e-02, 0., 0., 3.87492143e-02, 0.,
          0., 1.16247639e-01, 0., 0., 0., 0., 3.87492143e-02,
          1.93746060e-01, 0., 3.87492143e-02, 3.87492143e-02,
          3.87492143e-02, 0., 0., 3.87492143e-02, 0., 1.93746060e-01,
          7.74984285e-02, 0., 3.87492143e-02, 0., 7.74984285e-02, 0.,
          3.87492143e-02, 1.16247639e-01, 7.74984285e-02, 0.,
          1.16247639e-01, 0., 0., 3.87492143e-02, 0., 3.87492143e-02, 0.,
          3.87492143e-02, 3.87492143e-02, 0., 3.87492143e-02, 0., 0.,
          7.74984285e-02, 0., 3.87492143e-02, 3.87492143e-02, 0., 0.,
          1.16247639e-01, 0., 0., 7.74984285e-02, 0., 0., 1.54996857e-01,
          0., 3.87492143e-02, 0., 0., 3.87492143e-02, 3.87492143e-02,
          3.87492143e-02, 7.74984285e-02, 7.74984285e-02, 0.,
          3.87492143e-02, 3.87492143e-02, 0., 7.74984285e-02, 0., 0.,
          3.87492143e-02, 7.74984285e-02, 3.87492143e-02, 0.,
          3.87492143e-02, 3.87492143e-02, 0., 0., 0., 1.16247639e-01,
          7.74984285e-02, 0., 0., 7.74984285e-02, 3.87492143e-02, 0., 0.,
          7.74984285e-02, 1.16247639e-01, 0., 0. ]
      - [ 2.02361159e-02, 0., 2.02361159e-02, 4.04722318e-02, 0.,
          4.04722318e-02, 2.02361159e-02, 6.07083477e-02, 1.01180583e-01,
          0., 8.09444636e-02, 2.02361159e-02, 0., 2.02361159e-02, 0.,
          4.04722318e-02, 0., 0., 0., 2.02361159e-02, 6.07083477e-02,
          8.09444636e-02, 6.07083477e-02, 4.04722318e-02, 6.07083477e-02,
          4.04722318e-02, 0., 2.02361159e-02, 4.04722318e-02, 0.,
          2.02361159e-02, 0., 0., 4.04722318e-02, 2.02361159e-02, 0.,
          2.02361159e-02, 2.02361159e-02, 4.04722318e-02, 2.02361159e-02,
          1.21416695e-01, 0., 4.04722318e-02, 6.07083477e-02,
          8.09444636e-02, 4.04722318e-02, 2.02361159e-02, 0., 0.,
          2.02361159e-02, 2.02361159e-02, 6.07083477e-02, 0.,
          2.02361159e-02, 0., 4.04722318e-02, 0., 0., 2.02361159e-02, 0.,
          2.02361159e-02, 2.02361159e-02, 4.04722318e-02, 8.09444636e-02,
          2.02361159e-02, 2.02361159e-02, 1.61888927e-01, 4.04722318e-02,
          6.07083477e-02, 6.07083477e-02, 0., 4.04722318e-02, 0.,
          4.04722318e-02, 4.04722318e-02, 0., 2.02361159e-02,
          1.01180583e-01, 4.04722318e-02, 0., 4.04722318e-02, 0.,
          2.02361159e-02, 2.02361159e-02, 2.02361159e-02, 0.,
          2.02361159e-02, 0., 4.04722318e-02, 2.02361159e-02, 0.,
          2.02361159e-02, 4.04722318e-02, 0., 0., 8.09444636e-02, 0.,
          2.02361159e-02, 2.02361159e-02, 0., 0., 6.07083477e-02, 0., 0.,
          6.07083477e-02, 4.04722318e-02, 2.02361159e-02, 2.02361159e-02,
          2.02361159e-02, 2.02361159e-02, 0., 4.04722318e-02, 0., 0.,
          1.41652822e-01, 0., 2.02361159e-02, 0., 2.02361159e-02,
          4.04722318e-02, 6.07083477e-02, 2.02361159e-02, 2.02361159e-02,
          0., 0., 2.02361159e-02, 0., 0., 0., 0., 0., 0., 0., 0., 0.,
          8.09444636e-02, 4.04722318e-02, 4.04722318e-02, 4.04722318e-02,
          1.01180583e-01, 2.02361159e-02, 2.02361159e-02, 2.02361159e-02,
          0., 2.02361159e-02, 4.04722318e-02, 0., 8.09444636e-02, 0.,
          4.04722318e-02, 2.02361159e-02, 0., 4.04722318e-02, 0.,
          6.07083477e-02, 2.02361159e-02, 0., 2.02361159e-02,
          2.02361159e-02, 6.07083477e-02, 2.02361159e-02, 4.04722318e-02,
          6.07083477e-02, 0., 2.02361159e-02, 0., 0., 2.02361159e-02,
          4.04722318e-02, 2.02361159e-02, 4.04722318e-02, 4.04722318e-02,
          0., 0., 2.02361159e-02, 0., 6.07083477e-02, 0., 0.,
          2.02361159e-02, 0., 2.02361159e-02, 0., 0., 6.07083477e-02,
          2.02361159e-02, 0., 2.02361159e-02, 4.04722318e-02,
          2.02361159e-02, 2.02361159e-02, 2.02361159e-02, 2.02361159e-02,
          2.02361159e-02, 6.07083477e-02, 0., 0., 2.02361159e-02,
          2.02361159e-02, 4.04722318e-02, 0., 0., 6.07083477e-02,
          4.04722318e-02, 0., 0., 0., 0., 2.02361159e-02, 0.,
          2.02361159e-02, 2.02361159e-02, 2.02361159e-02, 0., 0.,
          6.07083477e-02, 2.02361159e-02, 0., 0., 3.03541750e-01,
          4.04722318e-02, 2.02361159e-02, 2.02361159e-02, 0.,
          2.02361159e-02, 0., 0., 2.02361159e-02, 0., 1.21416695e-01, 0.,
          2.02361159e-02, 0., 0., 6.07083477e-02, 2.02361159e-02,
          4.04722318e-02, 0., 2.02361159e-02, 2.02361159e-02, 0., 0., 0.,
          2.02361159e-02, 2.02361159e-02, 0., 0., 4.04722318e-02, 0., 0.,
          4.04722318e-02, 0., 2.02361159e-02, 2.02361159e-02,
          2.02361159e-02, 6.07083477e-02, 0., 0., 0., 4.04722318e-02,
          4.04722318e-02, 0., 6.07083477e-02, 0., 8.09444636e-02, 0.,
          2.02361159e-02, 2.02361159e-02, 0., 4.04722318e-02,
          8.09444636e-02, 1.01180583e-01, 0., 0., 2.02361159e-02,
          4.04722318e-02, 0., 2.02361159e-02, 2.02361159e-02, 0.,
          2.02361159e-02, 0., 0., 0., 6.07083477e-02, 6.07083477e-02,
          2.02361159e-02, 0., 0., 0., 2.02361159e-02, 4.04722318e-02, 0.,
          0., 4.04722318e-02, 2.02361159e-02, 6.07083477e-02, 0.,
          2.02361159e-02, 8.09444636e-02, 0., 2.02361159e-02,
          6.07083477e-02, 0., 2.02361159e-02, 0., 8.09444636e-02,
          8.09444636e-02, 0., 0., 6.07083477e-02, 0., 0., 2.02361159e-02,
          1.21416695e-01, 4.04722318e-02, 8.09444636e-02, 2.02361159e-02,
          4.04722318e-02, 2.02361159e-02, 0., 2.02361159e-02,
          8.09444636e-02, 0., 8.09444636e-02, 0., 2.02361159e-02, 0.,
          4.04722318e-02, 0., 2.02361159e-02, 4.04722318e-02,
          2.02361159e-02, 6.07083477e-02, 4.04722318e-02, 6.07083477e-02,
          0., 2.02361159e-02, 6.07083477e-02, 0., 0., 4.04722318e-02,
          8.09444636e-02, 2.02361159e-02, 0., 0., 0., 0., 2.02361159e-02,
          0., 2.02361159e-02, 0., 0., 2.02361159e-02, 0., 0.,
          8.09444636e-02, 6.07083477e-02, 0., 0., 0., 0., 4.04722318e-02,
          0., 0., 2.02361159e-02, 2.02361159e-02, 2.02361159e-02,
          2.02361159e-02, 0., 0., 0., 2.02361159e-02, 2.02361159e-02,
          2.02361159e-02, 0., 4.04722318e-02, 0., 2.02361166e-01, 0., 0.,
          2.02361159e-02, 0., 2.02361159e-02, 0., 0., 0., 2.02361159e-02,
          1.01180583e-01, 6.07083477e-02, 2.02361159e-02, 0.,
          4.04722318e-02, 0., 0., 4.04722318e-02, 4.04722318e-02, 0.,
          2.02361159e-02, 2.02361159e-02, 8.09444636e-02, 0.,
          2.02361159e-02, 0., 0., 4.04722318e-02, 0., 4.04722318e-02,
          4.04722318e-02, 2.02361159e-02, 4.04722318e-02, 2.02361159e-02,
          0., 4.04722318e-02, 4.04722318e-02, 1.01180583e-01, 0.,
          4.04722318e-02, 2.02361159e-02, 2.02361159e-02, 2.02361159e-02,
          2.02361159e-02, 0., 0., 2.02361159e-02, 2.02361159e-02,
          4.04722318e-02, 0., 0., 4.04722318e-02, 4.04722318e-02,
          4.04722318e-02, 0., 0., 2.02361159e-02, 2.02361159e-02,
          2.02361159e-02, 1.21416695e-01, 4.04722318e-02, 4.04722318e-02,
          4.04722318e-02, 0., 2.02361159e-02, 2.02361159e-02,
          2.02361159e-02, 2.02361159e-02, 0., 4.04722318e-02,
          2.02361159e-02, 8.09444636e-02, 4.24958438e-01, 8.09444636e-02,
          2.02361159e-02, 0., 0., 0., 2.02361159e-02, 6.07083477e-02, 0.,
          0., 6.07083477e-02, 4.04722318e-02, 4.04722318e-02, 0.,
          4.04722318e-02, 0., 2.02361159e-02, 0., 4.04722318e-02, 0., 0.,
          1.82125047e-01, 4.04722318e-02, 2.02361159e-02, 0., 0.,
          1.21416695e-01, 4.04722318e-02, 2.02361159e-02, 4.04722318e-02,
          6.07083477e-02, 4.04722318e-02, 2.02361159e-02, 0.,
          6.07083477e-02, 2.02361159e-02, 6.07083477e-02, 2.02361159e-02,
          2.02361159e-02, 0., 4.04722318e-02, 6.07083477e-02,
          4.04722318e-02, 6.07083477e-02, 4.04722318e-02, 0.,
          4.04722318e-02, 2.02361159e-02, 0., 0. ]
      - [ 4.07147072e-02, 4.07147072e-02, 2.03573536e-02, 4.07147072e-02,
          2.03573536e-02, 0., 0., 8.14294145e-02, 1.62858829e-01,
          6.10720627e-02, 6.10720627e-02, 0., 0., 0., 0., 2.03573536e-02,
          2.03573536e-02, 1.22144125e-01, 2.03573536e-02, 2.03573536e-02,
          0., 0., 0., 2.03573536e-02, 4.07147072e-02, 2.03573536e-02, 0.,
          0., 2.03573536e-02, 0., 2.03573536e-02, 2.03573536e-02,
          2.03573536e-02, 4.07147072e-02, 0., 8.14294145e-02, 0., 0.,
          2.03573536e-02, 2.03573536e-02, 2.03573536e-02, 0., 0.,
          1.01786770e-01, 2.03573536e-02, 0., 0., 0., 0., 0.,
          8.14294145e-02, 0., 2.03573536e-02, 0., 2.03573536e-02,
          4.07147072e-02, 0., 0., 0., 2.03573536e-02, 0., 4.07147072e-02,
          6.10720627e-02, 8.14294145e-02, 0., 0., 1.01786770e-01, 0.,
          2.03573536e-02, 2.03573536e-02, 6.10720627e-02, 6.10720627e-02,
          0., 2.03573536e-02, 2.03573536e-02, 2.03573536e-02, 0.,
          4.47861791e-01, 4.07147072e-02, 4.07147072e-02, 0.,
          4.07147072e-02, 4.07147072e-02, 0., 6.10720627e-02, 0.,
          2.03573536e-02, 2.03573536e-02, 0., 4.07147072e-02,
          4.07147072e-02, 4.07147072e-02, 0., 0., 2.03573536e-02, 0., 0.,
          0., 4.07147072e-02, 0., 2.03573536e-02, 3.25717658e-01, 0.,
          2.03573536e-02, 2.03573536e-02, 0., 4.07147072e-02, 0., 0., 0.,
          0., 8.14294145e-02, 0., 2.03573536e-02, 2.03573536e-02, 0., 0.,
          0., 0., 0., 2.03573536e-02, 2.03573536e-02, 2.03573536e-02, 0.,
          2.03573536e-02, 4.07147072e-02, 2.03573536e-02, 6.10720627e-02,
          0., 0., 2.03573536e-02, 0., 4.07147072e-02, 2.03573536e-02,
          2.03573536e-02, 2.03573536e-02, 6.10720627e-02, 4.07147072e-02,
          4.07147072e-02, 6.10720627e-02, 2.03573536e-02, 0., 0., 0., 0.,
          8.14294145e-02, 0., 0., 0., 2.03573536e-02, 2.03573536e-02,
          6.10720627e-02, 6.10720627e-02, 0., 0., 4.07147072e-02, 0.,
          4.07147072e-02, 1.22144125e-01, 0., 0., 2.03573536e-02,
          4.07147072e-02, 0., 0., 0., 0., 2.03573536e-02, 6.10720627e-02,
          2.03573536e-02, 6.10720627e-02, 2.03573536e-02, 0.,
          2.03573536e-02, 0., 0., 6.10720627e-02, 0., 4.07147072e-02, 0.,
          2.03573536e-02, 0., 2.03573536e-02, 4.07147072e-02, 0., 0., 0.,
          4.07147072e-02, 0., 4.07147072e-02, 0., 0., 8.14294145e-02,
          4.07147072e-02, 4.07147072e-02, 6.10720627e-02, 0.,
          2.03573536e-02, 0., 2.03573536e-02, 6.10720627e-02, 0.,
          4.07147072e-02, 0., 0., 6.10720627e-02, 0., 0., 0.,
          2.03573536e-02, 4.07147072e-02, 2.03573536e-02, 6.10720627e-02,
          6.10720627e-02, 0., 8.14294145e-02, 4.07147072e-02,
          8.14294145e-02, 2.03573536e-02, 4.07147072e-02, 8.14294145e-02,
          4.07147072e-02, 4.07147072e-02, 0., 4.07147072e-02,
          4.07147072e-02, 0., 0., 2.03573536e-02, 2.03573536e-02, 0.,
          2.03573536e-02, 0., 4.07147072e-02, 1.01786770e-01,
          2.03573536e-02, 0., 2.03573536e-02, 0., 2.03573536e-02, 0., 0.,
          0., 0., 0., 2.03573536e-02, 0., 2.03573536e-02, 2.03573536e-02,
          0., 2.03573536e-02, 6.10720627e-02, 0., 4.07147072e-02, 0., 0.,
          0., 0., 4.07147072e-02, 0., 4.07147072e-02, 2.03573536e-02,
          4.07147072e-02, 0., 2.03573536e-02, 6.10720627e-02,
          2.03573536e-02, 0., 0., 0., 2.03573536e-02, 4.07147072e-02, 0.,
          2.03573536e-02, 6.10720627e-02, 4.07147072e-02, 0.,
          4.07147072e-02, 2.03573536e-02, 4.07147072e-02, 2.03573536e-02,
          0., 2.03573536e-02, 2.03573536e-02, 0., 0., 2.03573536e-02,
          2.03573536e-02, 0., 4.07147072e-02, 0., 2.03573536e-02, 0., 0.,
          0., 2.03573536e-02, 4.07147072e-02, 0., 0., 2.03573536e-02,
          2.03573536e-02, 4.07147072e-02, 4.07147072e-02, 4.07147072e-02,
          2.03573536e-02, 0., 6.10720627e-02, 2.03573536e-02, 0., 0.,
          1.01786770e-01, 4.07147072e-02, 0., 6.10720627e-02,
          4.07147072e-02, 0., 4.07147072e-02, 2.03573536e-02,
          4.07147072e-02, 2.03573536e-02, 0., 4.07147072e-02,
          4.07147072e-02, 2.03573536e-02, 2.03573536e-02, 2.03573536e-02,
          2.03573536e-02, 0., 6.10720627e-02, 0., 4.07147072e-02,
          6.10720627e-02, 0., 4.07147072e-02, 2.03573536e-02, 0., 0., 0.,
          4.07147072e-02, 0., 0., 0., 2.03573536e-02, 2.03573536e-02,
          6.10720627e-02, 0., 2.03573536e-02, 2.03573536e-02,
          1.01786770e-01, 0., 4.07147072e-02, 2.03573536e-02,
          4.07147072e-02, 0., 0., 0., 2.03573536e-02, 8.14294145e-02,
          2.03573536e-02, 0., 0., 6.10720627e-02, 2.03573536e-02, 0.,
          4.07147072e-02, 0., 0., 0., 6.10720627e-02, 2.03573536e-02,
          2.03573536e-02, 6.10720627e-02, 0., 0., 2.03573536e-02, 0.,
          6.10720627e-02, 0., 0., 1.42501488e-01, 4.07147072e-02, 0., 0.,
          2.03573536e-02, 0., 0., 0., 0., 0., 8.14294145e-02, 0., 0., 0.,
          0., 0., 6.10720627e-02, 4.07147072e-02, 2.03573536e-02,
          2.03573536e-02, 0., 2.03573536e-02, 4.07147072e-02,
          4.07147072e-02, 0., 2.03573536e-02, 4.07147072e-02, 0., 0.,
          2.03573536e-02, 2.03573536e-02, 0., 0., 2.03573536e-02,
          2.03573536e-02, 0., 4.07147072e-02, 2.03573536e-02,
          4.07147072e-02, 4.07147072e-02, 4.07147072e-02, 0.,
          2.03573536e-02, 2.03573536e-02, 2.03573536e-02, 0.,
          2.03573536e-02, 2.03573536e-02, 2.03573536e-02, 6.10720627e-02,
          2.03573536e-02, 0., 4.07147072e-02, 2.03573536e-02,
          2.03573536e-02, 2.03573536e-02, 2.03573536e-02, 4.07147072e-02,
          2.03573536e-02, 4.07147072e-02, 2.03573536e-02, 0., 0., 0.,
          8.14294145e-02, 0., 0., 2.03573536e-02, 0., 8.14294145e-02,
          8.14294145e-02, 0., 2.03573536e-02, 2.03573536e-02,
          1.01786770e-01, 0., 2.03573536e-02, 4.07147072e-02, 0.,
          2.03573536e-02, 2.03573536e-02, 8.14294145e-02, 1.42501488e-01,
          2.03573536e-02, 1.01786770e-01, 1.22144125e-01, 2.03573536e-02,
          0., 2.03573536e-02, 2.03573536e-02, 0., 4.07147072e-02,
          2.03573536e-02, 2.03573536e-02, 8.14294145e-02, 2.03573536e-02,
          6.10720627e-02, 2.03573540e-01, 0., 2.03573536e-02, 0.,
          4.07147072e-02, 6.10720627e-02, 0., 0., 1.42501488e-01,
          6.10720627e-02, 0., 6.10720627e-02, 6.10720627e-02,
          4.07147072e-02, 0., 0., 0., 4.07147072e-02, 2.03573536e-02, 0.,
          4.07147072e-02, 2.03573536e-02, 2.03573536e-02, 0. ]
      - [ 3.11437324e-02, 0., 9.34311971e-02, 3.11437324e-02,
          3.11437324e-02, 3.11437324e-02, 3.11437324e-02, 2.80293584e-01,
          3.11437324e-02, 6.22874647e-02, 6.22874647e-02, 0., 0.,
          3.11437324e-02, 0., 0., 0., 0., 3.11437324e-02, 0., 0., 0.,
          3.11437324e-02, 9.34311971e-02, 1.55718669e-01, 3.11437324e-02,
          0., 3.11437324e-02, 0., 3.11437324e-02, 3.11437324e-02,
          3.11437324e-02, 0., 3.11437324e-02, 6.22874647e-02, 0., 0., 0.,
          3.11437324e-02, 3.11437324e-02, 0., 0., 3.11437324e-02,
          3.11437324e-02, 3.11437324e-02, 6.22874647e-02, 3.11437324e-02,
          3.11437324e-02, 3.11437324e-02, 0., 9.34311971e-02, 0., 0.,
          3.11437324e-02, 0., 3.11437324e-02, 0., 0., 0., 3.11437324e-02,
          6.22874647e-02, 0., 3.11437324e-02, 0., 3.11437324e-02,
          3.11437324e-02, 6.22874647e-02, 9.34311971e-02, 3.11437324e-02,
          3.11437324e-02, 3.11437324e-02, 6.22874647e-02, 3.11437324e-02,
          3.11437324e-02, 6.22874647e-02, 0., 0., 3.42581064e-01,
          3.11437324e-02, 0., 3.11437324e-02, 3.11437324e-02, 0., 0.,
          6.22874647e-02, 6.22874647e-02, 0., 0., 6.22874647e-02,
          3.11437324e-02, 0., 0., 0., 0., 0., 6.22874647e-02, 0.,
          6.22874647e-02, 0., 3.11437324e-02, 6.22874647e-02,
          1.24574929e-01, 0., 0., 6.22874647e-02, 3.11437324e-02,
          9.34311971e-02, 0., 0., 3.11437324e-02, 0., 6.22874647e-02,
          3.11437324e-02, 0., 9.34311971e-02, 0., 3.11437324e-02,
          3.11437324e-02, 3.11437324e-02, 0., 3.11437324e-02, 0., 0.,
          3.11437324e-02, 3.11437324e-02, 3.11437324e-02, 3.11437324e-02,
          0., 0., 0., 6.22874647e-02, 0., 9.34311971e-02, 0.,
          6.22874647e-02, 6.22874647e-02, 6.22874647e-02, 0.,
          3.11437324e-02, 0., 0., 0., 0., 0., 0., 9.34311971e-02, 0., 0.,
          3.11437324e-02, 3.11437324e-02, 3.11437324e-02, 0.,
          1.24574929e-01, 0., 0., 9.34311971e-02, 0., 0., 6.22874647e-02,
          0., 3.11437324e-02, 3.11437324e-02, 3.11437324e-02, 0., 0.,
          6.22874647e-02, 0., 0., 3.11437324e-02, 0., 0., 3.11437324e-02,
          0., 0., 0., 0., 0., 0., 0., 0., 3.11437324e-02, 0.,
          3.11437324e-02, 3.11437324e-02, 0., 0., 6.22874647e-02,
          1.55718669e-01, 6.22874647e-02, 0., 6.22874647e-02, 0., 0., 0.,
          0., 0., 3.11437324e-02, 0., 0., 6.22874647e-02, 6.22874647e-02,
          0., 0., 0., 0., 6.22874647e-02, 0., 3.11437324e-02,
          3.11437324e-02, 0., 6.22874647e-02, 3.11437324e-02,
          6.22874647e-02, 0., 0., 0., 3.11437324e-02, 6.22874647e-02,
          6.22874647e-02, 6.22874647e-02, 0., 9.34311971e-02, 0., 0.,
          3.11437324e-02, 0., 0., 6.22874647e-02, 0., 3.11437324e-02, 0.,
          3.11437324e-02, 0., 0., 0., 0., 3.11437324e-02, 3.11437324e-02,
          3.11437324e-02, 0., 0., 3.11437324e-02, 3.11437324e-02,
          3.11437324e-02, 0., 0., 6.22874647e-02, 0., 3.11437324e-02, 0.,
          0., 9.34311971e-02, 0., 3.11437324e-02, 3.11437324e-02, 0., 0.,
          3.11437324e-02, 3.11437324e-02, 3.11437324e-02, 0.,
          3.11437324e-02, 3.11437324e-02, 0., 3.11437324e-02,
          3.11437324e-02, 0., 0., 3.11437324e-02, 0., 9.34311971e-02,
          6.22874647e-02, 3.11437324e-02, 1.24574929e-01, 0., 0.,
          6.22874647e-02, 3.11437324e-02, 0., 0., 1.24574929e-01,
          3.11437324e-02, 3.11437324e-02, 9.34311971e-02, 3.11437324e-02,
          3.11437324e-02, 6.22874647e-02, 0., 3.11437324e-02, 0., 0., 0.,
          3.11437324e-02, 3.11437324e-02, 0., 0., 0., 0., 0., 0., 0., 0.,
          9.34311971e-02, 3.11437324e-02, 0., 0., 3.11437324e-02,
          6.22874647e-02, 0., 0., 6.22874647e-02, 0., 0., 0.,
          3.11437324e-02, 0., 0., 3.11437324e-02, 6.22874647e-02,
          3.11437324e-02, 0., 3.11437324e-02, 6.22874647e-02,
          9.34311971e-02, 9.34311971e-02, 0., 3.11437324e-02, 0.,
          3.11437324e-02, 0., 6.22874647e-02, 3.11437324e-02,
          6.22874647e-02, 0., 0., 9.34311971e-02, 0., 0., 3.11437324e-02,
          1.24574929e-01, 0., 0., 0., 0., 6.22874647e-02, 3.11437324e-02,
          0., 3.11437324e-02, 3.11437324e-02, 0., 3.11437324e-02,
          6.22874647e-02, 0., 6.22874647e-02, 3.11437324e-02, 0.,
          3.11437324e-02, 3.11437324e-02, 0., 0., 9.34311971e-02,
          3.11437324e-02, 0., 0., 0., 0., 3.11437324e-02, 3.11437324e-02,
          6.22874647e-02, 3.11437324e-02, 0., 0., 9.34311971e-02,
          3.11437324e-02, 0., 0., 3.11437324e-02, 0., 1.24574929e-01,
          6.22874647e-02, 3.11437324e-02, 0., 0., 3.11437324e-02, 0.,
          9.34311971e-02, 0., 3.11437324e-02, 3.11437324e-02,
          9.34311971e-02, 0., 3.11437324e-02, 0., 0., 3.11437324e-02, 0.,
          6.22874647e-02, 3.11437324e-02, 0., 0., 0., 3.11437324e-02,
          3.11437324e-02, 0., 0., 6.22874647e-02, 6.22874647e-02, 0., 0.,
          0., 0., 6.22874647e-02, 0., 0., 3.11437324e-02, 0.,
          6.22874647e-02, 0., 0., 0., 0., 0., 3.11437324e-02, 0., 0.,
          3.11437324e-02, 0., 3.11437324e-02, 3.11437324e-02, 0., 0., 0.,
          0., 9.34311971e-02, 3.11437324e-02, 3.11437324e-02, 0.,
          3.11437324e-02, 0., 3.11437324e-02, 0., 3.11437324e-02,
          3.11437324e-02, 0., 0., 0., 0., 3.11437324e-02, 3.11437324e-02,
          6.22874647e-02, 0., 9.34311971e-02, 3.11437324e-02, 0., 0.,
          3.11437324e-02, 0., 6.22874647e-02, 0., 0., 0., 3.11437324e-02,
          9.34311971e-02, 1.24574929e-01, 9.34311971e-02, 0., 0., 0.,
          6.22874647e-02, 0., 6.22874647e-02, 0., 3.11437324e-02,
          6.22874647e-02, 0., 0., 0., 0., 0., 3.11437324e-02, 0., 0., 0.,
          0., 1.86862394e-01, 0., 6.22874647e-02, 0., 0., 6.22874647e-02,
          3.11437324e-02, 3.11437324e-02, 6.22874647e-02, 0., 0., 0.,
          9.34311971e-02, 0., 3.11437324e-02, 0. ]
      - [ 0., 0., 1.30188912e-01, 0., 0., 0., 0., 0., 0., 0., 0.,
          1.30188912e-01, 0., 0., 0., 0., 0., 0., 1.30188912e-01, 0., 0.,
          0., 1.30188912e-01, 0., 0., 0., 0., 0., 0., 0., 0., 0., 0., 0.,
          0., 0., 0., 0., 0., 0., 0., 1.30188912e-01, 1.30188912e-01, 0.,
          0., 0., 0., 0., 0., 0., 0., 0., 0., 0., 0., 0., 0., 0.,
          1.30188912e-01, 0., 0., 0., 0., 0., 0., 0., 0., 0., 0., 0., 0.,
          0., 0., 0., 0., 0., 0., 0., 0., 0., 1.30188912e-01, 0., 0., 0.,
          0., 0., 0., 1.30188912e-01, 0., 0., 0., 0., 0., 0., 0., 0., 0.,
          0., 0., 0., 0., 0., 0., 0., 0., 0., 0., 0., 0., 0., 0., 0., 0.,
          0., 1.30188912e-01, 0., 0., 0., 0., 0., 0., 0., 0., 0., 0., 0.,
          0., 0., 0., 0., 0., 0., 0., 0., 0., 0., 0., 0., 0., 0., 0., 0.,
          1.30188912e-01, 0., 0., 0., 0., 1.30188912e-01, 0., 0., 0., 0.,
          0., 0., 0., 0., 0., 0., 2.60377824e-01, 1.30188912e-01,
          1.30188912e-01, 1.30188912e-01, 0., 0., 0., 0., 0., 0., 0., 0.,
          0., 0., 0., 0., 0., 0., 0., 0., 0., 0., 0., 0., 0., 0., 0., 0.,
          0., 0., 0., 0., 0., 1.30188912e-01, 0., 2.60377824e-01, 0., 0.,
          1.30188912e-01, 0., 0., 0., 0., 0., 0., 0., 0., 0.,
          1.30188912e-01, 0., 0., 0., 0., 0., 0., 0., 0., 0., 0., 0., 0.,
          0., 1.30188912e-01, 0., 0., 0., 0., 0., 0., 0., 0., 0., 0., 0.,
          0., 0., 0., 0., 0., 0., 0., 0., 0., 0., 1.30188912e-01, 0., 0.,
          0., 0., 0., 0., 1.30188912e-01, 0., 0., 0., 0., 0., 0., 0., 0.,
          0., 0., 0., 0., 0., 0., 0., 0., 0., 0., 0., 0., 0., 0., 0., 0.,
          0., 0., 0., 0., 0., 0., 0., 0., 0., 0., 0., 0., 0., 0., 0., 0.,
          0., 0., 0., 1.30188912e-01, 0., 1.30188912e-01, 0., 0., 0., 0.,
          0., 1.30188912e-01, 1.30188912e-01, 0., 0., 1.30188912e-01, 0.,
          0., 0., 0., 0., 0., 0., 0., 0., 0., 0., 1.30188912e-01,
          1.30188912e-01, 0., 0., 2.60377824e-01, 1.30188912e-01, 0., 0.,
          0., 0., 0., 0., 0., 0., 0., 0., 0., 0., 0., 0., 0., 0., 0., 0.,
          0., 0., 0., 0., 0., 0., 0., 0., 0., 0., 0., 2.60377824e-01, 0.,
          0., 0., 0., 0., 0., 0., 0., 0., 0., 0., 0., 0., 0., 0., 0., 0.,
          0., 0., 0., 0., 0., 2.60377824e-01, 0., 1.30188912e-01, 0., 0.,
          0., 0., 0., 0., 0., 0., 0., 0., 0., 1.30188912e-01, 0., 0., 0.,
          0., 1.30188912e-01, 0., 0., 0., 1.30188912e-01, 0., 0., 0., 0.,
          0., 0., 0., 0., 0., 0., 0., 0., 0., 0., 0., 0., 0., 0., 0., 0.,
          0., 0., 0., 0., 0., 0., 0., 0., 1.30188912e-01, 0., 0., 0., 0.,
          0., 0., 0., 0., 1.30188912e-01, 0., 0., 0., 1.30188912e-01, 0.,
          0., 0., 0., 0., 0., 0., 0., 0., 0., 0., 1.30188912e-01, 0., 0.,
          0., 0., 0., 0., 0., 0., 1.30188912e-01, 0., 0., 0., 0., 0., 0.,
          0., 0., 0., 0., 0., 0., 0., 0., 0., 0., 0., 0., 0., 0., 0., 0.,
          0., 0., 1.30188912e-01, 0., 0., 0., 0., 0., 0., 0., 0., 0., 0.,
          0., 0., 0. ]
      - [ 0., 0., 6.91714436e-02, 0., 0., 0., 0., 0., 1.38342887e-01, 0.,
          6.91714436e-02, 0., 0., 0., 0., 0., 0., 0., 0., 0., 0.,
          6.91714436e-02, 0., 1.38342887e-01, 6.91714436e-02, 0., 0., 0.,
          0., 0., 0., 0., 6.91714436e-02, 1.38342887e-01, 2.07514346e-01,
          0., 2.07514346e-01, 0., 0., 0., 0., 0., 6.91714436e-02,
          6.91714436e-02, 0., 0., 0., 0., 0., 0., 1.38342887e-01, 0., 0.,
          0., 6.91714436e-02, 0., 0., 0., 0., 6.91714436e-02, 0., 0.,
          1.38342887e-01, 6.91714436e-02, 0., 0., 0., 6.91714436e-02, 0.,
          0., 0., 0., 0., 1.38342887e-01, 6.91714436e-02, 0.,
          6.91714436e-02, 3.45857233e-01, 0., 0., 0., 0., 0., 0., 0., 0.,
          0., 0., 0., 0., 0., 0., 0., 0., 0., 6.91714436e-02, 0., 0., 0.,
          0., 6.91714436e-02, 1.38342887e-01, 0., 1.38342887e-01, 0., 0.,
          0., 0., 0., 0., 0., 0., 0., 0., 0., 0., 0., 0., 0., 0., 0., 0.,
          0., 0., 0., 0., 0., 0., 0., 0., 0., 0., 6.91714436e-02, 0., 0.,
          0., 0., 0., 0., 6.91714436e-02, 0., 0., 0., 0., 0., 0., 0., 0.,
          0., 0., 6.91714436e-02, 0., 0., 0., 6.91714436e-02, 0., 0., 0.,
          0., 0., 0., 6.91714436e-02, 0., 0., 0., 6.91714436e-02, 0., 0.,
          6.91714436e-02, 0., 0., 0., 0., 0., 0., 0., 6.91714436e-02, 0.,
          6.91714436e-02, 0., 0., 0., 0., 0., 0., 0., 0., 1.38342887e-01,
          0., 0., 0., 0., 0., 0., 6.91714436e-02, 6.91714436e-02, 0., 0.,
          0., 0., 0., 0., 0., 6.91714436e-02, 0., 0., 0., 0., 0., 0., 0.,
          0., 0., 0., 6.91714436e-02, 0., 6.91714436e-02, 0., 0., 0., 0.,
          0., 0., 0., 0., 1.38342887e-01, 0., 0., 0., 0., 0.,
          1.38342887e-01, 0., 6.91714436e-02, 0., 0., 0., 0., 0., 0., 0.,
          0., 0., 0., 0., 0., 0., 0., 0., 0., 0., 0., 0., 0., 0., 0., 0.,
          1.38342887e-01, 0., 0., 1.38342887e-01, 0., 0., 0., 0., 0., 0.,
          0., 0., 0., 6.91714436e-02, 6.91714436e-02, 0., 0., 0., 0.,
          1.38342887e-01, 0., 0., 0., 6.91714436e-02, 0., 6.91714436e-02,
          0., 0., 0., 6.91714436e-02, 0., 0., 0., 0., 0., 0.,
          6.91714436e-02, 0., 0., 0., 0., 0., 0., 0., 6.91714436e-02,
          6.91714436e-02, 0., 0., 6.91714436e-02, 0., 0., 0., 0., 0., 0.,
          0., 0., 0., 0., 0., 6.91714436e-02, 0., 0., 0., 6.91714436e-02,
          1.38342887e-01, 0., 0., 0., 0., 0., 1.38342887e-01, 0., 0., 0.,
          0., 0., 0., 0., 0., 0., 0., 0., 0., 0., 0., 0., 0., 0., 0.,
          1.38342887e-01, 6.91714436e-02, 0., 0., 6.91714436e-02,
          2.76685774e-01, 0., 0., 0., 0., 0., 0., 0., 0., 0., 0., 0., 0.,
          0., 0., 0., 0., 0., 0., 1.38342887e-01, 0., 0., 0., 0.,
          6.91714436e-02, 0., 6.91714436e-02, 0., 0., 0., 0.,
          6.91714436e-02, 0., 6.91714436e-02, 0., 0., 0., 6.91714436e-02,
          0., 0., 0., 0., 0., 0., 6.91714436e-02, 0., 0., 0., 0., 0., 0.,
          0., 0., 0., 0., 0., 0., 0., 0., 6.91714436e-02, 0., 0., 0., 0.,
          6.91714436e-02, 0., 1.38342887e-01, 0., 0., 6.91714436e-02, 0.,
          0., 0., 0., 0., 0., 0., 0., 0., 0., 0., 0., 1.38342887e-01, 0.,
          0., 0., 0., 0., 0., 0., 0., 0., 0., 0., 0., 0., 0.,
          6.91714436e-02, 0., 6.91714436e-02, 0., 0., 0., 0., 0.,
          6.91714436e-02, 0., 0., 0., 0., 6.91714436e-02, 0.,
          6.91714436e-02, 0., 0., 0., 0., 0., 0., 0., 0., 0.,
          6.91714436e-02, 0., 0., 0., 0., 0., 6.91714436e-02, 0., 0., 0.,
          6.91714436e-02, 0., 1.38342887e-01, 0., 0., 0., 6.91714436e-02,
          6.91714436e-02, 0., 0., 0., 0., 1.38342887e-01, 0., 0., 0. ]
      - [ 0., 2.17906814e-02, 8.71627256e-02, 4.35813628e-02,
          1.08953409e-01, 2.17906814e-02, 2.17906814e-02, 1.30744085e-01,
          4.35813628e-02, 0., 0., 2.17906814e-02, 2.17906814e-02, 0.,
          2.17906814e-02, 2.17906814e-02, 2.17906814e-02, 6.53720424e-02,
          0., 0., 0., 6.53720424e-02, 4.35813628e-02, 4.35813628e-02,
          6.53720424e-02, 8.71627256e-02, 4.35813628e-02, 0., 0.,
          4.35813628e-02, 4.35813628e-02, 4.35813628e-02, 2.17906814e-02,
          4.35813628e-02, 4.35813628e-02, 6.53720424e-02, 6.53720424e-02,
          1.08953409e-01, 0., 4.35813628e-02, 2.17906814e-02, 0.,
          2.17906814e-02, 4.35813628e-02, 2.17906814e-02, 6.53720424e-02,
          1.08953409e-01, 2.17906814e-02, 2.17906814e-02, 4.35813628e-02,
          0., 2.17906814e-02, 0., 6.53720424e-02, 4.35813628e-02,
          1.30744085e-01, 2.17906814e-02, 2.17906814e-02, 0.,
          4.35813628e-02, 8.71627256e-02, 2.17906814e-02, 4.35813628e-02,
          0., 2.17906814e-02, 4.35813628e-02, 2.17906814e-02,
          1.30744085e-01, 2.17906814e-02, 8.71627256e-02, 2.17906814e-02,
          8.71627256e-02, 4.35813628e-02, 0., 2.17906814e-02,
          2.17906814e-02, 0., 1.52534768e-01, 2.17906814e-02,
          4.35813628e-02, 2.17906814e-02, 2.17906814e-02, 4.35813628e-02,
          6.53720424e-02, 2.17906814e-02, 4.35813628e-02, 4.35813628e-02,
          0., 2.17906814e-02, 0., 4.35813628e-02, 2.17906814e-02, 0.,
          2.17906814e-02, 6.53720424e-02, 6.53720424e-02, 0.,
          2.17906814e-02, 0., 4.35813628e-02, 8.71627256e-02,
          1.52534768e-01, 4.35813628e-02, 4.35813628e-02, 6.53720424e-02,
          2.17906814e-02, 4.35813628e-02, 0., 4.35813628e-02,
          4.35813628e-02, 0., 6.53720424e-02, 2.17906814e-02, 0., 0.,
          8.71627256e-02, 2.17906814e-02, 0., 4.35813628e-02, 0., 0.,
          6.53720424e-02, 2.17906814e-02, 2.17906814e-02, 2.17906814e-02,
          2.17906814e-02, 0., 2.17906814e-02, 0., 0., 0., 6.53720424e-02,
          2.17906814e-02, 2.17906814e-02, 2.17906814e-02, 0., 0., 0.,
          6.53720424e-02, 4.35813628e-02, 0., 4.35813628e-02,
          2.17906814e-02, 4.35813628e-02, 2.17906814e-02, 4.35813628e-02,
          2.17906814e-02, 0., 2.17906814e-02, 0., 6.53720424e-02,
          6.53720424e-02, 2.17906814e-02, 0., 0., 2.17906814e-02, 0.,
          4.35813628e-02, 6.53720424e-02, 4.35813628e-02, 4.35813628e-02,
          2.17906814e-02, 8.71627256e-02, 4.35813628e-02, 6.53720424e-02,
          2.17906814e-02, 2.17906814e-02, 0., 6.53720424e-02,
          2.17906814e-02, 0., 4.35813628e-02, 2.17906814e-02,
          6.53720424e-02, 2.17906814e-02, 2.17906814e-02, 0.,
          2.17906814e-02, 2.17906814e-02, 0., 2.17906814e-02,
          6.53720424e-02, 2.17906814e-02, 2.17906814e-02, 6.53720424e-02,
          0., 4.35813628e-02, 4.35813628e-02, 2.17906814e-02,
          2.17906814e-02, 6.53720424e-02, 2.17906814e-02, 0.,
          1.30744085e-01, 2.17906814e-02, 0., 0., 0., 6.53720424e-02,
          4.35813628e-02, 2.17906814e-02, 0., 6.53720424e-02,
          4.35813628e-02, 0., 4.35813628e-02, 4.35813628e-02,
          6.53720424e-02, 0., 2.17906814e-02, 0., 0., 2.17906814e-02,
          2.17906814e-02, 4.35813628e-02, 0., 0., 6.53720424e-02,
          4.35813628e-02, 0., 4.35813628e-02, 2.17906814e-02,
          4.35813628e-02, 0., 0., 4.35813628e-02, 6.53720424e-02,
          8.71627256e-02, 2.17906814e-02, 0., 2.17906814e-02,
          1.08953409e-01, 0., 0., 4.35813628e-02, 0., 4.35813628e-02,
          2.17906814e-02, 4.35813628e-02, 2.17906814e-02, 2.17906814e-02,
          4.35813628e-02, 4.35813628e-02, 4.35813628e-02, 2.17906814e-02,
          2.17906814e-02, 2.17906814e-02, 4.35813628e-02, 2.17906814e-02,
          4.35813628e-02, 2.17906814e-02, 2.17906814e-02, 2.17906814e-02,
          4.35813628e-02, 0., 4.35813628e-02, 2.17906814e-02, 0.,
          6.53720424e-02, 0., 6.53720424e-02, 4.35813628e-02,
          6.53720424e-02, 2.17906814e-02, 4.35813628e-02, 4.35813628e-02,
          8.71627256e-02, 2.17906814e-02, 2.17906814e-02, 1.08953409e-01,
          4.35813628e-02, 6.53720424e-02, 4.35813628e-02, 2.17906814e-02,
          2.17906814e-02, 4.35813628e-02, 0., 6.53720424e-02,
          2.17906814e-02, 2.17906814e-02, 2.17906814e-02, 6.53720424e-02,
          0., 6.53720424e-02, 2.17906814e-02, 4.35813628e-02,
          8.71627256e-02, 0., 4.35813628e-02, 0., 2.17906814e-02,
          8.71627256e-02, 0., 4.35813628e-02, 1.30744085e-01, 0.,
          2.17906814e-02, 2.17906814e-02, 0., 4.35813628e-02, 0.,
          4.35813628e-02, 4.35813628e-02, 8.71627256e-02, 2.17906814e-02,
          6.53720424e-02, 0., 0., 2.17906814e-02, 0., 1.08953409e-01, 0.,
          2.17906814e-02, 2.17906814e-02, 6.53720424e-02, 4.35813628e-02,
          1.08953409e-01, 4.35813628e-02, 2.17906814e-02, 4.35813628e-02,
          0., 6.53720424e-02, 0., 0., 4.35813628e-02, 2.17906814e-02,
          4.35813628e-02, 4.35813628e-02, 4.35813628e-02, 2.17906814e-02,
          4.35813628e-02, 4.35813628e-02, 0., 4.35813628e-02,
          2.17906814e-02, 2.17906814e-02, 6.53720424e-02, 4.35813628e-02,
          8.71627256e-02, 6.53720424e-02, 0., 2.17906814e-02, 0., 0., 0.,
          4.35813628e-02, 2.17906814e-02, 0., 6.53720424e-02, 0.,
          2.17906814e-02, 8.71627256e-02, 0., 0., 2.17906814e-02, 0.,
          2.17906814e-02, 2.17906814e-02, 2.17906814e-02, 4.35813628e-02,
          2.17906814e-02, 0., 4.35813628e-02, 4.35813628e-02,
          2.17906814e-02, 8.71627256e-02, 0., 4.35813628e-02,
          6.53720424e-02, 0., 8.71627256e-02, 2.17906814e-02,
          2.17906814e-02, 6.53720424e-02, 2.17906814e-02, 6.53720424e-02,
          8.71627256e-02, 8.71627256e-02, 4.35813628e-02, 8.71627256e-02,
          4.35813628e-02, 2.17906814e-02, 1.08953409e-01, 2.17906814e-02,
          4.35813628e-02, 2.17906814e-02, 2.17906814e-02, 1.30744085e-01,
          1.08953409e-01, 8.71627256e-02, 4.35813628e-02, 4.35813628e-02,
          2.17906814e-02, 2.17906814e-02, 0., 0., 0., 1.30744085e-01,
          2.17906814e-02, 2.17906814e-02, 0., 4.35813628e-02, 0., 0., 0.,
          4.35813628e-02, 4.35813628e-02, 0., 0., 6.53720424e-02,
          2.17906814e-02, 4.35813628e-02, 4.35813628e-02, 2.17906814e-02,
          4.35813628e-02, 6.53720424e-02, 0., 8.71627256e-02,
          2.17906814e-02, 4.35813628e-02, 2.17906814e-02, 0.,
          4.35813628e-02, 2.17906814e-02, 4.35813628e-02, 2.17906814e-02,
          4.35813628e-02, 0., 0., 4.35813628e-02, 2.17906814e-02,
          2.17906814e-02, 2.17906814e-02, 0., 2.17906814e-02,
          2.17906814e-02, 6.53720424e-02, 4.35813628e-02, 4.35813628e-02,
          4.35813628e-02, 0., 8.71627256e-02, 4.35813628e-02,
          2.17906814e-02, 0., 2.17906814e-02, 4.35813628e-02,
          2.17906814e-02, 2.17906814e-02, 6.53720424e-02, 2.17906814e-02,
          6.53720424e-02, 0., 0., 0., 2.17906814e-02, 2.17906814e-02,
          6.53720424e-02, 0., 4.35813628e-02, 2.17906814e-02,
          2.17906814e-02, 4.35813628e-02, 6.53720424e-02, 4.35813628e-02,
          2.17906814e-02, 2.17906814e-02, 2.17906814e-02, 2.17906814e-02,
          6.53720424e-02, 2.17906814e-02, 2.17906814e-02, 0.,
          4.35813628e-02, 2.17906814e-02, 4.35813628e-02, 2.17906814e-02,
          4.35813628e-02, 0., 4.35813628e-02, 4.35813628e-02,
          8.71627256e-02, 0., 0., 2.17906814e-02, 4.35813628e-02,
          2.17906814e-02, 0., 6.53720424e-02, 2.17906814e-02,
          4.35813628e-02, 8.71627256e-02, 0., 0., 0., 0., 4.35813628e-02,
          0., 6.53720424e-02, 2.17906814e-02 ]
      - [ 0., 8.94427225e-02, 8.94427225e-02, 8.94427225e-02, 0., 0., 0.,
          8.94427225e-02, 8.94427225e-02, 0., 8.94427225e-02, 0., 0., 0.,
          0., 0., 0., 0., 0., 0., 0., 0., 0., 0., 0., 0., 0.,
          8.94427225e-02, 0., 0., 0., 0., 0., 0., 0., 0., 8.94427225e-02,
          0., 0., 0., 0., 0., 0., 0., 0., 0., 0., 0., 0., 0.,
          8.94427225e-02, 0., 0., 0., 8.94427225e-02, 8.94427225e-02, 0.,
          0., 0., 0., 0., 0., 0., 0., 0., 0., 0., 0., 0., 0., 0., 0., 0.,
          0., 0., 0., 0., 0., 1.78885445e-01, 8.94427225e-02, 0., 0., 0.,
          8.94427225e-02, 0., 0., 0., 0., 0., 0., 8.94427225e-02, 0., 0.,
          0., 0., 0., 0., 8.94427225e-02, 0., 0., 0., 8.94427225e-02, 0.,
          0., 0., 0., 0., 8.94427225e-02, 0., 0., 0., 0., 0., 0., 0., 0.,
          0., 0., 0., 0., 0., 0., 0., 0., 0., 8.94427225e-02, 0., 0., 0.,
          0., 0., 0., 0., 0., 0., 0., 8.94427225e-02, 0., 0., 0., 0., 0.,
          8.94427225e-02, 0., 0., 0., 0., 0., 0., 0., 0., 0., 0., 0., 0.,
          0., 0., 0., 0., 8.94427225e-02, 0., 0., 0., 0., 8.94427225e-02,
          0., 0., 0., 0., 0., 0., 8.94427225e-02, 0., 0., 8.94427225e-02,
          0., 0., 0., 0., 0., 0., 0., 0., 0., 8.94427225e-02, 0., 0.,
          8.94427225e-02, 0., 0., 0., 0., 0., 0., 0., 0., 0., 0., 0., 0.,
          0., 0., 0., 0., 0., 8.94427225e-02, 0., 0., 0., 0., 0., 0., 0.,
          0., 0., 0., 8.94427225e-02, 0., 0., 0., 0., 0., 0., 0., 0.,
          8.94427225e-02, 0., 0., 0., 0., 0., 0., 0., 0., 8.94427225e-02,
          0., 0., 0., 0., 0., 0., 8.94427225e-02, 0., 0., 0., 0., 0., 0.,
          0., 0., 0., 0., 0., 0., 0., 0., 0., 0., 0., 0., 1.78885445e-01,
          0., 0., 0., 0., 8.94427225e-02, 8.94427225e-02, 0., 0.,
          8.94427225e-02, 0., 0., 8.94427225e-02, 0., 0., 0.,
          8.94427225e-02, 3.57770890e-01, 0., 0., 8.94427225e-02, 0., 0.,
          0., 8.94427225e-02, 0., 0., 0., 0., 0., 8.94427225e-02, 0., 0.,
          0., 0., 0., 0., 0., 0., 0., 0., 0., 0., 0., 0., 0., 0.,
          8.94427225e-02, 0., 0., 0., 0., 0., 8.94427225e-02, 0., 0., 0.,
          8.94427225e-02, 0., 0., 0., 8.94427225e-02, 0., 0., 0., 0., 0.,
          0., 8.94427225e-02, 0., 0., 8.94427225e-02, 0., 8.94427225e-02,
          8.94427225e-02, 0., 8.94427225e-02, 0., 8.94427225e-02,
          8.94427225e-02, 0., 0., 0., 0., 1.78885445e-01, 8.94427225e-02,
          0., 0., 0., 0., 0., 0., 0., 0., 0., 0., 0., 0., 0., 0., 0., 0.,
          0., 0., 0., 0., 0., 0., 0., 8.94427225e-02, 0., 0., 0., 0., 0.,
          0., 0., 0., 8.94427225e-02, 1.78885445e-01, 0., 0.,
          8.94427225e-02, 8.94427225e-02, 0., 8.94427225e-02, 0., 0., 0.,
          0., 0., 0., 8.94427225e-02, 0., 0., 8.94427225e-02, 0.,
          8.94427225e-02, 8.94427225e-02, 1.78885445e-01, 0.,
          8.94427225e-02, 0., 0., 0., 0., 0., 0., 0., 0., 0., 0., 0., 0.,
          0., 0., 0., 8.94427225e-02, 0., 0., 0., 0., 0., 0., 0., 0., 0.,
          0., 8.94427225e-02, 0., 0., 0., 0., 0., 0., 0., 0., 0., 0., 0.,
          0., 0., 0., 0., 0., 0., 0., 8.94427225e-02, 0., 0., 0., 0., 0.,
          0., 0., 0., 0., 0., 0., 0., 0., 0., 2.68328160e-01, 0.,
          1.78885445e-01, 0., 0., 8.94427225e-02, 0., 0., 8.94427225e-02,
          0., 0., 0., 1.78885445e-01, 0., 0., 0., 0., 0., 8.94427225e-02,
          0., 0., 0., 8.94427225e-02, 0., 0., 0., 0., 0., 0., 0., 0., 0.,
          0., 0., 1.78885445e-01, 0., 0., 0. ]
      - [ 0., 7.46913701e-02, 3.73456851e-02, 0., 0., 3.73456851e-02, 0.,
          7.46913701e-02, 0., 0., 0., 7.46913701e-02, 0., 0., 0., 0., 0.,
          0., 3.73456851e-02, 3.73456851e-02, 0., 0., 7.46913701e-02,
          1.12037055e-01, 0., 0., 0., 0., 0., 3.73456851e-02,
          3.73456851e-02, 0., 0., 0., 0., 0., 3.73456851e-02, 0.,
          1.12037055e-01, 0., 0., 0., 1.49382740e-01, 0., 3.73456851e-02,
          0., 0., 0., 3.73456851e-02, 0., 7.46913701e-02, 3.73456851e-02,
          0., 3.73456851e-02, 3.73456851e-02, 0., 0., 0., 0., 0.,
          7.46913701e-02, 0., 0., 3.73456851e-02, 3.73456851e-02,
          3.73456851e-02, 3.73456851e-02, 3.73456851e-02, 0., 0., 0., 0.,
          1.12037055e-01, 3.73456851e-02, 0., 3.73456851e-02, 0.,
          3.73456851e-02, 3.73456851e-02, 0., 0., 0., 1.12037055e-01, 0.,
          3.73456851e-02, 0., 3.73456851e-02, 3.73456851e-02,
          3.73456851e-02, 3.73456851e-02, 0., 3.73456851e-02, 0., 0.,
          7.46913701e-02, 3.73456851e-02, 0., 0., 0., 3.73456851e-02, 0.,
          3.73456851e-02, 0., 0., 7.46913701e-02, 3.73456851e-02, 0., 0.,
          0., 0., 0., 3.73456851e-02, 0., 3.73456851e-02, 3.73456851e-02,
          7.46913701e-02, 3.73456851e-02, 0., 0., 3.73456851e-02, 0., 0.,
          0., 0., 3.73456851e-02, 7.46913701e-02, 0., 7.46913701e-02,
          7.46913701e-02, 0., 7.46913701e-02, 3.73456851e-02,
          3.73456851e-02, 0., 0., 0., 0., 0., 7.46913701e-02,
          1.12037055e-01, 3.73456851e-02, 3.73456851e-02, 3.73456851e-02,
          0., 3.73456851e-02, 3.73456851e-02, 0., 0., 0., 0.,
          7.46913701e-02, 0., 0., 3.73456851e-02, 0., 0., 0.,
          7.46913701e-02, 1.12037055e-01, 0., 0., 0., 0., 3.73456851e-02,
          0., 0., 0., 0., 0., 0., 0., 0., 0., 3.73456851e-02,
          3.73456851e-02, 0., 7.46913701e-02, 0., 7.46913701e-02, 0.,
          3.73456851e-02, 0., 0., 7.46913701e-02, 3.73456851e-02,
          7.46913701e-02, 3.73456851e-02, 0., 0., 0., 0., 3.73456851e-02,
          0., 0., 3.73456851e-02, 3.73456851e-02, 0., 1.12037055e-01, 0.,
          0., 0., 0., 3.73456851e-02, 0., 3.73456851e-02, 1.12037055e-01,
          7.46913701e-02, 0., 3.73456851e-02, 7.46913701e-02,
          3.73456851e-02, 0., 0., 0., 0., 0., 0., 0., 3.73456851e-02, 0.,
          7.46913701e-02, 3.73456851e-02, 7.46913701e-02, 0.,
          3.73456851e-02, 3.73456851e-02, 3.73456851e-02, 0., 0., 0., 0.,
          0., 0., 0., 1.12037055e-01, 0., 3.73456851e-02, 3.73456851e-02,
          0., 7.46913701e-02, 0., 3.73456851e-02, 0., 7.46913701e-02,
          3.73456851e-02, 3.73456851e-02, 1.12037055e-01, 0., 0., 0., 0.,
          1.12037055e-01, 0., 3.73456851e-02, 0., 0., 7.46913701e-02,
          7.46913701e-02, 0., 3.73456851e-02, 0., 7.46913701e-02,
          3.73456851e-02, 3.73456851e-02, 3.73456851e-02, 0., 0., 0.,
          3.73456851e-02, 3.73456851e-02, 7.46913701e-02, 0., 0., 0., 0.,
          0., 0., 3.73456851e-02, 3.73456851e-02, 0., 7.46913701e-02,
          3.73456851e-02, 0., 3.73456851e-02, 0., 3.73456851e-02,
          7.46913701e-02, 0., 3.73456851e-02, 0., 0., 0., 7.46913701e-02,
          3.73456851e-02, 0., 0., 3.73456851e-02, 7.46913701e-02, 0., 0.,
          0., 3.73456851e-02, 7.46913701e-02, 0., 0., 0., 1.12037055e-01,
          3.73456851e-02, 0., 3.73456851e-02, 0., 3.73456851e-02, 0., 0.,
          1.12037055e-01, 0., 0., 3.73456851e-02, 3.73456851e-02, 0.,
          7.46913701e-02, 3.73456851e-02, 0., 0., 3.73456851e-02,
          3.73456851e-02, 0., 3.73456851e-02, 3.73456851e-02, 0., 0.,
          3.73456851e-02, 0., 0., 3.73456851e-02, 1.49382740e-01,
          3.73456851e-02, 3.73456851e-02, 3.73456851e-02, 0.,
          3.73456851e-02, 0., 3.73456851e-02, 3.73456851e-02, 0., 0.,
          3.73456851e-02, 0., 0., 0., 7.46913701e-02, 0., 0.,
          1.12037055e-01, 7.46913701e-02, 1.12037055e-01, 0., 0.,
          7.46913701e-02, 3.73456851e-02, 3.73456851e-02, 3.73456851e-02,
          0., 0., 0., 7.46913701e-02, 3.73456851e-02, 0., 3.73456851e-02,
          3.73456851e-02, 3.73456851e-02, 3.73456851e-02, 1.12037055e-01,
          0., 7.46913701e-02, 0., 7.46913701e-02, 0., 0., 2.24074110e-01,
          3.73456851e-02, 3.73456851e-02, 0., 0., 0., 1.12037055e-01, 0.,
          3.73456851e-02, 3.73456851e-02, 3.73456851e-02, 0., 0.,
          1.12037055e-01, 0., 0., 3.73456851e-02, 0., 3.73456851e-02, 0.,
          0., 0., 0., 0., 7.46913701e-02, 0., 0., 0., 3.73456851e-02, 0.,
          3.73456851e-02, 0., 1.49382740e-01, 3.73456851e-02,
          1.12037055e-01, 0., 0., 0., 3.73456851e-02, 0., 7.46913701e-02,
          3.73456851e-02, 3.73456851e-02, 7.46913701e-02, 0.,
          3.73456851e-02, 0., 0., 7.46913701e-02, 0., 7.46913701e-02, 0.,
          1.12037055e-01, 3.73456851e-02, 3.73456851e-02, 7.46913701e-02,
          0., 3.73456851e-02, 0., 0., 0., 0., 3.73456851e-02,
          3.73456851e-02, 0., 0., 7.46913701e-02, 0., 0., 3.73456851e-02,
          3.73456851e-02, 0., 3.73456851e-02, 7.46913701e-02, 0., 0.,
          3.73456851e-02, 3.73456851e-02, 3.73456851e-02, 0., 0.,
          1.12037055e-01, 3.73456851e-02, 7.46913701e-02, 1.12037055e-01,
          3.73456851e-02, 0., 0., 0., 3.73456851e-02, 0., 3.73456851e-02,
          0., 0., 3.73456851e-02, 0., 7.46913701e-02, 3.73456851e-02, 0.,
          0., 0., 1.12037055e-01, 0., 0., 3.73456851e-02, 0.,
          3.73456851e-02, 1.12037055e-01, 2.24074110e-01, 0., 0.,
          3.73456851e-02, 1.49382740e-01, 3.73456851e-02, 3.73456851e-02,
          0., 7.46913701e-02, 7.46913701e-02, 3.73456851e-02,
          3.73456851e-02, 0. ]
      - [ 5.63436188e-02, 0., 5.63436188e-02, 5.63436188e-02, 0., 0., 0.,
          2.25374475e-01, 2.81718075e-01, 1.12687238e-01, 5.63436188e-02,
          0., 0., 0., 0., 0., 0., 0., 0., 0., 0., 0., 0., 0., 0., 0., 0.,
          0., 0., 0., 0., 0., 5.63436188e-02, 0., 0., 0., 5.63436188e-02,
          0., 0., 0., 0., 0., 0., 0., 0., 5.63436188e-02, 0., 0., 0.,
          5.63436188e-02, 5.63436188e-02, 0., 0., 0., 0., 0., 0., 0., 0.,
          0., 0., 0., 0., 0., 5.63436188e-02, 5.63436188e-02, 0., 0.,
          5.63436188e-02, 0., 5.63436188e-02, 0., 0., 0., 0., 0., 0.,
          5.63436188e-02, 5.63436188e-02, 0., 0., 0., 0., 5.63436188e-02,
          5.63436188e-02, 0., 0., 0., 0., 5.63436188e-02, 0., 0., 0., 0.,
          0., 0., 0., 5.63436188e-02, 5.63436188e-02, 0., 0.,
          2.81718075e-01, 0., 5.63436188e-02, 0., 5.63436188e-02,
          5.63436188e-02, 0., 0., 5.63436188e-02, 0., 5.63436188e-02,
          1.12687238e-01, 5.63436188e-02, 0., 0., 0., 0., 5.63436188e-02,
          0., 0., 0., 0., 0., 0., 1.12687238e-01, 5.63436188e-02, 0., 0.,
          0., 0., 0., 5.63436188e-02, 0., 5.63436188e-02, 5.63436188e-02,
          5.63436188e-02, 5.63436188e-02, 0., 0., 0., 0., 0., 0., 0.,
          5.63436188e-02, 0., 0., 0., 0., 5.63436188e-02, 0.,
          1.12687238e-01, 5.63436188e-02, 0., 0., 0., 1.12687238e-01,
          5.63436188e-02, 0., 0., 0., 5.63436188e-02, 5.63436188e-02, 0.,
          0., 0., 0., 1.12687238e-01, 0., 0., 0., 0., 0., 0., 0., 0., 0.,
          0., 0., 0., 0., 5.63436188e-02, 0., 0., 5.63436188e-02, 0.,
          2.81718075e-01, 5.63436188e-02, 0., 0., 0., 5.63436188e-02, 0.,
          0., 5.63436188e-02, 1.12687238e-01, 0., 0., 0., 0., 0., 0., 0.,
          0., 0., 0., 5.63436188e-02, 0., 0., 0., 0., 5.63436188e-02, 0.,
          0., 0., 0., 0., 0., 0., 0., 0., 0., 0., 0., 0., 0., 0., 0., 0.,
          0., 1.12687238e-01, 0., 0., 0., 0., 0., 0., 0., 0., 0., 0., 0.,
          0., 0., 0., 0., 0., 5.63436188e-02, 0., 0., 0., 0., 0., 0., 0.,
          0., 5.63436188e-02, 5.63436188e-02, 0., 0., 0., 5.63436188e-02,
          0., 0., 0., 0., 0., 0., 0., 0., 0., 0., 0., 0., 0.,
          5.63436188e-02, 0., 0., 0., 0., 0., 0., 5.63436188e-02, 0., 0.,
          0., 0., 0., 0., 0., 5.63436188e-02, 0., 0., 5.63436188e-02, 0.,
          0., 0., 0., 5.63436188e-02, 5.63436188e-02, 0., 1.69030845e-01,
          0., 0., 0., 0., 0., 5.63436188e-02, 0., 0., 5.63436188e-02, 0.,
          5.63436188e-02, 0., 0., 0., 5.63436188e-02, 1.12687238e-01, 0.,
          0., 5.63436188e-02, 1.12687238e-01, 0., 5.63436188e-02, 0.,
          5.63436188e-02, 0., 0., 0., 5.63436188e-02, 5.63436188e-02, 0.,
          0., 0., 0., 0., 0., 0., 5.63436188e-02, 0., 0., 0., 0.,
          5.63436188e-02, 0., 0., 5.63436188e-02, 5.63436188e-02, 0., 0.,
          0., 0., 0., 0., 0., 0., 0., 5.63436188e-02, 0., 0.,
          1.12687238e-01, 0., 0., 0., 0., 0., 0., 0., 5.63436188e-02,
          5.63436188e-02, 0., 0., 0., 0., 0., 0., 0., 0., 0.,
          5.63436188e-02, 0., 0., 0., 0., 0., 0., 5.63436188e-02, 0.,
          1.69030845e-01, 0., 0., 0., 0., 0., 0., 5.63436188e-02, 0.,
          1.69030845e-01, 0., 0., 0., 0., 0., 0., 0., 0., 0.,
          5.63436188e-02, 0., 0., 0., 0., 0., 5.63436188e-02, 0., 0., 0.,
          0., 1.12687238e-01, 0., 0., 5.63436188e-02, 0., 0., 0.,
          5.63436188e-02, 0., 0., 0., 0., 0., 0., 1.12687238e-01, 0., 0.,
          0., 0., 0., 0., 0., 0., 0., 5.63436188e-02, 0., 0., 0., 0.,
          1.12687238e-01, 0., 0., 5.63436188e-02, 0., 1.12687238e-01, 0.,
          0., 0., 0., 0., 0., 0., 0., 0., 0., 5.63436188e-02, 0.,
          5.63436188e-02, 0., 0., 0., 0., 0., 0., 0., 0., 0., 0., 0., 0.,
          0., 2.25374475e-01, 0., 0., 0., 1.12687238e-01, 5.63436188e-02,
          5.63436188e-02, 5.63436188e-02, 0., 0., 0., 0., 0.,
          5.63436188e-02, 0., 1.12687238e-01, 2.81718075e-01,
          5.63436188e-02, 0., 0. ]
      - [ 0., 0., 7.93675780e-02, 0., 7.93675780e-02, 0., 3.96837890e-02,
          0., 0., 3.96837890e-02, 0., 3.96837890e-02, 0., 3.96837890e-02,
          0., 0., 3.96837890e-02, 1.19051367e-01, 3.96837890e-02, 0., 0.,
          0., 0., 7.93675780e-02, 0., 3.96837890e-02, 0., 3.96837890e-02,
          0., 1.58735156e-01, 0., 3.96837890e-02, 3.96837890e-02,
          7.93675780e-02, 3.96837890e-02, 0., 0., 3.96837890e-02, 0.,
          3.96837890e-02, 0., 3.96837890e-02, 0., 7.93675780e-02,
          3.96837890e-02, 3.96837890e-02, 3.96837890e-02, 3.96837890e-02,
          3.96837890e-02, 0., 0., 0., 1.58735156e-01, 0., 0., 0., 0., 0.,
          0., 0., 0., 7.93675780e-02, 0., 1.98418945e-01, 0., 0., 0.,
          3.96837890e-02, 7.93675780e-02, 3.96837890e-02, 0., 0., 0., 0.,
          0., 7.93675780e-02, 0., 7.93675780e-02, 0., 0., 0.,
          3.96837890e-02, 0., 7.93675780e-02, 0., 0., 0., 3.96837890e-02,
          0., 0., 0., 3.96837890e-02, 0., 0., 0., 1.19051367e-01, 0., 0.,
          0., 3.96837890e-02, 0., 7.93675780e-02, 0., 3.96837890e-02,
          3.96837890e-02, 0., 0., 3.96837890e-02, 0., 0., 0.,
          7.93675780e-02, 0., 3.96837890e-02, 0., 0., 0., 0., 0., 0., 0.,
          0., 0., 3.96837890e-02, 7.93675780e-02, 7.93675780e-02, 0., 0.,
          3.96837890e-02, 0., 0., 0., 3.96837890e-02, 0., 3.96837890e-02,
          3.96837890e-02, 0., 0., 3.96837890e-02, 0., 0., 3.96837890e-02,
          0., 0., 3.96837890e-02, 0., 3.96837890e-02, 0., 0., 0., 0., 0.,
          0., 3.96837890e-02, 7.93675780e-02, 0., 0., 7.93675780e-02, 0.,
          0., 0., 0., 0., 3.96837890e-02, 0., 7.93675780e-02, 0., 0., 0.,
          3.96837890e-02, 7.93675780e-02, 3.96837890e-02, 0.,
          3.96837890e-02, 0., 3.96837890e-02, 0., 0., 0., 0.,
          3.96837890e-02, 0., 3.96837890e-02, 3.96837890e-02, 0., 0.,
          3.96837890e-02, 3.96837890e-02, 3.96837890e-02, 0.,
          3.96837890e-02, 3.96837890e-02, 3.96837890e-02, 0.,
          3.96837890e-02, 7.93675780e-02, 3.96837890e-02, 3.96837890e-02,
          7.93675780e-02, 3.96837890e-02, 0., 0., 0., 3.96837890e-02, 0.,
          0., 3.96837890e-02, 0., 0., 0., 0., 0., 0., 0., 7.93675780e-02,
          3.96837890e-02, 3.96837890e-02, 0., 0., 0., 0., 7.93675780e-02,
          0., 0., 3.96837890e-02, 0., 3.96837890e-02, 3.96837890e-02, 0.,
          3.96837890e-02, 0., 3.96837890e-02, 0., 0., 1.19051367e-01, 0.,
          0., 0., 3.96837890e-02, 0., 3.96837890e-02, 0., 0.,
          3.96837890e-02, 3.96837890e-02, 0., 0., 0., 0., 0., 0., 0., 0.,
          0., 3.96837890e-02, 3.96837890e-02, 0., 0., 7.93675780e-02,
          7.93675780e-02, 3.96837890e-02, 0., 0., 3.96837890e-02, 0., 0.,
          7.93675780e-02, 7.93675780e-02, 3.96837890e-02, 0., 0.,
          1.19051367e-01, 0., 3.96837890e-02, 0., 0., 3.96837890e-02,
          1.19051367e-01, 3.96837890e-02, 3.96837890e-02, 0., 0., 0.,
          7.93675780e-02, 0., 3.96837890e-02, 3.96837890e-02,
          3.96837890e-02, 3.96837890e-02, 0., 0., 0., 0., 3.96837890e-02,
          1.58735156e-01, 3.96837890e-02, 0., 0., 0., 3.96837890e-02, 0.,
          0., 0., 3.96837890e-02, 0., 0., 0., 0., 0., 3.96837890e-02,
          1.98418945e-01, 0., 3.96837890e-02, 0., 3.96837890e-02,
          3.96837890e-02, 0., 0., 0., 3.96837890e-02, 0., 0., 0.,
          3.96837890e-02, 3.96837890e-02, 7.93675780e-02, 0.,
          3.96837890e-02, 0., 0., 0., 3.96837890e-02, 3.96837890e-02,
          7.93675780e-02, 3.96837890e-02, 0., 3.96837890e-02, 0.,
          7.93675780e-02, 0., 0., 3.96837890e-02, 0., 3.96837890e-02,
          1.19051367e-01, 1.19051367e-01, 0., 0., 1.58735156e-01, 0., 0.,
          0., 0., 0., 0., 3.96837890e-02, 0., 0., 0., 3.96837890e-02,
          1.19051367e-01, 0., 3.96837890e-02, 0., 0., 3.96837890e-02,
          1.58735156e-01, 3.96837890e-02, 3.96837890e-02, 0., 0.,
          7.93675780e-02, 0., 3.96837890e-02, 0., 0., 1.19051367e-01,
          7.93675780e-02, 7.93675780e-02, 3.96837890e-02, 0., 0.,
          7.93675780e-02, 7.93675780e-02, 3.96837890e-02, 7.93675780e-02,
          3.96837890e-02, 3.96837890e-02, 0., 0., 0., 3.96837890e-02, 0.,
          0., 0., 0., 0., 1.58735156e-01, 7.93675780e-02, 3.96837890e-02,
          0., 0., 0., 0., 0., 3.96837890e-02, 7.93675780e-02,
          7.93675780e-02, 0., 0., 0., 3.96837890e-02, 1.19051367e-01,
          3.96837890e-02, 3.96837890e-02, 7.93675780e-02, 0.,
          3.96837890e-02, 7.93675780e-02, 0., 0., 0., 0., 0., 0.,
          7.93675780e-02, 3.96837890e-02, 1.19051367e-01, 3.96837890e-02,
          3.96837890e-02, 0., 0., 0., 0., 0., 3.96837890e-02,
          1.58735156e-01, 0., 0., 0., 7.93675780e-02, 7.93675780e-02, 0.,
          3.96837890e-02, 0., 7.93675780e-02, 0., 7.93675780e-02,
          3.96837890e-02, 1.19051367e-01, 0., 7.93675780e-02, 0.,
          3.96837890e-02, 3.96837890e-02, 3.96837890e-02, 0., 0.,
          3.96837890e-02, 0., 3.96837890e-02, 0., 3.96837890e-02, 0., 0.,
          0., 0., 0., 3.96837890e-02, 3.96837890e-02, 0., 0., 0.,
          3.96837890e-02, 0., 7.93675780e-02, 0., 1.19051367e-01, 0., 0.,
          0., 7.93675780e-02, 0., 0., 7.93675780e-02, 3.96837890e-02, 0.,
          3.96837890e-02, 1.19051367e-01, 7.93675780e-02, 0., 0.,
          3.96837890e-02, 3.96837890e-02, 3.96837890e-02, 0.,
          7.93675780e-02, 0., 0., 0. ]
      - [ 3.98726128e-02, 3.98726128e-02, 3.98726128e-02, 0.,
          3.98726128e-02, 0., 0., 0., 1.59490451e-01, 0., 0., 0., 0., 0.,
          0., 3.98726128e-02, 0., 0., 0., 0., 0., 3.98726128e-02,
          2.79108286e-01, 0., 1.19617835e-01, 0., 7.97452256e-02, 0., 0.,
          0., 0., 7.97452256e-02, 0., 0., 3.98726128e-02, 0.,
          3.98726128e-02, 0., 0., 7.97452256e-02, 1.19617835e-01, 0., 0.,
          0., 0., 3.98726128e-02, 1.19617835e-01, 0., 0., 0., 0., 0.,
          3.98726128e-02, 3.98726128e-02, 3.98726128e-02, 0., 0., 0., 0.,
          0., 0., 0., 0., 1.99363053e-01, 7.97452256e-02, 0., 0., 0.,
          3.98726128e-02, 3.98726128e-02, 1.59490451e-01, 1.99363053e-01,
          0., 3.98726128e-02, 0., 0., 0., 0., 0., 0., 0., 1.19617835e-01,
          0., 3.98726128e-02, 3.98726128e-02, 0., 0., 3.98726128e-02, 0.,
          0., 0., 0., 0., 0., 7.97452256e-02, 1.19617835e-01, 0.,
          3.98726128e-02, 3.98726128e-02, 0., 0., 3.98726128e-02, 0.,
          1.19617835e-01, 0., 0., 7.97452256e-02, 7.97452256e-02, 0.,
          7.97452256e-02, 0., 0., 0., 7.97452256e-02, 3.98726128e-02, 0.,
          0., 0., 0., 0., 0., 0., 3.98726128e-02, 3.98726128e-02,
          3.98726128e-02, 0., 0., 0., 3.98726128e-02, 0., 0., 0.,
          3.98726128e-02, 0., 0., 0., 0., 0., 3.98726128e-02,
          3.98726128e-02, 0., 0., 0., 3.98726128e-02, 0., 0.,
          3.98726128e-02, 0., 3.98726128e-02, 3.98726128e-02, 0., 0., 0.,
          0., 0., 0., 3.98726128e-02, 0., 3.98726128e-02, 0., 0.,
          3.98726128e-02, 0., 0., 0., 0., 0., 0., 0., 3.98726128e-02, 0.,
          0., 0., 0., 0., 0., 0., 0., 0., 3.98726128e-02, 0.,
          3.98726128e-02, 7.97452256e-02, 0., 0., 0., 0., 1.19617835e-01,
          0., 0., 0., 0., 0., 0., 0., 3.98726128e-02, 0., 0., 0., 0., 0.,
          0., 0., 3.98726128e-02, 3.98726128e-02, 3.98726128e-02, 0.,
          3.98726128e-02, 0., 0., 3.98726128e-02, 0., 7.97452256e-02, 0.,
          0., 0., 1.19617835e-01, 3.98726128e-02, 3.98726128e-02, 0.,
          7.97452256e-02, 3.98726128e-02, 3.98726128e-02, 0., 0., 0., 0.,
          0., 0., 3.98726128e-02, 0., 0., 0., 0., 7.97452256e-02,
          3.98726128e-02, 1.19617835e-01, 0., 0., 0., 0., 7.97452256e-02,
          0., 3.98726128e-02, 0., 0., 3.98726128e-02, 0., 1.19617835e-01,
          0., 0., 3.98726128e-02, 0., 0., 0., 3.98726128e-02, 0.,
          7.97452256e-02, 3.98726128e-02, 7.97452256e-02, 0., 0., 0.,
          3.98726128e-02, 3.98726128e-02, 3.98726128e-02, 3.98726128e-02,
          0., 0., 0., 1.19617835e-01, 7.97452256e-02, 3.98726128e-02,
          3.98726128e-02, 3.98726128e-02, 3.98726128e-02, 0., 0., 0.,
          1.19617835e-01, 1.19617835e-01, 3.98726128e-02, 3.98726128e-02,
          3.98726128e-02, 0., 7.97452256e-02, 0., 3.98726128e-02, 0., 0.,
          0., 0., 0., 0., 3.98726128e-02, 0., 0., 0., 0., 3.98726128e-02,
          3.98726128e-02, 0., 1.59490451e-01, 0., 0., 0., 3.98726128e-02,
          7.97452256e-02, 0., 0., 0., 0., 0., 3.98726128e-02, 0.,
          3.98726128e-02, 3.98726128e-02, 0., 3.98726128e-02, 0., 0.,
          7.97452256e-02, 7.97452256e-02, 0., 0., 3.98726128e-02,
          7.97452256e-02, 0., 0., 0., 3.98726128e-02, 0., 3.98726128e-02,
          0., 0., 0., 0., 3.98726128e-02, 0., 1.19617835e-01, 0.,
          3.98726128e-02, 0., 0., 0., 3.98726128e-02, 0., 3.98726128e-02,
          7.97452256e-02, 0., 3.98726128e-02, 0., 0., 0., 0., 0., 0., 0.,
          0., 3.98726128e-02, 0., 0., 0., 3.98726128e-02, 0.,
          3.98726128e-02, 3.98726128e-02, 0., 0., 3.98726128e-02,
          3.98726128e-02, 1.19617835e-01, 1.19617835e-01, 3.98726128e-02,
          0., 0., 0., 3.98726128e-02, 0., 1.59490451e-01, 0., 0.,
          3.98726128e-02, 0., 3.98726128e-02, 0., 0., 3.98726128e-02,
          3.98726128e-02, 0., 0., 3.98726128e-02, 0., 0., 0., 0.,
          3.98726128e-02, 0., 7.97452256e-02, 0., 0., 1.99363053e-01, 0.,
          3.98726128e-02, 3.98726128e-02, 0., 3.98726128e-02, 0., 0., 0.,
          0., 0., 3.98726128e-02, 3.98726128e-02, 0., 3.98726128e-02, 0.,
          0., 0., 0., 3.98726128e-02, 0., 0., 0., 0., 0., 0., 0., 0.,
          3.98726128e-02, 7.97452256e-02, 0., 3.98726128e-02, 0., 0.,
          1.19617835e-01, 3.98726128e-02, 3.98726128e-02, 0., 0., 0., 0.,
          0., 3.98726128e-02, 0., 0., 3.98726128e-02, 0., 7.97452256e-02,
          3.98726128e-02, 3.98726128e-02, 7.97452256e-02, 0.,
          3.98726128e-02, 0., 7.97452256e-02, 3.98726128e-02, 0., 0., 0.,
          0., 3.98726128e-02, 7.97452256e-02, 7.97452256e-02,
          7.97452256e-02, 0., 3.98726128e-02, 0., 0., 0., 1.19617835e-01,
          7.97452256e-02, 0., 7.97452256e-02, 0., 0., 3.98726128e-02,
          3.98726128e-02, 0., 0., 0., 1.59490451e-01, 0., 0., 0.,
          3.98726128e-02, 3.98726128e-02, 0., 3.98726128e-02,
          3.98726128e-02, 0., 0., 0., 7.97452256e-02, 0., 0., 0.,
          7.97452256e-02, 0., 0. ]
      - [ 0., 0., 4.89702113e-02, 0., 0., 0., 0., 9.79404226e-02,
          9.79404226e-02, 1.46910638e-01, 0., 4.89702113e-02,
          4.89702113e-02, 0., 0., 0., 0., 0., 0., 0., 0., 4.89702113e-02,
          0., 4.89702113e-02, 4.89702113e-02, 0., 0., 4.89702113e-02, 0.,
          0., 0., 0., 0., 0., 1.46910638e-01, 9.79404226e-02, 0., 0.,
          9.79404226e-02, 1.95880845e-01, 0., 0., 0., 9.79404226e-02,
          4.89702113e-02, 4.89702113e-02, 4.89702113e-02, 0., 0., 0.,
          4.89702113e-02, 0., 0., 0., 0., 0., 0., 0., 0., 0.,
          9.79404226e-02, 0., 0., 0., 0., 4.89702113e-02, 9.79404226e-02,
          0., 4.89702113e-02, 0., 0., 4.89702113e-02, 0., 0., 0.,
          4.89702113e-02, 0., 0., 0., 0., 0., 4.89702113e-02, 0.,
          9.79404226e-02, 9.79404226e-02, 0., 0., 0., 0., 0., 0., 0.,
          4.89702113e-02, 0., 0., 0., 0., 0., 4.89702113e-02, 0., 0., 0.,
          0., 0., 0., 4.89702113e-02, 0., 0., 0., 0., 0., 4.89702113e-02,
          0., 0., 0., 0., 0., 0., 0., 0., 0., 0., 0., 0., 0., 0.,
          4.89702113e-02, 4.89702113e-02, 1.46910638e-01, 0., 0., 0.,
          4.89702113e-02, 0., 0., 9.79404226e-02, 1.46910638e-01, 0., 0.,
          0., 0., 0., 0., 0., 0., 0., 0., 0., 0., 0., 0., 0., 0.,
          4.89702113e-02, 4.89702113e-02, 4.89702113e-02, 0.,
          4.89702113e-02, 0., 0., 0., 4.89702113e-02, 4.89702113e-02, 0.,
          4.89702113e-02, 0., 0., 0., 4.89702113e-02, 4.89702113e-02, 0.,
          0., 0., 0., 0., 0., 0., 4.89702113e-02, 4.89702113e-02, 0.,
          4.89702113e-02, 0., 4.89702113e-02, 0., 0., 0., 0.,
          1.95880845e-01, 0., 0., 0., 0., 9.79404226e-02, 0.,
          4.89702113e-02, 9.79404226e-02, 0., 0., 0., 4.89702113e-02, 0.,
          0., 0., 0., 0., 4.89702113e-02, 0., 0., 0., 0., 0.,
          4.89702113e-02, 0., 0., 0., 0., 0., 0., 0., 0., 0., 0., 0., 0.,
          0., 0., 0., 4.89702113e-02, 0., 0., 0., 4.89702113e-02, 0., 0.,
          4.89702113e-02, 0., 0., 0., 0., 4.89702113e-02, 0.,
          4.89702113e-02, 0., 4.89702113e-02, 0., 0., 0., 0.,
          4.89702113e-02, 0., 0., 4.89702113e-02, 0., 0., 0., 0.,
          4.89702113e-02, 0., 4.89702113e-02, 0., 4.89702113e-02,
          4.89702113e-02, 9.79404226e-02, 0., 4.89702113e-02,
          4.89702113e-02, 0., 0., 0., 0., 0., 0., 0., 0., 4.89702113e-02,
          9.79404226e-02, 0., 0., 0., 0., 4.89702113e-02, 1.46910638e-01,
          0., 0., 0., 4.89702113e-02, 0., 0., 0., 1.46910638e-01, 0.,
          4.89702113e-02, 0., 0., 0., 0., 0., 0., 0., 0., 0., 0.,
          4.89702113e-02, 0., 9.79404226e-02, 0., 0., 0., 0., 0.,
          1.46910638e-01, 0., 0., 4.89702113e-02, 0., 0., 4.89702113e-02,
          4.89702113e-02, 0., 0., 0., 0., 1.95880845e-01, 1.95880845e-01,
          1.46910638e-01, 0., 0., 0., 0., 0., 9.79404226e-02, 0., 0., 0.,
          0., 0., 0., 0., 0., 4.89702113e-02, 0., 0., 0., 0., 0., 0., 0.,
          4.89702113e-02, 0., 0., 0., 4.89702113e-02, 9.79404226e-02, 0.,
          0., 0., 0., 4.89702113e-02, 0., 0., 0., 1.46910638e-01, 0., 0.,
          0., 0., 0., 4.89702113e-02, 0., 0., 0., 0., 0., 0.,
          4.89702113e-02, 0., 0., 0., 0., 1.46910638e-01, 9.79404226e-02,
          0., 4.89702113e-02, 0., 0., 4.89702113e-02, 0., 4.89702113e-02,
          0., 4.89702113e-02, 0., 0., 0., 0., 0., 0., 4.89702113e-02, 0.,
          0., 0., 0., 2.44851053e-01, 0., 0., 4.89702113e-02, 0.,
          4.89702113e-02, 0., 0., 4.89702113e-02, 0., 4.89702113e-02, 0.,
          9.79404226e-02, 4.89702113e-02, 0., 0., 9.79404226e-02, 0., 0.,
          0., 4.89702113e-02, 1.46910638e-01, 0., 0., 4.89702113e-02, 0.,
          0., 0., 0., 0., 4.89702113e-02, 0., 0., 4.89702113e-02, 0., 0.,
          0., 0., 0., 0., 4.89702113e-02, 9.79404226e-02, 0.,
          1.46910638e-01, 4.89702113e-02, 0., 4.89702113e-02, 0.,
          9.79404226e-02, 0., 9.79404226e-02, 0., 0., 0., 0., 0., 0., 0.,
          0., 4.89702113e-02, 0., 4.89702113e-02, 4.89702113e-02,
          4.89702113e-02, 0., 0., 0., 0., 0., 0., 0., 0., 0., 0.,
          4.89702113e-02, 1.46910638e-01, 4.89702113e-02, 0., 0.,
          1.46910638e-01, 4.89702113e-02, 0., 0., 4.89702113e-02, 0.,
          4.89702113e-02, 0., 4.89702113e-02, 0., 9.79404226e-02,
          4.89702113e-02, 0., 4.89702113e-02, 9.79404226e-02, 0.,
          4.89702113e-02, 9.79404226e-02, 0., 0. ]
      - [ 0., 0., 0., 5.24142422e-02, 0., 0., 0., 0., 5.24142422e-02,
          5.24142422e-02, 1.04828484e-01, 0., 0., 0., 5.24142422e-02, 0.,
          0., 0., 0., 0., 5.24142422e-02, 0., 0., 5.24142422e-02,
          5.24142422e-02, 5.24142422e-02, 5.24142422e-02, 5.24142422e-02,
          0., 5.24142422e-02, 5.24142422e-02, 0., 5.24142422e-02,
          5.24142422e-02, 0., 0., 5.24142422e-02, 0., 0., 5.24142422e-02,
          0., 0., 0., 0., 0., 0., 5.24142422e-02, 5.24142422e-02,
          1.04828484e-01, 1.04828484e-01, 0., 5.24142422e-02,
          1.04828484e-01, 0., 0., 0., 5.24142422e-02, 0., 0., 0., 0.,
          1.04828484e-01, 0., 0., 0., 0., 0., 0., 5.24142422e-02, 0., 0.,
          0., 0., 0., 1.04828484e-01, 0., 5.24142422e-02, 0.,
          5.24142422e-02, 0., 0., 0., 0., 0., 0., 0., 0., 0., 0., 0., 0.,
          0., 0., 5.24142422e-02, 5.24142422e-02, 0., 0., 0.,
          5.24142422e-02, 0., 0., 0., 0., 1.04828484e-01, 0., 0.,
          5.24142422e-02, 0., 5.24142422e-02, 0., 1.04828484e-01, 0.,
          5.24142422e-02, 0., 0., 0., 1.04828484e-01, 5.24142422e-02,
          1.04828484e-01, 0., 5.24142422e-02, 0., 0., 0., 0.,
          1.04828484e-01, 0., 0., 0., 5.24142422e-02, 0., 0.,
          5.24142422e-02, 5.24142422e-02, 0., 5.24142422e-02,
          1.57242730e-01, 0., 0., 0., 0., 0., 0., 0., 0., 5.24142422e-02,
          0., 0., 0., 0., 0., 5.24142422e-02, 1.04828484e-01, 0.,
          5.24142422e-02, 0., 0., 0., 5.24142422e-02, 0., 0., 0., 0., 0.,
          1.04828484e-01, 0., 0., 0., 5.24142422e-02, 0., 0.,
          5.24142422e-02, 0., 0., 0., 0., 1.04828484e-01, 0., 0., 0., 0.,
          0., 0., 0., 5.24142422e-02, 5.24142422e-02, 0., 1.57242730e-01,
          5.24142422e-02, 0., 0., 0., 0., 5.24142422e-02, 5.24142422e-02,
          0., 0., 0., 1.57242730e-01, 5.24142422e-02, 1.04828484e-01, 0.,
          0., 0., 0., 5.24142422e-02, 0., 0., 0., 0., 5.24142422e-02, 0.,
          5.24142422e-02, 0., 5.24142422e-02, 0., 0., 5.24142422e-02,
          5.24142422e-02, 5.24142422e-02, 0., 0., 0., 0., 0., 0.,
          1.04828484e-01, 0., 0., 0., 0., 0., 0., 5.24142422e-02, 0., 0.,
          5.24142422e-02, 5.24142422e-02, 1.04828484e-01, 0., 0.,
          5.24142422e-02, 0., 0., 0., 0., 0., 5.24142422e-02, 0.,
          5.24142422e-02, 0., 5.24142422e-02, 0., 0., 0., 0., 0., 0.,
          1.57242730e-01, 5.24142422e-02, 5.24142422e-02, 0.,
          5.24142422e-02, 0., 0., 0., 5.24142422e-02, 5.24142422e-02, 0.,
          1.04828484e-01, 5.24142422e-02, 0., 5.24142422e-02, 0., 0., 0.,
          0., 5.24142422e-02, 0., 0., 0., 1.04828484e-01, 0., 0.,
          1.04828484e-01, 0., 0., 0., 0., 0., 0., 0., 0., 5.24142422e-02,
          5.24142422e-02, 0., 0., 0., 0., 5.24142422e-02, 1.04828484e-01,
          0., 1.04828484e-01, 5.24142422e-02, 5.24142422e-02,
          5.24142422e-02, 0., 0., 5.24142422e-02, 0., 0., 0., 0., 0., 0.,
          0., 0., 0., 0., 0., 0., 0., 0., 0., 5.24142422e-02, 0., 0.,
          5.24142422e-02, 0., 5.24142422e-02, 5.24142422e-02, 0.,
          1.04828484e-01, 0., 0., 5.24142422e-02, 0., 5.24142422e-02, 0.,
          0., 1.04828484e-01, 0., 0., 0., 0., 0., 0., 0., 0.,
          5.24142422e-02, 0., 0., 5.24142422e-02, 1.04828484e-01, 0., 0.,
          0., 5.24142422e-02, 0., 0., 1.04828484e-01, 0., 0., 0., 0.,
          1.57242730e-01, 5.24142422e-02, 0., 2.09656969e-01,
          5.24142422e-02, 0., 0., 0., 5.24142422e-02, 0., 0.,
          1.57242730e-01, 5.24142422e-02, 5.24142422e-02, 0., 0.,
          5.24142422e-02, 0., 0., 5.24142422e-02, 5.24142422e-02,
          5.24142422e-02, 0., 0., 5.24142422e-02, 0., 5.24142422e-02, 0.,
          0., 0., 0., 0., 5.24142422e-02, 0., 0., 0., 0., 5.24142422e-02,
          0., 0., 0., 0., 0., 5.24142422e-02, 0., 0., 1.04828484e-01, 0.,
          0., 0., 0., 5.24142422e-02, 5.24142422e-02, 1.57242730e-01, 0.,
          0., 5.24142422e-02, 0., 5.24142422e-02, 2.09656969e-01,
          5.24142422e-02, 0., 5.24142422e-02, 1.04828484e-01, 0., 0.,
          5.24142422e-02, 5.24142422e-02, 0., 0., 0., 1.04828484e-01, 0.,
          5.24142422e-02, 0., 5.24142422e-02, 0., 5.24142422e-02, 0.,
          5.24142422e-02, 0., 5.24142422e-02, 0., 0., 5.24142422e-02, 0.,
          0., 0., 5.24142422e-02, 0., 5.24142422e-02, 0., 0., 0.,
          5.24142422e-02, 0., 1.04828484e-01, 0., 1.04828484e-01, 0., 0.,
          0., 0., 0., 0., 5.24142422e-02, 0., 5.24142422e-02,
          5.24142422e-02, 5.24142422e-02, 0., 0., 5.24142422e-02, 0.,
          1.04828484e-01, 1.04828484e-01, 0., 0., 0., 0., 0., 0., 0., 0.,
          0., 0., 0., 5.24142422e-02, 1.57242730e-01, 5.24142422e-02, 0.,
          5.24142422e-02, 0., 1.04828484e-01, 0. ]
      - [ 0., 0., 0., 0., 0., 0., 0., 8.25488344e-02, 4.12744172e-02,
          4.12744172e-02, 4.12744172e-02, 0., 0., 0., 0., 0., 0., 0., 0.,
          4.12744172e-02, 0., 1.65097669e-01, 0., 8.25488344e-02, 0., 0.,
          0., 0., 0., 0., 0., 8.25488344e-02, 0., 0., 0., 0.,
          8.25488344e-02, 0., 8.25488344e-02, 0., 0., 0., 0., 0.,
          4.12744172e-02, 0., 0., 4.12744172e-02, 0., 0., 8.25488344e-02,
          0., 0., 0., 0., 4.12744172e-02, 0., 0., 0., 8.25488344e-02, 0.,
          0., 4.12744172e-02, 8.25488344e-02, 0., 0., 4.12744172e-02,
          4.12744172e-02, 0., 0., 8.25488344e-02, 0., 4.12744172e-02, 0.,
          4.12744172e-02, 0., 0., 3.30195338e-01, 0., 0., 0.,
          4.12744172e-02, 4.12744172e-02, 0., 4.12744172e-02, 0., 0.,
          8.25488344e-02, 8.25488344e-02, 4.12744172e-02, 0., 0., 0., 0.,
          0., 4.12744172e-02, 0., 0., 4.12744172e-02, 4.12744172e-02, 0.,
          1.23823248e-01, 0., 0., 0., 4.12744172e-02, 0., 4.12744172e-02,
          0., 0., 0., 8.25488344e-02, 0., 0., 0., 0., 4.12744172e-02, 0.,
          0., 8.25488344e-02, 0., 4.12744172e-02, 0., 0., 0., 0., 0., 0.,
          0., 0., 4.12744172e-02, 1.23823248e-01, 0., 0., 0., 0., 0.,
          4.12744172e-02, 4.12744172e-02, 0., 0., 4.12744172e-02, 0., 0.,
          4.12744172e-02, 4.12744172e-02, 0., 4.12744172e-02, 0., 0., 0.,
          4.12744172e-02, 4.12744172e-02, 0., 0., 4.12744172e-02, 0.,
          2.47646496e-01, 0., 0., 0., 0., 0., 8.25488344e-02,
          4.12744172e-02, 0., 0., 0., 0., 4.12744172e-02, 0., 0., 0., 0.,
          0., 4.12744172e-02, 0., 4.12744172e-02, 4.12744172e-02, 0., 0.,
          0., 0., 0., 0., 0., 0., 0., 0., 8.25488344e-02, 0., 0.,
          1.65097669e-01, 0., 8.25488344e-02, 2.47646496e-01, 0., 0.,
          4.12744172e-02, 0., 0., 0., 0., 0., 8.25488344e-02,
          4.12744172e-02, 0., 0., 0., 0., 4.12744172e-02, 0., 0.,
          4.12744172e-02, 4.12744172e-02, 0., 0., 0., 4.12744172e-02, 0.,
          0., 0., 4.12744172e-02, 4.12744172e-02, 0., 0., 0., 0., 0.,
          1.65097669e-01, 0., 0., 0., 0., 4.12744172e-02, 0.,
          8.25488344e-02, 4.12744172e-02, 0., 0., 0., 8.25488344e-02, 0.,
          4.12744172e-02, 0., 0., 0., 0., 0., 0., 4.12744172e-02,
          8.25488344e-02, 0., 4.12744172e-02, 0., 8.25488344e-02, 0., 0.,
          0., 0., 4.12744172e-02, 0., 0., 0., 0., 0., 0., 0.,
          4.12744172e-02, 0., 8.25488344e-02, 0., 0., 4.12744172e-02,
          8.25488344e-02, 4.12744172e-02, 0., 0., 0., 0., 4.12744172e-02,
          8.25488344e-02, 0., 4.12744172e-02, 0., 0., 8.25488344e-02, 0.,
          0., 0., 0., 0., 0., 0., 0., 8.25488344e-02, 4.12744172e-02, 0.,
          0., 0., 4.12744172e-02, 0., 0., 4.12744172e-02, 0.,
          4.12744172e-02, 0., 0., 4.12744172e-02, 0., 0., 2.06372082e-01,
          4.12744172e-02, 0., 4.12744172e-02, 0., 0., 4.12744172e-02,
          8.25488344e-02, 0., 0., 0., 4.12744172e-02, 4.12744172e-02, 0.,
          0., 0., 0., 4.12744172e-02, 0., 4.12744172e-02, 0., 0.,
          4.12744172e-02, 0., 4.12744172e-02, 4.12744172e-02,
          4.12744172e-02, 0., 0., 0., 8.25488344e-02, 4.12744172e-02, 0.,
          0., 0., 0., 4.12744172e-02, 4.12744172e-02, 0., 0., 0., 0., 0.,
          8.25488344e-02, 0., 0., 4.12744172e-02, 4.12744172e-02,
          4.12744172e-02, 0., 0., 4.12744172e-02, 0., 0., 4.12744172e-02,
          0., 0., 0., 4.12744172e-02, 0., 0., 0., 0., 8.25488344e-02,
          8.25488344e-02, 0., 0., 8.25488344e-02, 4.12744172e-02, 0.,
          4.12744172e-02, 0., 0., 0., 0., 0., 0., 0., 4.12744172e-02, 0.,
          0., 0., 0., 0., 0., 4.12744172e-02, 0., 4.12744172e-02, 0., 0.,
          0., 4.12744172e-02, 0., 0., 0., 0., 0., 0., 0., 0.,
          3.71469766e-01, 0., 0., 0., 0., 8.25488344e-02, 4.12744172e-02,
          0., 8.25488344e-02, 0., 0., 0., 0., 0., 4.12744172e-02,
          4.12744172e-02, 0., 0., 0., 4.12744172e-02, 8.25488344e-02, 0.,
          0., 0., 4.12744172e-02, 0., 8.25488344e-02, 0., 0., 0., 0., 0.,
          0., 0., 0., 0., 4.12744172e-02, 8.25488344e-02, 4.12744172e-02,
          0., 4.12744172e-02, 0., 0., 0., 4.12744172e-02, 0., 0., 0., 0.,
          0., 0., 8.25488344e-02, 0., 4.12744172e-02, 0., 0., 0.,
          4.12744172e-02, 4.12744172e-02, 0., 0., 0., 8.25488344e-02, 0.,
          0., 0., 0., 1.23823248e-01, 4.12744172e-02, 4.12744172e-02, 0.,
          0., 0., 4.12744172e-02, 0., 4.12744172e-02, 0., 0.,
          4.12744172e-02, 4.12744172e-02, 0., 4.12744172e-02,
          4.12744172e-02, 0., 4.12744172e-02, 8.25488344e-02,
          4.12744172e-02, 0., 0. ]
      - [ 8.30454826e-02, 0., 0., 0., 0., 8.30454826e-02, 0., 0.,
          8.30454826e-02, 1.66090965e-01, 0., 0., 0., 8.30454826e-02, 0.,
          8.30454826e-02, 0., 8.30454826e-02, 8.30454826e-02, 0.,
          8.30454826e-02, 0., 0., 8.30454826e-02, 0., 0., 0., 0., 0., 0.,
          8.30454826e-02, 8.30454826e-02, 1.66090965e-01, 8.30454826e-02,
          0., 0., 0., 0., 8.30454826e-02, 0., 0., 0., 0., 0., 0., 0., 0.,
          8.30454826e-02, 0., 0., 0., 8.30454826e-02, 0., 0., 0., 0., 0.,
          0., 8.30454826e-02, 0., 0., 0., 8.30454826e-02, 0., 0., 0., 0.,
          2.49136433e-01, 0., 0., 8.30454826e-02, 0., 0., 0., 0., 0., 0.,
          0., 0., 8.30454826e-02, 8.30454826e-02, 0., 8.30454826e-02, 0.,
          8.30454826e-02, 0., 0., 0., 0., 8.30454826e-02, 0., 0., 0., 0.,
          1.66090965e-01, 0., 0., 0., 0., 0., 0., 0., 0., 8.30454826e-02,
          0., 0., 0., 8.30454826e-02, 0., 0., 8.30454826e-02, 0., 0., 0.,
          8.30454826e-02, 0., 0., 0., 0., 0., 0., 8.30454826e-02, 0., 0.,
          8.30454826e-02, 0., 0., 0., 0., 0., 0., 0., 0., 0.,
          8.30454826e-02, 8.30454826e-02, 0., 0., 0., 0., 0., 0., 0., 0.,
          0., 0., 0., 8.30454826e-02, 0., 0., 0., 0., 0., 8.30454826e-02,
          0., 0., 0., 0., 0., 0., 0., 0., 0., 0., 0., 0., 0., 0.,
          8.30454826e-02, 0., 0., 1.66090965e-01, 0., 0., 0., 0., 0., 0.,
          0., 0., 0., 0., 8.30454826e-02, 0., 0., 0., 0., 0., 0., 0., 0.,
          0., 0., 0., 8.30454826e-02, 0., 0., 0., 0., 0., 0., 0., 0., 0.,
          0., 1.66090965e-01, 0., 8.30454826e-02, 0., 0., 0., 0., 0., 0.,
          0., 0., 0., 0., 0., 0., 0., 8.30454826e-02, 0., 0., 0., 0., 0.,
          8.30454826e-02, 8.30454826e-02, 8.30454826e-02, 0., 0., 0.,
          8.30454826e-02, 0., 0., 0., 0., 0., 8.30454826e-02,
          8.30454826e-02, 0., 0., 8.30454826e-02, 0., 0., 0., 0.,
          8.30454826e-02, 0., 0., 0., 0., 0., 0., 0., 8.30454826e-02, 0.,
          0., 0., 0., 8.30454826e-02, 0., 8.30454826e-02, 0., 0., 0.,
          8.30454826e-02, 0., 0., 0., 0., 0., 1.66090965e-01, 0., 0.,
          8.30454826e-02, 8.30454826e-02, 0., 0., 8.30454826e-02, 0., 0.,
          0., 0., 0., 0., 0., 0., 0., 0., 0., 0., 0., 8.30454826e-02, 0.,
          8.30454826e-02, 0., 0., 0., 0., 0., 0., 0., 0., 1.66090965e-01,
          0., 8.30454826e-02, 0., 0., 0., 0., 0., 0., 0., 0., 0.,
          8.30454826e-02, 0., 0., 0., 8.30454826e-02, 8.30454826e-02,
          8.30454826e-02, 0., 0., 8.30454826e-02, 0., 0., 0., 0.,
          8.30454826e-02, 8.30454826e-02, 0., 8.30454826e-02, 0., 0., 0.,
          1.66090965e-01, 0., 0., 0., 0., 8.30454826e-02, 8.30454826e-02,
          0., 0., 0., 8.30454826e-02, 0., 0., 0., 0., 0., 0.,
          8.30454826e-02, 0., 0., 0., 0., 0., 8.30454826e-02, 0., 0., 0.,
          0., 0., 0., 8.30454826e-02, 8.30454826e-02, 0., 0., 0.,
          8.30454826e-02, 0., 8.30454826e-02, 8.30454826e-02, 0., 0., 0.,
          1.66090965e-01, 0., 0., 0., 8.30454826e-02, 0., 0., 0., 0., 0.,
          0., 0., 0., 0., 0., 0., 0., 0., 0., 0., 0., 0., 0., 0., 0., 0.,
          0., 0., 0., 0., 8.30454826e-02, 0., 0., 8.30454826e-02,
          1.66090965e-01, 0., 0., 0., 8.30454826e-02, 0., 0., 0., 0.,
          8.30454826e-02, 0., 0., 8.30454826e-02, 0., 0., 8.30454826e-02,
          0., 8.30454826e-02, 0., 0., 8.30454826e-02, 0., 0.,
          1.66090965e-01, 0., 8.30454826e-02, 0., 0., 0., 0., 0., 0., 0.,
          0., 0., 0., 0., 0., 0., 0., 0., 8.30454826e-02, 0., 0., 0., 0.,
          0., 0., 0., 0., 8.30454826e-02, 0., 0., 0., 0., 0., 0., 0., 0.,
          0., 8.30454826e-02, 0., 0., 0., 0., 0., 0., 0., 0., 0., 0., 0.,
          0., 8.30454826e-02, 8.30454826e-02, 0., 0., 0., 0., 0.,
          8.30454826e-02, 0., 0., 8.30454826e-02, 8.30454826e-02, 0. ]
      - [ 0., 0., 7.37209767e-02, 3.68604884e-02, 0., 0., 0.,
          1.10581465e-01, 1.47441953e-01, 3.68604884e-02, 7.37209767e-02,
          0., 0., 0., 0., 0., 0., 3.68604884e-02, 0., 0., 0., 0., 0., 0.,
          3.68604884e-02, 0., 0., 3.68604884e-02, 0., 0., 3.68604884e-02,
          0., 0., 7.37209767e-02, 0., 0., 3.68604884e-02, 0.,
          7.37209767e-02, 3.68604884e-02, 0., 0., 7.37209767e-02,
          3.68604884e-02, 3.68604884e-02, 0., 0., 0., 0., 3.68604884e-02,
          3.68604884e-02, 3.68604884e-02, 0., 3.68604884e-02, 0.,
          1.10581465e-01, 3.68604884e-02, 0., 0., 3.68604884e-02, 0., 0.,
          3.68604884e-02, 0., 0., 0., 1.10581465e-01, 7.37209767e-02,
          3.68604884e-02, 3.68604884e-02, 7.37209767e-02, 3.68604884e-02,
          0., 0., 0., 3.68604884e-02, 3.68604884e-02, 1.10581465e-01,
          1.10581465e-01, 0., 3.68604884e-02, 0., 1.10581465e-01,
          1.10581465e-01, 0., 0., 0., 0., 0., 0., 0., 0., 0.,
          7.37209767e-02, 3.68604884e-02, 0., 0., 3.68604884e-02,
          7.37209767e-02, 0., 3.68604884e-02, 0., 0., 3.68604884e-02, 0.,
          0., 0., 7.37209767e-02, 3.68604884e-02, 0., 3.68604884e-02,
          1.10581465e-01, 7.37209767e-02, 0., 0., 0., 0., 3.68604884e-02,
          3.68604884e-02, 0., 0., 0., 0., 0., 0., 0., 3.68604884e-02,
          3.68604884e-02, 0., 0., 7.37209767e-02, 0., 1.47441953e-01, 0.,
          3.68604884e-02, 0., 7.37209767e-02, 0., 0., 3.68604884e-02, 0.,
          0., 0., 0., 0., 1.47441953e-01, 0., 7.37209767e-02, 0., 0.,
          3.68604884e-02, 0., 3.68604884e-02, 0., 0., 0., 0.,
          7.37209767e-02, 1.10581465e-01, 0., 0., 0., 0., 3.68604884e-02,
          0., 3.68604884e-02, 0., 0., 7.37209767e-02, 0., 0.,
          1.47441953e-01, 0., 0., 0., 0., 0., 0., 0., 0., 7.37209767e-02,
          0., 3.68604884e-02, 0., 0., 0., 0., 1.10581465e-01, 0., 0., 0.,
          0., 0., 0., 0., 3.68604884e-02, 1.10581465e-01, 0.,
          3.68604884e-02, 0., 7.37209767e-02, 0., 0., 0., 0.,
          3.68604884e-02, 0., 3.68604884e-02, 0., 3.68604884e-02,
          3.68604884e-02, 0., 3.68604884e-02, 0., 0., 0., 0.,
          1.84302449e-01, 0., 0., 3.68604884e-02, 0., 0., 0., 0.,
          7.37209767e-02, 0., 0., 0., 7.37209767e-02, 3.68604884e-02,
          7.37209767e-02, 0., 0., 3.68604884e-02, 0., 0., 0., 0.,
          7.37209767e-02, 3.68604884e-02, 3.68604884e-02, 0.,
          3.68604884e-02, 0., 0., 3.68604884e-02, 3.68604884e-02,
          7.37209767e-02, 0., 0., 0., 7.37209767e-02, 0., 3.68604884e-02,
          0., 0., 0., 0., 0., 7.37209767e-02, 7.37209767e-02,
          3.68604884e-02, 0., 0., 0., 0., 3.68604884e-02, 3.68604884e-02,
          3.68604884e-02, 7.37209767e-02, 0., 3.68604884e-02,
          7.37209767e-02, 0., 0., 3.68604884e-02, 7.37209767e-02, 0.,
          3.68604884e-02, 1.10581465e-01, 3.68604884e-02, 0., 0., 0.,
          7.37209767e-02, 3.68604884e-02, 0., 3.68604884e-02, 0., 0., 0.,
          0., 0., 0., 3.68604884e-02, 3.68604884e-02, 3.68604884e-02, 0.,
          0., 3.68604884e-02, 0., 7.37209767e-02, 0., 0., 3.68604884e-02,
          3.68604884e-02, 0., 0., 0., 0., 0., 0., 3.68604884e-02, 0., 0.,
          0., 0., 3.68604884e-02, 3.68604884e-02, 0., 7.37209767e-02,
          1.47441953e-01, 0., 0., 0., 0., 0., 1.47441953e-01, 0.,
          1.47441953e-01, 0., 0., 3.68604884e-02, 0., 3.68604884e-02, 0.,
          0., 3.68604884e-02, 0., 3.68604884e-02, 0., 0., 0.,
          1.10581465e-01, 0., 3.68604884e-02, 0., 3.68604884e-02, 0., 0.,
          1.47441953e-01, 3.68604884e-02, 7.37209767e-02, 0., 0., 0.,
          3.68604884e-02, 0., 0., 7.37209767e-02, 0., 3.68604884e-02, 0.,
          0., 0., 7.37209767e-02, 3.68604884e-02, 0., 3.68604884e-02, 0.,
          1.10581465e-01, 3.68604884e-02, 3.68604884e-02, 0., 0., 0.,
          3.68604884e-02, 0., 3.68604884e-02, 0., 3.68604884e-02, 0.,
          3.68604884e-02, 0., 0., 0., 0., 3.68604884e-02, 3.68604884e-02,
          0., 0., 0., 0., 3.68604884e-02, 0., 0., 0., 3.68604884e-02,
          3.68604884e-02, 0., 3.68604884e-02, 0., 0., 3.68604884e-02, 0.,
          0., 7.37209767e-02, 3.68604884e-02, 7.37209767e-02, 0.,
          3.68604884e-02, 3.68604884e-02, 7.37209767e-02, 0., 0.,
          3.68604884e-02, 0., 0., 1.10581465e-01, 0., 0., 0., 0., 0., 0.,
          1.10581465e-01, 0., 0., 0., 0., 0., 0., 1.47441953e-01, 0.,
          3.68604884e-02, 0., 3.68604884e-02, 3.68604884e-02,
          3.68604884e-02, 0., 3.68604884e-02, 0., 1.10581465e-01, 0., 0.,
          0., 0., 7.37209767e-02, 3.68604884e-02, 3.68604884e-02,
          7.37209767e-02, 0., 0., 0., 3.68604884e-02, 7.37209767e-02,
          3.68604884e-02, 0., 0., 3.68604884e-02, 7.37209767e-02,
          7.37209767e-02, 0., 3.68604898e-01, 7.37209767e-02, 0., 0., 0.,
          0., 3.68604884e-02, 3.68604884e-02, 0., 0., 7.37209767e-02, 0.,
          0., 3.68604884e-02, 3.68604884e-02, 0., 0., 0., 0., 0.,
          3.68604884e-02, 3.68604884e-02, 0., 0., 0., 3.68604884e-02, 0.,
          1.10581465e-01, 7.37209767e-02, 0., 0., 0., 0., 3.68604884e-02,
          0., 0. ]
      - [ 0., 9.10975039e-02, 4.55487520e-02, 0., 4.55487520e-02, 0., 0.,
          0., 0., 0., 0., 0., 4.55487520e-02, 0., 4.55487520e-02,
          9.10975039e-02, 0., 9.10975039e-02, 0., 0., 0., 9.10975039e-02,
          0., 0., 0., 0., 0., 0., 0., 0., 4.55487520e-02, 0., 0., 0.,
          4.55487520e-02, 0., 0., 0., 0., 4.55487520e-02, 9.10975039e-02,
          0., 4.55487520e-02, 4.55487520e-02, 0., 9.10975039e-02,
          1.82195008e-01, 0., 0., 0., 0., 0., 0., 1.36646256e-01,
          4.55487520e-02, 0., 0., 0., 0., 0., 0., 0., 4.55487520e-02,
          4.55487520e-02, 0., 4.55487520e-02, 4.55487520e-02, 0., 0., 0.,
          0., 9.10975039e-02, 0., 0., 4.55487520e-02, 4.55487520e-02, 0.,
          0., 0., 0., 0., 9.10975039e-02, 0., 0., 0., 0., 0., 0., 0., 0.,
          0., 0., 0., 0., 0., 0., 0., 0., 0., 0., 0., 4.55487520e-02, 0.,
          4.55487520e-02, 0., 4.55487520e-02, 0., 0., 0., 0., 0., 0., 0.,
          0., 0., 0., 0., 0., 0., 4.55487520e-02, 0., 9.10975039e-02, 0.,
          0., 4.55487520e-02, 0., 4.55487520e-02, 0., 0., 0., 0.,
          4.55487520e-02, 0., 4.55487520e-02, 0., 0., 0., 0.,
          4.55487520e-02, 0., 0., 4.55487520e-02, 0., 0., 4.55487520e-02,
          0., 0., 0., 0., 0., 0., 1.36646256e-01, 0., 0., 1.82195008e-01,
          4.55487520e-02, 0., 0., 0., 0., 0., 0., 4.55487520e-02, 0., 0.,
          0., 0., 4.55487520e-02, 0., 0., 0., 0., 4.55487520e-02, 0.,
          4.55487520e-02, 0., 4.55487520e-02, 0., 0., 0., 0., 0., 0., 0.,
          4.55487520e-02, 0., 0., 4.55487520e-02, 0., 0., 0., 0., 0., 0.,
          0., 0., 0., 4.55487520e-02, 0., 4.55487520e-02, 0., 0., 0.,
          4.55487520e-02, 0., 4.55487520e-02, 0., 0., 4.55487520e-02, 0.,
          0., 0., 0., 0., 0., 0., 1.36646256e-01, 4.55487520e-02, 0., 0.,
          0., 4.55487520e-02, 0., 4.55487520e-02, 0., 0., 9.10975039e-02,
          0., 0., 1.82195008e-01, 0., 0., 4.55487520e-02, 0.,
          4.55487520e-02, 0., 0., 0., 4.55487520e-02, 0., 0., 0., 0., 0.,
          0., 0., 0., 0., 0., 0., 0., 4.55487520e-02, 0., 4.55487520e-02,
          0., 0., 0., 0., 0., 0., 0., 0., 0., 0., 4.55487520e-02,
          4.55487520e-02, 0., 0., 0., 0., 0., 0., 9.10975039e-02, 0.,
          4.55487520e-02, 4.55487520e-02, 0., 0., 0., 0., 0., 0., 0., 0.,
          4.55487520e-02, 0., 0., 0., 4.55487520e-02, 0., 0., 0., 0., 0.,
          0., 0., 0., 0., 0., 4.55487520e-02, 4.55487520e-02, 0., 0., 0.,
          0., 0., 0., 4.55487520e-02, 0., 0., 4.55487520e-02, 0., 0.,
          4.55487520e-02, 2.73292512e-01, 0., 0., 0., 0., 4.55487520e-02,
          0., 0., 9.10975039e-02, 4.55487520e-02, 1.36646256e-01, 0.,
          4.55487520e-02, 0., 0., 0., 4.55487520e-02, 4.55487520e-02, 0.,
          0., 9.10975039e-02, 0., 0., 4.55487520e-02, 0., 4.55487520e-02,
          0., 0., 0., 0., 4.55487520e-02, 0., 4.55487520e-02, 0., 0., 0.,
          0., 0., 0., 0., 4.55487520e-02, 0., 0., 4.55487520e-02, 0., 0.,
          4.55487520e-02, 0., 0., 0., 0., 0., 4.55487520e-02,
          9.10975039e-02, 0., 0., 0., 0., 0., 4.55487520e-02, 0.,
          4.55487520e-02, 0., 0., 2.73292512e-01, 1.82195008e-01,
          4.55487520e-02, 0., 0., 0., 4.55487520e-02, 4.55487520e-02, 0.,
          0., 4.55487520e-02, 9.10975039e-02, 0., 0., 0., 0., 0., 0.,
          4.55487520e-02, 0., 0., 0., 0., 0., 0., 4.55487520e-02, 0.,
          4.55487520e-02, 0., 0., 0., 0., 0., 4.55487520e-02, 0., 0.,
          4.55487520e-02, 4.55487520e-02, 4.55487520e-02, 0., 0., 0., 0.,
          0., 0., 0., 0., 0., 0., 0., 4.55487520e-02, 0., 0.,
          4.55487520e-02, 0., 0., 0., 0., 0., 0., 4.55487520e-02,
          4.55487520e-02, 0., 0., 0., 4.55487520e-02, 0., 0., 0., 0., 0.,
          0., 0., 0., 0., 4.55487520e-02, 0., 0., 4.55487520e-02, 0., 0.,
          4.55487520e-02, 2.27743760e-01, 0., 0., 4.55487520e-02, 0.,
          9.10975039e-02, 4.55487520e-02, 4.55487520e-02, 0., 0., 0., 0.,
          0., 0., 0., 4.55487520e-02, 4.55487520e-01, 0., 4.55487520e-02,
          0., 0., 4.55487520e-02, 0., 4.55487520e-02, 0., 0., 0., 0.,
          1.36646256e-01, 1.36646256e-01, 4.55487520e-02, 0.,
          4.55487520e-02, 0., 4.55487520e-02, 0., 0., 0., 0., 0. ]
      - [ 3.93978730e-02, 0., 0., 3.93978730e-02, 1.96989365e-02,
          1.96989365e-02, 1.96989365e-02, 1.57591492e-01, 5.90968095e-02,
          1.96989365e-02, 0., 0., 3.93978730e-02, 5.90968095e-02,
          1.96989365e-02, 5.90968095e-02, 1.96989365e-02, 1.18193619e-01,
          3.93978730e-02, 0., 1.96989365e-02, 3.93978730e-02,
          3.93978730e-02, 1.57591492e-01, 1.96989365e-02, 1.96989365e-02,
          0., 0., 3.93978730e-02, 3.93978730e-02, 1.96989365e-02,
          1.96989365e-02, 0., 1.18193619e-01, 0., 1.96989365e-02,
          1.96989365e-02, 1.96989365e-02, 3.93978730e-02, 0.,
          1.96989365e-02, 3.93978730e-02, 9.84946862e-02, 0.,
          5.90968095e-02, 5.90968095e-02, 0., 0., 1.96989365e-02,
          5.90968095e-02, 0., 1.96989365e-02, 0., 1.96989365e-02,
          5.90968095e-02, 0., 1.96989365e-02, 1.96989365e-02, 0.,
          1.96989365e-02, 1.96989365e-02, 3.93978730e-02, 1.96989365e-02,
          5.90968095e-02, 1.96989365e-02, 1.96989365e-02, 7.87957460e-02,
          3.93978730e-02, 1.96989365e-02, 5.90968095e-02, 1.18193619e-01,
          1.96989365e-02, 0., 1.96989365e-02, 0., 7.87957460e-02, 0.,
          1.77290440e-01, 5.90968095e-02, 3.93978730e-02, 0.,
          1.96989365e-02, 5.90968095e-02, 3.93978730e-02, 1.96989365e-02,
          0., 1.96989365e-02, 3.93978730e-02, 3.93978730e-02,
          1.96989365e-02, 3.93978730e-02, 1.96989365e-02, 5.90968095e-02,
          5.90968095e-02, 1.96989365e-02, 7.87957460e-02, 0.,
          5.90968095e-02, 9.84946862e-02, 3.93978730e-02, 1.96989365e-02,
          7.87957460e-02, 3.93978730e-02, 1.96989365e-02, 1.96989365e-02,
          3.93978730e-02, 1.96989365e-02, 0., 5.90968095e-02, 0., 0.,
          5.90968095e-02, 0., 1.96989365e-02, 5.90968095e-02,
          1.96989365e-02, 0., 1.96989365e-02, 3.93978730e-02, 0.,
          3.93978730e-02, 1.96989365e-02, 1.96989365e-02, 1.96989365e-02,
          5.90968095e-02, 1.96989365e-02, 5.90968095e-02, 3.93978730e-02,
          7.87957460e-02, 0., 3.93978730e-02, 0., 1.96989365e-02,
          1.96989365e-02, 1.96989365e-02, 0., 5.90968095e-02,
          3.93978730e-02, 0., 5.90968095e-02, 3.93978730e-02, 0.,
          3.93978730e-02, 1.96989365e-02, 3.93978730e-02, 7.87957460e-02,
          1.96989365e-02, 7.87957460e-02, 0., 0., 1.96989365e-02, 0.,
          1.96989365e-02, 1.96989365e-02, 0., 1.96989365e-02, 0.,
          5.90968095e-02, 5.90968095e-02, 3.93978730e-02, 3.93978730e-02,
          9.84946862e-02, 9.84946862e-02, 1.57591492e-01, 0., 0., 0.,
          3.93978730e-02, 5.90968095e-02, 0., 1.96989365e-02, 0.,
          1.18193619e-01, 0., 0., 0., 1.96989365e-02, 1.96989365e-02,
          1.96989365e-02, 0., 1.96989365e-02, 3.93978730e-02,
          1.96989365e-02, 0., 3.93978730e-02, 0., 5.90968095e-02,
          7.87957460e-02, 3.93978730e-02, 5.90968095e-02, 1.96989365e-02,
          3.93978730e-02, 1.96989365e-02, 3.93978730e-02, 0., 0.,
          3.93978730e-02, 1.96989365e-02, 1.96989365e-02, 5.90968095e-02,
          7.87957460e-02, 0., 3.93978730e-02, 1.96989365e-02, 0.,
          7.87957460e-02, 0., 3.93978730e-02, 1.18193619e-01, 0.,
          5.90968095e-02, 3.93978730e-02, 3.93978730e-02, 3.93978730e-02,
